5 5
-0.584952 0.55548 0.0741827 0.391759 0.00870962 
-0.799205 0.0481218 0.0382513 0.683134 -0.462904 
-0.536994 0.997743 -0.453976 1.14362 -0.0188568 
-0.336536 0.34442 -0.789179 0.339181 -0.891748 
-0.419255 0.44283 -0.565631 0.313552 -0.650206 
5 5
-0.684064 1.09918 -0.352621 0.651129 -0.679611 
-0.180908 0.948919 0.0588599 0.538487 -0.410503 
-0.0816889 0.636911 -0.567788 0.754713 -0.313718 
-0.926408 0.955949 -0.0227703 0.843534 -0.871865 
-0.991484 0.646092 -0.606895 0.733289 -0.796951 
5 5
-1.19918 -0.285203 -1.18565 -0.0109931 -1.19503 
-0.561318 -0.21629 -0.896641 -0.0175788 -0.847291 
-0.802909 0.444475 -0.989638 0.338082 -0.875671 
-1.16112 -0.124195 -0.841799 0.256041 -0.150503 
-0.792628 0.275671 -0.630888 0.948164 -0.514159 
5 5
-0.00468096 0.136518 -0.180618 0.479976 -0.889638 
-0.420364 1.0628 -0.189505 0.337576 -0.811604 
-0.368555 0.840211 0.00436759 0.732701 -0.413583 
-0.359451 1.23859 0.0792238 1.1725 -0.235172 
-0.204873 0.859329 -0.532672 0.62021 -0.157927 
5 5
-0.408776 0.290051 -0.624441 -0.155338 -0.398062 
-0.981656 0.0698155 -0.774124 -0.0148578 -0.78972 
-0.867805 0.299792 -0.7103 0.224152 -1.30015 
-0.301921 -0.165169 -0.748134 -0.134218 -0.988391 
-0.612464 0.696299 -0.973109 -0.0661676 -0.553339 
5 5
-0.862564 0.20845 -0.895746 0.779708 -0.30324 
-0.792489 0.731169 -0.227073 0.174383 -0.19 
-0.502432 0.278229 -0.729749 0.263781 -0.695671 
-0.270611 0.818283 -0.0344858 0.682429 -0.717986 
-0.931416 0.503573 -0.798427 0.817259 -0.859565 
5 5
-0.0277057 0.648446 -0.375944 0.425953 -0.445967 
-0.635091 0.383166 -0.910629 0.901361 -0.325164 
-0.990977 0.181792 -0.163308 0.00894105 -0.399381 
-0.0736196 0.0534552 -0.686051 0.98766 -0.419229 
-0.788366 0.0908049 -0.808864 0.0527444 -0.0365294 
5 5
-0.52713 0.68113 -0.640133 0.271318 -0.142645 
-0.935838 0.489997 -0.958538 0.100114 -0.79384 
-0.414701 0.705263 -0.906627 0.404171 -0.232466 
-0.0694036 0.247683 -0.858016 0.995798 -0.074162 
-0.492308 0.233451 -0.0564487 0.592976 -0.146118 
5 5
-0.916805 0.127482 -0.222622 0.02526 -0.0579824 
-0.986231 0.405115 -0.891123 0.254852 -0.010766 
-0.448118 0.821028 -0.542111 0.313572 -0.275272 
-0.256083 0.333311 -0.462589 0.850979 -0.252641 
-0.669273 0.265323 -0.839309 0.586491 -0.727323 
5 5
-0.895071 0.287109 -0.383115 0.440197 -0.177422 
-0.854348 0.892397 -0.493218 0.822703 -0.85675 
-0.779763 0.485696 -0.589982 0.469151 -0.967854 
-0.146026 0.142098 -0.235682 0.403107 -0.0302756 
-0.446384 0.900667 -0.781814 0.235341 -0.881211 
5 5
-0.231494 0.941219 -0.792048 0.437164 -0.899032 
-0.687357 0.773909 -0.763316 0.43055 -0.781355 
-0.0197924 0.658021 -0.529668 0.176904 -0.964395 
-0.122945 0.0635517 -0.554596 0.724985 0.00429525 
-0.158675 0.29489 -0.942044 0.609364 -0.883063 
5 5
-0.478883 0.0218188 -0.225835 0.157356 -0.736869 
-0.644369 0.621873 -0.240767 0.045714 -0.617408 
-0.545792 0.299697 -0.372594 0.838636 -0.129734 
-0.320823 0.609045 -0.295489 0.802378 -0.806446 
-0.813879 0.256435 -0.322181 0.221545 -0.428031 
5 5
-0.820835 0.460555 -0.860666 0.89193 -0.886304 
-0.796488 0.664797 -0.433318 0.492389 -0.0473373 
-0.0252699 0.550501 -0.404624 0.275853 -0.320744 
-0.625646 0.258621 -0.376098 0.771905 -0.87512 
-0.657602 0.0992188 -0.698847 0.779682 -0.893853 
5 5
-0.148417 0.341127 -0.930043 0.155889 -0.40909 
-0.741699 0.398462 -0.0167943 0.416974 -0.589196 
-0.0766124 0.153353 -0.65326 0.851756 -0.699213 
-0.568879 0.573435 -0.942522 0.0809977 -0.257604 
-0.0812399 0.886664 -0.612371 0.129964 -0.00725321 
5 5
-0.530553 0.723269 -0.664485 0.51675 -0.433915 
-0.0824611 0.636945 -0.340853 0.389933 -0.130996 
-0.201173 0.970198 -0.0448368 0.348643 -0.946981 
-0.414345 0.815414 -0.684366 0.508815 -0.920727 
-0.751661 0.480588 -0.838025 0.447703 -0.962466 
5 5
-0.55051 0.630222 0.0182252 0.446885 -0.786465 
-0.923497 0.579742 -0.29085 0.98123 -0.134304 
-0.805407 0.346833 -0.24202 0.638254 -0.286621 
-0.649755 0.353373 -0.775435 0.175801 -0.732627 
-0.035359 0.34992 -0.262406 0.489736 -0.95446 
5 5
-0.60283 0.815525 -0.711817 1.01622 0.0566146 
-0.61164 0.577472 -0.752191 0.676652 -0.636885 
-0.211844 0.240552 -0.618508 0.385683 -0.462451 
-0.770284 0.349463 -0.10256 0.306694 -0.902175 
-0.18109 0.0662818 -0.442828 0.0146368 -0.903026 
5 5
-0.0297369 0.213297 -0.329661 0.335868 -0.846007 
-0.218744 0.463389 -0.0727811 0.140667 -0.388644 
-0.04116 0.326579 -0.22592 0.755542 -0.7761 
-0.316274 0.372953 -0.0666519 0.266045 -0.484419 
-0.905917 0.799682 -0.261707 0.806038 -0.181598 
5 5
-0.254719 0.528271 -0.303412 0.523781 -0.660628 
-0.864869 0.581654 -0.104328 0.00304972 -0.724731 
-0.404133 0.1614 -0.121714 0.150225 -0.913859 
-0.74174 0.883102 -0.894705 0.915042 -0.394096 
-0.140252 1.0455 -0.470204 0.883696 -0.420283 
5 5
-0.489547 0.116608 -0.750482 0.611658 -0.520756 
-0.114572 0.636594 -0.0354546 0.588162 -0.737517 
-0.0926238 0.649725 -0.0140637 0.489709 -0.513215 
-0.780164 0.728478 -0.106153 0.546847 -0.652086 
-0.586895 0.145407 -0.809617 0.786637 -0.281381 
5 5
-0.455053 0.57773 -0.981633 0.334929 -0.800186 
-0.679055 0.972423 -0.545237 0.16321 -0.877169 
-0.692497 0.225451 -0.913879 0.225637 -0.89385 
-0.240179 0.877527 -0.380306 0.0908836 -0.329776 
-0.89792 0.30454 -0.10086 0.794058 -0.536277 
5 5
-0.21737 0.164823 -0.430478 0.659876 -0.195254 
-0.55153 0.120618 -0.898681 0.266204 -0.732918 
-0.14845 0.457592 -0.159793 0.194914 -0.698075 
-0.905559 0.000990141 -0.623731 0.288814 -0.19978 
-0.98831 0.491983 -0.962258 0.131775 -0.866405 
5 5
-0.610481 0.555019 -0.215494 0.906078 -0.592688 
-0.280833 0.86389 -0.771466 0.198792 -0.0188837 
-0.889205 0.609001 -0.697167 0.971561 -0.400259 
-0.136694 0.716901 -0.0460873 0.694595 -0.070628 
-0.829771 0.270556 -0.60277 0.406256 -0.199405 
5 5
-0.226043 0.946623 -0.189432 0.0871586 -0.748616 
-0.447586 0.304591 -0.0719733 0.185366 -0.493919 
-0.512856 0.961258 -0.383494 0.590545 -0.997293 
-0.950264 0.994655 -0.18857 0.150519 -0.904863 
-0.408317 0.486568 -0.0158756 0.560736 -0.287691 
5 5
-0.295888 0.0475088 -0.49239 0.476625 -0.994759 
-0.23022 0.0325046 -0.872386 0.880789 -0.96731 
-0.643922 0.693777 -0.857803 0.646582 -0.0347829 
-0.0225521 0.39536 0.0248652 0.858927 -0.374416 
-0.541508 0.540643 -0.191931 0.328433 -0.816511 
5 5
-0.707621 0.625816 0.0385681 0.868377 0.0381934 
-0.501755 0.290128 -0.05114 0.195232 -0.925954 
-0.389667 0.978237 -0.969353 1.01587 -0.446909 
-0.528054 -0.0224046 -0.326238 0.726314 -0.81305 
-0.963609 0.417335 -0.32519 0.574426 -0.862243 
5 5
-0.0511007 0.145659 -0.88005 0.425077 -0.305027 
-0.533909 0.488751 -1.02064 0.376088 -0.212614 
-0.482357 0.187995 -0.394098 0.970908 -0.464101 
-0.26891 1.01009 0.0237416 0.852895 -0.154089 
-0.693115 0.679558 -0.119479 0.671457 -0.219219 
5 5
-0.715166 0.989872 -0.459928 0.84509 -0.67526 
-0.369758 0.332309 -0.205665 0.841757 -0.75409 
-0.0361183 0.806974 -0.36899 0.0651394 0.0139784 
-0.113577 0.135571 -0.768441 0.879752 -0.470034 
-0.734119 0.646816 -0.920572 0.290555 -0.27293 
5 5
0.0364964 0.571211 -0.120169 0.533293 -0.82099 
-0.966929 0.491319 -0.454174 0.250528 -0.623111 
-0.271519 0.154536 -0.973274 0.0959003 -0.28545 
-0.118427 0.0657233 -0.399941 0.271499 -0.203906 
-0.808703 0.755069 -0.181095 0.284256 -0.205743 
5 5
-0.533306 0.66284 -0.169723 0.874303 -0.0895292 
-0.735517 0.0258715 -0.28649 1.0347 -0.943682 
-0.464238 0.480095 -0.639721 0.366872 -0.577055 
-0.888808 0.944359 -0.373617 0.208153 -0.245143 
-0.702133 0.033044 -0.881195 0.619068 -0.101124 
1 120
4 100
-0.325155 0.661386 0.120658 0.0596869 -0.542737 0.602591 -0.344041 1.09928 -0.292125 -0.135199 -1.14759 0.256821 -0.134671 0.998767 -0.662301 0.0156634 -0.275977 0.757476 -0.0480071 0.499387 0.252457 0.117383 -0.720073 -0.329598 -0.24877 0.109841 -1.0334 -0.788305 -0.131562 0.229355 -0.769674 0.180698 -0.856268 0.962384 -0.182862 -0.0473764 -1.03029 0.308931 -0.525241 -0.887228 0.388979 1.52903 -0.901213 0.109791 -0.321879 1.87647 -0.735133 0.222484 -1.04188 0.478647 -1.08074 -0.260279 -0.914647 0.423707 -0.903951 -0.644385 -0.503339 0.843047 -0.0548883 0.983738 -0.598109 0.501154 0.396839 -0.428744 0.369755 0.170318 0.520097 0.2709 -1.2084 0.664707 -0.706453 -0.652751 -0.782948 0.163252 0.132773 -2.00506 -0.271107 0.620512 -0.191475 0.18146 0.102763 0.480274 -0.46814 0.293211 -1.34204 0.248642 -1.0844 1.07231 -0.351276 0.175512 -0.0697765 0.322679 -0.211123 0.156083 -0.649701 0.545475 -0.0661291 0.64734 -0.140981 0.426297 
-0.488 0.281061 0.196129 -0.513188 -1.27855 -0.144358 -0.677891 0.536573 -0.147159 1.02267 -0.727043 -0.146129 -0.85926 0.111858 -0.939909 -0.285175 -0.971283 0.134449 -0.555153 -0.259159 -0.0643431 0.747711 -0.220215 -0.67982 -0.0271999 0.505033 -0.173347 0.190695 -0.492082 0.207828 -1.15389 -0.540049 -0.408695 0.716568 -0.522919 -0.367001 -0.882159 0.272673 -0.535686 -1.2587 0.0427803 1.36784 -0.336718 0.305277 -0.702892 1.18294 -1.11409 -0.498317 -0.0460324 -0.134375 -1.61317 -0.117718 0.233893 0.938934 -0.406757 1.15475 -0.638718 -0.0284504 -0.865678 0.484452 -0.632912 0.0899672 -0.230937 0.610621 0.424442 0.822326 -0.63665 0.617347 -0.956207 0.611647 -0.703321 -1.5322 -0.123091 -1.02942 0.494988 -0.907281 0.117308 -0.441253 -0.738075 0.656579 -0.258744 -0.00184272 -0.712843 0.306686 -0.348858 0.310971 -1.11595 0.0544269 -0.951138 -0.0265533 -1.53656 0.325019 0.157984 0.53982 -0.232454 0.542351 -0.00213691 -0.241197 -1.24042 0.464873 
-1.52793 0.084444 -0.454913 0.291675 -1.14808 -0.263312 -0.878234 -0.238916 -1.17657 0.295889 -0.407071 -0.123841 -0.892886 0.404211 0.176716 0.461176 -1.79043 -0.419625 -0.769139 -0.198079 -0.567228 0.0552649 -0.172645 0.66564 -0.889637 0.0883788 0.20806 0.975479 -0.566153 1.41381 -0.0778753 0.537037 -0.328826 -0.0911275 -0.576991 0.837854 -1.23444 0.931917 -0.112355 1.11773 -0.424965 -0.542255 -1.34624 0.775676 -1.4318 -0.498291 -1.22055 0.338984 0.0317414 0.239654 -0.868445 0.0622862 0.400804 0.8632 -1.75706 0.553674 0.490901 0.647466 -0.806456 0.164411 -0.0228675 1.13616 -0.797625 0.443338 -0.0582933 0.834471 -0.990449 0.779743 -1.15478 0.347806 -0.074029 -0.574477 -0.471456 0.0340037 -0.181469 0.503555 -0.543684 -0.143301 -0.473576 -0.0337452 -0.839996 -0.147683 -1.35188 0.44119 0.502882 0.846741 -0.213312 0.538884 -0.365324 0.717785 -1.54031 0.0829979 -0.406537 -0.402743 -1.24925 0.105503 -0.677918 -1.31518 -0.762442 1.17802 
-0.684152 0.260711 -0.296939 0.530532 -0.474417 0.713595 -0.163864 0.61906 -1.05822 0.119957 -0.791337 -0.029491 -0.369106 0.239391 -0.829176 0.409105 -1.41317 0.486092 -0.70221 0.471827 -0.755488 0.63889 -0.842072 1.50486 -0.283092 0.752144 -0.467044 0.228258 -0.792453 0.187427 -0.268286 -0.19028 -1.03209 0.369811 -0.806184 0.0225363 -1.58333 0.680017 0.375096 0.539253 0.863805 0.214128 -0.329375 0.368539 0.17803 0.164331 -0.734203 0.713289 -0.38747 0.328186 -1.03044 0.193856 -0.831084 -0.577002 -1.18294 0.22854 0.555356 0.936186 0.311902 1.34812 -0.766826 0.3065 -0.623735 0.480347 -0.328733 0.0851203 -0.610352 0.208099 -0.822412 0.655129 -1.05628 -0.105227 -1.21363 -0.280374 -0.54143 0.628537 0.777992 1.11746 -0.550751 -0.124523 0.18284 0.0883225 -0.0403257 1.00893 -1.10478 -0.514877 -1.08309 0.361705 0.330722 0.104557 -0.562303 0.654303 -0.637649 0.331545 -1.45448 -0.212756 0.271867 -0.546823 0.0893466 0.452986 
0 -0.368589
 4 100
-1.13882 1.19181 -0.37501 1.96597 -0.935353 0.767008 -1.1791 0.800593 0.225725 0.767206 0.303592 1.47543 -0.0301937 1.01851 -0.376011 1.06872 -0.861423 0.701865 -0.903622 0.935604 -0.949388 0.981308 -0.717305 1.25654 -0.353943 1.57672 -0.266987 2.08967 -0.61861 1.37223 -0.0906749 1.17382 -0.98825 1.45108 0.213596 1.63896 -0.779409 1.58484 -0.898854 1.98154 -1.07211 0.0957254 0.608425 1.36391 -1.25234 1.10413 1.47614 1.41548 -0.512434 0.414797 -0.791069 0.250476 0.521236 1.08053 -0.589998 0.312198 -0.997248 -0.181505 -0.609311 0.737678 -0.716429 0.633343 -1.45765 0.717019 -1.54787 0.0291614 -1.81827 0.529916 -0.236188 1.60531 -0.29694 1.08455 -0.365868 1.19483 -1.54616 2.33744 -0.647681 1.15433 -0.559254 1.37128 -0.295989 1.32006 -0.263999 1.51736 -0.895896 1.11483 -1.41447 0.328087 -1.13089 0.792121 -0.221509 0.754467 -0.232095 0.925314 -0.162949 1.38431 -0.835673 0.965848 0.761795 1.82455 
-0.126235 0.933879 -1.07455 1.00708 -0.491463 0.245184 -0.502528 1.05448 -0.664799 0.0997642 -0.972894 0.238288 -0.425249 0.189703 -1.28143 0.884724 -0.626611 0.305378 -0.545248 1.20586 -0.540912 1.15532 -1.75983 0.583587 -0.955881 0.789748 -1.42673 0.46144 -0.654699 1.25246 -1.59361 1.18448 0.189375 0.185876 -0.69845 0.535845 -0.447565 1.42029 -1.26931 1.25432 -0.647498 1.333 -0.916771 -0.0964218 -0.644038 1.94253 0.203038 1.2856 -0.317652 1.23873 -0.585397 0.511954 -0.191643 0.283438 -1.05516 0.0355371 -0.797344 1.68983 -0.34216 0.637426 -0.827556 1.03079 -0.782789 1.51531 0.113896 0.750925 -0.869422 0.863962 -0.575319 1.2845 0.0842665 1.70619 -0.832737 1.55082 -1.08498 2.25919 -0.710737 1.09335 -0.970263 0.477336 -1.10392 0.241919 -0.759095 1.73919 -0.175232 -0.274574 -0.897642 1.81287 -1.31624 1.07503 0.38672 1.13012 -0.846098 0.816853 0.031416 1.27245 -1.2517 0.995096 -0.613268 1.65025 
-0.763205 1.30034 0.261241 0.75897 -0.937633 0.799779 -1.29688 0.329116 -0.111241 1.16585 -0.972676 0.298836 -0.526786 1.13925 -1.07304 1.05442 -1.0512 0.0563068 -0.727896 0.701258 -0.838853 1.77842 -1.59261 0.686788 -1.18773 0.865021 -0.85665 1.11983 -0.372558 0.826873 -0.383519 0.855171 -0.778932 0.839199 -1.33154 0.137074 -1.40825 0.327677 -1.00262 1.67384 -1.16314 0.125248 -1.18414 0.668737 -1.28463 0.413902 -1.11594 0.103494 -0.86073 2.02122 -0.988341 0.151402 -0.664596 2.63949 0.300566 -0.15684 -0.15014 0.277435 -1.35334 0.614167 -0.89247 0.163388 -1.42386 0.944557 -0.253593 1.33284 -0.855426 0.692149 -0.648111 0.149786 -0.0289556 0.666116 -1.3291 0.206123 -0.980217 1.62665 -0.354346 0.602999 -0.705686 0.667366 -1.21492 -0.507832 -1.76391 -0.0766111 0.374883 1.20093 -0.301611 0.0234114 -1.11728 0.792048 -1.32335 0.740511 -1.44982 1.91096 0.197293 0.453518 -0.523688 0.701323 -1.45779 0.421648 
-1.35717 0.392924 -0.613727 1.15571 -0.951623 1.39121 -0.97403 0.219526 -1.11906 0.934503 -0.211163 0.920001 -0.788143 0.2294 -0.601574 1.0713 -0.621071 -0.204514 -0.907347 0.458791 -0.417665 0.154517 -0.528132 1.37909 -0.51525 -0.029018 -0.762384 0.860143 -0.658493 0.681032 -0.903335 0.408622 -0.247824 0.665585 -0.375406 1.2664 -0.0298439 -0.0710434 -0.431379 1.24753 -0.881672 1.19864 -1.28303 0.323294 -1.92865 -0.388818 -0.400051 0.957867 -0.790537 1.39873 -0.0455847 0.415533 -1.53179 0.639941 -1.00466 -0.115311 -1.14767 1.50943 -0.364825 0.421918 0.111715 0.179724 -0.856283 1.2253 -0.289158 0.102347 -0.768067 -0.146682 -1.11465 -0.125252 -0.482531 0.942921 -0.189051 -0.673626 -0.139173 2.02965 -1.23473 1.42433 -0.12365 1.32304 -0.353467 0.955034 -0.334753 1.09451 -0.450626 1.39323 -0.800877 -0.466649 -0.166213 0.821711 -0.980779 1.34449 -1.23125 0.162699 -1.31925 0.672393 -1.41116 0.18087 -1.19663 1.29501 
0 0.346251
 4 100
-0.501336 0.690627 -0.331659 0.37037 0.0195051 0.596466 -0.0246089 0.732585 -1.19274 0.0609917 -0.587628 0.263592 -0.421014 0.584476 0.320182 0.450574 0.502959 0.435309 -0.460531 0.764827 -0.0827841 0.927902 -0.0628293 0.687127 0.0395793 0.344379 -0.515877 0.831125 0.522048 0.773109 0.44991 0.504887 -0.098171 0.493674 -1.34597 0.0200889 0.799772 0.679444 0.723394 1.03944 -2.41219 0.00967816 -0.809556 -0.581759 -2.25698 -0.0454478 -0.185712 0.381106 0.673911 0.685875 -0.124364 0.670093 1.62349 1.24454 0.291218 -0.150623 -0.415173 -0.505566 0.0935246 -0.738358 -0.363994 0.803787 0.443135 -0.16175 1.16473 1.48928 0.409563 -0.20003 -1.16944 0.317665 -0.373871 -0.0438555 0.447572 0.121454 1.1493 0.98333 -1.01202 -1.29455 -0.676927 -0.259309 -0.937246 -1.10414 -0.955419 0.608632 1.8853 2.33984 -0.0441429 1.42562 -0.861893 0.0854322 -0.19253 -0.185113 -0.0520213 -0.251737 -1.72567 -0.847547 -1.31608 -1.23363 -0.713598 0.398858 
-1.47646 0.708293 -0.0168235 0.335862 -0.619537 0.647032 0.0598379 1.37984 -1.13281 0.0573512 -1.25545 0.0114609 -0.841386 0.69824 -0.812618 -0.256977 -0.459644 -0.50079 0.031592 0.485836 -0.0891621 0.847002 -0.426518 0.407365 -1.56561 0.221316 -0.0558772 0.24489 -1.04424 0.608057 -0.573239 -0.0527781 -1.40274 -0.43916 0.504427 -0.904775 -1.25786 -0.736676 0.414284 -0.390571 -0.0618715 -1.12917 -1.28433 0.167959 -1.52365 -0.0445001 -1.61133 0.0968583 -1.24972 0.582286 -1.19466 0.584119 -2.47177 -1.44181 -1.92578 -0.196785 0.55925 1.41051 0.373855 0.351459 0.371049 0.362297 0.893961 1.1304 -0.505949 0.888161 -0.304309 0.234211 -2.06911 0.360989 -0.877971 -0.0208523 -0.573944 -0.669116 0.225295 -0.309221 -0.476488 1.25164 -0.490968 -0.215157 -0.741204 -0.108851 0.28191 0.245476 -1.72347 -1.83218 -2.00017 0.310572 -0.504776 1.18333 -0.212781 0.786389 -1.87019 -1.22663 -1.17174 -0.411043 -0.616897 -0.788559 -0.637327 -0.353229 
-1.16081 0.429825 -0.440585 -0.432649 -0.194074 0.990054 -0.518646 0.921453 -0.705073 -0.0457827 -0.547349 0.699081 -0.816193 0.185695 -0.134348 -0.312636 -1.48097 1.1955 -0.156852 0.0440793 0.080326 -1.04325 0.201795 -0.274449 -0.461451 0.440345 -0.199762 0.501507 -1.51011 0.491905 -0.183269 -0.0500813 -0.11099 0.426114 -1.09184 0.190929 -1.43686 0.208255 -0.316124 -1.20719 0.987432 -0.614118 0.5359 2.31336 1.1799 0.592041 1.40341 1.50627 -0.990408 0.128419 -1.18792 -0.873195 0.234342 0.609406 -2.56322 -0.229381 -0.0752215 -0.0717319 -1.48644 0.400259 -1.32713 -0.513814 -0.570641 -0.0747086 -1.35607 0.0771247 -0.526467 0.666745 -2.33648 -0.109053 0.00943108 0.53286 -0.374469 -0.365363 -0.952606 0.211306 -1.25526 0.233908 -1.24145 0.23336 1.68412 1.18293 0.392358 1.11334 -1.34419 0.472157 -0.393599 -0.863982 0.630667 0.000461239 -0.0379497 0.78571 1.14001 1.3046 -0.59765 -0.0639082 1.67761 0.102241 0.263428 1.46581 
-0.00676475 0.336232 -1.14634 1.00113 -0.181065 0.0795102 -0.171243 0.105788 -0.208294 0.280474 -0.730862 0.26952 0.571208 0.0954295 -0.43221 0.733029 0.0702946 0.95231 -1.28795 0.442939 -0.49821 0.066141 -0.395912 -1.23355 0.555472 0.636931 -0.78192 0.900365 -0.702532 0.0509254 -0.476195 0.0416759 -0.237619 0.391662 -1.18347 0.0983697 -0.655376 0.166662 -1.54241 -1.26616 -0.261846 0.3566 -0.174035 1.24758 0.453777 0.654745 0.719584 1.43436 -0.448352 0.935392 -0.582531 0.277447 0.845584 2.02257 1.14333 0.777101 -0.20772 0.422874 0.425269 0.700152 -0.252143 0.678555 0.244706 0.111383 -0.019822 1.71191 0.18835 1.18183 -0.414692 -0.389354 -0.143883 1.11575 0.0987899 0.504315 -1.32942 -0.860712 0.318485 0.394852 -0.853175 0.979235 -1.24351 0.786947 -0.0434542 -0.238009 -0.168203 0.537106 -0.221746 -0.511338 0.0188276 -0.104161 -0.22359 -0.460325 1.13628 1.99764 -0.144553 1.59716 -0.0649781 1.02355 -0.212441 0.541548 
0 -0.631948
 4 100
-0.0783057 0.472381 -0.497057 0.275203 -0.683699 0.315544 -0.587771 0.803146 -0.288325 0.463544 -0.232678 0.344241 -0.443262 0.237539 -0.88643 0.845179 -0.407036 0.271415 -0.848489 0.737463 -0.784279 0.793192 -0.627517 1.40275 0.228674 0.453523 -1.2137 0.482821 -0.583918 1.53238 -0.813743 0.618916 -0.672798 0.968571 -1.24182 1.0405 0.0521281 1.80151 -0.434864 0.467171 -0.673096 0.700301 -1.05457 -0.691992 -1.14125 0.162882 -0.992147 -0.659056 -0.114494 0.882842 0.42036 0.603654 -0.0282309 -0.104943 -1.0011 0.184187 -0.0998518 0.722345 0.194134 0.809883 -0.555867 1.5471 -0.741728 0.332072 -0.929735 0.4883 -1.22363 1.072 0.516584 1.42476 -0.599736 0.713252 0.0348161 1.95899 0.04666 1.25391 0.442071 1.44389 -0.78392 0.377266 -0.44852 0.366087 -0.381679 0.471 -0.182339 1.62725 -0.265401 0.789882 -0.142783 0.83412 -0.131222 0.469732 -0.465128 -0.636755 -2.62459 -0.449041 -0.901639 0.232692 -1.16084 0.227061 
-0.0921993 0.519336 -0.12625 0.305918 -0.309982 1.26994 0.326706 0.806385 -0.661447 1.25547 -0.195913 1.06583 -0.569068 0.841149 0.0655102 0.9028 0.0500352 0.834779 0.213247 0.998622 -0.553375 0.765973 -0.0983243 1.15011 -0.64949 0.40365 -0.614194 0.789737 -0.358339 0.889043 -0.246915 1.28364 -0.709134 -0.046006 -0.499856 0.655525 0.0691159 0.791701 -0.0038265 0.951326 -0.703956 1.78729 -0.276428 -0.00174137 -0.0661911 2.33144 -0.405272 0.694094 -0.81013 -0.526773 -1.08259 1.20434 -0.60198 0.181545 -1.36667 0.320234 -1.00593 0.0311446 -0.280052 1.05002 -1.73626 0.0583999 -0.883755 0.677896 -0.700409 0.0991997 -1.24534 0.756125 -0.688903 0.183369 -0.57343 0.18741 -0.943432 1.57922 0.388507 -0.610247 -1.05312 0.55277 -0.533471 0.268314 -1.26381 1.65041 0.514269 0.510902 -0.798001 -0.346342 -2.13652 0.545989 -1.60207 1.38254 0.477838 1.05179 -1.67511 -0.12366 -0.199862 0.450884 -0.342113 1.46182 0.620905 0.0469706 
-1.11922 0.985029 0.0626546 -0.0175813 -0.320629 0.565169 -1.09939 0.630061 0.338131 1.10229 -0.71645 0.375818 -0.113775 0.95063 -0.855228 0.20782 -0.712326 0.541513 0.0311778 0.0565666 -0.344616 0.359726 -0.624327 0.844247 -1.55547 1.12053 -0.673616 0.052656 -1.06705 0.47085 -1.15804 -0.214773 -1.86374 -0.0618014 0.769336 0.093096 -1.31342 0.163262 -0.829416 0.451273 -0.246127 1.66066 -0.667086 1.27928 1.11655 1.27266 -1.2952 1.47224 -0.235058 1.04574 -1.13575 0.378866 -0.17694 0.518468 -0.273104 1.62362 0.132417 1.29982 -1.34691 -0.20959 -1.48226 -0.238957 -0.797667 0.474715 -0.474022 1.21452 -0.970748 0.29997 -1.08614 1.65775 0.19862 0.0334308 -2.48268 0.220476 -0.0211476 0.141522 -1.55789 1.66615 -0.811098 -0.091817 -1.2506 0.207548 -0.701017 1.38091 -0.47819 0.108754 -0.630107 1.48609 -0.658677 0.237933 -1.43677 0.82286 -0.329368 1.05885 0.0202177 1.355 -0.309023 0.130673 -0.740514 1.19864 
-0.564329 1.63248 -0.741025 1.04493 -0.864514 0.299251 -0.760945 0.0547088 -0.329583 1.24701 -0.307501 0.114649 -0.0135015 1.61165 -0.493932 0.0561768 -0.537249 0.654561 -0.911634 0.447847 -1.32728 0.876968 0.071805 0.399656 -0.618297 1.64664 0.0735975 1.06489 -0.448023 1.25805 -0.658478 0.209257 -0.397334 0.877125 -0.664693 0.68967 -1.78264 0.949672 -0.291613 0.466734 -0.921211 0.176007 -0.346985 1.3869 -0.27573 0.239502 -1.01759 1.37997 0.275546 1.32329 -1.00767 0.33308 0.378654 0.516228 -1.04075 0.892599 0.643926 -0.397183 -1.20415 1.10073 -0.731548 0.665878 -0.0805892 1.07608 0.223287 0.926584 -0.351437 0.0604651 -1.17946 1.96352 1.36194 0.617784 -0.874552 0.136251 0.595237 1.46327 -0.469656 1.36827 -0.099078 0.634827 -0.139435 1.2476 -1.55886 1.31816 0.381927 1.79364 -1.01725 0.708962 0.342966 0.424055 -0.402139 1.04254 0.0317035 0.378215 -1.42172 0.114367 -0.986636 0.260393 -0.119865 1.10477 
0 -0.00694753
 4 100
-0.0225056 -0.113913 0.84136 0.465805 -0.911422 0.895099 -0.116178 1.35797 -0.544551 0.270956 0.483735 1.24262 -0.921307 0.454195 0.366518 0.558485 0.241599 0.356727 -0.0416695 1.14871 0.47649 0.3901 -0.259644 0.380611 -0.22821 0.259827 0.28746 0.329436 -0.296864 0.831511 0.188515 -0.175918 0.314778 0.305569 -0.135369 -0.267261 0.512359 0.305238 -0.162578 -0.0816882 -1.79756 0.930657 0.75721 0.801025 -1.71907 1.00764 1.02554 1.72432 0.141001 0.478936 -0.937341 0.488755 1.08639 1.98233 0.77603 0.457376 -0.618751 -0.417962 -0.201832 0.271866 -0.458503 0.300456 -0.530126 -0.528145 0.397076 0.742088 -0.462457 0.112289 -0.106151 1.32387 0.516361 0.479956 -0.360008 -0.615091 0.669994 -0.164642 -0.241238 -0.78169 0.0388641 0.376193 -0.235111 0.348039 0.152564 0.955997 0.125042 1.10962 -0.652066 -0.116336 -0.961407 0.347799 -0.493194 0.342754 1.30284 1.43852 0.809629 1.09462 -0.46655 -0.449099 0.181206 1.34894 
-0.830443 -0.237561 0.0287033 0.680548 -0.561379 0.745729 -0.422197 1.03453 -1.65999 0.532686 -0.342918 0.438813 -1.28462 0.726374 0.298746 0.387363 -0.44521 -0.382153 0.111924 0.286608 -0.190724 -0.289437 -0.153141 -0.122951 -0.863752 0.244346 0.385322 -0.226791 -0.971669 -0.0676645 -0.0511345 0.407286 -0.953877 -0.652573 0.348554 -0.797174 -0.253323 -0.759602 0.279608 -0.448369 -0.985229 -0.985194 -1.47481 0.139628 -1.38097 -0.259111 -1.53599 -0.0628572 -0.609501 0.111515 -0.126121 -0.0176537 -0.671631 0.349581 -0.199094 0.502765 -0.580473 0.994637 0.409711 0.613914 0.0195088 0.534318 0.246135 0.394298 0.383324 0.288829 -0.0111525 -0.166005 -1.17701 0.14337 -0.869348 -0.321748 -0.216282 -0.582865 0.392748 -0.469377 -0.198447 0.273004 -0.724751 -0.0709685 -0.868123 -1.22747 -0.907827 0.39027 0.480526 0.145038 -0.143689 1.09608 -1.1052 -0.035074 -0.802798 -0.0601478 -0.40479 -0.292218 -0.343185 -0.240886 -0.131878 -1.15001 -1.48488 0.333744 
-0.884459 1.09302 -0.625501 -0.127068 -0.241736 0.581904 -0.341998 0.0832418 -0.628065 -0.42237 -0.674232 0.0120743 -0.66306 -0.0568319 -0.108331 -0.43712 -0.723262 0.355899 -0.659887 0.136666 -0.0909055 -1.05476 0.59959 -0.254807 0.149616 -0.542965 0.0820113 -0.615786 -0.960916 0.814033 -0.459295 -0.676862 -0.0666984 0.0472911 0.0679201 -0.566724 -1.33035 0.0101544 -0.642085 -0.796271 0.782617 -1.02098 -0.743844 0.936125 -0.203276 -0.647518 -1.06703 0.732425 -0.498596 0.207459 0.469629 -0.47421 -1.24743 -0.818627 -1.22354 -0.0345654 0.230113 0.455949 -0.482309 0.175737 -0.00772075 -0.132095 0.0937153 0.389893 -1.20957 -0.0200721 -0.875932 0.689575 -1.41692 0.346033 -0.205659 -0.0224812 -1.01772 -1.17544 -0.550766 0.332646 -0.611815 0.111297 -0.9234 -0.0905545 -0.158867 0.177537 -0.662913 -0.222136 -2.01584 0.856192 -0.0252501 -0.158827 0.984143 0.746322 -0.583817 0.42329 0.298379 0.299292 -1.23827 -0.3647 0.26737 -0.431212 -1.00082 0.061442 
0.654672 1.26267 -0.785836 0.431634 0.126624 0.340954 0.0608195 0.864731 -0.00375776 0.665555 -0.55343 0.126036 0.197909 0.206462 -0.550242 0.509838 0.275556 0.946685 -0.361801 -0.209643 -0.502965 0.236731 -0.816065 -0.208624 0.346855 0.0281012 -0.499405 0.459913 -0.354769 -0.326049 -0.718045 -0.0593658 0.288208 0.505454 -0.283311 0.0208937 -0.228968 -0.080273 -0.023121 -0.968537 -0.00420331 -0.191262 0.698522 0.0450699 1.91021 0.0314961 -0.250311 0.516525 -0.911661 -0.268013 -0.709073 0.449656 0.985382 -0.661926 0.163656 -0.00634112 -0.444059 -0.315611 1.14609 0.943777 0.0515271 0.571515 -0.361613 0.32356 0.184289 0.827946 -1.10988 0.371207 0.240431 0.868651 -0.17187 0.278365 0.0386579 0.719305 -0.749464 -0.521049 1.04651 0.461993 -0.742671 0.416943 0.408275 0.709051 0.329723 0.581403 -1.33249 -0.256787 -0.458538 -0.413924 0.259592 0.541798 0.106427 0.274121 1.06366 1.14888 -0.70435 0.0965295 -0.582099 0.720849 0.286976 0.807881 
0 -0.502016
 4 100
-1.08564 0.361374 -0.576628 0.56838 -1.22558 0.761334 -0.586518 0.357801 -1.10486 0.990645 -0.664427 1.00823 -0.506301 0.329261 -0.532204 0.251698 -1.22437 0.0162564 -0.568578 0.0928797 -0.732319 -0.150217 -1.25409 0.649783 -1.26611 0.302796 -0.981616 -0.270501 -0.970543 0.686902 -0.317337 0.757997 -0.839852 0.0467901 -0.084248 0.252995 -0.907687 0.949974 0.453542 0.866014 -0.618901 -0.305249 -1.85983 0.753507 -0.25659 -0.46926 -2.59708 1.15481 -0.236197 1.46406 -0.0393147 0.579481 -0.898844 1.49689 -0.609738 1.25692 -0.113247 1.13388 -1.39059 0.168261 -0.191724 0.98778 -1.59211 0.419643 -0.512649 0.244841 -1.03755 -0.100509 -0.414741 1.11802 -0.129914 1.65936 0.222535 1.23162 -0.710866 1.00067 -1.4629 1.14284 -1.25735 0.653761 -0.803448 -0.187115 -0.550048 -0.402487 -0.298839 0.472448 2.31646 1.63169 0.367978 1.37423 -0.609476 0.833593 -0.846857 0.418556 -1.11647 -0.980379 -0.84518 0.0651772 -1.33951 -0.438959 
0.221862 1.07851 -0.71549 0.667947 -0.349108 0.625926 -0.212045 0.871266 -0.214466 0.966098 -0.58879 1.28114 0.276778 0.477328 -1.40601 0.933638 -0.37177 0.668093 -0.704581 0.581961 -0.468671 0.369351 0.516072 0.799787 -0.555815 0.186684 -1.4555 0.714885 -0.454762 0.186877 -0.960759 0.383336 0.265964 1.07541 0.165298 1.10639 -0.347356 0.798959 0.746989 0.18424 -0.188564 -0.293432 0.27028 1.11831 0.602607 -0.482452 -0.337283 2.15404 -0.669909 0.23562 0.0804476 0.505931 -0.93376 0.472338 -1.35518 1.0311 0.0664078 0.683451 0.612263 0.94902 -0.0994802 -0.397753 -0.0587633 -0.139338 -1.99963 -0.0366419 -1.1818 0.269673 0.150069 -0.210914 -0.446996 1.79448 -0.227781 1.01097 -0.379058 -0.360298 -0.0271935 1.43843 0.316251 1.37544 -0.607536 -0.237152 0.0341827 0.465176 -1.03487 0.408739 0.635228 0.225201 -0.0133786 1.24288 0.0388781 0.711998 -0.90593 0.469163 -0.241643 -0.0138708 -0.716836 1.37035 0.731419 0.248459 
0.269484 0.229487 -0.138776 0.981503 -0.867208 1.11664 0.198369 0.845575 0.392717 1.07337 0.0667097 1.02916 0.046493 0.87534 -0.439793 0.928017 0.494565 1.05245 -0.897921 1.66292 -0.898296 -0.144107 0.539031 -0.140839 0.218949 0.80192 -0.597683 0.682507 0.157339 0.0421251 -0.799976 1.97478 -0.32851 0.769542 0.92462 1.10773 0.152133 1.14988 -0.0915684 0.342012 -0.370388 0.612918 0.981231 -0.603599 1.68922 2.15782 0.963595 1.28432 -0.243935 -0.246665 0.0924541 1.98887 -0.185557 -0.914249 -0.513934 1.20928 -0.543209 0.546648 0.0981359 2.12686 -0.902123 -0.378494 0.0470125 -0.623089 -1.20338 -1.49995 -1.72817 0.785293 1.93274 0.733778 -0.34083 1.68748 0.227949 1.3232 -0.447556 -0.246448 -0.788797 0.879376 -0.822628 0.994017 0.57927 2.60074 1.66894 0.694674 -2.88667 -1.07033 -0.48064 1.21706 0.129703 0.679208 1.35513 1.46281 -0.632564 0.948356 0.854585 1.96594 -0.0850048 2.34157 2.07745 0.230316 
-0.0531547 1.15629 -0.460306 0.865328 0.257846 0.26783 -0.643913 0.560614 0.555558 1.21917 -0.382344 0.550609 0.08199 1.11954 -0.539928 1.23221 0.986448 0.471771 -0.726427 1.39957 0.554514 1.53949 -0.0244907 0.13907 0.732721 0.683782 -1.2655 1.03655 -0.145398 0.11154 -0.946863 1.32904 0.596359 0.518217 -0.939616 0.875984 0.108056 1.49247 -0.523284 1.38507 0.137657 2.16744 2.0517 0.692012 0.856957 2.4343 1.5904 -0.381206 0.646863 -0.74568 -0.726686 1.04055 1.49628 0.257532 0.625318 0.758405 -0.910319 -0.999148 -0.402373 -0.0218126 -1.35004 0.112965 -1.38395 1.25954 0.0092412 0.776782 -0.75093 1.05554 0.889355 1.91513 0.710538 1.16499 0.545775 1.87391 -1.04495 0.217315 0.381062 1.0802 0.489108 0.447327 -1.26586 0.996366 -0.0094877 0.375086 0.493874 0.600752 0.352788 1.4455 -0.566602 0.20132 0.408126 0.396423 0.332075 1.39063 1.02062 0.93511 -1.29181 2.03493 1.51235 0.341033 
0 0.404589
 4 100
0.247214 0.0746022 0.342524 0.280574 -0.470901 0.277089 0.396109 0.653939 -0.379454 0.0490969 -1.1037 0.0876388 -0.118027 1.19174 -0.0738647 -0.234102 0.161068 0.712341 0.290121 -0.0835536 -0.62126 0.722926 -0.244517 -0.0781884 -0.608435 0.343558 -0.333085 -0.232491 -0.488484 0.204838 -0.690304 -0.671156 -0.473809 0.607635 -0.378638 0.297844 -0.399009 -0.0978702 -0.608329 -1.22742 0.875989 1.11672 -0.555816 -0.309893 0.486524 0.827207 -0.415986 0.862902 -0.841916 -0.88075 -0.106747 1.07976 -1.08144 -0.496069 -0.381268 0.838328 -1.10639 -0.180829 1.0008 1.09584 -0.545587 0.953562 -0.37576 -0.549445 -0.60943 -0.154234 0.234502 1.10484 -0.197239 -0.0308807 -1.49414 -0.429865 -0.0725677 0.453202 -0.281045 -1.24486 0.355469 0.183999 -0.481929 -0.267627 0.263924 0.185845 0.442023 0.947403 -0.430071 -0.59073 -1.82254 0.283056 -0.300382 0.56165 0.211497 0.576168 -0.0464667 0.705432 0.405967 1.92942 -0.0165977 1.61634 0.273877 0.00203778 
-0.700229 0.279871 0.200699 0.12309 -0.363358 0.329718 -0.875373 0.686198 0.250909 0.323836 -0.790196 -0.568038 -0.143298 0.473614 -0.652064 -0.0771949 -0.120288 0.453903 -0.34533 0.290513 -0.867223 0.428402 0.0860304 -0.382875 -0.355881 0.645922 0.181475 0.0662786 -0.163457 -0.269118 -0.647612 -0.213638 -0.193639 0.0553153 -1.09813 -0.549546 -1.43515 0.842736 -0.843786 0.237386 0.124379 0.884419 -0.283144 -0.375759 0.186347 0.598628 -1.22049 -0.191369 -0.0353954 -0.150414 -0.922204 0.04377 -0.0922524 0.17721 0.279909 0.629291 0.0624306 0.350791 -1.76656 0.281198 -1.00351 0.541258 0.165848 1.0171 -0.250686 0.996757 0.054964 0.603114 -0.906128 1.0861 -0.00810152 -0.0608859 -0.587729 0.322729 -0.436692 0.349397 -0.391773 -0.336509 -0.8248 -0.266805 0.113808 -0.0725758 -1.24455 0.352572 -0.77602 0.183271 -0.707888 0.928152 -0.948613 -0.205592 -1.5458 0.460809 0.349438 1.08803 0.12712 1.4637 -0.0985169 -0.512047 -0.935953 -0.479346 
-0.231208 1.17372 -0.777293 0.322312 -0.241437 -0.159156 -0.295025 0.168765 -1.28361 0.157619 -0.766994 -0.381562 -0.757835 0.594518 -0.124493 -0.270241 -1.13346 0.388779 -0.18315 -0.546174 -0.543103 0.786171 -0.815149 1.18926 -0.251492 -0.346646 0.69493 0.266725 -0.879252 0.474753 0.145829 0.393184 -0.705762 0.20701 -0.758552 0.299542 -0.888094 0.337117 -0.640768 1.35314 -1.09379 -0.254829 -0.609462 1.20564 -2.45368 -0.338143 -1.36308 -0.436054 0.881554 0.444977 -0.683546 -0.156919 0.43253 1.45359 -1.07472 -0.110915 -0.291496 -0.433093 0.139343 -0.58827 0.103337 0.292419 -0.714507 1.43179 -0.914265 0.92533 -0.202063 0.441723 -1.06624 -0.513033 -0.859141 -0.114868 0.668093 -0.723473 -0.346312 1.56072 0.340016 -0.352381 0.158813 0.197088 -1.17636 -0.351495 -1.60536 -0.00458007 1.15047 2.00055 -0.68836 -0.816227 -0.909173 -0.345641 -0.762488 0.192397 -0.636308 -0.147934 -1.99021 0.364778 -0.947495 -0.471404 -1.29749 0.994079 
-0.531925 0.0825949 -0.175853 0.286101 -0.643267 0.830373 0.365817 0.122233 -1.09137 -0.504302 -1.44692 0.534253 -0.773867 -0.616501 -0.406069 -0.12057 -1.13094 0.319081 -0.142614 0.388147 -0.814248 -0.272477 -0.884681 0.952626 -0.489162 0.0180246 -0.162069 0.567759 -1.00845 -0.162686 0.200702 0.150017 -1.38762 -0.240592 -0.161063 0.27929 -0.625787 -0.425223 -0.429628 -0.0822233 0.92082 0.103327 -1.87037 -0.0935961 -0.995013 -0.119148 -0.991416 0.848115 -1.21555 0.394328 -0.442915 0.518262 -2.13999 -0.883287 -1.01915 -0.789979 -0.260694 2.38318 0.704783 0.0313843 0.362855 0.479768 -0.276972 0.39114 -1.01053 0.0716125 -0.474791 0.60174 -0.256475 0.085862 -0.753764 -0.76372 -0.171172 0.0310316 -0.046822 0.733382 -0.292005 0.592672 -0.70129 0.296543 0.235486 -0.0333711 -0.108907 0.404674 -1.44599 -0.906071 -1.23074 0.0575246 0.575045 1.16447 0.0457199 0.663719 -1.01033 -0.161499 -0.853703 0.452095 -0.304715 -0.505795 -0.707445 0.106599 
0 -0.959885
 4 100
-0.96179 0.652228 0.0856097 1.43332 -1.17613 -0.174722 -0.737437 1.56298 -0.475049 0.939286 0.301053 1.54443 -0.422316 0.0578864 0.299435 0.912585 -0.185872 0.275904 -0.565468 0.684661 -0.47295 0.612852 -0.284598 1.02655 -0.321997 0.0521142 -0.298276 0.556174 -1.17298 1.10262 -0.827997 0.497399 0.0492878 0.743865 -0.169271 0.916097 -0.0578132 0.0340372 -1.08649 0.930592 -0.430585 0.777459 0.839739 2.48679 -0.690005 1.4566 1.37741 2.22113 0.514053 1.39933 -1.46165 -0.477919 1.15601 2.93648 -0.0542646 0.287451 -0.232906 0.0839735 -2.41681 0.760196 -1.37041 -0.715061 -1.31494 1.10153 -0.390055 1.31426 -0.681093 -0.073428 -0.0877972 0.360604 -0.28574 1.13344 -0.755279 -0.38994 -0.463162 1.62949 -0.428591 0.00737615 -0.519788 0.94948 -1.02432 0.88149 -0.905 1.64489 0.0875771 0.504061 -1.16657 -0.379314 -0.17088 -0.0131589 -0.915701 0.412303 0.0741441 2.33179 1.06883 0.56884 0.281174 0.397163 -1.07529 1.5546 
-1.01526 -0.372493 -0.246466 1.54099 -1.15963 0.306191 -0.856067 -0.0556011 -0.713039 0.730895 -0.0855204 1.40279 -1.54684 -0.0464295 -0.171338 0.797594 -0.415118 -0.141626 -0.811267 0.775851 -0.275355 0.214373 -0.829283 0.968873 -0.529815 0.539286 -0.94585 0.555423 -0.547108 0.871772 -0.151083 0.352393 -0.32721 0.0224787 -0.723177 0.0958746 0.367523 0.112018 -0.256259 0.442726 -1.50083 -1.20407 -2.12303 1.10787 -2.58182 -1.32995 -0.301766 1.59061 -0.164584 1.95729 0.0831379 -0.584294 -0.162447 1.55552 -0.358666 0.570252 -0.673161 1.11622 0.150388 -0.397421 0.6013 0.940866 -1.25113 -0.0196663 0.299537 0.824849 -0.283337 0.0377504 -0.699433 -0.240815 -0.3851 0.807545 -0.0209286 -0.0417684 -1.11632 1.13583 -0.545871 0.882615 -0.372694 0.447398 -1.3007 -0.237336 -1.02665 0.988366 1.134 2.2501 -0.161964 1.07932 -0.954349 0.4291 -0.704344 -0.0296612 -0.767802 1.10156 0.261432 0.220945 -1.31287 -0.750692 -1.34094 1.81746 
-0.756894 -0.125896 -0.597348 0.0260261 0.00511284 1.63462 -0.674357 0.75327 -0.475517 0.047466 -1.09016 0.85471 -0.57149 0.664552 -1.24376 -0.161186 -0.631997 0.703862 -0.35399 0.490701 0.133457 -0.0166113 -0.565183 -0.0448852 0.0591369 0.207271 -1.43255 0.0669719 0.113215 0.303935 -0.850862 0.146223 -0.198287 0.942035 -0.799465 -0.0311145 0.091662 0.569201 -0.867298 0.127637 -0.359476 0.0733554 -1.70061 -0.0986991 -0.683596 -0.415025 -0.741989 0.518764 -1.88433 1.04063 0.352778 0.329615 -1.55931 -0.632485 -0.186744 0.431954 -0.639613 1.60044 0.210364 0.497049 -0.0505759 0.727682 -0.677569 0.686452 -0.414335 0.234686 0.336864 0.355459 -1.03774 0.0700013 -0.853551 0.722508 -0.408081 0.562192 -0.878672 0.377779 0.203823 1.4556 -0.960477 0.702097 -0.0743225 -0.364858 -1.18695 0.314636 -1.498 0.0493856 -0.37329 0.536452 -0.378936 0.827199 -0.543945 0.335713 -0.637134 0.176232 -0.599979 -0.00800881 -0.231586 0.630551 -1.11975 -0.258001 
-0.291046 0.388542 -0.964128 0.258236 -0.247761 1.02188 0.0748593 0.441477 -0.42846 1.36735 -0.344898 0.369042 -0.216785 0.997851 -0.366126 1.09715 0.601157 1.17339 -0.749046 0.785479 0.11015 0.474598 -0.812561 0.499975 0.0100362 0.770261 -0.522504 0.682442 0.269294 0.865728 -0.353443 0.522516 0.529442 1.08366 -0.924083 0.636335 0.156749 0.0268355 -0.578747 -0.0685535 -0.263933 1.77611 -0.135264 -0.0876368 0.147473 1.06662 0.352999 0.301561 -1.11742 -0.146177 -0.88322 0.659645 -0.267621 0.62588 -0.159073 0.931376 -1.11775 -0.261439 -0.834524 0.434986 -0.41065 0.216941 -0.630528 0.335797 -0.574987 -0.233056 -1.1622 0.20722 -0.534053 0.586913 -0.544995 0.727837 0.408527 1.09346 -1.22226 -0.358353 -0.316485 0.512072 -0.764507 0.72693 0.428479 1.48949 -0.130804 0.821297 -1.27747 -0.240255 -0.432755 0.515317 -0.139215 0.683001 -0.492785 0.569215 0.193687 0.580964 -0.26473 0.913227 0.0274289 2.13112 0.063518 0.336496 
0 0.673493
 4 100
-0.562083 0.504049 0.171336 0.152001 -0.861712 0.49721 0.0591786 0.455525 -0.223417 0.761912 -0.84733 0.931726 0.212008 0.181495 -0.101032 0.374732 -0.494844 0.198514 -0.613577 0.485844 -0.53923 -0.0987343 -0.727014 0.515263 -0.770441 -0.166641 -0.543261 -0.146676 0.0499561 -0.416552 -0.57983 -0.19755 -0.366713 0.398928 -0.90429 -0.274415 -0.35037 -0.28764 -0.94944 0.625623 -0.076109 1.52822 0.275575 1.01084 -0.541668 0.991979 0.916552 1.04906 -0.532584 0.0647336 -0.958991 0.03484 0.375283 1.29191 -1.29927 0.0067044 -0.344941 -0.00830764 -0.695695 1.20463 -0.302274 -0.181812 0.144539 0.525953 -0.229863 0.423752 -0.0482882 0.170056 -0.523787 -0.690413 -0.812855 0.669245 -0.548316 -0.261277 -0.821048 0.466354 -0.688759 -0.0173075 -0.641281 0.129996 -0.464052 0.634388 -1.05612 -0.0324814 0.291531 0.181835 -1.03425 -0.0788792 -0.576764 0.157036 -0.289282 0.494062 0.195368 0.76946 -0.532413 -0.408769 0.440254 -0.152786 -0.971156 0.335879 
-0.801868 0.514182 -0.0528759 0.563055 -0.221172 0.408207 -0.630128 0.82876 0.515942 0.268117 -0.356496 0.829125 -0.0866015 0.501703 -0.21322 0.670247 -0.354363 0.826287 -0.671953 0.415856 -0.411239 0.165564 -0.173638 0.927981 0.299047 0.330487 0.0572577 0.781194 0.169879 -0.687078 -0.472513 0.842644 -1.11927 1.149 -0.7418 0.652035 -0.256467 1.02089 -0.489461 -0.0832537 -0.719027 -0.362762 -0.598126 1.53239 -0.699564 0.100323 0.416985 1.38548 0.00745985 1.16517 -0.840157 -0.201187 -0.0680931 0.814214 -0.308581 0.345963 0.657113 0.901602 0.0238189 -1.19416 -0.0158117 0.526202 -0.368548 0.793339 -0.563376 1.17865 -0.42074 -0.0800298 -0.358493 0.0277464 -0.752809 1.46406 0.335219 0.0808273 -1.13327 0.948456 0.0816083 -0.29248 -1.51678 1.19989 -0.227491 0.728885 -0.270923 0.546216 -0.615018 1.33128 -0.407959 -0.0894147 0.342841 -0.0574469 -1.09529 0.276486 -0.341311 0.671258 -1.21473 0.148073 -0.383432 0.0566015 0.234254 0.729427 
-0.0853555 0.478831 -0.756949 0.471763 -0.416972 0.0381429 -0.307106 0.696294 -1.04926 0.821375 0.686233 0.603839 -0.868854 0.995076 0.529055 -0.0523019 0.240442 0.364724 -0.249319 0.446842 -0.0847354 0.5286 0.157907 -0.161566 -0.14398 0.146852 -0.715342 0.716999 0.0811047 0.855284 -0.0433997 0.939868 0.0802428 0.357206 -1.23899 1.07884 -0.0899531 1.36616 -0.610219 0.410712 0.215934 0.960068 0.40587 0.0805831 -0.919261 0.799772 0.0436631 0.375898 -0.445678 0.767823 -0.171933 0.653478 -0.0558387 0.13775 -0.411098 0.569507 -0.455763 0.412931 0.575312 0.364977 -0.266172 1.22099 -0.41251 0.00987362 0.146401 0.662423 -0.507918 0.87055 0.0336616 0.484911 -0.716865 1.06466 -0.200731 1.18966 -0.85548 0.444797 -0.24275 0.0847704 -0.740506 0.809972 0.276478 0.588859 -0.818158 0.85672 -0.169525 -0.731138 -0.15522 0.523275 -1.48443 0.874555 -0.492409 -0.50471 -0.562515 0.0411569 -0.946817 0.7044 -0.61015 0.450174 -0.691478 0.242595 
-0.572915 -0.164125 0.273916 0.165403 -0.0717923 -0.2714 -0.157249 0.159298 -0.573078 0.714952 -0.575989 0.147677 -1.11799 -0.331287 -0.205688 -0.28189 -0.185643 0.284806 0.446811 0.436006 -0.759482 0.917862 -0.56417 0.520591 -0.34844 -0.0526506 -0.37419 -0.201281 -0.491027 -0.571406 0.392352 0.305586 0.146206 -0.192368 -0.193107 -0.138403 -0.116785 0.187402 -0.244705 0.134264 -1.03035 0.594194 -1.06473 0.385467 -0.323731 0.48235 -1.08113 0.22081 -0.357027 0.316302 -0.624891 1.08133 -1.15258 0.206146 -0.427872 0.250102 -0.555051 1.08399 -0.844016 0.240423 -0.799297 0.446468 0.0937849 0.587081 -0.790167 -0.0378347 0.502571 0.56234 -1.21242 0.144469 -0.425338 -0.524383 -4.41393e-05 0.312607 -0.0310023 -0.459909 -0.564138 -0.4979 -0.25818 0.305515 -0.749286 0.0370044 -0.861773 0.320126 -0.958861 -0.672217 -0.163378 1.41358 -0.64637 0.907124 -0.623409 0.158109 -1.11282 1.0314 0.563227 0.0194769 -0.449428 0.154719 -0.761608 0.0282328 
0 -0.081725
 4 100
-0.690053 0.730163 -1.00167 0.585428 -0.535658 0.29113 -0.684096 -0.54132 0.268886 0.60951 -0.191622 0.439331 -0.185982 0.583136 -1.32214 0.475424 -0.548713 0.431408 -1.07331 0.466705 -0.564808 0.560269 -0.341187 0.808576 -0.64396 0.566674 -1.02802 1.72831 -1.08523 0.23152 -0.989729 1.44721 -0.778235 0.327801 -0.22987 1.1605 -1.2221 1.18502 -1.35234 1.6209 1.35062 0.56048 -0.443117 0.216206 1.11181 -0.430318 -0.690638 0.978859 -1.19071 -0.0823841 0.00297784 1.1848 -2.20503 -0.273987 -0.685012 2.08614 0.123789 1.45387 -0.782273 0.826302 -0.718533 1.10196 -1.0952 0.682741 -1.87135 0.0813222 -1.08744 0.550943 0.309922 0.863326 0.0537619 1.71561 -0.896974 2.09123 -1.71905 1.49198 0.556719 1.54541 -0.582233 1.48734 -0.725742 1.81492 -0.31612 0.527114 -2.29788 -0.140804 -0.358759 -0.0377398 -0.693725 0.926982 0.229161 0.0143965 -1.25081 0.554419 -0.468903 0.403707 0.355545 1.66385 -0.000251164 0.0484586 
0.793322 0.560913 -1.12971 0.759657 -0.349748 0.724277 -0.532408 -0.0732919 0.583093 0.756853 0.233561 1.32744 1.02022 0.456478 -0.0675177 1.16927 -0.0333652 1.3757 -1.19429 0.947335 -0.650714 1.10084 -0.923356 0.809023 -0.0959168 0.816508 -1.2545 1.37339 0.017486 0.659553 -0.364593 0.872193 -0.102826 0.543417 -0.911697 1.42362 -0.175647 1.76186 -0.80627 1.52751 -0.94438 1.86981 1.04948 0.159843 1.18827 1.37053 0.141992 1.09901 -0.203982 0.410106 -0.0416562 1.33332 0.406489 0.759252 0.520601 1.01909 -1.49682 -0.129073 -0.279234 1.33665 -1.62099 0.338132 -0.969673 0.124665 -1.83426 0.0192085 -0.342109 1.16177 0.703868 0.801602 -0.422624 2.1172 -0.197434 2.64215 -1.19505 1.13648 -0.788045 0.293236 0.117174 0.733586 -0.573385 2.20217 0.0621899 0.391768 -0.773097 1.41327 -0.168066 0.667452 -0.472656 0.534957 0.626527 0.712586 0.555038 0.832133 0.581223 0.653034 -0.18279 2.8155 0.728575 0.385158 
0.123064 0.261593 -0.878923 0.238913 -0.222378 0.424221 -0.310849 1.14702 0.390326 1.64449 -0.816228 0.303356 0.43379 0.96312 -0.899706 0.553897 0.183009 0.963567 0.0545039 1.42912 -0.471639 1.46801 -0.809297 1.19495 -0.36052 0.695134 -1.49242 0.630537 0.163048 0.33948 -0.461953 0.546826 -1.2501 -0.415499 -0.239215 0.417554 0.250957 -0.0736993 -0.805327 1.36988 -1.58562 2.1493 -0.28225 -0.366435 -0.333015 2.46076 -0.340964 0.319335 -0.902127 0.21293 -0.300347 1.3443 -0.103099 0.358677 1.47181 0.788817 -1.19837 0.539832 0.0161795 0.182226 -0.670249 0.425245 -0.786654 1.0751 0.120295 0.453264 -0.246698 1.09217 0.575269 1.07127 -1.09303 1.50993 -0.698737 1.12932 -0.0631088 0.967445 -0.639361 0.952579 0.0798589 0.332565 -1.30554 0.434799 -0.775308 0.421839 0.195864 0.83019 -0.856377 1.2855 -1.59666 0.972614 -0.436084 0.810759 -0.521492 0.767305 0.00860116 0.494018 -1.27337 1.91982 0.154803 -0.213176 
-1.35007 0.637559 -0.047471 0.83507 -0.810462 0.776491 -0.625141 0.386959 -0.700349 0.704472 0.0644869 0.279707 -1.27268 1.1294 0.154011 0.735041 -0.584646 -0.290785 -0.0807931 1.02879 -0.526409 0.86751 0.497059 1.44222 -1.00091 0.294186 -0.284188 0.442067 -0.0653205 1.00707 -0.0325789 0.436849 -1.04879 0.757025 0.151349 1.39202 -0.172528 1.23531 -0.243468 1.70189 -1.8852 0.632448 -0.908723 0.864562 -1.87514 0.323836 -0.429063 -0.138814 -0.156426 0.732194 -0.687848 0.345207 -1.01105 0.863706 -0.920779 -0.135359 -0.633603 0.648332 -1.95885 0.454615 -1.20773 1.09759 0.00491447 1.64336 0.166264 0.550677 -1.01472 0.0559856 -0.971503 0.919986 -0.134834 1.10113 -1.14046 0.445735 0.409525 0.894332 -2.02354 1.0297 -0.447241 1.16723 -1.00689 1.0747 -0.131892 1.12569 0.546957 1.33668 -0.48489 0.47847 -1.19116 0.914621 -0.266933 1.38148 -0.956899 -1.08712 -1.31255 -0.0338986 -1.37934 0.451557 -0.758576 0.745368 
0 0.200939
 4 100
-0.501775 0.858671 -0.166254 1.28246 -0.829154 0.254604 0.246871 0.504377 -0.207394 -0.559742 0.835562 1.14561 -0.332526 0.714385 0.0587066 0.683812 -0.730352 0.280386 0.0757863 0.539318 -0.722542 -1.07507 -0.179116 0.408183 -0.595243 0.706407 -0.188999 0.304261 -1.23133 0.0504003 0.0317788 0.71432 -0.404342 0.560071 0.42645 -0.0825106 -1.22724 -0.933353 0.391557 1.06843 -1.02725 1.0224 0.0306142 1.8648 -0.576558 1.91237 1.27566 1.74096 -0.250209 1.67891 -0.463861 0.719134 0.401172 2.38486 0.405337 0.336932 0.461548 0.343577 -0.528119 -0.568681 -0.343383 -1.01435 -1.16392 -0.562098 0.0355128 0.72099 -0.268392 -0.774983 -1.13224 0.520249 0.397045 0.16418 -1.00786 -0.194089 0.77553 1.12077 -1.39979 0.385841 -1.2466 0.63202 0.474936 1.07604 0.215225 1.554 -0.803263 0.676821 -0.321642 0.0893187 0.386228 0.859345 -1.28799 0.670028 1.06308 1.91202 0.570122 1.39253 -0.783952 0.18762 0.88317 1.90974 
0.000872547 0.015004 -0.713161 0.968832 -0.284869 0.341637 -0.0731235 0.427146 -1.59401 1.1171 -0.498381 0.0854038 -0.407887 0.555571 -0.514281 -0.190211 -0.334934 0.596958 0.305425 1.09239 -0.777962 -0.415135 -0.475909 -0.287355 -0.400353 -0.157765 0.0736975 -0.736394 -1.44666 0.143217 -0.163577 -0.560187 -0.0382186 -0.486042 -0.101416 -0.573979 -0.326423 -0.418376 0.356714 -0.00373619 -0.186024 0.678559 -0.935649 0.907748 -0.338269 -0.143454 -1.09154 0.54856 -0.00523717 1.74009 -0.406996 1.45033 -0.169817 1.28184 0.295566 1.68754 -0.850409 0.862198 1.66156 0.389934 0.598333 -0.0390552 -0.822295 -0.564205 -0.585153 0.695128 -0.033459 0.373991 -1.6664 1.09771 -0.283677 -0.673642 -0.0674477 -0.826422 1.04588 -0.132451 -0.822594 0.978525 -0.23635 -0.545386 -0.184128 -1.00372 -1.25228 0.0952673 -0.429244 0.121051 0.421445 1.14256 -1.22636 -0.216326 -0.607906 -0.226609 -0.295531 0.64242 -0.866246 -0.284528 -0.603382 -1.11779 -0.601747 0.213 
-0.43457 0.0842034 -0.183434 0.284659 -0.762012 0.0427974 -0.569165 0.024574 0.62929 -0.529343 -1.13204 -1.01312 -0.836102 0.207474 -0.75124 -0.0542942 -0.491136 0.428939 0.185824 0.427367 0.645851 -0.448575 0.1009 -0.343945 -0.401489 0.815741 0.375679 -0.573544 -0.90416 0.402695 -0.551513 0.313576 -0.92426 0.271863 -0.363838 -0.160945 -0.988797 -1.09406 -0.129075 -0.0197418 0.479333 -0.900855 -1.44496 -0.0270138 0.451519 -0.319066 -1.48752 -0.364002 -0.406942 0.964825 -0.322623 0.575582 -0.259454 0.344152 -0.868803 0.975929 0.52691 1.34153 -1.15591 0.32641 0.117076 0.164754 0.169801 0.333608 0.0832806 0.280063 -0.327839 0.676897 -1.5039 0.14477 0.0485034 -0.739093 -1.33782 -0.0436448 0.493986 -0.343381 -1.09532 0.999779 -1.5478 0.341203 0.0366772 -0.349277 -1.09117 -0.628717 -1.62926 0.100983 0.932423 1.4117 0.484003 0.640482 -1.10603 0.322798 0.17144 0.653002 -0.39672 -0.383334 -0.0731911 0.0803676 -0.851387 -0.459395 
0.200196 1.61693 -0.879507 0.254223 0.159382 -0.21808 -0.546824 0.283993 -0.20971 0.268161 -0.552763 0.25563 -0.000816304 0.49451 -1.13729 0.668399 -1.07317 1.86346 -0.241241 0.0506129 -0.307648 -0.518013 0.0352785 0.102378 0.45163 0.597069 -0.0355895 0.259261 0.465359 0.276022 -0.561323 -0.820446 0.0450189 0.83089 -0.00447728 0.861182 -0.660672 0.748575 -0.156188 0.0908221 0.43728 0.59774 0.564563 0.862493 0.718362 -0.354271 0.290964 0.692744 0.393646 -0.479283 -0.443693 1.17124 0.589649 -0.76632 -1.22955 -0.89005 0.623104 -0.123459 0.731628 1.64403 -0.154697 -0.26219 0.209737 0.345885 0.14465 0.428034 -1.6368 -0.245032 -0.271496 1.35046 -0.688829 -0.0820359 -0.773881 0.2745 -0.313715 0.356101 0.884727 0.408436 -0.910724 0.228922 0.356499 0.0621238 0.666818 1.45892 -1.59121 0.438779 -1.70242 -1.10582 0.431951 -0.0951778 0.50605 1.20166 0.0861508 -0.289541 -1.93301 -0.709283 -0.135456 0.680736 0.716832 0.848668 
0 -0.90729
 4 100
-1.24536 0.100271 -0.282073 0.926775 -1.35798 0.437651 -0.251364 1.23701 -1.4718 0.478968 0.28144 1.72895 -0.991042 0.47739 0.0186559 1.62438 -0.3158 0.913308 0.195391 0.77571 -0.8349 1.16614 -0.643144 0.814727 -0.176141 0.991345 -0.836638 0.833584 -0.598914 1.34868 -0.475106 1.36766 0.207606 1.19035 0.132003 0.902338 0.174933 1.27544 0.348357 0.949939 -2.49706 0.72189 -0.477197 1.79762 -2.1681 1.02916 0.3009 1.76781 0.670248 2.00596 -2.16571 -0.286023 2.39129 2.85052 -0.899952 -0.356347 -0.497307 -0.192494 -1.62169 -0.661154 -1.11846 0.648146 -1.52317 0.509799 -0.371449 0.396465 -1.07855 -0.0153118 -0.264739 2.16971 0.449732 1.08286 -0.48775 0.297178 -0.578513 0.391118 -1.65208 -0.118114 -1.25698 0.357637 -0.308144 -0.251581 -0.489931 1.45275 0.589589 1.61909 -0.205477 1.58401 -0.901387 0.448786 -1.21304 0.730178 -0.355738 1.17519 -0.467778 0.99158 -1.26037 -0.338338 0.193091 2.89901 
-1.14284 -0.0908381 -0.497474 0.59556 -1.19235 0.309816 -0.590924 0.870558 -1.23314 1.21131 -1.35665 0.827886 -1.69227 0.0677287 -1.26296 -0.0229989 -0.631486 0.0523946 -0.444373 0.597662 -0.778229 0.489989 -0.394546 0.703062 -0.99574 0.842685 -1.34649 0.112674 -1.18315 1.27833 -0.995877 -0.125473 -0.618633 -0.371547 0.0727184 0.710668 -0.650854 0.0616952 -0.379187 0.139997 0.0841903 -0.127484 -1.61169 1.15061 -2.02481 0.153161 -1.65149 1.20712 0.680136 1.22109 -0.519761 0.365273 -0.675504 0.431407 -1.88213 0.670333 -0.00325718 2.17688 -0.283608 1.41764 0.202076 0.698232 -0.499669 0.361002 0.45638 1.0105 -0.52741 -0.200052 -0.467399 1.00898 0.140198 0.834501 -1.40659 0.232932 -0.212287 0.220894 0.316399 1.27436 -1.04833 0.151988 -1.29219 -0.803787 -0.791809 0.62893 -0.0959317 -1.1265 -1.23486 2.19139 -0.819138 0.966837 -0.296367 -0.168262 -2.76824 0.109371 0.394733 0.187144 -1.4319 0.0344106 -0.19237 1.44595 
-1.56419 0.807258 0.109961 0.561237 -1.47098 0.945762 -1.0666 0.626874 -0.637232 -0.0119707 -0.671778 1.3581 -0.446942 -0.0130086 -0.113943 0.462307 -1.42717 0.239449 -0.728513 0.379194 -0.956714 -0.364509 0.519771 0.119798 -0.437974 1.28987 -0.172226 0.354617 -0.774899 1.09051 -0.911681 0.0140471 -0.181177 1.27349 0.154901 0.263786 -0.759056 0.301877 0.157363 0.568403 -1.03385 -1.55102 -0.65189 1.57968 0.486236 -1.28813 0.289895 1.39778 -0.631638 1.26107 -0.382794 0.166409 -1.39527 0.738519 -1.56841 -0.1533 0.926327 -0.0541242 -1.02391 1.39195 0.0145778 -0.599745 -0.583988 0.437476 -1.91099 -0.826907 -1.39702 -0.229547 -0.927018 0.53943 -0.18348 0.411846 -0.657334 -0.2502 -0.879692 0.318188 -0.554183 1.12338 -0.9238 1.57367 0.0198982 0.944575 -0.66522 1.02671 -2.83091 0.394527 -0.150554 0.468279 1.53705 0.821583 -0.381 0.95301 -0.319383 1.87402 0.046371 0.479482 0.609346 0.194537 -0.14915 1.27871 
0.133218 1.35354 -1.17511 0.974906 -1.19039 0.476772 0.038993 0.766249 0.22518 1.30836 -0.598227 1.46156 -0.0917854 0.757769 -1.43894 0.650593 0.189993 1.19128 -1.35137 0.252193 0.131164 0.332325 -0.716343 0.729261 0.17684 0.214778 -1.64335 1.00131 -0.328272 0.863669 -0.844878 0.368039 0.212533 0.46211 -0.764936 0.86687 0.165877 0.778555 -1.3067 0.0822293 1.19207 1.9869 0.285946 0.719515 0.327581 2.03191 1.68589 0.978211 0.170212 0.819805 -0.21744 0.666613 0.408076 0.562077 0.387802 0.513762 -0.232712 0.151942 1.39356 -0.123736 -0.503273 -0.273393 -2.2233 -0.103851 -0.861109 0.924959 -1.32463 0.405048 0.903302 1.31512 -0.172978 1.32824 0.783847 -0.0643548 -1.69749 0.952414 1.00044 1.82077 -0.449988 0.784677 -0.0469538 0.833797 0.407994 0.986077 -0.800139 0.779718 -0.216029 0.811518 0.029077 0.297554 -0.730285 0.874086 1.56041 1.44037 -0.0846215 0.889411 -0.79914 1.17977 0.494257 1.409 
0 0.646175
 4 100
-0.502015 0.769309 0.271332 0.323579 -0.0245885 0.0332658 0.25341 1.26316 -0.663537 0.207962 -0.185258 1.03337 -0.616037 -0.090386 0.219723 0.237927 0.0199646 0.190231 -0.0164932 0.187612 -0.534242 -0.0350528 -0.584758 -0.127324 0.277261 -0.0547306 -0.309714 0.162228 -0.13527 -0.206378 -1.05136 -0.559038 -0.291497 -0.489235 -0.0747892 -0.253338 -0.620536 -1.17928 -1.50433 -0.651264 0.924541 2.67855 1.90702 2.20828 0.500597 2.46925 1.83377 2.37157 -0.197767 0.796578 -0.908289 0.349655 0.536058 1.42825 -0.205746 -0.179041 -0.604807 0.351997 -0.927867 0.738552 -0.203267 -0.75058 -0.313289 -0.16221 0.56986 0.92272 0.238951 0.621411 -1.0469 -0.618017 -0.169287 0.927004 -0.800824 -1.87261 -0.186029 0.813327 -0.192058 0.0466383 0.24767 1.21068 -0.528494 1.31309 0.333327 0.198095 -0.4304 -0.00364745 -2.65473 -1.1742 -0.63006 0.146386 -0.62394 0.283214 0.747028 2.81808 1.34945 1.77061 0.791212 0.15769 -0.613601 1.62305 
-0.363663 -0.397353 1.08325 1.06439 -0.416136 0.1101 -0.70106 -0.244648 -0.636954 0.0792447 0.790199 0.189002 -0.2936 0.154429 0.408629 1.42416 -0.454359 -0.654699 0.393772 0.439879 0.0926788 -1.02429 -0.734267 0.059824 -0.137805 0.0563822 0.61081 0.68509 -0.0808892 -0.817849 0.882151 0.121689 -0.531927 0.293029 -0.805163 -0.625425 0.195161 0.0354288 0.0768897 0.389802 -1.29251 -1.04937 -1.21879 1.13398 -2.00601 -0.952442 -0.433392 1.81922 -0.437886 1.7943 -0.0977083 -0.0873598 -0.363648 1.3248 0.27797 1.51362 -0.544242 1.45858 -0.184506 -0.743992 0.858355 0.309615 -0.94895 -0.506431 -0.30512 0.731515 0.423732 0.409579 -1.07852 -0.741943 -0.958667 0.493176 0.257738 -0.421328 0.0879911 0.770162 -0.546581 -0.125559 -1.28104 -0.252013 -0.621015 -0.439088 -1.71305 0.0462555 0.103421 2.48242 -0.159282 0.735199 -0.93001 -0.234927 -0.944202 -0.0524876 0.50321 0.826623 -0.459505 1.5511 0.37832 -0.90423 -1.02965 0.61014 
-0.11951 0.0284496 -0.804798 0.382603 0.0833723 -0.0838893 -0.0899401 -0.182538 -0.310782 -0.719052 -0.208625 -0.764413 -0.116778 0.431505 -0.0172126 -0.445564 -0.808136 0.136506 -0.107789 0.68318 0.582092 -0.602436 0.483293 0.249785 -0.032065 -0.17294 -0.180132 -0.100419 0.170849 0.882213 -0.480046 0.300073 -0.386059 0.662937 -0.766977 0.0458218 0.156153 0.854381 -1.30119 -0.32727 0.168862 -0.137832 -1.34135 -0.929945 -1.5139 -1.47518 -1.43727 -0.329452 -0.621045 0.539577 0.528314 -0.231215 -0.564274 -1.14751 -0.664491 0.0929647 0.229742 0.823281 0.11753 -0.361098 -0.722748 1.46495 0.155147 -0.441169 -0.201121 0.518493 -0.250104 0.831447 -0.487498 0.229836 -1.08023 0.264499 -0.70195 -0.13375 -1.03112 0.570334 0.581193 0.233864 -0.492798 0.401134 -0.28374 -1.12506 -2.10913 -0.612791 -0.16772 0.530487 0.119786 0.92704 -0.769624 -0.250835 -0.14666 -1.00758 -0.609545 -1.57967 -1.62357 -0.705817 -0.398604 -1.60003 -1.77459 -1.20683 
-0.0740809 0.411339 0.0102612 0.441219 0.125554 0.227687 0.320277 0.557305 -0.595342 0.245698 -0.392715 -0.276878 0.261188 0.636896 -0.10055 -0.24794 -0.191855 0.800058 0.00774826 0.159244 -0.169322 0.0490067 -0.42934 0.0702545 0.162602 0.771713 0.26721 -0.859071 0.256889 -0.295547 0.100306 -0.039085 -0.309661 0.796213 0.0100812 0.779091 -0.503468 0.634473 0.0939235 -0.0845872 -0.00987449 0.0966578 -0.945829 -0.963875 1.15428 0.116853 -1.10938 -0.783414 -1.90561 -0.289004 -0.602784 1.54335 -0.465406 -1.26868 -1.35715 0.224248 -0.239205 0.86304 0.557395 1.21032 -0.290173 0.7925 0.309099 -0.107965 -0.65196 -0.827721 -0.929604 0.130942 -0.577533 0.876932 -1.36077 -1.6555 -0.106789 0.691829 0.508843 -0.154148 -0.495174 -0.318294 -0.0450301 -0.586854 1.62895 0.74086 0.362445 0.155739 -1.97076 -2.47161 -0.956118 0.410376 0.614396 1.23405 0.300497 0.327641 -1.18466 -0.396194 -0.47059 0.188155 -0.343327 0.719876 0.144518 0.400503 
0 -0.423871
 4 100
-1.16249 0.39278 -0.653563 1.16243 -0.744139 0.331516 -0.00852491 0.428815 -0.107481 0.985715 -0.564896 0.794304 -1.15619 0.229291 -0.731825 0.842953 -0.677432 0.507611 -0.919593 0.399644 -0.0275366 0.219506 -0.52812 0.251948 -0.908721 0.850745 0.0359622 0.501331 -0.879593 -0.0416519 -1.51157 0.0171459 -0.671275 0.111156 -0.288002 0.800905 -1.25543 -0.243973 -1.37747 0.714963 0.286245 0.507856 -0.464726 2.09242 -0.178083 1.38597 0.315939 1.07142 -0.728732 0.565759 -0.575012 0.0302645 -0.677576 1.58591 -0.126837 0.592055 0.0186685 0.70368 -1.60851 0.849517 -0.302556 -0.358817 -0.638458 0.837375 -0.0882888 1.18585 -0.443788 0.311524 -0.632251 -0.195901 -0.289895 0.350814 -1.07993 -0.390307 -1.19618 0.0779586 0.0859727 0.982791 -1.07997 1.33659 0.11071 1.18325 -0.770206 0.415048 -2.03784 -0.469798 -0.745919 -0.602293 -0.525266 0.0374877 -1.54546 0.253035 0.259081 2.42147 1.40505 1.82001 -0.108777 0.40157 -0.281412 0.773343 
-0.270061 -0.0991881 -0.415403 0.441793 -0.61398 -0.239223 -0.597441 0.0331206 -0.953529 0.315714 -0.0148911 0.312769 -0.687606 0.862827 -0.110372 0.901775 -0.818522 0.13086 -0.835816 0.415852 -0.628835 -0.276673 -0.383091 0.464284 -0.0740111 0.877124 -0.288329 0.130273 -0.0655386 0.334221 0.0835051 0.36743 -0.158768 0.643486 -0.197245 0.544243 -0.373556 0.0394626 0.0808668 0.880527 -1.42155 0.176674 -0.735384 0.79489 -0.51377 -0.763843 -0.240365 1.10917 -0.0210145 0.616089 -0.248263 0.099581 0.788454 1.24723 0.0853265 0.950704 -1.09774 -0.0422802 0.281624 0.336924 0.113152 0.472726 -1.74801 -0.73932 -0.509352 0.659276 0.138682 0.783574 -0.371027 0.539939 -0.591058 0.51532 -0.38863 -0.507858 -0.998495 0.692363 -0.758416 0.031924 0.038032 -0.184847 0.155198 -0.112456 -1.83804 0.95878 0.187307 2.30675 1.20915 0.563579 -0.385236 0.086728 -1.44709 0.248266 0.689657 1.15027 -0.186747 1.07334 -0.227543 -0.0224084 -1.24411 0.793737 
-0.651047 -0.0240496 -0.963126 -0.0492216 -0.356865 0.879752 -0.403738 0.335734 -0.501456 0.373307 -0.515723 0.0516719 -0.297131 0.321926 -1.48116 0.0373395 -0.42911 -0.134168 0.0989315 1.03831 -0.551788 0.341516 -0.293006 -0.122822 -0.11901 -0.311578 -1.32022 -0.0368731 -0.771423 0.178951 -0.0265323 0.0394858 -0.760023 0.359909 -0.34567 -0.167183 -0.0778403 0.137612 -0.902698 0.27816 -0.692199 0.867667 -0.775798 -0.197808 -0.565091 0.376026 -1.17717 0.181111 -1.66678 0.659713 -0.305383 1.06572 -1.90223 -0.344391 -0.125425 0.952026 -1.20904 1.87314 -0.39789 0.711896 -0.112287 0.811553 0.0836679 0.308208 -0.450098 1.0175 0.303674 0.368375 -0.534436 0.714963 -1.35312 0.196958 -0.362916 -0.131084 -0.819041 0.215387 -0.19016 1.4828 -0.275457 0.569905 -1.00304 -0.273172 -1.06521 0.264305 -0.828018 0.183167 -0.213453 0.642598 -0.21452 0.274412 -0.571872 0.651046 -0.723063 -0.184933 -0.213736 0.0630589 -1.23313 0.923685 -1.00684 -0.348469 
-0.360393 0.223677 -0.0722744 -0.116499 -0.624826 1.27571 -0.653136 0.874279 -0.721135 0.341112 -0.53501 0.444794 -0.364293 0.753223 -0.839488 1.12291 -0.370374 0.824809 -0.927551 0.330482 -1.07179 0.190016 -0.038082 0.747149 -0.987979 1.15956 0.0803682 0.16315 -0.627218 1.28926 -0.511729 0.31852 -0.918573 0.961831 -0.104844 0.358051 -0.614642 0.349261 -0.202547 0.217362 -0.423569 0.453411 -0.318144 0.572374 -0.187424 1.01042 -0.839634 0.433641 -1.06357 -0.831352 -1.04696 1.02151 -0.560298 -0.053568 -0.852096 0.547117 -0.5338 -0.502196 -0.659137 0.560895 -0.29106 0.261488 -0.108864 0.182242 -1.00476 -0.00741707 -1.16876 -0.0940519 -0.986147 0.491039 -1.22397 0.21026 -0.644181 0.976723 -0.488256 -0.545147 -0.945214 0.528081 -0.895606 0.0503931 -0.146375 0.40636 -0.495416 0.505527 -0.796614 0.756365 -0.297942 0.134772 -0.520016 0.0756533 -0.365563 0.6949 0.367806 -0.221147 -1.0752 0.774445 0.180044 1.06019 0.023101 0.377222 
0 0.978866
 4 100
0.291415 0.646286 -0.230891 0.283595 -0.375292 0.151903 -0.0381005 0.380239 -0.175065 0.551253 -0.497684 0.225529 0.171112 0.614628 -0.810354 0.516288 -0.253013 -0.200752 -0.379907 0.123041 -0.420522 -0.421642 -0.0148369 0.857353 -0.810023 0.272228 -0.471877 0.770505 -0.0706231 -0.221665 -0.288468 0.630339 -0.191382 0.139757 0.00624878 0.418845 0.37667 -0.0495508 -0.575415 0.659223 -0.899644 -0.640524 -1.49756 0.123128 -0.14721 -1.00238 -1.58639 0.184465 -0.0306012 0.543176 0.157685 0.168843 0.131052 0.661681 -0.451571 0.962812 -1.02385 0.395868 -0.528634 0.345357 -0.952733 0.585186 -0.969953 0.381772 -0.516317 -0.0708584 0.210209 0.438206 0.0307464 0.535182 -0.288479 1.2124 0.239882 0.91056 -0.903893 1.15198 -1.01987 -0.0269005 -0.173823 0.175649 -1.07411 -0.608801 -0.815535 -0.491244 1.06549 1.32485 1.22646 0.549299 -0.271829 0.43841 -1.40496 -0.177798 -0.409395 0.631661 -0.486008 -0.211976 -0.476674 -0.151099 -1.48149 -0.10839 
-0.00504864 0.688749 -0.731302 0.7468 -0.0554728 1.16462 0.202774 1.12267 0.133157 0.267408 -0.806702 0.456146 0.152807 0.652704 -0.125167 0.763792 0.103319 0.326726 -0.802967 -0.0728265 0.440299 -0.498013 0.820151 0.409838 -0.516677 0.202027 0.0465166 0.958724 -0.392951 -0.565852 0.32867 0.834739 -0.382082 0.7204 0.269367 -0.124328 -0.404893 0.348131 0.395267 0.589609 -0.991811 -2.10047 -0.164387 0.325448 0.170601 -1.55811 -0.793301 0.620551 -1.05059 0.570641 0.0564882 0.262986 -1.33698 -0.793603 -0.456456 -0.065066 0.213049 0.351012 0.524149 0.0547016 0.302709 0.709467 -0.171924 0.67764 -1.54563 -0.276001 -0.601605 0.130362 -0.284706 0.236203 -1.00353 1.47442 0.059675 0.898372 -0.643289 0.101646 -0.253607 0.109477 -0.279975 0.484863 -0.575168 0.439067 0.317307 -0.364815 -1.42365 1.19284 -0.14135 -0.131794 0.553069 0.165953 0.373783 0.441852 0.080619 0.098712 -0.86789 -0.632301 0.50848 0.283442 -0.457985 -0.676575 
0.100361 0.359137 -0.491907 0.703439 0.0834104 1.28548 0.0457828 1.22077 0.251373 0.58388 -0.543876 0.978166 -0.183166 0.869737 0.067691 0.779329 0.711621 1.65701 -0.112183 0.552606 -0.281696 0.29 -0.243938 0.253637 0.641906 -0.398623 -1.04783 0.630698 0.737077 0.121593 -0.165953 0.578218 0.190557 0.767155 -0.0330551 0.0895591 1.05438 0.40838 -0.548233 -0.452961 1.0483 0.599382 1.45636 0.0611824 0.762993 2.11634 1.23817 0.709488 -1.34166 -0.716582 -0.264389 0.531044 -0.546905 -1.59341 -0.777704 -0.0685914 -1.18455 -0.266544 0.614781 1.38649 -0.116076 -0.381301 -0.180381 -0.511049 -0.543058 -0.161323 -0.545143 0.491355 0.477221 0.380328 -0.168368 1.90097 1.15662 0.483407 -0.0718684 -0.480492 0.0942805 0.501599 -0.582683 0.723726 0.780149 1.6247 1.24379 0.99245 -1.56487 -0.272615 -0.505964 0.436851 0.580235 0.20517 1.72046 1.07789 0.204222 -0.123042 0.266684 0.762995 -0.187211 2.04853 1.84694 -0.152461 
0.350646 0.121267 -0.336764 0.249873 0.32624 -0.346179 -0.589251 0.0511723 0.502385 1.20635 0.0251129 0.94797 -0.395879 0.322553 0.166287 0.37198 1.15237 0.226043 -0.318779 1.01267 0.567704 1.2627 -0.342976 -0.315727 0.0834156 0.0719267 -0.380557 0.674645 0.32719 -0.257224 -0.685728 0.548871 0.519754 0.166376 -0.44333 -0.538033 0.988799 1.32669 -0.313367 0.275516 -1.25948 0.940821 1.38488 0.0899024 0.931265 2.09819 0.957381 -0.36759 -0.274936 -0.421719 -0.14903 0.36174 1.27134 1.47118 0.876391 0.988817 -1.0544 -1.02468 -0.432668 -0.410412 -0.627666 0.24778 -0.232877 0.0254463 0.264402 0.844273 0.737752 0.665665 0.978858 0.573265 -0.420918 0.475331 0.195716 0.718857 -0.976299 -0.704073 -0.422081 -0.635189 -0.257649 -0.184185 -1.55812 0.791715 -0.175928 -0.266594 -0.230565 0.485436 0.216313 1.14694 -0.997012 -0.0329825 -0.101054 0.13417 0.835693 1.25249 0.820838 0.550879 -0.630883 1.61811 0.725704 -0.548631 
0 0.00239013
 4 100
-0.463911 0.887867 -0.244279 -0.544188 -0.569259 0.915911 0.0124667 0.501258 -0.147267 0.96822 -1.78 0.121226 -0.545257 0.674084 -0.741798 -0.129815 -1.08303 0.0945967 -0.40793 -0.225623 -1.26011 -0.174607 -0.794804 -0.147075 -1.00786 -0.0407701 -1.11158 -0.278839 -0.924296 0.00720107 -0.905628 0.0400908 -0.856508 0.778319 -0.242679 0.616948 -1.5035 -0.34384 -0.578168 -0.385601 0.456585 1.65377 -1.60502 0.78829 0.761723 1.21685 -1.07212 0.400195 -1.0418 0.334017 -1.10425 0.346798 -1.06836 0.218267 -1.55459 0.726127 -0.377147 1.24915 -0.513202 1.33342 -0.504627 0.342147 -0.566546 1.21992 -0.477408 0.722943 0.129868 0.717071 -0.328085 -0.599672 -1.61707 -0.310872 -0.811626 -0.219209 -1.76842 -0.802216 -0.228855 1.18109 -0.294333 0.458419 -0.478528 0.500746 -1.10939 0.179495 -1.35752 -0.520966 -0.372173 0.3531 0.0579761 0.841869 -0.537413 0.865723 -1.01332 0.94426 0.124794 0.857345 -0.381966 1.27075 -1.15699 -0.0310755 
-0.351198 0.362466 -0.920713 0.612446 -0.716065 0.208826 -1.27078 -0.0180372 0.203798 0.337774 -0.0116708 0.751106 -0.482501 0.327709 -0.134753 0.693661 -1.29219 1.16839 -0.391141 0.462263 -0.582034 0.716234 -0.186197 0.560192 0.457 0.966187 -0.0654263 0.796716 -0.188796 0.729191 -0.11872 0.153475 -0.657998 0.810037 -0.303865 0.714102 -0.295599 0.214286 -1.23613 0.0487528 -0.844151 -0.40054 -0.146657 0.853986 -0.350425 -0.135256 -0.5941 1.11505 -0.655846 0.201097 -0.655898 -0.495882 0.150459 1.76094 0.558061 1.20947 -0.685032 0.723428 -1.37707 1.00284 -0.758598 -0.019031 -0.209621 0.650462 -1.02773 0.382646 -0.528853 1.04241 0.37716 0.318931 -0.581777 0.777674 0.207967 0.317304 -1.25778 0.300277 -0.514318 0.530225 -0.102232 1.2584 -0.531082 0.49469 -0.681251 0.381382 -0.276384 1.72553 0.598424 -0.429691 -0.450597 -0.492337 -1.20533 0.703038 0.819976 1.04256 0.0440731 0.84243 0.497322 1.32094 -0.547883 0.924725 
-0.432696 0.25179 -0.477851 1.46757 -0.598255 0.281141 -0.530126 0.415696 -0.643082 0.164718 -0.165042 1.08314 0.349328 0.880419 -0.44571 1.61002 -0.130949 -0.0360374 -0.634524 0.980894 -1.25768 1.49688 -0.340605 1.00572 -0.557545 0.367803 -0.169206 0.816093 -0.0826031 0.0796539 -0.31586 1.14652 0.324146 1.28201 -0.565046 1.32857 0.944311 1.30998 -0.181856 0.947951 -1.87282 0.246465 -0.451788 -0.941944 -1.48974 -0.0806415 0.106238 -0.0664597 0.180885 0.19864 -0.464328 1.87744 -0.334784 -0.164188 0.0539257 0.556063 -0.513679 0.429104 1.10569 0.863627 0.0504594 1.45359 -1.03756 0.79824 -0.902811 -0.466162 -0.670558 1.00171 0.644828 1.10466 -0.569244 0.74912 0.684265 1.55351 -0.322535 0.73014 0.516497 0.241727 -0.321109 0.695877 -0.752972 0.722496 0.409883 0.788886 0.0448589 0.00329207 -0.774298 0.392018 -1.08727 0.24908 0.171275 0.271606 -1.11799 -0.961739 -0.816601 0.695553 -1.44082 0.580524 -0.144039 -0.180231 
-0.150433 0.373086 -0.205061 0.418402 -0.372853 0.197867 0.233718 1.26489 -0.282672 0.926245 -0.70468 0.755423 -1.1422 0.406682 -0.835868 0.519854 0.234546 -0.0328928 -0.38828 1.28132 -0.16766 1.78293 -0.573614 1.33085 -0.953772 -0.250674 -0.320458 0.227269 -0.870405 -0.142029 0.000624333 1.38391 -0.723244 0.4118 -0.988892 0.628409 0.362685 0.569203 -0.280422 1.46534 -0.0581982 1.1312 -0.448731 -0.0306192 -0.417516 1.71103 -0.689476 -0.449819 -0.434238 -0.372905 -0.0995121 1.18497 -2.04038 -0.587519 -1.21711 0.335122 -0.636832 1.02481 -0.735659 0.306624 -1.74492 0.408614 -1.02953 0.848514 -1.35888 -0.581077 0.214334 1.20341 0.000349981 0.757967 -0.919002 0.314147 -0.728571 1.40753 -0.71253 0.00499726 -0.679698 0.391478 -0.525747 0.348464 -0.992146 0.0494465 -0.710906 -0.0837834 -0.405417 -1.44151 -0.239413 1.61225 -1.05245 1.27986 -0.0179201 -0.024926 -1.18459 0.299646 0.0323659 0.448252 -0.494042 1.05498 -0.709639 -0.452087 
0 0.690413
 4 100
-0.835426 0.491811 -0.0815354 0.0367587 -0.352769 -0.200332 -0.0679701 0.854248 0.48577 0.610586 -0.288102 0.279825 0.129534 0.513812 -0.530934 0.237936 -0.102389 0.151144 -0.315204 -0.673666 0.0989982 0.236824 -0.327389 0.940064 -0.159884 -0.86388 0.676956 -0.152758 -0.295823 -0.488656 -0.420441 -0.101583 -0.46323 0.21928 -0.206447 -0.497938 -0.385273 -0.475847 -0.847059 0.229401 -0.646704 0.690758 0.827745 2.32916 -0.59357 1.24387 0.467987 0.717931 0.53811 0.894494 -0.6475 0.00566117 0.788901 2.30977 -0.00863533 -0.676013 -0.0721326 0.385998 -1.00973 1.16999 -1.16147 -0.733207 0.607061 0.799592 0.660164 1.03917 0.916418 0.519731 -0.998415 -0.899463 -0.968154 0.0164944 -1.50959 -2.05254 0.624627 0.854297 -0.971161 -0.408617 -0.832745 0.19223 -1.03426 -0.465274 -1.35378 0.690117 0.370722 0.138479 -0.589374 -0.125818 -0.34102 0.17486 -1.95998 0.0833263 0.81793 1.26555 -0.896921 0.222354 0.676484 -0.735434 -1.31128 1.02633 
-0.873198 0.771455 -0.0849438 0.820084 -0.518683 0.188488 -0.666369 0.49109 -0.114021 0.176456 -0.50321 0.582179 -0.0518955 0.112753 0.103867 0.360861 -1.14313 -0.106317 -0.892213 0.458864 -0.355183 0.354062 -1.08297 1.00398 -0.169591 -0.44996 -0.0553923 0.61349 -0.407747 -0.290307 0.514906 0.431357 -0.707423 1.00932 0.0268116 0.37334 -0.629017 0.429152 0.108725 -0.0886081 -0.895492 -1.2742 -1.59549 1.06744 -2.18263 -1.64689 -0.217339 0.663086 -0.614792 1.49309 -0.48526 -0.630372 -0.251102 0.936608 -1.37137 -0.146076 -0.0371446 1.03365 0.385615 -1.3847 0.608309 -0.0166066 -1.35696 0.208703 0.177242 0.375461 -0.261422 0.361261 -0.677964 -0.505935 -0.308072 0.301423 0.648107 -0.943559 -0.122043 0.571861 -0.078448 -0.289588 -0.808211 1.15321 0.0841741 -0.0132383 -0.596159 0.548858 0.404002 2.0749 -0.410829 -0.195973 -0.207969 -0.449526 -1.4857 0.140089 -0.234102 0.354501 -2.06983 -0.162477 -0.180824 -1.1647 -1.2857 0.953424 
-0.426202 0.214724 -0.999328 0.528692 -0.480389 0.277317 -0.628563 0.491057 -1.2083 0.601364 0.220166 0.755345 -0.465307 -0.10254 0.266137 0.246108 0.11804 0.595203 -0.519722 0.107437 -0.0814514 -0.0466005 -0.776074 0.330085 0.445808 0.402724 -1.0876 0.251422 -0.243665 0.661782 0.127172 0.409234 0.935028 0.726798 -0.758751 0.609049 0.428634 1.70568 -0.6187 -0.173317 0.0315067 0.194161 -0.557558 -0.0702963 -1.10443 0.584869 0.277132 0.379701 -1.06495 0.244667 0.0201433 0.404424 -1.0609 -0.228641 -1.20439 -0.247266 -0.763324 1.13746 0.337702 0.146354 -0.327364 1.57583 -0.516141 -0.944217 -0.206918 0.419661 0.25471 0.392 -0.537794 -0.189161 -1.18433 1.40759 0.47954 0.348566 -1.49406 -0.341106 0.0657821 0.0986619 -0.944182 0.29651 0.498543 1.21373 -0.326941 0.309884 -0.305467 -0.299248 -0.896452 0.205171 -0.272252 0.528976 0.313442 -0.222032 -0.366481 0.13744 -0.420234 -0.458635 -0.299877 0.561695 -0.361353 0.0978161 
-0.1505 0.0253777 0.0955197 0.193488 -0.136286 0.335778 -0.171856 0.365169 -0.089171 0.370348 -0.403514 -0.208756 -0.47906 -0.912117 0.139358 -0.0285556 -0.446913 0.589882 0.288849 0.856799 0.0154519 0.867435 -0.299516 -0.572919 -1.01082 -0.636565 0.0505732 0.561329 -0.613039 -0.124852 0.295344 0.244177 -0.471627 -0.234113 -0.323993 -0.036551 -0.0271484 0.842444 -0.961374 -0.797881 -0.217586 -0.0341974 -0.413959 0.185993 0.600434 0.800581 -0.61286 0.276662 -0.769826 0.375029 -0.844829 -0.00503836 -0.613591 1.33513 0.684915 1.48735 -0.702571 0.313523 -0.759159 -0.239868 -0.87331 0.806083 -0.804499 -0.0613006 -0.777703 -0.576427 -0.0299235 -0.0352562 -0.884502 -0.273492 -1.63656 -0.659068 -0.320362 0.368021 -1.28204 -1.2939 -0.422177 -0.902126 -0.374479 -0.387368 -0.0883939 0.00895956 -0.0372735 -0.180293 -0.195605 -0.155169 -0.0801061 0.315303 -0.407736 0.191047 -0.732252 -0.0194612 -1.06454 0.871298 0.286822 0.708383 0.0117072 1.10618 -0.852369 -0.41169 
0 -0.835616
 4 100
-0.582622 0.0614544 -0.317393 0.218155 -0.432169 0.506098 -0.543982 0.698705 -1.04004 0.0754865 -0.199591 0.151237 -0.846591 0.469428 -0.662955 0.0981984 -0.480499 0.500686 -0.766653 0.0866684 -0.207192 0.67842 -0.914229 -0.303948 -0.671916 0.904327 -0.21928 0.328675 -1.14952 -0.0402227 -0.612503 0.079856 -0.310577 1.15724 -0.18671 0.93006 -0.882746 -0.128952 -1.42797 -0.296601 1.72629 1.45602 -0.383381 1.0642 1.26767 0.733555 -0.910046 1.83797 -1.12482 -0.00248736 -0.282809 0.979312 -1.40322 0.145976 -0.861485 1.31545 -0.325811 0.921943 -0.313212 0.99978 -0.297878 0.923235 -0.864279 -0.195756 -0.44732 0.515058 -1.21545 0.428539 0.471002 0.875216 -1.05044 0.0913448 -0.564417 0.473889 -1.83276 -1.46057 0.70408 1.79876 0.122856 1.08859 0.14323 2.29719 0.579033 0.619562 -2.76401 -1.05159 -1.17205 -0.0459393 -0.16053 0.873053 0.332598 0.566685 -0.763598 1.48476 1.34806 1.89944 0.152243 1.83718 0.819037 0.0216487 
0.211639 0.576779 0.00875642 0.105621 -0.845418 0.395304 -1.1611 -0.0975636 0.424981 0.0728412 0.370394 0.319909 -0.4008 0.972796 0.0734101 0.368672 -0.730949 0.8935 -0.827523 0.657784 -0.624478 -0.112372 0.120216 -0.111925 -0.256209 0.923942 -1.00234 -0.107969 0.0504626 0.72233 -0.252535 0.130596 -0.52991 0.210007 -0.40579 1.14624 0.027669 1.24642 -1.18229 0.0641985 -0.423547 0.902194 -0.263523 0.570919 -0.476689 0.60369 -1.01967 0.195178 0.0375596 0.146353 0.203232 0.496329 0.897216 1.43182 1.28015 1.28029 -1.80244 -0.674 -1.2588 0.903032 -0.95629 0.209293 -0.0777587 0.839096 -0.532777 0.60273 -0.0959385 1.419 -0.596972 1.26737 -0.709426 0.152581 -0.170586 1.40062 -1.04718 0.220892 -1.12857 -0.252744 -0.959025 -0.323885 -0.28191 0.824163 -1.7138 0.0234566 -0.274046 2.1449 1.28239 1.44194 -1.20863 -0.1757 -1.39723 -0.359361 1.26718 1.85439 0.929512 1.53473 0.159852 0.713172 -0.795879 0.24627 
-0.703907 0.600321 -0.369053 0.628541 -0.97363 0.375812 -0.796917 0.161106 -0.247982 0.24106 -0.887253 0.135719 0.152077 -0.100089 -0.595158 0.709483 -0.049336 -0.651202 -0.338281 0.123007 -0.356877 1.09344 -0.83477 1.11914 -0.816337 -0.238081 0.385995 0.917575 -0.539137 -0.231422 -0.557742 0.682191 -1.32542 0.313679 -0.104464 0.495393 -0.448918 -0.103629 -0.771092 1.62454 -1.30837 0.207695 -1.91483 -0.602723 -2.20786 0.0814038 -2.52979 -0.534845 0.310934 -0.0547075 -0.0410749 0.686938 -0.162182 -0.0394479 0.037503 0.479516 -0.289624 1.17571 0.263405 0.399624 0.625306 1.20911 -0.819407 1.62353 -0.983468 0.291282 -0.460324 0.748487 0.118511 0.372366 -1.11569 -0.119135 0.0834403 1.00523 -0.385723 1.06913 -0.00245128 0.173872 0.595971 0.315414 -2.21065 -0.370258 -1.20621 0.0134773 0.137005 1.75273 -0.843039 0.0892654 -0.817361 0.487293 -0.629597 -0.025535 -0.693347 -0.592682 -1.57222 0.00336923 -1.24347 -0.0438961 -1.46685 0.00474359 
-0.395481 0.0570189 -0.602666 0.285321 -0.977919 1.26094 0.145467 0.357336 -0.571913 0.910618 -0.823733 0.821185 -0.74948 0.948011 -0.792538 0.277172 -0.815013 0.357178 0.0751935 0.766116 -0.552357 0.907846 -0.845312 1.72409 -0.762864 1.03324 -0.560705 -0.0409781 -0.0930193 0.410304 -0.839387 0.257831 -1.1709 0.589482 -0.62181 1.24965 -0.200977 0.282501 0.0839873 1.39771 0.719523 0.172413 -1.1018 0.00771151 -0.530317 0.446797 -1.11579 -0.616711 -0.672854 -0.360056 -0.15714 0.9818 -1.23331 -1.89866 -2.18521 -0.723384 -0.654412 0.852451 0.34444 0.357324 -1.03748 -0.194172 -0.704215 1.14432 -1.07381 0.071977 -0.979068 0.360574 0.0229941 1.24446 -0.658615 -0.313594 -0.235774 0.0038804 0.480947 1.24843 -0.795529 1.24669 -0.144105 -0.255459 0.329499 0.830891 -0.339245 1.13572 -0.828102 -0.567794 -1.5203 1.05903 0.258063 1.32793 -0.499056 0.509084 -0.215509 -0.42514 -1.87546 0.37762 -0.268798 0.368725 0.168234 0.35294 
0 0.279097
 4 100
-0.321245 -0.293945 -0.562309 0.112414 -0.341287 0.697922 -0.438195 -0.0957486 -0.900984 0.895684 -0.955812 -0.0777282 0.272081 1.01177 -0.35343 -0.556429 0.136045 0.0990068 -0.0312612 0.556201 -0.0349338 -0.246487 -1.01509 0.529105 -0.968319 0.213755 -1.09161 -0.41424 -0.47425 -0.1516 -0.482576 0.57672 -1.0321 -0.151678 -1.16502 -0.201358 -0.188498 0.652841 0.027498 0.229955 -0.356597 0.350587 -2.13655 -0.736556 -0.227455 -1.37693 -2.22966 -0.0121191 -0.91627 0.0475018 0.471196 0.547542 -0.635282 -0.414953 -0.605942 1.73191 -0.388154 0.481582 -0.0397523 0.69257 0.158827 0.775293 -0.162036 -0.0115756 -0.207126 -0.286314 -0.253165 0.857352 -0.140631 -0.154059 -0.309732 1.52712 0.340885 0.938102 -0.980172 0.532403 -0.257532 0.102443 -0.330412 -0.198377 -0.487262 -0.87151 0.00704742 -0.0649693 -0.294385 0.223453 1.32855 1.04213 -0.4917 1.27073 -0.506026 0.0652521 -1.38411 -0.611318 -1.22037 -0.0619883 -0.56562 0.744497 -0.752181 -0.423754 
0.360111 0.380214 -0.106811 0.679732 0.294119 1.02126 -0.347179 0.628739 0.131509 0.550108 -0.752537 0.692879 0.293266 1.08271 -0.205999 0.575915 -0.464357 0.715132 -0.418868 -0.084078 -0.25311 0.521734 1.00437 0.482715 -0.107451 0.00457385 -0.0950658 1.06637 0.220226 0.140285 0.143497 0.778023 -0.0739111 0.596017 0.32742 0.767099 -0.0631557 0.72043 -0.128533 0.485452 0.159921 -0.706843 0.9651 -0.239858 0.375777 -0.985312 -0.776214 0.752737 -0.752349 -0.139627 0.318375 1.03404 -1.2342 -0.839718 -1.016 0.517612 -0.251504 -0.181373 -0.75627 0.897742 -0.278377 0.0922691 0.781621 0.980176 -1.19225 -0.104192 -0.158732 0.113871 -0.224083 0.360911 -0.987482 1.36913 -0.0289464 1.35599 -0.867287 -0.0267724 -0.245799 0.223717 0.191614 0.604929 0.538524 0.243237 1.13482 0.258934 -1.82882 0.357831 -0.22664 -0.434001 0.48322 0.561807 0.162014 1.14659 -0.330161 0.445961 -1.13023 -0.326452 0.722083 0.611607 -0.336354 -0.444546 
0.33985 0.0690287 -0.564772 0.732463 -0.0641365 0.69214 0.158316 0.676948 -0.13203 1.09907 -0.170319 0.942173 0.231548 0.971245 0.162565 0.704995 -0.0140129 1.37491 -0.92194 0.655788 -0.369293 0.408678 0.0254584 0.253116 0.156181 -0.289994 -0.0751248 0.772214 0.566682 -0.37951 -0.582907 1.17124 0.497933 1.2461 0.0986821 0.962612 0.970986 0.661296 -0.541631 0.676777 0.0552348 1.05977 1.51831 0.386578 0.34389 2.23011 1.58141 0.823179 -0.38527 -1.19857 -0.603075 0.851737 0.0524151 -1.67845 -0.393257 0.799267 -0.321095 -0.747808 1.01745 0.476821 -0.231688 -0.366715 -0.617678 -0.891966 -0.969948 -0.796359 -0.105336 0.500458 1.16102 0.0915385 -0.798485 1.51456 1.07375 0.75137 -0.00985671 -0.422626 -0.164453 -0.28464 -0.231705 0.631296 0.403382 1.15053 1.71184 0.694182 -0.85416 -0.520004 -0.432481 0.500461 -0.203564 0.190986 1.05422 0.807928 0.198643 -0.150044 -0.153367 0.776439 -0.510023 2.21443 2.10585 0.257902 
0.681751 0.260446 -0.168086 1.07529 0.34704 -0.278345 0.0533883 0.270687 0.2705 0.710646 -0.511091 0.249606 -0.599047 0.16357 -0.0500618 1.05543 0.81109 0.142696 0.53479 1.17553 -0.018082 0.678358 -0.930321 -0.0499077 -0.274359 -0.459346 -0.161026 0.152336 0.0932895 -0.711249 -0.284112 1.33394 0.311928 -0.348418 -0.743887 -0.190683 0.140659 0.821724 -0.520575 0.218708 -1.07457 0.411455 0.754196 -0.0216449 -0.0113353 2.15931 1.08851 -0.0271199 -0.0924808 -0.266102 -0.144443 1.20883 0.441581 0.385061 0.501239 1.01984 -1.11235 0.0148586 -0.366555 -0.35164 -0.42101 1.06408 0.125489 0.241086 -0.174349 0.253419 0.22596 0.900324 0.223323 0.611978 0.0827097 1.25907 -0.11525 1.31587 -0.376963 -0.235193 0.368201 -0.473751 0.189056 -0.0316444 -1.77007 0.567721 -0.138738 0.0607557 -0.279539 -0.028843 -0.378158 1.14074 -0.530851 0.252998 0.141268 0.455996 -0.551881 1.95153 1.26071 0.637922 -0.563402 0.849351 0.200455 -0.334687 
0 -0.261414
 4 100
-1.16767 0.547901 -0.0412309 1.15057 -0.349699 0.224075 -0.84302 1.42902 0.0832027 1.09677 0.773318 1.13631 -1.43214 0.409731 0.287717 1.12843 -0.197062 0.87323 -1.18194 0.663514 0.00209336 0.416967 -0.65714 0.273876 -0.375797 0.561154 -0.0103199 0.905214 -1.01884 0.274744 -1.21445 0.349697 -0.113969 0.28094 0.489297 1.40199 -0.169434 -0.236016 -0.873844 0.64186 0.00586594 -0.0825553 0.819561 2.59424 -0.639742 1.52538 1.12205 2.44924 0.310377 0.961478 -1.44796 0.214386 0.968454 2.29543 0.216831 1.18474 -0.51377 0.779765 -2.03099 0.934733 -0.726482 -0.0800047 -1.56681 0.333659 0.203702 0.520013 -0.64557 0.73502 -0.0755124 0.447505 -0.244965 0.888997 -1.51468 -1.01971 -1.02314 0.162631 -0.0229118 0.281939 -0.841021 1.1022 -0.0961324 1.06891 -1.18616 1.25703 -1.31431 0.429606 -0.807252 -0.00405135 -0.030934 -0.0201885 -1.38472 0.839024 0.568452 2.4151 1.87057 2.38011 0.2112 0.429504 -0.317221 1.58104 
-0.832111 0.351213 -0.95377 1.48854 -0.569497 -0.347176 -0.224884 0.378897 -0.735779 0.467952 0.460994 0.974043 -1.61721 -0.113375 0.264807 0.749071 -0.755059 -0.0555605 -0.620851 0.422265 0.381859 -0.0399697 -0.386467 -0.0809248 -0.809575 1.04406 -0.374072 0.326432 -0.564946 0.82278 -0.0496641 0.96726 -0.00871705 0.0595189 -0.220997 0.580021 0.0586155 0.381947 -0.425693 0.915754 -1.25722 -0.668416 -2.01117 0.991944 -2.66121 -1.61324 -0.657727 1.63745 0.524826 1.25208 0.121723 -0.122789 0.777465 1.76964 0.0977331 1.17359 -1.07008 0.23389 -0.436222 0.371958 -0.0729033 1.22131 -0.966783 0.3837 0.132246 1.16544 -0.704372 0.744787 0.0889997 0.468152 0.410157 0.860177 -1.14362 0.308365 -0.935018 1.36175 0.155541 0.269797 -0.563989 -0.100776 -0.75637 -0.485719 -1.71663 0.356117 1.01928 2.07544 0.823535 1.92893 -0.867594 0.441901 -1.74475 -0.387213 0.479317 0.810659 0.428709 0.443761 -1.03911 0.0361803 -1.66114 0.965411 
-1.04644 0.555813 -0.0409056 0.41427 -0.232072 1.07393 -0.0410973 0.0714759 -0.540351 -0.0402214 -0.671355 0.270843 -0.976173 0.425218 -1.20002 0.541697 -0.191979 0.0610199 0.0386586 1.15429 -0.381623 0.620081 -0.766516 0.263486 -0.718403 0.21852 -0.742777 0.265421 -0.270474 0.217985 -0.451059 0.240111 -0.336717 1.12577 -0.422352 0.680261 -0.287801 0.871824 -0.142826 0.619428 -1.14829 -0.538383 -1.73655 -0.477549 -1.04025 -1.30456 -1.32891 -0.170296 -1.85548 1.03628 0.697457 0.539035 -1.9862 -0.000470689 -0.216192 0.162587 -0.893989 1.01195 0.519431 0.863226 0.643485 0.719473 -0.888351 0.727432 -0.908698 0.0756679 -0.290135 0.265103 0.241913 0.0131713 -1.02598 1.26722 -0.53143 -0.421286 -0.540969 0.577018 0.290346 0.676003 -0.243484 0.715977 -0.785854 0.215085 -0.829974 -0.504613 -2.06904 0.452815 -0.687658 0.643545 0.215806 1.35273 -0.744626 0.298999 -0.824793 -0.383504 -0.713352 -0.50443 -0.726614 0.633141 -1.35307 -0.709548 
-0.139799 0.205367 -0.227147 0.155914 -0.48157 1.38154 -0.411887 0.141063 0.191838 0.365453 -0.0740784 0.932601 -0.542586 0.0734139 -0.758026 0.748048 -0.23271 1.03506 -0.919667 0.226711 0.213582 0.483657 -0.0668772 1.14248 -0.599373 -0.0883484 -0.977014 0.0766347 0.185524 0.162541 -1.15382 0.644472 0.238909 0.625252 -1.06405 0.347083 0.706142 0.503496 -0.793012 0.138859 0.212467 0.913214 -0.817935 0.390101 0.691222 0.886704 -0.488016 0.415721 -0.822503 -0.426928 -0.299378 0.355973 -0.899207 -0.793602 -1.10358 0.0581856 -1.35518 0.015491 -0.0398168 0.0906395 -0.971651 0.311218 -0.81537 0.20953 -0.884932 0.122875 -1.15055 -0.189477 -0.112965 0.871705 -0.67299 0.273017 0.0485966 0.256784 -1.1871 0.389493 -1.29888 0.781041 -0.976494 0.101003 -0.148974 0.55946 -0.297162 0.839651 -1.32422 0.0181923 -0.393044 0.471032 -0.957979 0.348697 -0.732344 0.667637 0.309952 0.132323 -0.917475 0.159608 -0.830056 0.835589 0.116629 0.639181 
0 0.853731
 4 100
-0.0208212 0.46852 0.447745 0.0226692 0.176368 0.215764 -0.731702 0.147809 -0.736123 0.772844 0.118859 1.33585 -0.83708 0.246476 -0.00913186 0.709416 0.191979 -0.51267 -0.582537 1.15328 0.137498 -0.518291 0.34485 0.0869424 -0.43943 0.0500231 -0.365325 0.505384 -0.793896 0.318184 -0.780882 0.501518 0.73245 0.646016 -0.871319 0.668115 0.319134 0.668176 0.14892 0.72651 -0.0316681 0.298358 0.102751 0.313598 -0.0948438 0.152985 -0.585142 0.888804 -0.295551 0.776606 0.274032 0.458682 -0.458453 1.11906 0.198172 0.619376 -0.282993 0.880284 -0.0746878 -0.178037 -0.146988 0.830618 -0.60945 -0.566431 0.15691 1.0452 0.120952 -0.0952073 0.38203 0.808276 0.277012 1.33638 0.446085 0.689313 -0.513026 0.749583 -0.411891 0.749336 0.171827 -0.0262628 -0.133497 1.09429 0.511403 0.299146 -0.591489 0.80789 0.0865492 -0.32533 -0.387319 0.754398 -0.491556 0.679657 0.29318 0.730706 -0.320515 0.273692 -0.433129 -0.0458821 -0.596755 -0.352934 
-0.507385 -0.659286 0.380253 0.624258 -0.588547 0.864848 -0.588962 0.00667075 -0.778045 0.795607 0.59886 0.428156 -0.627468 0.475002 0.528101 0.819569 -0.503157 -0.28713 0.27274 0.987049 -0.453118 -0.483682 0.0753873 0.0401344 0.0753063 0.192795 0.376289 0.319718 0.340851 -0.52744 0.783244 0.540069 -0.429294 -0.365937 -0.217655 -0.306528 0.233841 -0.11548 1.0981 0.860387 -1.23797 -0.155165 0.393038 -0.0793164 -0.675141 -0.1004 -0.98595 0.583954 -0.990503 0.312121 -0.22207 1.03925 -0.380856 0.15504 0.352385 1.01655 -1.07438 -0.914472 0.552709 0.314334 -0.33433 0.463018 -0.293968 -0.700322 -1.07183 -0.023175 -0.458876 0.17133 -0.333412 -0.181334 -0.86912 0.714589 0.0477295 0.186151 0.44553 -0.450981 -1.1268 -0.205567 -0.842069 -0.168803 -0.93354 0.435802 0.0348794 0.0894075 -0.28375 1.04334 -0.196958 0.66506 -0.0985127 0.138485 0.702887 0.276899 -0.427097 0.514976 0.322127 0.354189 0.35647 0.574979 -0.800376 0.185249 
-0.478126 -0.0767253 0.0356537 0.375884 -0.451228 1.20681 0.255223 0.214218 0.278192 0.898046 -0.131013 0.510098 -0.671005 0.388866 -0.669031 -0.377946 -0.911145 0.552426 0.609614 0.147076 -0.0624907 -0.319459 0.34708 -0.673286 -0.466885 0.222356 -0.224559 -0.497498 -0.373032 0.218366 -1.07694 0.325421 -0.48134 -0.315666 0.262455 -0.23558 -0.00958733 -0.780359 -0.197765 -0.679362 1.03987 0.0529467 -0.720704 0.418339 0.62855 0.564977 -0.595604 -0.0973677 -0.659013 -0.6463 0.45881 0.205433 -1.3177 -1.70745 -0.349064 1.29501 0.247651 1.83505 0.350796 0.0149521 -0.709918 0.220957 0.451838 0.214461 0.177564 -0.298529 -0.389608 0.208618 -0.391729 1.03312 -0.0256645 0.755084 -0.963731 -0.181728 -0.0131569 -0.806473 -0.962254 1.30052 -0.280022 0.285195 -0.201619 0.0732023 0.263098 0.157486 -1.51232 -0.0936023 -0.255766 0.944556 0.1159 0.241011 0.67033 0.243734 -0.300376 0.0362689 -0.258974 0.144332 -0.240828 0.371198 0.300063 -0.876715 
0.318158 1.08606 -0.599622 0.287868 -0.0931614 -0.172664 -0.942934 0.107744 0.317592 1.49419 0.436084 0.676846 0.482804 1.78659 -0.500248 0.857486 0.455952 0.732889 -0.368128 -0.163179 -0.00473793 0.410546 -0.129877 0.295809 0.0340246 0.645489 0.137157 0.120512 0.25948 0.648452 -0.610692 -0.0590357 -0.116922 0.995654 0.442295 0.571027 -0.431606 1.38647 0.602905 -0.13702 -1.0231 0.200965 1.22352 0.776 1.20567 0.621209 0.509149 -0.294106 -0.322565 -0.699026 -0.855344 1.33101 1.291 -0.118614 -0.347808 0.385421 0.798939 -1.24743 -0.450594 1.69459 0.092081 -0.060242 0.195339 -0.0676488 0.0703928 -0.0150926 -0.952876 0.261076 0.387728 1.70915 0.835221 0.124016 -0.846664 0.528231 0.7783 -0.234182 -0.0407979 0.440907 0.179942 0.405557 0.125841 1.22821 -0.0444509 0.634651 -0.189105 0.408729 -0.12287 0.241207 0.523593 0.74629 0.340833 0.563505 0.565011 0.87531 -0.395648 0.0224728 -0.521204 0.89847 0.8094 0.704863 
0 -0.719137
 4 100
-0.64213 0.714626 -0.32539 0.574382 -1.04342 0.0342077 -0.298218 1.95123 -0.604641 0.828726 -0.0221243 1.59465 -1.41631 0.264785 0.101227 1.00393 -0.247188 0.238987 0.131189 0.464263 0.0495098 1.18142 -0.235367 0.950566 -0.35087 0.52969 -0.602229 0.424526 -0.120704 1.21741 -0.947019 0.571914 0.362804 0.378426 -0.664788 0.441255 0.850452 0.739462 0.0377453 0.117625 -1.77172 0.803253 0.856631 1.78352 -1.54375 1.87741 0.367417 1.66012 0.634333 1.30297 -1.49919 -0.35305 2.0065 2.86507 -0.407712 -0.319982 -0.316429 0.66435 -1.68629 0.535156 -0.332152 1.04067 -0.00100875 0.231942 0.261433 1.23429 -0.632291 0.35805 -0.0216055 1.04467 -0.0249823 0.607219 -0.55068 -0.956944 -0.244776 -0.189038 -0.774758 -0.514449 -0.61879 0.276149 0.00561694 -0.312151 -1.31828 1.76608 0.587283 1.24779 -0.837129 0.301533 -0.989695 0.209098 -0.451299 0.674498 -0.233543 1.9603 0.321408 0.855407 -0.502225 -0.293533 -0.400157 1.63921 
-1.95896 -0.575307 0.185681 0.869215 -1.31138 0.177177 -1.15249 0.786729 -2.16515 0.91932 -0.694389 1.14164 -1.71638 -0.109349 -0.387074 0.548968 -0.959874 -0.237974 -0.536995 -0.124571 0.149745 0.445821 -1.04927 0.0780635 -1.00068 0.687138 -0.123786 -0.550739 -1.2828 1.12925 -0.906117 0.697759 -0.574679 -0.35996 -0.659217 0.113628 0.0585611 -0.0649643 -0.627692 -0.368469 -1.3076 -0.465973 -1.74792 0.760893 -2.49266 -0.765851 -0.642624 0.883983 -0.338295 0.953646 -0.745847 -0.47915 -1.21529 0.920009 -0.715969 0.10019 -0.672386 1.72597 0.11139 -0.157128 0.368035 0.784098 -1.15417 0.686704 0.130671 0.751088 -0.580118 0.452323 -0.919949 0.543864 -0.99252 0.755073 -1.31132 -0.987337 -0.674402 0.0778636 -0.116996 0.960777 -0.847124 -0.49089 -1.56017 -0.493479 -1.89589 0.857803 0.854999 0.325652 -0.896315 1.1531 -1.00565 0.362265 -0.575992 0.210244 -1.46493 0.87808 0.0480991 -0.131194 -0.768886 -0.649213 -1.0552 0.753183 
-1.45728 0.677088 -0.162279 0.573612 -0.95586 0.975805 0.0160952 0.182179 -0.490651 -0.467292 -0.847676 0.614644 -0.894714 -0.0732819 -0.142468 0.557498 -0.965595 0.684284 -0.97472 0.353952 -0.705303 -0.237231 0.384798 -0.427506 -0.143294 0.0465365 -1.00267 0.424991 -0.762886 0.695441 -0.523438 0.255503 -0.243545 1.28753 0.072982 0.341992 -1.04999 0.389802 -0.137306 -0.437857 -0.796551 -1.48208 -2.01678 0.730174 -0.166578 -1.76391 -1.04654 0.887614 -1.40282 1.50489 -0.26444 0.378201 -1.27708 -0.0224066 -0.936897 -0.398406 -0.258165 0.245302 -0.381902 0.987154 -0.174302 0.333385 -0.184966 0.380237 -1.39633 0.717097 -1.06085 -0.0240516 -0.989947 -0.256595 -0.714587 0.701046 -0.664458 -0.290804 -0.985188 -0.241242 -0.596531 1.45596 -0.298736 0.748077 -0.352419 -0.185851 -0.318724 1.01136 -2.39644 0.593491 -0.865484 0.435965 1.21297 0.277883 -0.409419 0.445848 -0.965179 -0.00756261 -0.982018 0.402499 -0.171492 -0.588927 -0.847738 1.01865 
-0.174475 1.82989 -1.54688 1.0202 -0.759175 1.4782 0.436989 0.794656 -0.31546 1.47062 -0.268892 0.683116 0.250452 0.7951 -0.688798 1.41075 0.150466 1.09837 -1.57282 0.992958 -0.166098 1.2391 -1.58923 -0.390072 0.774997 1.05076 -1.38128 0.360623 -0.752768 0.0999772 -1.10186 0.487763 0.62076 1.05485 -1.28752 0.802911 0.257772 -0.346468 -0.915924 -0.10681 0.768437 1.58054 0.0209343 0.226849 1.1159 1.42397 0.522593 0.878412 -1.2137 0.0967793 -0.333104 0.350619 0.361917 0.186671 -0.552563 0.293123 -0.394215 -0.276359 0.0670783 0.773766 -0.167963 -0.327931 -1.36824 -0.109749 -0.943871 0.377473 -0.676794 -0.0425923 0.341034 0.945247 -0.809975 -0.0728152 0.0409378 0.23336 -0.882125 0.33154 0.671942 1.56916 -0.692282 0.0866443 1.11234 1.4975 -0.175908 0.369868 -0.731713 0.0736897 -0.445778 1.20607 0.112982 0.873534 0.204778 0.336252 0.707458 1.63221 -0.613472 0.695947 -0.0239367 1.4245 -0.25591 1.08109 
0 0.987068
 4 100
-0.00176299 0.276185 0.139628 -0.614223 -0.850572 0.346058 -0.541884 1.20457 -0.221286 0.836857 -0.922205 0.599286 -0.0342612 0.889553 -0.36334 0.59006 0.0580311 0.877076 0.111659 0.574656 -0.103624 0.297501 -1.02088 0.949175 0.357173 0.254127 -0.592853 0.36373 -0.3453 0.0938489 -0.873717 -0.0134445 -0.697109 1.07 -0.970092 -0.376959 -0.541629 -0.0961423 -1.11039 0.479834 0.563783 2.42631 1.10047 0.937756 0.310124 1.1894 1.25567 1.48613 -0.315877 0.159267 -1.14237 0.710348 0.38771 0.406082 -1.30293 -0.915951 -0.892065 0.788924 -0.249579 1.30894 -0.493343 0.13626 -0.359994 0.36668 -0.874128 0.459418 0.106232 0.143597 -0.0807745 0.222199 -0.995003 0.907526 -0.267988 0.173908 -0.424644 0.818659 -0.0670135 0.284803 0.0799301 0.759121 -0.162792 0.708497 -0.446061 -0.0749709 0.490417 -0.0102365 -1.786 -0.690564 -0.483513 0.392473 -0.447828 0.770924 0.535193 0.48099 -1.20522 -0.424262 0.0814537 0.163405 -1.20384 -0.0303987 
-0.20309 -0.040126 0.524014 1.07898 -0.790477 0.837736 -0.561255 0.784752 0.575079 0.522181 -0.0107073 1.04584 -0.0155741 0.212529 0.1339 0.928376 -0.0779463 0.0683377 -0.703278 0.596659 0.0576905 0.360134 -0.27062 0.776315 -0.518491 0.521542 -0.358067 1.03588 0.101572 -0.141094 -0.0525401 0.48344 -1.10629 1.10044 -0.462594 0.197582 -0.467798 1.38163 -1.29596 0.635401 -0.486081 0.936343 -0.168009 0.855161 -1.38713 1.28461 0.49727 1.51664 -0.247563 0.951897 -0.770019 -0.816167 -0.275336 0.823636 -0.793766 -0.256503 0.156345 0.903747 -1.14923 -0.906542 0.204559 -0.187214 -0.170527 0.364901 0.0575202 1.00252 -0.2509 0.608344 -0.265819 -0.1018 -1.04388 0.765139 0.525333 0.485246 -0.299309 0.662337 -0.380878 0.289172 -1.29096 1.17093 -0.910247 0.797005 -0.38697 1.06282 -0.381676 0.733345 -1.85449 -0.136555 -0.887281 -0.0233201 -0.338961 0.799344 -0.341638 0.670052 -0.273905 1.26224 -0.177824 0.907373 0.409117 1.13154 
-0.122952 0.596126 0.08076 0.526358 -0.395538 0.440764 -0.654854 0.133131 -0.520157 1.39095 0.624823 0.0847635 -0.519435 0.828904 -0.00335605 0.826939 0.0406674 -0.188116 -0.680062 0.493263 -0.633134 1.63288 -0.575579 0.258167 -0.582805 0.771975 -0.222055 0.738674 -0.0503416 0.685706 -0.772738 0.886932 -0.167769 0.187402 -0.883222 1.16518 -0.850766 0.944518 -1.29752 1.67739 -0.167067 0.540407 -0.7467 0.17947 -1.38966 -0.484886 -0.448157 -0.20881 -0.130776 1.18757 -0.259378 -0.308457 -0.354021 1.11771 0.320246 0.843612 0.0104975 0.20656 0.0518721 -0.172957 -0.984311 1.77452 -0.942774 0.352527 -0.0317818 0.378143 -0.188687 0.798707 -0.258192 0.744525 -0.108895 0.313879 -0.728823 0.720065 -1.1839 0.532775 -0.378422 -0.0427227 -0.285174 0.235034 -0.54065 0.338957 -1.43273 0.50513 1.44092 0.343478 -0.272243 1.31377 -1.66046 0.123864 -0.77293 -0.422728 -0.698892 0.56838 -0.56603 0.610537 -0.796145 -1.15915 -1.37481 0.766055 
-1.05539 0.174755 0.0852864 0.421939 0.0306078 -0.15886 -0.104976 0.333953 -0.675065 0.197328 0.0788637 -0.333398 -1.30921 0.283237 0.334206 0.147458 -0.279726 0.807556 0.771632 0.564194 -0.309 0.653584 -0.913786 1.25614 -0.958888 0.453825 0.352616 -0.198916 -0.716307 0.574924 0.699737 -0.0790894 -0.0517587 0.690674 0.194953 0.108825 -1.0866 -0.248426 0.814458 1.3489 -1.21519 0.293162 -1.47272 -0.240393 -0.868964 0.450136 -1.1394 -0.292094 -1.39884 1.72188 0.0962213 0.433017 -1.32732 0.143316 -0.877189 -0.223474 -0.124354 1.37636 -0.0685452 1.0678 -0.296729 0.520903 0.0518651 0.1057 -0.408321 -0.593713 -0.0178257 0.0595297 -1.94016 0.96918 0.590699 -0.53097 -0.505384 0.757012 0.108504 1.09826 -0.410943 0.334715 0.625002 -0.341033 0.556208 0.178802 -0.900337 0.146259 -0.785821 -0.998508 -0.598956 1.53616 -0.000439357 1.24019 -0.704737 0.582371 -2.34142 0.72242 -0.688088 0.143888 -1.1799 0.472974 -0.711523 0.552933 
0 -0.85204
 4 100
-1.10142 0.690327 -1.29089 0.911258 -0.110073 0.993995 -1.27566 0.742034 0.309973 0.0470586 0.177638 1.53237 -0.693204 0.158714 -0.0698923 1.11079 -1.16786 0.301676 -1.19866 1.1777 -0.174986 0.691945 -0.0779908 0.377114 -0.0481531 1.35242 0.329502 1.68722 -1.10075 0.697479 -0.769583 1.16392 -0.645595 1.38752 0.411699 1.04087 -0.979831 1.16047 -1.15531 1.84743 0.0292364 -0.0284285 -0.427389 1.31252 0.296248 -0.046247 1.36204 0.238401 -1.26949 0.50416 -1.07132 1.05603 -0.675464 0.782566 -0.821078 1.07801 0.136342 0.613745 -1.00909 1.00939 -1.52776 0.187876 -1.4978 0.824796 -2.37052 0.316626 -1.5649 -0.047377 -0.0446431 1.09443 -0.329442 1.69304 -1.02025 2.11294 -1.76214 2.35194 0.404281 1.47773 -0.750268 1.83431 0.0388366 2.65595 -0.268341 1.03193 -2.60039 0.431591 -1.47777 -0.508817 -0.652154 0.559289 -0.861187 0.412103 -0.375862 0.85818 -0.133803 1.32087 -0.127139 1.90979 0.0682371 0.610149 
0.578281 0.938703 -1.01241 1.16806 0.0571559 1.21074 0.0494766 0.967414 -0.173795 0.184571 0.230122 0.829146 -0.236329 0.234033 -1.05921 1.11729 0.356333 1.55588 -0.803685 1.39214 -0.352548 0.610937 -1.26475 1.32518 0.0723696 0.398632 -1.18877 0.596971 0.113423 0.89031 -1.00063 1.10101 0.283632 0.942896 -0.869751 1.24257 0.381625 2.10866 -1.14459 1.39383 -0.516352 3.69204 -0.139304 -0.400595 -0.202815 2.79658 0.933077 1.15997 -0.0379848 0.474329 -0.389915 1.68131 1.31397 1.48609 0.239404 0.0114964 -1.26396 0.262926 -0.275164 0.43867 -1.60419 0.917181 -1.5598 0.817439 -1.0015 0.641772 -1.55062 0.448038 0.101367 1.49985 0.389184 1.39588 -0.971069 2.08745 -0.93058 2.22252 -1.15438 0.159621 -0.387706 0.543045 -0.788351 1.71238 -0.0615248 1.94948 -0.10343 0.4853 -0.372727 2.31846 -1.39543 0.759163 -0.00179364 0.600463 -0.341464 0.830926 0.3734 1.63951 -1.96933 2.37564 0.856095 1.37344 
-0.588611 0.474636 -0.139271 0.881855 -0.565432 -0.0961349 -1.11123 0.660617 0.183431 2.06709 -0.58755 0.0647088 -0.445579 0.995742 -0.908703 0.852804 -0.408507 -0.288542 -0.142778 1.48258 -0.27779 1.40936 -1.19647 1.32187 -1.85694 1.23469 -1.29315 -0.132195 -0.0667093 0.465599 -1.25076 0.72363 -2.07087 -0.0869834 -0.631531 0.423644 -0.737238 0.0248645 -0.714006 1.91985 -1.15937 2.22748 -0.654338 0.7149 -1.41733 0.637154 -1.75631 -0.577757 0.0881358 1.86032 -0.883869 0.201508 -0.927925 2.64472 1.60084 0.74426 -0.826151 1.16881 -1.51579 -0.393736 -1.00147 1.15705 -0.344729 1.54995 0.610878 1.11911 -0.40002 0.328064 -0.710122 0.90875 -0.211906 0.782621 -1.30393 0.340967 -0.316153 1.97465 -0.524176 0.410428 -0.583189 0.0183607 -1.80081 0.367944 -2.03658 -0.339201 0.715538 0.811998 0.188042 1.32888 -1.78752 1.02372 -1.67481 -0.0169922 -1.1969 1.99838 0.886675 0.0369352 -1.834 0.817115 -1.46775 -0.282143 
-1.73912 0.731256 -0.305171 0.413092 -1.00571 1.10113 -1.15432 -0.176169 -0.989545 0.51914 0.181006 0.393805 -1.40506 1.75929 0.40771 0.149132 -1.37198 0.162743 -0.605255 0.448479 -1.03396 -0.378531 0.403938 1.4577 -0.894159 0.613015 0.220928 1.31405 -0.909778 1.26194 0.185221 0.0629098 -0.979219 0.665772 0.498875 1.88341 -1.34164 0.00407403 0.3015 2.01768 -2.51085 -0.177228 -0.733014 0.922972 -2.09632 -0.974398 -1.13253 0.00691223 -0.576555 1.90569 -0.022152 0.508414 -0.870813 1.19057 -1.65371 -0.64249 -0.149343 0.657806 -1.50794 1.37014 -0.32421 0.659092 -0.591156 1.59302 -0.0433825 0.618822 -1.80294 -0.769057 -1.76265 0.0305184 0.394298 0.965005 -1.42285 -0.129157 1.01241 2.9132 -1.21667 1.32758 -0.677524 1.52589 -0.60479 0.521667 -0.163009 2.06344 0.0762845 1.90191 -0.732066 0.125185 -0.736638 0.502179 -1.08163 1.72859 -0.915479 -0.907297 -2.53263 0.215051 -1.0973 -1.15018 -0.748891 2.18663 
0 0.140909
 4 100
-0.740506 0.264572 -0.180362 0.405708 -0.400306 0.431043 -0.347612 0.738787 -0.796107 0.527421 0.329281 0.433059 -0.208007 1.05281 -0.0174718 0.733618 -0.838233 0.890307 0.383891 0.327289 -0.167044 -0.460178 -0.0143735 1.1756 0.190808 0.0133707 -0.935521 0.605342 -0.285254 0.848922 -0.825929 0.595621 -0.701484 0.228967 -0.762518 0.486739 -0.47181 0.587688 -0.077886 0.4394 -1.32956 0.585434 -0.19511 1.13622 -0.566904 1.17184 0.224503 1.50252 0.145029 1.44895 -0.0513089 -0.204344 0.399538 1.53265 -0.584397 -0.101193 0.0914637 0.743009 -0.583014 0.91862 -0.872155 -0.353387 -0.165695 0.372161 0.0262946 0.434748 -0.548731 -0.194561 -0.394547 1.38828 0.316801 1.02614 -0.252919 0.482875 0.23717 0.714169 -1.12721 0.294514 -0.852322 0.898182 -0.181865 0.828456 0.0312934 0.171201 0.443491 0.522486 -0.431797 0.467097 -0.193621 0.682803 -0.177652 0.46581 0.0337434 0.865045 -1.56279 -0.157155 -0.308811 -0.183222 -1.00661 0.985281 
-0.18539 0.518741 -0.480282 0.120569 -0.304902 0.440407 -0.855521 1.15084 -0.736314 0.901006 -0.910024 0.933633 -0.521592 0.692112 -0.603548 0.407507 -0.214791 0.513909 0.196833 1.02658 0.0625779 -0.339379 -0.106637 0.898447 -0.665753 0.08644 -0.305617 0.352244 -0.575583 0.00518492 -0.421675 0.237265 -1.0482 0.729316 -0.329466 0.0452023 -0.280641 -0.151262 -0.213506 -0.0651579 -0.514357 -0.0894873 -0.771272 0.705191 -0.418375 0.260857 -0.538665 1.83048 -0.728735 0.831123 -0.454421 0.196447 -0.689719 0.778949 -0.684307 0.565901 -0.379482 1.0004 0.48835 0.0783975 0.23286 0.691741 -0.00337024 -0.432981 -0.595558 0.883155 -0.621958 -0.357906 -0.956743 0.475768 -0.789555 0.208058 -0.375239 0.142664 0.398285 -0.266961 -0.273399 0.92036 -0.629611 0.489677 -1.17254 -0.611905 -0.208108 0.627774 -0.557218 -0.401634 -0.694171 0.474448 -0.197876 0.263028 -0.0079697 0.766037 -1.16091 -0.125188 -0.582023 0.444599 -0.82759 0.122829 -0.141495 0.849768 
-0.588711 0.505882 -0.572199 0.397588 -0.0153118 0.644851 -0.907736 0.704397 0.128312 0.308409 -0.110291 0.702869 -0.287451 0.901093 0.0986027 -0.145025 -0.577384 1.02911 -0.709416 0.736542 -0.0220063 -0.143808 0.290067 -0.00249541 -0.808072 0.295991 -0.78277 0.580291 -0.479696 1.15306 -1.12145 0.0386644 -0.191248 0.51003 0.474062 0.850825 -1.22766 0.671949 -0.0291303 0.379034 0.678954 0.0440978 -0.490683 0.654529 0.128535 0.153605 -0.349002 0.411294 -0.429432 0.941812 -0.382544 0.548116 -0.609715 0.652366 -0.9743 1.50117 0.301496 0.681668 -1.14004 0.234142 -0.884005 0.140221 -0.55402 -0.123177 -0.348932 -0.168524 -0.850692 0.886295 -0.350132 0.574895 0.337178 -0.151277 -1.40255 0.324909 0.179252 0.57282 -0.374032 0.68422 -1.11542 0.550313 0.188932 0.418942 -0.605248 0.382904 -1.07254 -0.564497 0.47689 1.50879 0.151503 0.281728 -0.447725 0.229166 -0.769649 0.297354 -0.560169 0.182404 0.0897244 0.290394 -0.128061 0.538324 
