5 5
-0.656663 0.587385 -0.898351 0.23527 -1.00615 
-0.23118 0.829647 -0.388771 0.255627 -0.550236 
-0.0307985 0.89123 -0.0152356 0.863038 -1.00451 
-0.129492 0.827916 -0.134326 0.327041 -0.834243 
-0.407938 0.899885 -0.0463973 0.164773 -0.212131 
5 5
-0.268264 0.76948 -0.151635 0.887423 -0.924617 
-0.940324 0.400583 -0.402646 0.932804 -0.209713 
-0.85877 0.703175 -0.629593 0.41628 -0.0698197 
-0.425772 0.822671 -0.490685 0.631769 -0.156418 
-0.0769867 0.311539 -0.678827 0.661455 -0.107248 
5 5
-0.148868 0.733729 -0.89067 0.978049 -0.602288 
-0.972409 0.900178 -0.341062 0.684219 -0.105106 
-0.703298 0.174281 -0.0091988 0.0336877 -0.0218617 
-0.472248 0.562288 -0.481168 0.0451605 -0.203104 
-0.285862 0.550501 -0.249896 0.992244 -0.727623 
5 5
-0.768832 0.0903074 -0.025519 0.0415211 -0.175125 
-0.103931 0.201273 -0.820957 0.336773 -0.547075 
-0.807046 0.351567 -0.927221 0.832404 -0.667917 
-0.95968 0.819266 -0.776052 0.927688 -0.778555 
-0.955324 0.798581 -0.540422 0.224318 -0.528581 
5 5
-0.0677704 0.11707 -0.0995946 0.134524 -0.0292245 
-0.479834 0.767064 -0.321934 0.956171 -0.581789 
-0.820669 0.109088 -0.640983 0.154084 -0.44196 
-0.629883 0.76592 -0.200118 0.0427403 -0.107176 
-0.0595197 0.456374 -0.971007 0.37278 -0.169666 
3 3
-0.257659 0.340872 -0.960752 
-0.494512 0.204839 -0.168404 
-0.401101 0.609173 -0.936528 
3 3
-0.593142 0.735969 -0.394939 
-0.372736 0.419502 -0.346993 
-0.801143 0.903523 -0.228954 
3 3
-0.72865 0.166868 -0.486302 
-0.747349 0.438599 -0.058211 
-0.256102 0.57975 -0.0989717 
3 3
-0.842502 0.909865 -0.734968 
-0.898476 0.816562 -0.442663 
-0.0381651 0.470465 -0.188734 
3 3
-0.398141 0.940283 -0.624379 
-0.582714 0.343556 -0.795285 
-0.675065 0.508605 -0.709652 
3 3
-0.990294 0.00364698 -0.495304 
-0.511703 0.230857 -0.575789 
-0.0684624 0.412543 -0.217499 
3 3
-0.855441 0.602582 -0.445378 
-0.93347 0.114478 -0.0817311 
-0.776459 0.0254501 -0.442142 
3 3
-0.679359 0.090708 -0.294868 
-0.38863 0.413 -0.764369 
-0.81778 0.672239 -0.687349 
3 3
-0.423189 0.782156 -0.878089 
-0.865708 0.192338 -0.537086 
-0.413334 0.898063 -0.119654 
3 3
-0.829412 0.849791 -0.0477938 
-0.0179655 0.901992 -0.869603 
-0.61548 0.42584 -0.31712 
3 3
-0.809571 0.959516 -0.704354 
-0.186642 0.189994 -0.502846 
-0.0969335 0.71654 -0.134743 
3 3
-0.115842 0.756352 -0.681094 
-0.100289 0.569236 -0.485411 
-0.833922 0.803391 -0.357987 
3 3
-0.355466 0.752532 -0.736951 
-0.760731 0.74612 -0.207808 
-0.25665 0.242164 -0.145424 
3 3
-0.533296 0.536874 -0.19399 
-0.165299 0.0808464 -0.396678 
-0.0888547 0.108803 -0.23797 
3 3
-0.327327 0.994409 -0.616968 
-0.0677533 0.691993 -0.632461 
-0.604409 0.110629 -0.46998 
3 3
-0.773964 0.152642 -0.372592 
-0.421987 0.315617 -0.487334 
-0.993191 0.177178 -0.7214 
3 3
-0.704332 0.697403 -0.0286214 
-0.199013 0.406738 -0.501004 
-0.940222 0.332053 -0.914366 
3 3
-0.723071 0.618761 -0.486056 
-0.177064 0.8578 -0.0651245 
-0.751822 0.0966056 -0.257079 
3 3
-0.561397 0.702173 -0.318708 
-0.31883 0.372272 -0.759848 
-0.307032 0.974907 -0.248708 
3 3
-0.455761 0.673377 -0.261618 
-0.969048 0.340019 -0.573875 
-0.799458 0.934847 -0.863488 
3 3
-0.210784 0.849813 -0.192248 
-0.941054 0.202766 -0.908694 
-0.746052 0.585061 -0.888007 
3 3
-0.374181 0.660925 -0.2878 
-0.256798 0.368243 -0.770365 
-0.48448 0.692588 -0.174215 
3 3
-0.448089 0.879176 -0.123343 
-0.381726 0.317397 -0.907683 
-0.781139 0.214855 -0.372597 
3 3
-0.0810578 0.218689 -0.160028 
-0.277233 0.58923 -0.737261 
-0.284223 0.43747 -0.831489 
3 3
-0.843116 0.44502 -0.588379 
-0.211061 0.986771 -0.78468 
-0.383103 0.0118648 -0.111278 
3 3
-0.621115 0.885185 -0.5369 
-0.299568 0.209796 -0.349124 
-0.407019 0.0480477 -0.478752 
3 3
-0.208057 0.203975 -0.443355 
-0.182435 0.678929 -0.305352 
-0.793276 0.586363 -0.878399 
3 3
-0.145236 0.948761 -0.157243 
-0.858715 0.720281 -0.930607 
-0.305907 0.484308 -0.607569 
3 3
-0.00838097 0.737115 -0.546655 
-0.242507 0.949317 -0.401294 
-0.000504927 0.823756 -0.491814 
3 3
-0.611879 0.77397 -0.506519 
-0.822966 0.320209 -0.0158397 
-0.292549 0.0928341 -0.13048 
3 3
-0.223304 0.286596 -0.724174 
-0.0482705 0.0987576 -0.695987 
-0.598614 0.481055 -0.660465 
3 3
-0.240093 0.832041 -0.618663 
-0.303723 0.411408 -0.275784 
-0.529875 0.490611 -0.214465 
3 3
-0.337817 0.250592 -0.747852 
-0.71861 0.405876 -0.225002 
-0.448571 0.257277 -0.462196 
3 3
-0.10926 0.379856 -0.516491 
-0.932279 0.695375 -0.347497 
-0.212901 0.716204 -0.651663 
3 3
-0.842641 0.807593 -0.203241 
-0.94 0.0735009 -0.916308 
-0.214791 0.661721 -0.440975 
3 3
-0.687165 0.872783 -0.124783 
-0.593779 0.0482473 -0.124382 
-0.877402 0.267577 -0.994048 
3 3
-0.965455 0.537635 -0.116879 
-0.651876 0.253004 -0.211096 
-0.45836 0.636182 -0.953498 
3 3
-0.157851 0.455189 -0.164257 
-0.765233 0.686166 -0.514714 
-0.478101 0.0718086 -0.840454 
3 3
-0.390609 0.179354 -0.00569919 
-0.889763 0.822385 -0.878303 
-0.697404 0.127968 -0.248552 
3 3
-0.80392 0.436421 -0.120255 
-0.2748 0.82981 -0.867042 
-0.716078 0.574776 -0.578453 
3 3
-0.782552 0.139377 -0.958452 
-0.806469 0.920592 -0.47068 
-0.958233 0.131222 -0.147795 
3 3
-0.577188 0.0806154 -0.083334 
-0.300517 0.177048 -0.891435 
-0.393431 0.419862 -0.88057 
3 3
-0.926678 0.850168 -0.388667 
-0.828745 0.892684 -0.401596 
-0.706996 0.989157 -0.963084 
3 3
-0.83536 0.576828 -0.559133 
-0.646057 0.820939 -0.902868 
-0.574611 0.0953382 -0.592428 
3 3
-0.391279 0.221792 -0.304727 
-0.020994 0.407546 -0.912995 
-0.0271029 0.414658 -0.755249 
3 3
-0.589594 0.918222 -0.792498 
-0.969585 0.393991 -0.734896 
-0.881617 0.396797 -0.144271 
3 3
-0.998023 0.709865 -0.614532 
-0.660657 0.0995825 -0.989781 
-0.371864 0.543355 -0.166037 
3 3
-0.0998872 0.756313 -0.339064 
-0.640144 0.969071 -0.686529 
-0.680969 0.976828 -0.628426 
3 3
-0.392466 0.435257 -0.364737 
-0.680521 0.0847681 -0.367523 
-0.840074 0.535363 -0.425621 
3 3
-0.341226 0.773413 -0.638724 
-0.945089 0.658475 -0.0569014 
-0.482074 0.139151 -0.450729 
1 50
5 5
-1.08184 -0.327994 -0.0459061 1.02747 -0.876011 
0.521861 -0.597783 -0.208667 0.494837 -1.16414 
-0.456826 0.779694 0.142383 0.251594 -0.662107 
-0.401871 1.22828 -1.1169 1.42399 -0.94421 
0.168982 -0.081811 -1.48104 0.877747 -0.442601 
0 -0.0880545
 5 5
0.441917 1.05534 -1.32424 0.360903 -0.532269 
-0.36158 0.388461 -1.11889 0.136493 0.41909 
0.458178 -0.219282 -1.16703 1.16354 -0.198283 
-0.129824 0.542514 -0.443983 0.580436 -0.346234 
-0.141867 -0.215526 -1.75557 1.42205 -0.823067 
0 0.483485
 5 5
-1.20736 -1.48533 1.186 -1.29557 0.504246 
-0.395074 -0.557065 -0.541521 -3.05895 -0.21144 
-0.0381523 -1.57505 -0.844714 -0.424496 1.15178 
-0.725141 1.39207 0.0993723 -0.95545 -0.0621439 
-0.561478 1.57958 -1.26622 -2.77072 -0.761106 
0 -0.395158
 5 5
0.852276 0.744706 -1.8802 -1.43188 -0.403639 
-0.417128 -3.05263 -2.05898 -1.35542 1.37264 
-0.912266 -4.67766 -0.0338336 -2.68822 0.916565 
-1.78146 -4.26345 -1.03697 -0.101395 -0.0898012 
-0.986619 -3.55313 -3.26866 -1.70159 -0.725394 
0 0.578558
 5 5
-1.43198 -0.759016 1.93858 0.775925 1.80112 
-2.43781 -1.70697 0.37161 -1.28083 1.10584 
-3.82316 -3.16557 1.73196 -1.35701 -0.859397 
-2.19949 -2.67203 0.795622 0.159883 -0.531448 
-1.17102 -1.75531 0.889805 -1.68445 -0.443372 
0 -0.592857
 5 5
-0.185048 0.850275 -1.73244 1.95848 0.897315 
-0.138141 -0.471469 -0.0399699 0.657334 0.124315 
-1.24773 0.0987503 1.64725 0.365172 -0.358192 
-1.39753 2.11415 -0.0621479 1.08602 0.665485 
-0.148904 1.10349 -3.20558 1.21993 0.430771 
0 0.521554
 5 5
-0.597461 0.121087 0.235754 -1.28367 -0.524409 
-0.393117 1.81189 1.10765 -1.48237 0.244233 
-0.704445 -0.202989 0.285662 -1.85132 0.253842 
-0.0553681 1.07922 -0.824874 -0.124321 -1.2027 
-0.0193724 2.05619 -0.798571 1.09072 -0.992812 
0 -0.0698218
 5 5
0.0681517 1.91422 1.56328 2.15602 0.586356 
-1.95765 0.64979 1.56168 2.37082 1.74002 
-0.658394 -1.65838 -0.190177 -0.28612 -0.0795973 
-0.199083 -3.55335 1.28085 -1.06269 0.776208 
-2.07805 -0.0105772 2.3659 0.728544 -0.061952 
0 0.505384
 5 5
-0.448186 0.433721 -1.75902 -0.715344 -0.158725 
-0.551714 1.35457 -0.872116 -0.0828885 0.285667 
0.0827823 -0.244714 -1.12721 0.666691 0.316917 
0.0724958 0.0361773 0.536189 1.36542 -0.489625 
-0.425098 -0.0534518 -1.5051 -0.781675 -1.19077 
0 0.0534647
 5 5
-1.10072 0.639075 -0.397696 0.147475 -0.290308 
0.281734 1.12522 -0.101982 0.649776 -1.667 
-0.424868 1.52743 -0.197467 0.747517 -2.21248 
-0.93796 1.64874 -0.619542 2.55382 -1.1052 
-0.898661 1.85041 -0.0145803 2.00056 -1.68874 
0 0.603122
 5 5
-1.2662 0.764739 -0.982658 0.726712 -1.03992 
-0.933945 0.580964 -0.122718 1.20761 -0.812581 
-0.441494 0.819478 -1.04313 0.91059 -0.413981 
-0.00560225 1.26389 -0.757234 1.20649 -0.265377 
-0.045213 1.2828 -1.04221 1.71255 -0.499989 
0 -0.00428303
 5 5
-1.5354 1.79494 -0.878689 0.994491 -0.638397 
-2.04127 1.45319 -0.522653 1.79262 -0.943923 
-0.379929 2.53903 -0.82945 0.583187 0.190665 
-0.642288 2.63156 -0.37085 1.407 -0.485144 
-0.451959 0.408653 -0.862594 2.15281 -0.77748 
0 0.154153
 5 5
-0.0720138 0.511257 0.222033 0.35201 -1.46121 
-1.1769 0.598564 -0.82972 -0.418981 -0.684132 
-0.114834 0.904561 -0.242453 0.0773247 -0.642897 
-1.88367 0.923885 -1.50946 0.966271 -0.671896 
-0.753441 -1.42787 -0.82264 -1.8978 -1.31725 
0 -0.792954
 5 5
0.0536412 0.705061 -0.211289 0.592002 -0.232213 
-0.496173 0.374236 -0.482257 0.933261 -0.473784 
-0.630898 0.643995 -0.262504 0.850331 -1.27624 
-0.204292 0.566289 -0.632894 0.503843 -1.09285 
-0.085155 1.03115 -0.748989 0.212251 -0.738836 
0 0.792197
 5 5
-1.24745 0.695526 0.121501 1.61318 -0.217111 
-0.981868 0.635696 -0.135993 0.381861 -0.751835 
-0.390132 -0.155109 0.458948 -0.756531 -0.563082 
-0.537206 0.0911464 -0.419771 1.00036 0.274639 
-1.60515 0.572097 0.180724 0.901114 -0.726062 
0 -0.857258
 5 5
0.381424 0.781219 -1.20564 0.85035 -1.31716 
-0.222691 0.0065199 -1.23133 1.31434 -1.15563 
-1.14683 -0.552065 0.0527675 0.680808 -0.435366 
-0.448408 -0.82221 -0.00584637 0.723627 -1.00057 
-1.01384 0.807924 -0.83606 0.843372 -1.09823 
0 0.88431
 5 5
-0.727674 -0.227585 -0.294178 0.731034 -1.14199 
-0.673914 0.317953 -0.991879 1.06646 -0.116935 
-0.642484 -0.468052 -1.17926 0.523187 -0.617635 
-0.809371 -0.132824 0.575685 0.183641 -0.354984 
-0.77039 1.04655 -0.346861 1.24378 -0.776272 
0 -0.432038
 5 5
-0.764581 1.39919 -0.562242 0.591898 -0.237065 
-0.618281 0.774561 0.211692 1.65775 -0.497372 
0.211598 0.964019 -1.11159 1.5898 -0.562557 
0.0303071 1.1704 -0.740335 0.00328701 -0.380348 
-0.563169 0.773016 -1.16597 2.31512 0.56103 
0 0.121303
 5 5
-0.998075 0.887122 -0.568341 -0.342802 -0.354471 
-0.048194 0.711072 -1.25037 0.392686 -0.502229 
0.722913 0.731388 -0.624144 -0.197843 -0.197692 
-0.236279 0.136306 -0.503408 0.0291636 -0.71276 
-0.289812 0.20326 -0.244909 0.510115 -0.633609 
0 0.118483
 5 5
-0.311873 0.710893 0.362403 0.491388 -0.255253 
-0.585235 -0.0133678 -0.534847 0.171813 0.407234 
-0.349928 0.650099 -0.718982 0.309355 -1.46929 
-0.837877 0.455813 0.219475 0.502271 -1.1493 
-0.168688 0.618162 0.123144 0.0760173 -0.372231 
0 0.777358
 5 5
-0.69116 -0.0646418 -0.0689248 0.266277 -1.11383 
0.17177 0.569547 -0.808852 0.41199 -0.793954 
0.415001 0.989249 -0.0650971 0.571359 0.222267 
-0.347182 -0.796883 -0.910993 -0.0872383 -0.177425 
-0.63677 -0.938685 -0.957795 -0.0963884 -1.04846 
0 -0.25581
 5 5
-0.394489 0.042066 -1.17526 1.37442 -0.224742 
-0.712013 -0.419318 -0.437087 0.702165 -0.767962 
-1.31291 0.334104 -0.539624 0.312479 -1.43909 
-1.11273 1.61108 -0.204619 0.59542 -1.19995 
-0.820229 1.9953 -0.684832 0.589796 -0.745741 
0 0.834724
 5 5
-0.401458 0.0188742 0.387917 -0.0742979 0.00359054 
-1.06593 -0.711801 0.678802 0.0280232 -0.583896 
0.204745 -0.224001 0.354876 -1.07135 0.034872 
-0.618783 -0.955514 1.99091 -0.741572 0.113845 
-0.200621 -1.34804 0.525149 -1.59202 -0.70436 
0 -0.820814
 5 5
0.0949128 0.748861 -0.382351 1.10087 -0.716036 
0.346787 0.075363 -0.774484 0.621795 -0.109427 
-0.173527 -0.240831 -0.880632 0.749846 -0.505776 
-0.325157 0.475369 -0.96811 0.020959 -0.00634819 
-0.521475 0.66867 -1.05462 0.673264 -0.700225 
0 0.664105
 5 5
-0.076362 0.0856659 -0.451647 0.973072 -0.0302731 
-1.39171 1.75922 -0.980485 0.0498675 -0.398467 
-1.03652 1.94488 0.426573 1.12207 -0.717103 
-1.06163 0.774249 0.346403 1.18791 -1.13287 
-0.242208 0.781479 -0.492056 0.706777 -0.392606 
0 -0.298034
 5 5
-0.728064 0.408917 -1.11833 0.559799 -0.85172 
-0.538273 0.393706 -0.887484 0.984325 -0.7254 
-0.745587 0.560395 -0.784427 -0.0503328 -0.357303 
-0.492098 -0.179209 -0.727658 1.22816 -0.573973 
-0.418633 0.0107591 -0.195951 0.975054 -0.0379042 
0 0.0115098
 5 5
-0.343601 0.527997 -0.208075 0.492127 -0.0528274 
-0.127153 0.832475 -0.0106369 0.911842 -1.32956 
0.131811 -0.154926 0.108595 -0.151279 -0.601363 
-0.90226 -0.0222772 0.0718003 0.567615 -1.26819 
-0.558465 -0.139469 0.453602 1.28443 -1.05377 
0 -0.345911
 5 5
-0.490806 1.66508 -1.66346 -0.0093999 -0.372547 
-0.315831 -0.435552 -1.24331 0.713372 -0.41751 
0.660801 -0.952602 -0.734541 0.563024 0.433807 
-0.34533 -2.44278 -1.64991 0.827875 -0.0863674 
0.0188969 -1.12341 -1.25755 0.871533 -0.312819 
0 0.337025
 5 5
-0.545036 2.20212 0.166329 0.966675 0.33456 
-0.139729 2.10407 -0.4658 0.618161 0.474566 
0.443573 0.608105 -0.212227 -0.096079 1.29813 
0.724297 1.05564 -0.977179 1.37671 1.01894 
0.367057 1.35798 -0.550068 3.08194 -0.361418 
0 0.0208154
 5 5
-0.748951 0.111676 -0.140864 0.732841 -0.48017 
-0.62179 0.650233 0.396428 0.0562477 0.237087 
-0.628426 0.483834 -0.077067 0.122308 0.104753 
0.125469 0.570391 -0.861998 0.11682 0.133878 
-0.287985 0.416913 -0.298233 0.221272 -0.570215 
0 0.867485
 5 5
0.579509 0.359967 -0.122595 0.124833 -0.0799244 
0.0855955 0.807205 0.0481679 0.0313509 -0.383322 
-0.907741 -1.05027 -1.10181 0.148482 -0.551821 
-0.934133 -2.31048 -1.06129 -0.318453 -1.08032 
-0.39833 -0.263422 -0.169696 -1.00283 -0.681029 
0 -0.337449
 5 5
-0.620541 -0.00331838 -0.347012 0.479555 -0.075436 
-0.151525 0.868167 -0.308967 0.480587 -0.340405 
-0.513889 0.289171 -0.241166 0.000163115 -0.674857 
-0.720732 0.558894 -0.727014 -0.0433974 -0.0482708 
-0.521278 1.72371 -0.602611 -0.267502 -0.1648 
0 0.903631
 5 5
-0.807321 -0.126944 -0.323835 0.955119 0.133666 
-1.04162 0.709874 -0.659302 0.818399 -1.1229 
-0.973356 0.404728 -0.794927 0.275448 -0.620262 
-0.169045 0.875187 -0.359783 -0.346802 -0.545433 
-0.255663 1.13863 0.0915234 0.649169 0.212536 
0 -0.659983
 5 5
-0.467367 0.825045 -0.397507 0.811782 -0.428899 
-1.16268 0.211543 -0.494881 1.26529 0.766166 
-0.917449 1.3314 -0.11852 1.14031 -0.553234 
-0.294192 1.98966 -1.20132 1.76685 -1.13258 
-0.498087 1.60643 -1.37301 1.49057 -0.451645 
0 0.849987
 5 5
-0.696563 0.874689 0.224865 1.30184 -0.632528 
-0.348534 0.518896 -0.483314 -0.900674 -2.73573 
-1.04451 0.122595 -1.03959 -1.2766 -2.27786 
-0.805519 0.599703 0.87499 0.959196 0.119697 
0.17939 0.472269 0.323406 1.78925 0.819383 
0 -0.185689
 5 5
-1.02223 0.16865 -0.985996 0.509555 -0.339327 
-1.13604 -0.878349 -1.53045 -0.745536 -0.599364 
-0.265491 1.31952 0.778044 0.87676 -0.246045 
0.106676 0.82867 0.301431 1.04973 -0.299239 
-0.564345 0.240676 -0.476232 1.20144 0.335913 
0 0.0998648
 5 5
-0.907076 1.0057 0.171829 0.891576 -0.706474 
-0.754895 0.467368 -0.146327 0.229925 -1.09035 
-0.622684 0.751318 -0.52303 0.460455 -1.1008 
-0.705246 0.708476 -1.92407 0.398689 -1.33128 
-1.04173 0.350788 -0.397005 0.205945 -0.641981 
0 -0.251814
 5 5
-0.792458 0.430841 0.10043 0.106393 -1.24331 
-0.297213 1.46535 0.33788 0.252443 -0.661689 
-1.20034 0.448998 -0.0662786 0.614872 -0.379036 
-0.904737 -0.12733 -0.458644 -0.323476 -0.232983 
-0.539231 0.556593 -0.416249 -0.575027 -1.25171 
0 0.899542
 5 5
-0.83362 0.535237 -0.347767 1.00777 -0.59723 
-1.09954 -0.0020967 -0.685049 -0.495997 -2.47522 
-0.996237 0.349653 -0.936764 -0.531958 -1.79324 
-0.606141 0.500636 0.972662 1.27443 0.436344 
-0.130299 1.06472 0.220674 0.334256 -0.767966 
0 -0.818085
 5 5
0.111503 1.52724 -0.682604 0.685418 -0.19539 
0.0410903 0.344738 -1.21405 0.484787 -0.107662 
-0.905376 0.681138 -1.49319 0.221049 -0.425644 
0.169081 0.172571 -1.16217 0.711879 -0.163943 
-0.403147 1.14347 -0.846789 0.722852 -0.26332 
0 0.0321345
 5 5
-0.509746 0.0496739 -0.614981 0.917777 -0.13847 
-0.468247 0.876001 -0.318532 0.782645 -0.454557 
-1.3038 0.0591421 -0.855224 0.515086 -0.405798 
-1.23787 -0.183855 -0.147443 0.889774 -0.138364 
-0.461517 0.53033 0.0437807 0.153002 -0.729381 
0 0.0981266
 5 5
0.0367911 0.0362004 -0.229 0.444803 -0.858414 
-0.331365 0.806534 -0.837359 0.986004 -0.0665265 
-0.209406 0.888634 -0.757594 0.0927212 0.00986597 
-0.116807 0.934221 -0.784822 0.574443 -0.70562 
-0.277717 0.098479 -0.728068 0.346361 0.0593416 
0 0.100847
 5 5
-0.0698859 0.29475 -0.563269 1.11011 -0.483002 
-0.713946 1.436 -0.758393 0.55571 -1.32416 
-0.783249 0.816896 -0.283298 0.922169 -0.729611 
-1.05566 0.972327 -1.31707 1.24424 -0.749042 
-0.472581 0.899755 -1.91692 1.11589 -0.753485 
0 -0.0573946
 5 5
-0.177188 0.832351 -0.97609 0.64651 -0.0466028 
0.107776 1.04525 0.355846 1.52582 -0.286994 
-0.758198 0.532889 0.0864518 1.40788 -0.776207 
-1.00456 -0.026013 -1.20916 1.53446 -0.481679 
-0.137961 0.541874 0.488091 0.807257 -0.561757 
0 0.118365
 5 5
-0.088994 0.821219 -0.448517 0.23854 -0.184684 
-0.456203 0.814482 -0.45775 0.484894 -0.503237 
0.166208 0.746019 -0.637884 -0.0548097 -0.621998 
-0.24941 0.4459 0.286345 0.873233 -0.615691 
-0.668043 -0.356408 0.15964 -0.0100128 -0.564193 
0 -0.717213
 5 5
0.184445 0.669589 -1.03779 0.508364 -0.117993 
-0.259367 0.414694 0.225933 0.469213 0.285707 
-0.891408 0.900902 -0.1213 0.433536 -0.619765 
-0.941464 0.222592 0.172727 -0.56105 -0.991628 
0.0212598 0.657732 0.297259 -0.188767 -0.663014 
0 0.342513
 5 5
-0.441802 0.476088 0.299849 1.39639 -0.355563 
-1.42232 0.498905 -0.159724 0.62221 -0.433025 
-1.12966 0.356179 -1.17069 1.17062 -0.146112 
-0.36037 -0.0227136 -1.4121 -0.163843 -0.760651 
-0.876832 1.25978 -0.718314 0.881112 -0.560039 
0 -0.390909
 5 5
-1.40319 0.13908 -1.04836 0.141825 -0.415341 
-1.5758 0.582044 -0.578961 0.667727 -0.282305 
-1.17289 0.655488 -0.0318867 0.0248049 -1.0769 
-1.13595 0.470633 -1.077 -0.485983 -1.38507 
-1.12768 -0.0280864 -0.347992 -0.312781 -0.343098 
0 0.147234
 5 5
0.135141 1.45533 -0.329073 1.18276 -0.563109 
-0.184711 0.913178 -0.881698 0.495121 -0.615158 
-0.596274 1.22698 0.238652 1.65653 0.0904519 
0.274312 1.72589 -0.353509 2.49796 0.147007 
-0.56852 0.153005 -1.40954 1.44588 -0.369971 
0 -0.945819
 5 5
-0.514192 1.01319 -0.814591 0.946386 -0.392241 
0.0370087 0.878421 0.0279629 1.6494 0.0394628 
-1.02846 0.100491 -0.670945 0.486612 -1.01107 
-0.122452 1.30642 -0.455744 0.438426 -0.260052 
-0.431695 0.807542 -0.251431 1.02647 -0.238543 
0 0.202884
 
1 10
1 50
-0.852904 0.702779 -0.0713169 0.846049 -0.959692 0.125653 -0.90747 0.888517 -0.594532 0.409927 -0.348085 0.762889 -0.734691 0.0336416 -0.480241 0.152949 -0.963405 0.566507 -0.639046 0.0224164 -0.127162 0.136997 -0.164364 0.874168 -0.869358 0.308719 -1.0132 0.775389 -0.0668306 0.806058 -0.2378 0.326693 -0.18227 0.622998 -0.40111 0.555805 -0.408858 0.336056 -0.32016 0.71291 -0.730766 0.589363 -0.894373 0.157534 -0.0678434 -0.0168334 -0.508797 0.109662 -0.475023 0.133833 
-0.0018221 -0.376141
 1 50
-0.821437 0.26075 -0.16033 0.386897 0.019182 0.596782 -0.270917 0.90437 -1.02906 0.571329 -0.619473 0.453814 -0.521005 0.398223 -0.205875 0.249512 -0.884646 -0.0859158 -0.937215 0.662804 -0.994665 0.562476 -0.260356 0.757363 -0.647934 0.571661 -0.344637 0.377583 -0.597233 0.543421 -0.0641862 0.260395 -0.184093 0.429961 -0.559491 0.481161 -0.807726 -0.0475695 -0.39668 0.596341 -0.651149 0.335236 -1.1068 -0.0741117 -0.513717 0.832713 -0.901899 0.592248 -0.962277 -0.0672111 
-0.000246789 0.714115
 1 50
-0.162269 0.252481 -0.652442 0.742544 -0.102968 0.637003 -0.690451 0.843048 -1.07505 0.054951 -1.09349 0.313633 -0.511649 0.768012 -1.10902 0.823284 -0.112727 0.839431 -0.838403 0.262217 -0.988075 0.52507 -0.226377 0.671078 -0.371222 0.35031 -1.03678 0.844099 -0.468673 -0.0720873 -0.810001 0.297388 -0.603071 0.627774 -0.0824169 0.814014 -0.836928 0.22151 -0.840063 0.597146 -0.116705 0.810522 -0.674442 0.806184 -0.830484 0.9149 -0.110395 0.45669 -0.147174 0.927189 
-0.0006707 -0.731555
 1 50
-0.877987 0.221407 -0.0168938 0.320521 -0.953613 0.925884 -0.765271 0.266381 -0.386738 0.855975 -0.458651 0.0186781 -0.104737 0.173071 -0.546904 -0.0797335 -1.04439 -0.0143015 -0.867531 0.845726 -0.724637 0.649093 -0.997755 0.608355 -0.816191 0.53617 -0.811456 0.469907 -1.03823 0.763283 -0.164642 0.717751 -0.211614 0.802144 -1.06673 0.798026 -0.70954 0.14754 -0.537369 0.85856 -0.65876 0.146699 -0.176463 0.504481 -0.568322 0.0541713 -0.26581 0.735712 -0.486067 -0.00437424 
-0.0006707 0.644761
 1 50
-0.294438 0.326672 -0.828193 0.307629 -0.780628 0.105662 -0.768273 0.399837 -0.476839 0.295182 -0.135192 0.788974 -0.0163197 0.423488 -0.173672 0.451485 -0.532914 0.503816 -0.586567 0.454293 -0.825303 0.422589 -0.777189 0.497937 -0.266488 0.702286 -0.0753351 0.891161 -0.129566 0.352003 -0.275061 -0.143064 -0.813847 0.688666 -0.74248 0.526374 -0.32018 0.0340388 -1.00032 0.451305 -0.883017 0.574609 -0.451415 0.75556 -0.84097 0.0635401 -0.512885 0.00946843 0.0888272 0.797533 
-0.00494525 -0.72651
 1 50
-0.244762 0.593756 -0.601545 0.911787 -0.432216 0.440143 -0.691169 0.256253 -0.349932 0.842723 -0.262646 0.374957 -0.862336 0.434722 -0.0909685 0.789802 -0.131356 0.382995 -0.833251 0.362066 -0.797982 0.800069 -0.220059 0.116788 -1.02365 0.552179 -0.329103 0.954708 -0.36393 0.116597 -0.103983 0.224885 -0.996617 0.365822 -0.358935 0.498003 -0.398232 0.619635 -1.01199 0.227378 -0.876144 0.336921 -0.923288 0.538747 -1.01211 0.39697 -0.0952517 0.271065 -0.832973 0.776005 
-0.00494525 -0.056294
 1 50
-1.00975 0.643078 -0.615648 0.568841 -0.675198 -0.0128365 -0.898502 0.827328 -0.684643 0.683285 -0.120141 0.876629 -0.0364903 0.10471 -0.247631 0.974369 -0.881027 0.114407 -0.409333 0.209329 -0.259829 0.473697 -0.770658 0.197136 -0.174741 0.714791 -0.138776 0.704908 -0.150515 0.029911 -0.902447 0.603796 -0.741841 0.492392 -0.0859161 0.873263 -0.851224 0.441717 -0.509248 0.733552 -1.05749 0.478274 -0.276869 -0.0488587 -0.1876 0.299078 -0.921694 0.892343 -0.363288 -0.157908 
-0.0133857 -0.613238
 1 50
-0.112594 0.576474 -0.349208 0.878459 -0.494474 0.447156 -0.968162 0.0167077 -0.785986 0.561913 -0.656268 -0.153028 -0.611753 0.0316472 -0.56194 0.331515 -0.964648 -0.00376356 -0.540438 0.509856 -0.0231151 0.688915 -0.614245 0.842114 -1.13281 0.426055 -0.81121 0.312121 -0.538787 0.463306 -0.06505 0.845962 -0.912539 0.249798 -0.127345 -0.0345476 -0.147058 0.646176 -0.857353 0.924755 -0.0837915 0.445971 -0.75392 0.789991 -0.255784 0.570745 -0.475191 -0.0529009 -0.18892 0.456802 
-0.00494525 0.231441
 1 50
-0.438466 0.18451 -0.176536 0.0445265 -0.725988 0.942638 -0.118605 -0.0054914 -0.913719 0.572043 -0.339584 0.58312 -0.827435 0.238421 -0.715591 0.227634 -0.379102 0.894819 -0.8727 0.360119 -0.870534 0.90467 -0.984205 0.45925 -0.0423021 0.150361 -0.623611 -0.0021149 -0.0728501 0.271279 -0.965477 0.572144 -0.395005 0.96102 -0.242684 0.196761 -0.0814998 0.270757 -0.61302 0.438383 -0.528144 0.201575 -0.164366 0.132704 -0.889751 0.0825636 -0.00944713 0.396912 -0.263106 0.485966 
-0.0359724 -0.52535
 1 50
-0.171905 -0.0212557 -0.0425554 0.00628681 -0.839128 0.0127923 -0.926569 0.0593661 -0.885033 0.821082 -0.75637 0.703061 -0.348169 0.422906 -0.935582 0.731324 -0.799763 0.593955 -0.187633 0.179022 -0.132322 0.329254 -0.361924 0.487831 -0.361302 0.492129 -0.921345 0.0420204 -0.807445 0.83414 -0.403156 0.229305 -0.780732 0.638482 -0.734325 0.344106 -0.735537 0.576376 -0.851658 0.0502848 -0.648476 0.360932 -0.833781 0.553022 -0.123246 0.937619 -0.537829 0.413059 -1.00132 0.665272 
1.90515 0.915274
 
