5 5
-0.536302 0.549655 -0.027081 0.230988 -0.151418 
-0.736136 0.0630774 -0.0306518 0.566985 -0.562502 
-0.478184 1.02151 -0.495341 1.07266 -0.0544877 
-0.300467 0.364282 -0.804916 0.316269 -0.864719 
-0.407837 0.463499 -0.552795 0.336846 -0.569047 
5 5
-0.718515 1.03598 -0.453423 0.564735 -0.729871 
-0.222056 0.876428 -0.0457636 0.463554 -0.427776 
-0.0997064 0.590978 -0.640817 0.718043 -0.281513 
-0.918466 0.944979 -0.0533607 0.854883 -0.792611 
-0.947954 0.685231 -0.579419 0.796141 -0.68416 
5 5
-0.891296 0.0525625 -0.847198 0.286999 -0.983969 
-0.206913 0.163438 -0.5344 0.288793 -0.627673 
-0.485387 0.767526 -0.700467 0.570301 -0.714306 
-0.939472 0.0849774 -0.684013 0.363494 -0.0848848 
-0.699313 0.33154 -0.639319 0.900858 -0.564764 
5 5
0.00480983 0.109486 -0.224842 0.500566 -0.786024 
-0.471017 0.965206 -0.310845 0.282734 -0.774984 
-0.469043 0.682995 -0.186678 0.602388 -0.452223 
-0.480858 1.06154 -0.138083 1.0124 -0.31355 
-0.296559 0.721271 -0.715464 0.483425 -0.229903 
5 5
-0.302416 0.392471 -0.491836 0.0531114 -0.145207 
-0.81251 0.246736 -0.564435 0.270072 -0.472887 
-0.66531 0.516819 -0.456693 0.551719 -0.953944 
-0.135737 0.0174004 -0.526209 0.162174 -0.67301 
-0.527866 0.790852 -0.839542 0.142125 -0.324209 
5 5
-0.855797 0.213259 -0.896966 0.775815 -0.313712 
-0.786747 0.729951 -0.233905 0.172846 -0.19537 
-0.501849 0.267816 -0.739881 0.268565 -0.693587 
-0.275488 0.800545 -0.0496294 0.684185 -0.718095 
-0.937951 0.491015 -0.810967 0.813545 -0.864488 
5 5
-0.035428 0.644783 -0.377532 0.41914 -0.456177 
-0.638883 0.383805 -0.910233 0.896718 -0.330097 
-0.990997 0.18453 -0.162442 0.00749024 -0.398949 
-0.075015 0.0549394 -0.6876 0.984763 -0.421708 
-0.794496 0.0862491 -0.815205 0.0497924 -0.0385147 
5 5
-0.526518 0.683376 -0.637179 0.272948 -0.147602 
-0.939609 0.484575 -0.963022 0.0976256 -0.800692 
-0.420863 0.695864 -0.915129 0.39774 -0.242359 
-0.0725291 0.242133 -0.865665 0.984214 -0.0896151 
-0.496267 0.226399 -0.0695901 0.57583 -0.161927 
5 5
-0.914246 0.128666 -0.223658 0.0234257 -0.0691065 
-0.985545 0.398922 -0.898292 0.252984 -0.019357 
-0.448887 0.808399 -0.553882 0.31162 -0.281605 
-0.257121 0.320555 -0.476471 0.844476 -0.262469 
-0.671522 0.2527 -0.855056 0.577554 -0.737193 
5 5
-0.892609 0.284217 -0.389639 0.433791 -0.18738 
-0.849668 0.887892 -0.502578 0.820242 -0.859552 
-0.776442 0.480808 -0.596901 0.471812 -0.965037 
-0.149702 0.134246 -0.242101 0.404541 -0.03084 
-0.453741 0.893347 -0.786794 0.232421 -0.886704 
5 5
-0.235361 0.935116 -0.799737 0.445565 -0.884913 
-0.696327 0.760998 -0.777789 0.436744 -0.766512 
-0.0260934 0.648978 -0.541565 0.180167 -0.955404 
-0.123334 0.0635205 -0.554003 0.729202 0.00314931 
-0.156232 0.297891 -0.936268 0.612281 -0.888949 
5 5
-0.471983 0.0269145 -0.23135 0.162731 -0.729104 
-0.640333 0.615202 -0.261104 0.0421632 -0.615966 
-0.540733 0.287474 -0.398518 0.833751 -0.128741 
-0.314026 0.596688 -0.318012 0.800387 -0.805927 
-0.807867 0.247847 -0.335904 0.224098 -0.425444 
5 5
-0.82206 0.453438 -0.874658 0.883363 -0.89525 
-0.800024 0.650028 -0.454686 0.479252 -0.0604842 
-0.0244508 0.536476 -0.424865 0.267968 -0.326654 
-0.614372 0.25606 -0.386972 0.771607 -0.874542 
-0.645791 0.100633 -0.705889 0.779799 -0.894492 
5 5
-0.145808 0.343422 -0.9321 0.152657 -0.413148 
-0.740777 0.390885 -0.033272 0.403436 -0.597253 
-0.0796909 0.136968 -0.676402 0.835153 -0.707693 
-0.576462 0.55785 -0.954537 0.0744881 -0.263252 
-0.0940078 0.872773 -0.613325 0.132596 -0.00883657 
5 5
-0.535405 0.709661 -0.686742 0.505302 -0.44057 
-0.094373 0.610683 -0.376154 0.375485 -0.132135 
-0.211937 0.945286 -0.0769029 0.344248 -0.934017 
-0.418996 0.801487 -0.703692 0.512845 -0.90354 
-0.757014 0.473842 -0.848632 0.448981 -0.956794 
5 5
-0.579187 0.601188 -0.0353403 0.369383 -0.866826 
-0.916544 0.573763 -0.330882 0.910199 -0.212771 
-0.780186 0.359981 -0.252533 0.605364 -0.32428 
-0.637945 0.366637 -0.759378 0.189681 -0.72612 
-0.0644073 0.338507 -0.249128 0.508474 -0.952019 
5 5
-0.639742 0.772621 -0.768071 0.936397 -0.0400397 
-0.621651 0.558316 -0.781643 0.62663 -0.703585 
-0.21269 0.236043 -0.619081 0.38147 -0.477135 
-0.784396 0.345529 -0.0837908 0.338892 -0.880851 
-0.227733 0.0339992 -0.444592 0.0294615 -0.905154 
5 5
-0.0356717 0.20878 -0.319469 0.352818 -0.825075 
-0.23363 0.454941 -0.0622847 0.160568 -0.360518 
-0.0549286 0.314487 -0.230367 0.753018 -0.770622 
-0.318934 0.357336 -0.0911542 0.237315 -0.503641 
-0.895282 0.789145 -0.287525 0.774009 -0.206448 
5 5
-0.259427 0.516931 -0.314091 0.519848 -0.651757 
-0.849859 0.598344 -0.0747483 0.0438578 -0.683508 
-0.391598 0.175792 -0.09066 0.185713 -0.891085 
-0.753708 0.867589 -0.898947 0.91061 -0.407798 
-0.174546 1.00138 -0.511656 0.840475 -0.4612 
5 5
-0.501848 0.0964011 -0.775844 0.581514 -0.542091 
-0.156144 0.577266 -0.0976655 0.53839 -0.759452 
-0.140698 0.587277 -0.0693603 0.453899 -0.527263 
-0.799042 0.705482 -0.122524 0.531627 -0.671356 
-0.571819 0.160906 -0.800638 0.774327 -0.316306 
5 5
-0.45668 0.585265 -0.968457 0.346567 -0.790589 
-0.679748 0.976447 -0.536268 0.182606 -0.850196 
-0.692169 0.224153 -0.915986 0.240854 -0.863759 
-0.239672 0.874639 -0.390736 0.0929337 -0.313474 
-0.894513 0.305697 -0.108332 0.79067 -0.53347 
5 5
-0.210731 0.163828 -0.437728 0.649069 -0.212548 
-0.539974 0.121532 -0.902687 0.264579 -0.738568 
-0.132503 0.466035 -0.154047 0.204682 -0.692448 
-0.886747 0.0194793 -0.605295 0.308045 -0.187541 
-0.974193 0.511916 -0.937343 0.157962 -0.847082 
5 5
-0.617065 0.539475 -0.238752 0.895383 -0.605116 
-0.282482 0.843514 -0.803269 0.183507 -0.0339154 
-0.885246 0.588996 -0.731417 0.950224 -0.421979 
-0.13048 0.70162 -0.076561 0.670189 -0.0988685 
-0.817156 0.273729 -0.610347 0.395648 -0.220322 
5 5
-0.240907 0.936732 -0.203018 0.0851357 -0.733887 
-0.452935 0.292761 -0.0999209 0.181189 -0.468535 
-0.509629 0.947944 -0.41873 0.586392 -0.970533 
-0.950829 0.977427 -0.225821 0.141191 -0.891495 
-0.40597 0.477923 -0.0379864 0.5524 -0.288041 
5 5
-0.299291 0.0460286 -0.489814 0.480211 -0.990304 
-0.234361 0.0221457 -0.882334 0.875194 -0.970589 
-0.647952 0.674438 -0.880484 0.635592 -0.039739 
-0.0256207 0.377319 -0.00102335 0.847911 -0.373212 
-0.541392 0.533678 -0.206397 0.324274 -0.809312 
5 5
-0.73757 0.593468 0.00615368 0.832421 0.00555315 
-0.514191 0.281687 -0.0642498 0.170116 -0.952243 
-0.381873 0.993045 -0.961637 1.00644 -0.462108 
-0.509382 -7.94784e-05 -0.31328 0.7221 -0.823801 
-0.948454 0.432965 -0.320606 0.564677 -0.875458 
5 5
-0.0277836 0.174399 -0.829549 0.491873 -0.240733 
-0.510043 0.515492 -0.975255 0.430405 -0.157908 
-0.479646 0.180137 -0.397537 0.972268 -0.449621 
-0.278765 0.97738 -0.012637 0.8263 -0.156002 
-0.689679 0.658043 -0.147247 0.653874 -0.211487 
5 5
-0.723104 0.967688 -0.487 0.818339 -0.687669 
-0.372221 0.31122 -0.234514 0.813682 -0.768465 
-0.0304661 0.797994 -0.383661 0.0490396 0.00451851 
-0.101231 0.143146 -0.762964 0.877212 -0.479 
-0.71739 0.668382 -0.899403 0.297296 -0.282784 
5 5
0.00964453 0.541493 -0.142985 0.51133 -0.842167 
-0.96519 0.495119 -0.448366 0.247819 -0.63353 
-0.249603 0.180064 -0.952542 0.103105 -0.289989 
-0.109058 0.0722878 -0.401838 0.259279 -0.220751 
-0.828921 0.725364 -0.221772 0.23486 -0.251269 
5 5
-0.554707 0.629027 -0.219232 0.808159 -0.141657 
-0.736848 0.0214534 -0.308566 0.989048 -0.980575 
-0.453492 0.498059 -0.63144 0.358504 -0.580103 
-0.880027 0.963815 -0.358189 0.211858 -0.242839 
-0.70874 0.0386501 -0.879071 0.611888 -0.114233 
1 120
4 100
-0.150212 0.846544 0.0129917 0.264277 -0.295715 0.650892 -0.618701 0.827864 -0.0803871 0.288566 -0.821983 0.290875 0.142887 1.15277 -0.692748 0.0765671 -0.149443 0.692777 -0.292531 0.71775 0.169082 0.564744 -0.207308 -0.131761 -0.132812 0.57723 -1.00865 -0.406635 0.0496329 0.865983 -0.578491 0.0946666 -0.724836 1.19087 0.0579037 0.494198 -0.919037 0.818097 -0.415454 -0.0576365 0.30508 1.09132 -0.626216 0.424955 -0.0273725 1.42132 -0.706436 0.177085 -0.575487 0.808047 -1.06309 -0.170224 -0.36343 0.47649 -1.00012 -0.409062 -0.16624 0.810201 -0.407248 0.907298 -0.749394 0.553571 -0.0257274 0.113899 0.426596 0.444217 -0.037207 0.408281 -0.899045 1.0253 -0.311632 -0.325298 -0.954699 0.681719 -0.0108758 -0.742803 -0.270321 0.948692 -0.127938 0.41687 -0.178544 0.383754 -0.408192 0.490656 -0.783825 0.441278 -0.873898 0.555221 -0.496376 0.0102317 -0.207817 0.399478 -0.370315 0.214866 -0.658452 0.300101 0.0430348 0.608731 -0.146247 0.313419 
-0.18375 0.329474 -0.1418 -0.0717725 -0.89116 0.222322 -0.362082 0.494327 -0.0779612 1.19223 -0.568248 0.291125 -0.674541 0.103298 -0.93773 0.088357 -0.449671 0.289861 -0.729272 0.143904 -0.0990549 1.00442 -0.101072 -0.190399 -0.244229 0.615483 -0.283883 0.298834 -0.303478 0.550381 -1.1131 -0.34018 -0.136608 0.794941 -0.45924 -0.0632254 -0.738031 0.420162 -0.613143 -0.305363 -0.0935905 0.798319 -0.576326 0.294367 -0.790265 1.25292 -0.628857 -0.198705 0.17792 0.0649314 -1.65061 0.0259649 0.240462 0.717179 -0.63166 1.07724 -0.386507 -0.0841004 -1.20644 0.403632 -0.76244 0.231962 -0.668723 0.841518 0.424022 0.943253 -0.593724 0.444303 -0.943829 0.480309 -0.513627 -1.16656 -0.420337 -0.680817 0.0675298 -0.10891 0.280925 -0.201757 -0.384642 0.46588 -0.202637 -0.0298506 -0.505139 0.751207 -0.0239717 0.544822 -1.2032 0.129503 -0.8499 0.332833 -1.2176 0.596043 -0.239183 0.160823 -0.436223 0.588579 -0.0416494 0.0129371 -0.844849 0.530847 
-1.17174 -0.0465983 -0.660597 0.317373 -1.03405 -0.285829 -0.802664 0.045953 -0.792081 0.520609 -0.580772 0.364266 -0.523192 0.475853 -0.176636 0.673661 -1.49837 -0.347882 -0.784343 0.134464 -0.601197 0.00607196 -0.294793 0.878115 -0.848274 -0.0459507 -0.208225 0.873486 -0.221335 0.80329 0.00555874 0.406428 -0.433972 -0.182614 -0.62379 0.921334 -0.988409 0.378708 -0.260742 1.3216 -0.505733 -0.437643 -1.40571 0.773735 -0.974406 -0.0631821 -1.41933 0.800728 -0.469623 0.259185 -1.15672 0.647948 0.0576041 0.581357 -1.33172 0.845068 0.233021 0.454124 -1.6291 0.663712 -0.0502621 0.912414 -0.927742 0.827145 0.143449 0.891035 -0.538255 0.629782 -1.01004 0.0155825 -0.0401752 -0.167646 -0.788766 -0.240074 -0.465012 0.596703 -0.541233 -0.0350981 -0.0915123 -0.12867 -0.623199 -0.307568 -1.32865 0.829087 0.195815 0.748242 -1.00872 0.946658 -0.277929 0.506428 -1.26215 0.706143 -0.518328 -0.279707 -0.721187 0.490068 -0.483938 -0.775198 -0.719026 1.15927 
-0.60679 0.238938 -0.360991 0.657795 -0.252463 0.860971 -0.467701 0.459475 -1.04713 0.554481 -0.687975 0.316028 -0.309504 0.717418 -0.897104 0.690287 -1.13364 0.418616 -0.913502 0.561924 -0.477674 0.421601 -0.931301 1.44081 -0.264825 0.722131 -0.53572 0.584022 -0.494129 0.201015 -0.577071 0.0212601 -0.77065 0.171543 -0.701996 0.165672 -1.1101 0.657893 -0.0725925 0.836944 0.489367 0.340341 -0.611459 0.969121 -0.147256 0.579984 -0.632885 0.927411 -0.34722 0.197829 -1.10715 0.113821 -0.623888 -0.192664 -1.3809 0.489754 0.177224 0.963209 -0.617141 1.12478 -0.722289 0.273025 -0.965824 0.877112 -0.173626 0.238848 -0.743171 0.214625 -0.981631 0.246234 -1.10666 0.476294 -1.19303 -0.313473 -0.945439 0.987334 0.350753 0.764321 -0.634159 0.0632481 0.0764595 0.415449 -0.363482 1.14668 -0.659124 -0.286782 -0.955105 -0.00637382 -0.109897 0.122679 -1.12594 0.804019 -0.61061 0.0448113 -1.41213 0.481889 0.38178 -0.185599 -0.303538 0.7409 
0 -0.374124
 4 100
-1.07568 1.01131 -0.246297 1.51181 -0.911211 0.792758 -0.98317 0.634084 0.0665868 0.600114 -0.00345116 0.969324 -0.0554382 0.829173 -0.488176 0.550986 -0.737228 0.651829 -0.684787 0.583333 -0.767361 0.46907 -1.02436 0.87697 -0.620126 0.833875 -0.355159 1.57031 -0.772145 0.718665 -0.225381 0.901666 -0.982058 1.05409 -0.0129863 1.21174 -0.678684 0.844841 -1.06345 1.1757 -0.423269 0.440301 0.0527546 1.02709 -0.850336 0.924966 0.570835 1.11414 -0.827888 0.131605 -0.347721 0.359082 -0.256766 0.51838 -0.441666 0.630441 -0.868631 0.329457 -0.0349725 1.01271 -0.117481 0.883955 -0.568461 0.550615 -1.02072 0.357398 -0.916765 0.724011 -0.595926 1.16274 -0.456856 0.732695 -0.155653 0.765924 -1.13866 1.31009 -0.573464 1.0623 -0.475773 0.909436 -0.162295 0.790605 -0.425129 0.939718 -1.0351 0.732211 -0.79394 0.677016 -0.867035 1.05802 -0.123084 0.692729 -0.332833 0.699629 -0.414319 1.05951 -0.594275 0.842912 -0.168796 0.94317 
0.0141653 0.802464 -0.565831 0.712789 -0.573449 0.053285 -0.755904 0.899632 -0.516638 0.0506665 -0.686117 -0.00624956 -0.0908344 0.415729 -0.826682 0.701092 -0.691291 0.0829602 -0.281158 0.851397 -0.209648 0.657924 -1.33283 0.305813 -0.59162 0.569801 -0.784912 0.764196 -0.447938 0.796468 -0.992569 1.10246 0.287547 0.0409297 -0.600834 0.588782 -0.201296 0.904851 -0.867465 0.729496 -0.539435 0.93767 -0.677307 0.249482 -0.01349 1.24907 -0.608154 1.16249 -0.921383 0.727538 -0.516574 0.503083 -0.192217 0.13438 -0.842104 0.343193 -0.976904 1.01078 -0.559394 0.48002 -0.358747 0.877497 -0.283867 1.29565 -0.047089 0.468153 -0.302612 1.16201 -0.722843 0.70563 -0.125262 1.34324 -0.317076 1.10374 -0.672553 1.45888 -0.716213 0.711036 -0.830492 0.62285 -0.51449 0.204184 -0.618418 1.24084 -0.352303 0.0300863 -0.413387 1.01278 -0.996111 0.584057 0.0106014 0.981989 -0.120865 0.895191 -0.0857571 1.18001 -0.389377 0.676445 -0.973858 1.01571 
-0.380673 1.09279 0.458467 0.680242 -0.776683 0.884498 -0.900359 0.122563 -0.0485014 0.946161 -0.77456 0.0666579 -0.306547 1.06324 -0.716509 0.851134 -0.735229 0.0198184 -0.490358 0.655744 -0.430516 1.09329 -1.00637 0.565566 -0.787752 0.423454 -0.543341 0.966729 -0.107688 0.616367 -0.089801 0.904985 -0.378449 0.617163 -1.13652 0.10288 -0.882867 0.184235 -0.856643 1.33804 -0.482706 0.505908 -1.15511 0.21748 -0.822592 1.08309 -0.917457 0.0385241 -0.82148 1.21293 -0.89152 0.557517 -0.359777 1.5455 -0.673844 -0.014609 -0.211596 0.414838 -0.640017 0.690685 -0.598808 0.128574 -0.697918 0.403576 -0.248244 1.03662 -0.699594 1.0878 -0.303277 -0.0707782 -0.0579362 0.404938 -0.702701 0.194608 -0.746091 1.0405 -0.357954 0.431821 -0.22637 0.571004 -0.992592 -0.248273 -1.20778 -0.0421012 0.261681 0.613666 -0.187409 -0.100744 -1.1028 0.714702 -0.963419 0.519403 -0.887321 0.929816 -0.641416 0.367454 -0.385751 0.751853 -0.856245 0.265914 
-1.04955 0.570611 -0.313867 1.0025 -0.693704 1.10064 -0.661829 0.331644 -0.741665 0.725569 -0.370937 0.731432 -0.585689 0.051366 -0.516267 0.96836 -0.307136 -0.141062 -0.338945 0.383675 -0.157341 0.0649376 -0.320537 1.21536 -0.321975 -0.225505 -0.429527 0.370645 -0.413494 0.390711 -0.531813 0.216747 -0.145756 0.439982 -0.494978 0.943784 -0.0189751 0.0658049 0.0396038 1.04826 -0.733067 1.4867 -0.913083 0.298971 -0.677101 -0.139772 -0.830998 0.74069 -0.680404 0.717118 -0.6615 0.927703 -1.41237 0.315018 -1.05456 0.418015 -0.883634 0.698679 -0.664153 0.707088 0.0898207 0.0804636 -0.294576 1.1058 -0.31928 -0.223665 -0.151206 0.16336 -0.664671 -0.00347712 -0.676998 0.176004 -0.106761 -0.440508 0.12115 1.17426 -0.910185 0.963244 0.146274 0.523909 -0.208003 0.58715 -0.176359 0.749526 -0.477184 0.861454 -0.535881 -0.13752 -0.152119 0.441594 -0.506995 1.13878 -0.943646 0.323955 -1.14957 0.746933 -1.17497 0.27729 -0.765297 0.728172 
0 0.326588
 4 100
-0.556192 0.703368 -0.332643 0.326012 -0.0426479 0.554648 -0.194072 0.736925 -0.98333 0.249256 -0.701279 0.311246 -0.634481 0.389702 0.258872 0.634668 0.344603 0.302195 -0.600915 0.690614 -0.296359 1.14415 -0.0262342 0.328755 -0.124261 0.259792 -0.189522 1.02897 0.0177392 0.27497 0.581668 0.502225 0.114918 0.590909 -1.08367 0.521683 0.446135 0.139513 0.393761 1.04312 -1.11033 0.101304 -0.658417 -0.0430239 -1.12141 0.0155508 0.0415776 0.602019 -0.0474369 0.799419 -0.535402 0.334211 0.504333 0.689591 0.237361 0.106944 -0.0791668 -0.235137 -0.68963 -0.584376 -0.241238 0.402466 0.080986 -0.0585063 0.401345 0.929933 0.456955 -0.0536902 -1.04782 -0.223796 -0.303114 0.399449 0.558795 -0.0244204 0.0770422 0.447134 -0.212259 -0.585622 -0.495701 0.365648 -0.727864 0.174727 -1.18673 0.272914 0.0623659 1.58864 -0.15871 1.01047 -0.52896 0.484751 -0.323342 -0.00240723 -0.355196 0.786091 -0.807468 -0.350173 -0.594287 -0.350904 -0.610348 0.127453 
-1.09646 0.694502 0.160395 0.60874 -0.771146 0.552377 0.0699783 1.10929 -0.913461 0.152054 -0.847316 0.0596225 -0.493356 0.601821 -0.742818 -0.162757 -0.0686525 -0.501497 -0.0508377 0.592901 0.0433636 0.953747 -0.508475 0.143958 -1.10064 -0.0319714 0.0707227 0.122502 -0.611185 0.421322 -0.419098 0.0955785 -0.675506 -0.309555 0.805817 -0.599868 -0.198004 -0.780608 0.363294 0.00655432 -0.22714 -0.284364 -0.881529 0.0732689 -1.16796 0.37273 -0.671322 0.435606 -0.997165 0.714835 -0.954016 0.478958 -1.17237 0.0462864 -0.421547 -0.032548 -0.0215897 0.909388 0.254048 0.678768 0.160343 -0.349655 0.295294 0.869693 -0.596865 0.430123 -0.0310937 0.21636 -1.32654 -0.17548 -0.530596 0.138978 0.288294 -0.935756 -0.196049 -0.232076 -0.576751 0.576729 -0.345157 -0.235062 -0.669305 0.714674 -0.185241 0.296364 -0.870256 0.0356737 -0.727187 0.375404 -0.666261 0.905657 -0.940459 0.821473 -0.832627 -0.543257 -0.698339 0.235624 -0.413624 0.19672 -0.328728 -0.214837 
-0.945902 -0.127648 -0.38909 -0.23439 -0.27925 0.64131 -0.663426 0.712583 -0.281225 0.0177958 -0.305055 0.95963 -0.53248 -0.124605 -0.215762 0.0236749 -1.3286 0.634611 -0.0148641 0.194434 0.456752 -0.850888 0.141172 -0.0831885 -0.511519 -0.0425217 -0.14011 0.621591 -0.886926 -0.322028 -0.140948 0.230475 -0.458827 -0.0199702 -0.572646 0.368194 -0.755944 -0.318858 -0.215524 -0.436653 -0.342322 0.0947306 0.0772881 1.16426 0.0614128 0.563701 0.553776 0.616516 -1.11814 -0.0095776 -0.844518 -0.0143252 -0.311094 0.436925 -1.23443 0.138941 -0.438494 0.510189 -1.18731 0.427265 -0.676897 -0.195674 -0.688279 0.182704 -0.872204 0.0170263 -0.237665 0.945647 -1.35283 -0.31587 0.0910517 0.680423 -0.0497817 -0.0789914 -0.846701 0.440132 -1.44983 0.507136 -0.71301 -0.0595012 0.346369 1.09142 0.217404 0.554939 -0.934332 0.604419 -1.11988 -0.0943643 -0.0362277 0.270312 0.180138 0.463902 0.306176 0.96829 -0.494833 0.236409 0.481031 0.670257 -0.142118 0.52704 
-0.184784 0.328862 -0.997167 0.874049 0.0644126 0.311684 -0.242828 0.13282 -0.35561 0.658803 -0.503917 0.405708 0.51946 0.850579 -0.152671 0.750458 0.0194035 0.741836 -1.07166 0.55313 -0.463224 -0.0644952 -0.150074 -0.481166 0.292714 0.821856 -0.871406 0.898211 -0.668733 0.230128 -0.380798 0.104397 -0.227461 0.446295 -0.801893 0.626621 -0.781435 0.111645 -1.12041 -0.696008 -0.366893 0.519353 -0.639461 0.855161 0.12966 0.959886 0.193948 0.390229 -0.350133 0.497783 -0.513629 0.667372 0.129793 1.04517 0.176342 0.526742 -0.249881 0.105544 -0.303886 0.662707 -0.647607 0.618936 0.211404 0.432202 -0.256229 1.24138 -0.627384 0.993336 -0.461258 -0.0498374 -0.286447 0.888475 -0.197426 0.948109 -0.47125 -0.451076 -0.363118 0.84388 -0.631958 1.01476 -0.888974 1.06203 -0.383536 -0.251938 0.0693952 0.0773455 -0.193155 0.0410139 -0.26204 0.380778 -0.375197 -0.42052 0.151407 1.2512 -0.559357 1.12112 -0.25587 1.28295 -0.432612 0.688333 
0 -0.62132
 4 100
-0.153497 0.546294 -0.213865 0.330701 -0.886743 0.215014 -0.544067 0.968962 -0.125375 0.616497 -0.0513918 0.433602 -0.571071 0.0804779 -0.658866 0.963437 -0.464405 0.445285 -0.849083 0.467815 -0.672064 0.741405 -0.742204 0.988723 0.177051 0.399544 -0.848323 0.303096 -0.722228 1.1212 -0.900804 0.624272 -0.780059 0.910888 -1.11166 0.890537 -0.142746 1.13355 -0.51842 0.0211089 -0.878328 0.613522 -1.36276 0.221657 -1.53507 0.430872 -0.624827 -0.38334 -0.119255 0.898954 -0.147483 0.348916 -0.150564 0.738994 -0.835621 0.432413 -0.286531 0.480877 -0.944499 0.926467 -0.597556 0.618892 -0.646057 0.219611 -0.807386 0.31911 -0.872715 0.848316 0.108082 0.879871 -0.739173 0.52011 -0.324384 0.74571 -0.0980744 0.585957 0.246796 1.47267 -1.00718 0.478566 -0.460214 0.143459 -0.833545 0.501627 0.00940197 1.4298 -0.597233 0.599283 -0.149865 0.666613 -0.705426 0.40246 -0.354629 0.0980807 -1.48009 0.468549 -0.823482 0.297384 -1.0269 0.784306 
-0.209822 0.727068 -0.0705899 0.515147 -0.353097 1.03893 0.205574 0.850353 -0.512806 0.956907 -0.17134 0.833474 -0.39214 0.688876 0.0224449 1.01865 -0.206007 0.842986 0.0623062 0.886055 -0.346617 0.680901 0.173973 1.12738 -0.318642 0.377758 -0.185771 1.05388 -0.403057 0.941458 0.1473 1.52208 -0.335103 0.0947168 -0.425572 0.940672 0.0740498 1.02586 0.224485 1.19542 -0.826762 0.956149 -1.26893 0.125431 -0.541106 1.15167 -0.827504 0.756798 -0.555954 0.0673888 -0.771166 1.03282 -0.402912 0.4827 -1.38425 0.544567 -0.665236 0.318822 -0.0868213 1.05813 -1.45888 0.0305573 -0.725253 0.681834 -0.4916 0.632156 -0.833056 1.03906 -0.394913 0.450833 -0.319401 0.286113 -0.956361 1.25905 0.184574 -0.286832 -0.832937 0.467507 -0.677279 0.560629 -1.17314 1.03516 -0.275642 0.45541 -0.993775 0.390458 -1.35921 0.782888 -1.31405 1.18197 -0.31076 0.901927 -1.38143 -0.0440112 -0.743944 0.647452 -0.380765 0.432523 -0.144005 0.0826898 
-0.875485 1.07757 0.0758239 0.0355906 -0.0348886 0.626239 -1.01356 0.65464 0.282405 0.827617 -0.593626 0.291953 -0.146265 0.792493 -0.716698 0.187911 -0.36143 0.571801 -0.0831044 0.138914 -0.0729916 0.515302 -0.729561 1.2601 -1.2983 1.06503 -0.711416 0.162264 -0.695133 0.448746 -0.944315 0.183667 -1.36777 0.228061 0.414497 0.139099 -0.855009 0.656987 -0.786756 0.406619 0.0292166 1.35133 -0.586376 1.02292 0.617524 0.783456 -1.29211 1.03914 -0.121926 0.812609 -0.915284 0.437618 -0.126771 0.363972 -0.700762 0.993108 0.0194279 1.07405 -0.604831 -0.0107451 -1.0317 0.268481 -0.607067 0.511106 -0.738054 1.0999 -0.82069 0.366941 -0.399323 1.53004 0.0564502 0.272512 -1.74267 0.557028 -0.306759 0.190626 -1.12546 1.48509 -0.639538 0.197487 -1.15377 0.0973764 -0.632421 1.02686 -0.661557 -0.111224 -0.49079 1.09228 -0.514568 0.184232 -1.12428 0.75583 -0.421922 0.606155 -0.520305 0.628874 -0.243769 0.258702 -1.01942 0.831783 
-0.242163 1.50817 -0.985294 0.851668 -0.999949 0.150847 -0.557903 0.0861894 0.124718 1.1232 -0.833526 0.168532 0.0634082 1.43804 -0.65817 -0.00299892 -0.497416 0.671684 -1.0243 0.271948 -1.16231 0.941417 -0.0535303 0.424123 -0.551713 1.58333 -0.368057 0.841832 -0.436487 1.11058 -0.942112 0.252476 -0.507268 0.698229 -0.83041 0.237947 -1.68264 1.38231 -0.54792 -0.125 -0.315326 0.193409 -0.495972 1.08595 -0.0272487 0.155849 -1.39593 1.17417 0.0424151 0.735084 -0.989747 0.110381 -0.0380442 0.421192 -0.933992 0.932202 0.111547 -0.309086 -0.869247 0.571142 -0.870279 1.0035 -0.483977 0.525856 -0.225928 0.369964 -0.338883 0.0307877 -0.61623 1.4893 0.0838431 0.234385 -0.625798 0.708104 -0.241681 0.705041 -0.522961 1.18323 -0.728834 0.302369 -0.580042 0.778067 -1.21674 0.646855 0.207743 1.11294 -0.680313 0.751275 0.0662086 0.301393 -0.295545 0.72413 0.115369 0.873711 -0.958828 0.0110559 -0.915818 0.414843 -0.217229 0.378397 
0 0.00587149
 4 100
0.0693063 -0.00125225 0.460624 0.338768 -0.822329 0.995031 -0.338806 1.30015 -0.346193 0.45789 0.138255 0.958209 -0.76946 0.465518 0.0535603 0.452371 0.308417 0.517617 -0.239302 1.11961 0.191017 0.875084 -0.172486 0.29414 -0.413926 0.33806 -0.0362841 0.326616 -0.453768 0.802285 0.165961 -0.141176 0.275244 0.551655 -0.225978 0.074928 0.365506 0.325206 -0.222136 -0.0300648 -1.25566 0.877835 0.566179 0.406909 -1.04113 0.950832 0.758351 1.19717 -0.245592 0.50189 -0.961525 0.450879 0.284469 0.997343 0.293258 0.508844 -0.481894 -0.224347 -0.337353 0.324507 -0.204043 0.453346 -0.58125 -0.204035 0.0825424 0.811416 -0.355395 0.621401 -0.10498 1.04616 0.152084 0.673247 -0.128244 -0.0891143 0.161911 -0.402992 0.151095 -0.171262 -0.121314 0.619377 -0.369262 0.68761 -0.0988436 0.636349 -0.37481 0.656772 -0.610729 0.0748555 -0.927261 0.61488 -0.341853 0.426677 0.42779 1.13047 0.548495 0.722615 -0.388636 -0.0903908 0.190544 0.699269 
-0.580439 0.0988588 -0.14278 1.07613 -0.417135 0.896897 -0.379897 0.922832 -1.39309 0.89311 -0.334987 0.720118 -0.995951 0.822139 0.101883 0.602486 0.0190213 -0.0368605 -0.159221 0.494981 -0.293439 0.169041 -0.0506091 0.00956699 -0.765681 0.207282 0.429589 -0.11112 -0.894894 0.0282595 -0.277646 0.631109 -0.529572 -0.470823 0.440023 -0.245806 0.196052 -0.640643 0.082204 -0.0567676 -0.902871 -0.424825 -1.04455 0.221719 -0.933932 0.617833 -0.917622 -0.112328 -0.594139 0.0785775 -0.353846 -0.0134741 -0.308496 0.733507 0.117395 0.473858 -0.531599 0.829492 -0.312991 0.791621 -0.0619752 0.374436 0.289221 0.701466 0.404904 0.192286 0.340696 0.160184 -0.80066 -0.0570412 -0.90346 -0.277624 0.247632 -0.346419 -0.030663 -0.434132 -0.0868613 0.216556 -0.360869 0.252471 -0.843026 -0.391148 -0.86269 0.656007 0.431121 0.541436 0.302881 0.771829 -1.12317 0.167011 -0.926686 0.21803 -0.325337 -0.238447 -0.632836 -0.0133481 0.065477 -0.285588 -0.897778 0.42261 
-0.84459 0.725824 -0.707112 0.109519 -0.304386 0.331235 -0.544314 0.136652 -0.730612 -0.443845 -0.513729 0.456362 -0.698382 -0.184732 -0.0787852 0.0371772 -0.582243 0.0359424 -0.670875 0.405682 -0.239088 -0.921402 0.352449 0.191951 -0.21173 -0.780003 0.190757 -0.442145 -0.803437 0.198556 -0.260064 -0.383637 -0.348363 -0.307219 0.189125 -0.219603 -1.11265 -0.400197 -0.637404 -0.260519 0.0630746 -0.133139 -0.615096 0.712478 -0.508498 0.0934132 -1.06116 0.879055 -0.607722 0.10542 0.0618417 0.366016 -1.20947 -0.394866 -0.675139 0.315676 -0.40478 0.408227 -0.610557 0.586814 0.0927663 0.164817 0.184581 0.649274 -0.854102 0.183128 -0.714938 0.653982 -0.913657 0.387865 0.0943691 0.221314 -1.14638 -1.00641 -0.249751 0.511978 -0.996857 0.0710169 -0.219365 -0.174928 -0.671737 0.292672 -0.291791 0.190269 -1.73166 0.614681 -1.11109 0.0921489 0.397563 0.76149 -0.350403 0.751733 -0.0853661 0.276889 -1.09514 0.125396 -0.404194 0.0703691 -0.914304 0.333605 
0.227253 1.0276 -0.764573 0.435992 0.0332799 0.532396 -0.0254435 0.875297 -0.194106 0.753799 -0.493685 0.3575 -0.155723 0.504654 -0.468053 0.553862 -0.0873226 0.624759 -0.403617 -0.0324162 -0.74688 -0.119852 -0.648759 0.160896 -0.374156 -0.0175589 -0.479517 0.624312 -0.866153 -0.389732 -0.588128 0.21671 -0.0797277 0.150469 -0.240185 0.248774 -0.709608 -0.456424 -0.000929908 -0.50155 -0.279781 0.0770851 0.425817 0.404927 1.01123 -0.000732493 -0.586808 0.272819 -0.679748 -0.0864608 -0.605699 0.409165 0.52945 -0.400124 0.003361 0.35019 -0.636309 -0.387923 0.242037 0.429466 -0.256488 0.387657 -0.655276 0.779583 -0.0565541 0.942787 -1.09143 0.442315 -0.64067 0.413687 -0.220213 0.578277 -0.409704 0.625922 -0.444005 0.108919 0.155771 0.393706 -0.839334 0.477485 -0.114749 0.487412 -0.256243 0.386276 -0.745009 0.0412741 -0.217942 -0.221335 -0.504714 0.454346 -0.622894 0.0490389 0.227188 1.04241 -0.513616 0.238539 -0.485469 0.851526 -0.584448 0.789701 
0 -0.512384
 4 100
-1.03131 0.596912 -0.757316 0.736112 -1.11243 0.682787 -0.563283 0.765758 -0.830219 0.826966 -0.742701 1.05421 -0.480288 0.348827 -0.436638 0.464681 -1.10364 0.275212 -0.908175 0.204781 -0.0882895 -0.0477854 -1.42806 0.25546 -0.962314 0.624476 -0.91113 -0.06238 -0.587646 0.572246 -0.575551 0.748731 -0.803486 0.312826 -0.618486 0.148238 -1.01924 1.13041 -0.187949 0.444981 -0.518834 0.128829 -1.21271 0.649757 -0.433086 -0.047419 -1.73695 1.26105 -0.252852 0.950813 -0.146887 0.906485 -0.875464 1.54098 -0.395734 1.35305 -0.277402 0.718174 -1.17725 0.628793 -0.455826 1.1672 -1.29398 -0.223637 -0.534162 0.557451 -1.15462 -0.141185 -0.510272 1.08735 -0.692835 1.24041 -0.378453 1.19711 -0.848158 0.553872 -1.09356 1.37341 -1.36086 1.05293 -0.51819 0.121906 -0.653454 -0.0433306 -0.342677 0.142396 0.387367 1.62028 0.25392 0.963094 -0.570489 0.596548 -0.427079 0.83755 -0.200672 0.0817442 -0.487914 0.324189 -0.707384 0.281647 
0.0517769 1.15336 -0.860955 0.662709 -0.434946 0.446199 -0.381991 0.950096 -0.372013 0.62884 -1.00997 0.931762 0.10777 0.470109 -1.43905 0.849478 -0.717451 0.738586 -1.15754 0.740565 -0.569662 0.437581 -0.0279511 0.421277 -0.433826 0.432664 -1.55412 0.489798 -0.425828 0.316078 -1.26355 0.508047 0.00758096 1.33127 -0.272767 0.62875 -0.799275 1.41509 0.176626 0.30391 -0.08147 -0.23754 0.149555 0.922904 0.140498 -0.132722 0.169037 1.60444 -0.480156 0.362574 -0.170404 0.227148 -0.677305 0.798793 -1.20834 0.960123 0.341866 0.772615 0.538426 1.03752 -0.414029 0.277785 -0.421731 0.0409507 -1.42251 0.65142 -1.36306 0.421716 0.0128032 0.382723 -0.537449 1.69918 -0.886735 1.21065 -0.478984 0.349456 0.213198 1.20061 -0.0110616 1.14054 -0.48108 -0.0109209 -0.706933 0.743609 -1.11691 0.928785 0.101658 0.771199 0.0762344 0.934835 -0.422238 0.712534 -0.316459 0.734536 -0.282647 0.463398 -0.612604 0.903042 -0.0031697 0.778062 
0.0457539 0.537387 -0.419944 0.753329 -0.761716 0.959119 -0.021162 0.843684 -0.154308 1.29847 -0.261297 0.831547 -0.461371 0.900596 -0.731623 0.80098 0.34028 0.921073 -1.10623 1.34635 -0.946674 0.474887 -0.213694 0.271249 -0.0868913 1.10781 -0.567126 0.68483 -0.285046 0.711451 -0.770656 1.71581 -0.103769 0.801179 0.1444 0.902581 -0.200595 1.81688 -0.495467 0.0741958 -0.374583 0.489069 0.869292 0.304123 0.376323 1.21082 0.534927 1.2755 0.138708 0.216585 0.101768 0.766526 0.136325 0.0316626 -0.103651 0.738601 -0.698077 0.479669 0.452367 1.32545 -0.980155 0.394776 -0.328447 -0.258734 -0.659882 -0.352892 -1.27012 0.729687 0.866704 0.786057 -0.555009 1.53933 -0.209567 1.16562 -0.763922 0.177944 -0.559999 0.464118 -1.11196 0.603872 0.395418 1.59075 0.522321 0.690512 -1.53758 -0.425721 -0.180018 0.962102 -0.417877 0.341029 0.490376 0.929868 -0.63253 1.13059 0.442935 1.41057 -0.190588 1.0087 0.543138 0.516873 
-0.425604 0.852982 -0.341137 0.719941 -0.0920691 0.321539 -0.703125 0.326209 0.27527 0.773497 -0.687887 0.28102 -0.06289 0.737092 -0.360406 0.894614 0.548519 0.22098 -1.00031 1.16674 0.217337 1.47033 -0.233115 -0.150657 0.383533 0.798463 -1.12745 0.977756 -0.568578 0.269366 -0.769395 1.03281 0.0674284 0.771452 -0.901383 0.777966 -0.258646 1.28989 -0.534292 0.720683 -0.156799 0.440047 1.06407 0.799376 0.0199171 1.19266 0.646952 0.080975 -0.238822 -0.263764 -0.381812 0.375086 0.521635 0.255294 0.679609 0.555888 -0.956738 -0.0386399 -0.108325 0.206494 -0.553621 0.954209 -0.813352 0.739343 -0.0281744 0.704203 -0.876514 0.690535 -0.181245 0.961737 0.182606 0.913616 0.470415 1.66183 -0.673486 0.102311 -0.076612 0.8965 0.0906446 0.731698 -1.0204 0.7172 -0.495943 0.294903 0.397518 0.635145 0.362821 1.15172 -0.236839 0.417967 0.129161 0.396742 -0.131429 1.17636 0.458496 0.294691 -0.925797 0.911503 0.485737 0.453518 
0 0.373736
 4 100
0.109278 -0.00128499 0.184088 0.344063 -0.516506 0.184924 0.0546957 0.410359 -0.403485 0.0588569 -0.956445 0.110438 -0.169554 0.948742 -0.285405 -0.248533 -0.038721 0.395638 0.056872 -0.0225132 -1.2022 0.733924 0.0334933 0.378602 -0.971162 0.295455 -0.445357 -0.122294 -0.883216 0.482073 -0.703422 -0.644498 -0.55897 0.396411 -0.236358 0.7501 -0.577054 -0.062256 -0.370462 -0.550939 0.559883 0.443335 -0.211015 0.26616 0.289206 0.426107 -0.303148 0.698287 -0.152158 -0.26618 -0.28227 0.683742 -0.347082 -0.121337 -0.621205 0.302077 -0.573063 -0.18506 0.422719 0.75871 -0.631624 0.648223 -0.613974 0.229687 -0.455273 0.0488944 -0.0137745 1.10746 -0.387436 0.148678 -0.986948 -0.266422 -0.382487 0.485744 0.0406051 -0.267096 -0.0422296 0.108615 -0.551606 -0.16881 -0.103623 -0.111521 0.313274 0.968975 0.00340366 -0.257681 -0.932479 -0.139092 -0.291561 0.428513 -0.12215 0.790031 -0.145195 0.719712 -0.540841 0.7 -0.062346 0.774023 -0.350848 -0.264227 
-0.630432 0.150114 -0.0668785 0.356326 -0.242896 0.499909 -0.647682 0.598972 0.0316241 0.547255 -0.687541 -0.192021 -0.211346 0.289244 -0.756178 0.165543 0.192996 0.455693 -0.342264 0.472179 -0.977148 0.406536 0.0325417 0.21054 -0.780395 0.414512 0.140905 0.0756751 -0.273717 -0.225064 -0.75675 -0.324749 0.00720036 -0.118771 -0.964254 -0.163631 -1.14934 0.295922 -0.790803 0.468248 0.105767 0.553668 -0.348244 -0.0161948 0.0356222 0.645425 -0.737611 0.497906 0.178449 0.3119 -0.912811 0.0132522 -0.0814035 0.0628083 0.0954657 0.342487 0.166858 0.677092 -1.46086 -0.220647 -0.782183 0.368845 -0.111478 0.58263 -0.223497 0.771786 0.0958177 0.278503 -1.18119 0.465678 -0.0470911 -0.0862154 -0.554284 -0.0204664 -0.448465 0.0297885 -0.547038 -0.0815356 -0.29128 -0.28327 0.0365231 -0.237306 -0.596035 0.811755 -0.115578 0.299779 -0.612517 0.577085 -0.969669 0.0708127 -1.02718 0.592049 -0.482031 0.561028 -0.12761 1.22265 -0.303797 -0.118914 -0.0330941 -0.197228 
-0.150088 0.889743 -0.80867 0.369206 -0.401747 -0.0728054 -0.227781 0.252344 -0.750289 0.177838 -0.779469 -0.0897846 -0.466887 0.456987 -0.35757 -0.18505 -1.12414 0.386233 -0.0550047 -0.318875 -0.378263 0.418662 -0.656494 0.769311 -0.157836 -0.446846 0.351507 -0.184659 -0.617944 -0.166548 0.0959907 0.175955 -0.928621 -0.0785158 -0.372869 0.314185 -0.66818 -0.379732 -0.49645 1.36144 -1.02114 0.0199975 -0.516584 0.76643 -1.37669 0.343118 -1.12855 -0.0933492 0.16818 0.618083 -0.628726 0.535871 -0.244761 1.33477 -0.342955 0.4333 -0.454533 -0.024815 -0.454017 -0.112911 0.206925 -0.154679 -0.482894 1.36025 -0.596259 0.704427 -0.0815796 0.466142 -0.873333 -0.626023 -0.634522 0.086995 0.347609 -0.876159 -0.160561 1.08047 0.148632 0.240846 0.314282 0.224298 -0.952762 0.0414085 -0.98708 0.169141 0.237222 1.45075 -1.1917 0.0754815 -0.732029 -0.130221 -0.30569 0.780834 -0.819065 0.326937 -1.05653 0.746155 -0.751609 0.263157 -0.586214 0.924871 
-0.662214 0.366647 -0.233089 0.417467 -0.405803 1.054 0.118876 0.00495971 -1.14428 -0.00557089 -0.862237 0.861904 -0.795804 0.027485 -0.384296 0.253743 -0.884943 0.560083 -0.218223 0.508448 -0.666409 -0.40571 -0.725301 1.00218 -0.454269 -0.0935683 -0.135703 0.919014 -0.727515 0.0309185 0.06937 0.307994 -1.05853 -0.326881 -0.127068 0.585706 -0.247655 -0.448774 -0.712322 0.423153 0.479038 1.10995 -1.31911 0.388926 -0.780029 0.459206 -0.387202 0.665806 -0.685173 0.566968 -0.667042 0.752813 -1.43442 -0.20263 -0.950356 -0.404757 -0.284207 1.78009 -0.198627 -0.105815 0.211316 -0.0134086 -0.769576 1.02659 -0.758249 0.272843 -0.814547 0.710239 -0.317545 0.303798 -0.219217 -0.205481 -0.154742 -0.111052 -0.151279 1.21472 -0.523615 0.454255 -0.527179 0.513457 0.370237 0.265629 -0.383559 0.713982 -1.0064 -0.00895713 -0.926964 -0.139695 0.276291 0.93829 -0.343323 0.874835 -0.8641 -0.483732 -0.880551 1.10564 -0.218908 -0.0125644 -0.601436 0.38177 
0 -0.94362
 4 100
-0.814299 0.607474 -0.0452799 1.21709 -1.04356 0.0454063 -0.484823 1.48729 -0.528552 0.801484 -0.154589 1.22494 -0.203007 0.289399 0.238693 0.666647 0.0637317 0.61804 -0.331439 0.572727 -0.319714 0.630941 -0.445565 0.836043 -0.237545 -0.0245631 -0.542908 0.406512 -0.956493 0.913457 -0.736259 0.634109 -0.00327535 0.994114 -0.318603 0.550695 0.00982877 0.19859 -0.946747 0.572745 -0.0912981 0.858975 -0.151436 0.969224 -0.160372 1.32596 0.462 1.60696 -0.380497 0.807576 -0.6118 -0.0788507 -0.205459 1.53777 0.0728347 0.701416 -0.497956 0.398593 -1.29502 0.802966 -0.832313 0.0940339 -0.929725 0.731072 -0.536643 1.21602 -0.284617 0.418095 0.164589 0.254377 -0.803128 1.18655 0.140845 0.585924 -0.541662 0.872068 0.00328761 0.327601 -0.682579 0.573036 -0.841884 1.02045 -0.594162 1.18083 -0.740353 0.140034 -0.794822 0.459548 -0.0144733 0.451413 -0.380286 0.205794 -0.451816 1.34119 0.768437 0.70122 0.0768575 1.16332 -0.79526 0.873716 
-0.852149 -0.0807253 -0.174885 1.30377 -1.07204 0.290045 -0.901293 0.106631 -0.515819 0.831083 -0.170378 1.30057 -1.20724 0.258605 -0.257697 0.565776 -0.293733 0.0331676 -0.746118 0.616978 -0.393756 0.415506 -0.545502 0.670235 -0.226305 0.500428 -0.906834 0.667012 -0.573449 0.764876 -0.180824 0.418153 -0.378623 -0.0398743 -0.75651 0.0475742 0.275233 0.390096 -0.276591 0.0969197 -1.48325 0.0158503 -1.06535 0.704613 -1.57299 -0.430918 -0.749767 0.791735 -0.62007 1.03089 -0.194876 -0.1467 -0.301249 1.14635 -0.366285 0.615991 -1.06455 0.280182 -0.324231 0.255525 0.343346 1.09565 -0.664904 0.489328 -0.0896573 0.516151 -0.0844843 0.526047 -0.371552 0.131459 -0.48416 0.646333 0.403098 0.546662 -1.01334 0.905831 -0.516128 0.705914 -0.322136 0.593367 -1.07337 0.422629 -0.884361 0.561592 0.100856 1.57432 -0.480463 0.736662 -1.05245 0.397806 -0.463005 0.0609562 -0.31428 1.19802 0.197771 0.133104 -1.12476 -0.313683 -1.37488 1.10664 
-0.894071 -0.31264 -0.42961 0.14815 0.0213738 1.46794 -0.773345 0.756767 -0.905213 -0.0796284 -1.02142 0.813412 -0.921617 0.63568 -0.872447 -0.00563927 -0.591701 0.461468 -0.286937 0.553554 -0.315489 -0.172743 -0.563903 0.244055 -0.372494 -0.0353913 -0.963174 0.513593 -0.276895 0.175019 -0.692945 0.46562 -0.434602 0.637215 -0.804152 0.179596 -0.286122 0.271519 -0.866801 0.360767 -0.410971 0.725319 -1.36036 0.301403 -0.96922 0.393387 -0.475056 0.627486 -1.3616 0.716726 -0.168436 0.357586 -0.885703 -0.256413 -0.726258 0.562403 -0.892127 1.4621 0.2867 0.417766 -0.311153 0.528717 -0.539288 0.825273 -0.566687 0.15736 0.0399429 0.304357 -1.00804 0.110045 -0.675057 0.489291 -0.27372 0.479806 -0.461359 0.774959 -0.208837 0.857895 -0.887652 0.694887 -0.471074 0.0424503 -0.959646 0.603134 -0.816818 0.04001 -0.456161 -0.0149373 -0.819885 0.79904 -0.695235 0.135135 -0.555678 0.0510948 -0.953844 0.202066 -0.621952 0.750415 -1.03064 0.296202 
-0.454483 0.0461849 -0.82539 0.238481 -0.562466 0.756242 0.146478 0.550798 -0.493063 0.834661 -0.580824 0.198259 -0.277993 0.504515 -0.381082 0.800217 0.0775238 0.840876 -0.607368 0.830726 -0.279086 0.185399 -0.66045 0.505569 -0.296533 0.681096 -0.340111 0.646905 -0.27511 0.500677 -0.0169441 0.572326 0.0314375 0.84875 -1.00071 0.523751 -0.596054 -0.209389 -0.309355 0.0561045 -0.442452 1.43391 -0.142497 0.137069 -0.3881 0.558413 0.103392 0.626939 -1.04469 0.127279 -0.864314 0.495403 -0.522927 0.724499 -0.0855559 0.906034 -1.04117 -0.203065 -0.725931 0.540818 -0.449275 0.211841 -0.347984 0.477565 -0.569391 0.258434 -0.515684 0.43039 -0.945898 0.226193 -0.327914 0.835598 0.125401 0.866924 -1.12094 0.0182549 -0.433826 0.358597 -0.734744 0.779432 -0.298533 1.06386 -0.204346 0.734194 -1.20864 -0.226726 -0.671098 0.385299 -0.366889 0.500764 -0.643037 0.413317 0.0126988 0.983117 -0.193405 0.675684 -0.0699899 1.69327 -0.320889 0.302414 
0 0.649955
 4 100
-0.781204 0.431799 0.0508899 0.391194 -0.813363 0.511474 0.122169 0.372243 -0.525642 0.540003 -1.03071 0.911396 -0.0423907 0.0910732 -0.0508959 0.67027 -0.579326 0.131303 -0.724343 0.572402 -0.701435 0.20407 -0.416829 0.350617 -0.846619 0.1334 -0.209414 0.309321 -0.0559395 -0.0367254 -0.192526 -0.0394057 -0.135812 0.623848 -0.626574 0.0376572 -0.453153 0.289007 -0.863224 1.0921 -0.295576 0.629049 -0.181535 0.449146 -0.574509 0.61824 0.516967 0.776597 -0.599867 0.220043 -0.759874 -0.0104928 0.0862337 0.744921 -1.06467 0.217984 -0.0818993 0.132081 -0.668209 0.711825 -0.00725289 0.521723 -0.24154 0.320511 -0.22053 0.45669 -0.600166 0.288535 -0.246129 -0.354307 -0.317214 1.02814 -0.382227 0.79494 -1.00566 0.45483 -0.417081 0.187892 -0.636635 0.0373589 -0.271089 1.0867 -0.9612 0.24843 -0.437988 0.106578 -0.707157 0.532759 -0.370635 0.447674 -0.2854 0.576757 -0.364941 0.547809 -0.3901 -0.100641 0.19953 0.179711 -0.467845 0.556746 
-0.686538 0.561457 -0.326875 0.545009 -0.316525 0.427873 -0.342773 0.881321 0.380618 0.319643 -0.318669 0.801564 -0.183223 0.224621 -0.404287 0.484413 -0.153655 0.807046 -0.784264 0.499614 -0.387122 0.583913 -0.437363 0.564246 0.287503 0.35198 -0.171769 0.253107 0.1294 -0.40515 -0.866363 0.813074 -0.710676 0.897026 -0.551682 0.376873 -0.120483 1.02324 -0.884172 -0.00645323 -0.58358 0.743539 0.10397 1.35641 -0.125307 0.874197 0.685188 1.10301 0.502725 0.919862 -0.932595 0.12157 0.2572 1.04521 -0.000952939 0.111284 0.220363 0.268125 -0.0769316 -0.43875 -0.283037 0.772038 -0.836833 0.792442 -0.414992 1.11956 -0.46745 -0.133569 -0.21578 0.275104 -0.319749 1.24885 0.146929 0.323747 -1.46052 0.733921 0.321418 -0.049348 -1.09377 0.550669 0.0794372 0.977522 -0.545537 0.620543 -0.233805 1.06435 -0.362449 0.41132 0.289736 0.131438 -0.956378 0.415024 -0.437671 0.934781 -0.639824 0.151423 -0.543091 0.609122 0.230717 0.575401 
-0.418091 0.126124 -0.891006 0.688073 -0.691949 -0.225107 -0.413364 0.864524 -0.979191 0.823637 0.579972 1.10946 -1.01476 0.887901 0.247375 0.422864 0.0396424 -0.0199389 -0.314679 0.438037 -0.304942 0.512814 -0.159977 -0.0899926 -0.505562 0.0515234 -0.787176 0.829133 0.0543289 0.323345 -0.0595721 0.869589 -0.314257 0.154502 -1.01576 0.987631 -0.211028 0.623394 -0.54816 0.56495 -0.392714 0.563354 0.103944 0.420517 -0.959309 0.832012 -0.473603 0.621408 -0.47084 0.910744 -0.282922 0.796697 -0.215784 0.472189 0.342302 0.781926 -0.333242 0.617599 0.0558664 0.467989 0.018582 0.702093 -0.773707 0.445522 0.115137 0.337254 -0.584358 0.50099 -0.067221 0.0469815 -0.679838 0.80893 -0.470289 0.861347 -0.851355 0.470312 -0.486077 0.172018 -0.954294 0.535746 -0.00279301 0.560952 -0.677552 1.09742 -0.13538 -0.240497 -0.302186 0.935205 -1.20424 1.19279 -0.842401 -0.274225 -0.942917 0.578997 -0.450108 1.10181 -0.742411 0.936751 -0.891119 0.60498 
-0.766678 -0.220063 0.142176 0.0719385 -0.396213 -0.0452766 -0.437667 0.0514401 -0.829009 0.891353 -0.374318 0.291593 -1.09057 -0.0836917 -0.325821 -0.2703 -0.401579 0.288396 0.0585067 0.39045 -0.781146 0.891004 -0.71075 0.44278 -0.252618 0.0762156 -0.51982 0.0361494 -0.624667 -0.387845 0.100846 0.245216 0.140774 0.0535439 -0.213804 0.0544009 0.0622295 0.0363811 -0.503706 0.0321954 -0.879927 0.368603 -1.06575 0.684165 -0.683568 0.356366 -0.91669 0.326264 -0.210814 0.494203 -0.466207 1.00123 -0.981826 0.103005 -0.698485 0.124381 -0.703879 1.22631 -0.921521 0.466886 -0.850215 0.436501 0.183672 0.57671 -0.645757 0.65988 0.278946 0.622332 -1.22952 0.216499 -0.174192 0.0226869 0.197973 0.058023 0.0386971 -0.105466 -0.669411 -0.0601682 -0.469227 0.943869 -0.694711 0.147755 -1.12766 0.641037 -0.919787 -0.0503139 -0.225082 0.815694 -0.631821 0.870738 -1.0206 0.25045 -0.590162 0.85116 0.0259668 -0.0775623 -0.277661 -0.159931 -0.977945 0.494984 
0 -0.0586433
 4 100
-0.863329 0.651888 -0.906808 0.548482 -0.77423 0.203264 -0.508749 -0.258155 -0.0082964 0.319207 -0.205046 0.464473 -0.389851 0.497915 -1.23412 0.449589 -0.62502 0.478965 -0.947391 0.359358 -0.411237 0.340231 -0.620595 0.916202 -0.615998 0.412024 -1.16132 1.38115 -0.933334 0.24619 -1.23952 1.46118 -0.914023 0.097102 -0.503691 0.69942 -0.998852 1.19203 -1.31767 1.13928 0.328888 0.706447 -0.435543 0.232413 -0.151766 -0.0463611 -0.563075 0.936124 -0.678141 -0.154811 -0.373444 1.02553 -1.34421 0.542457 -0.879437 1.48983 -0.307953 1.0891 -0.765274 0.703054 -0.842532 0.992959 -0.802487 0.396658 -1.30253 0.319871 -0.973302 0.197155 -0.0240517 0.998051 -0.0856488 1.24036 -1.24576 1.41234 -1.06838 1.04452 -0.0426802 0.789593 -0.683233 1.17341 -0.789761 0.999591 -0.531324 0.821824 -1.12442 0.245724 -0.681368 0.472638 -0.895535 0.672991 0.165814 0.0110193 -1.02502 0.268232 -0.808113 0.205788 -0.257327 0.829916 -0.06729 0.641971 
0.210758 0.473667 -1.05502 0.45772 -0.631552 0.529671 -0.777699 -0.00145686 0.397288 0.625274 -0.118689 1.03525 0.442187 0.305511 -0.124943 0.954153 -0.727887 1.23528 -1.14536 0.661264 -0.536025 0.971136 -1.0587 0.710357 -0.326801 1.00574 -1.28524 1.29803 -0.339754 0.717219 -0.584736 0.683248 -0.557095 0.539078 -1.10123 1.18816 -0.824696 1.66221 -0.81038 0.84973 -0.710684 1.1188 0.414884 0.471637 0.537677 0.713184 -0.543919 0.916811 -0.146627 0.604475 -0.0646541 0.961144 -0.312869 0.286439 -0.233259 0.852894 -1.04252 0.607505 -0.0244901 0.933721 -1.22507 0.622497 -0.541748 0.0149458 -1.3803 0.547371 -0.609057 1.15332 0.248677 1.22538 -0.669103 1.80879 -0.788765 2.36715 -0.868486 0.59044 -0.682428 0.775542 -0.203054 0.878029 -0.794095 1.43746 -0.0217292 0.273672 -0.946145 0.3696 -0.517011 0.862617 -0.334687 0.53226 0.537701 0.485656 -0.112437 0.741082 0.532488 0.268594 -0.405414 1.86848 0.25131 0.639437 
-0.315278 0.751647 -0.875376 0.149477 -0.300137 0.660806 -0.258255 1.08336 -0.080785 1.42709 -0.772754 0.0157009 0.0567794 1.12006 -0.713254 0.329335 -0.161656 1.3083 -0.133081 1.04417 -0.526959 1.5516 -0.770329 1.02205 -0.203227 1.21311 -1.4226 0.587175 -0.213044 1.29182 -0.552275 0.474935 -0.792643 0.17523 -0.537278 0.249557 -0.0869654 0.861358 -0.733774 0.753301 -0.998514 1.05124 -0.131762 0.205567 -0.0665545 1.59719 0.239182 0.536816 -0.602833 0.354277 -0.119559 0.463926 0.305164 0.573327 0.605472 0.0848085 -0.645242 0.153412 0.476687 -0.00592821 -0.806068 0.669726 -0.740288 0.664805 -0.296248 0.422853 -0.712214 0.882438 0.0175019 1.4408 -1.17696 1.33176 -0.691196 1.2863 -0.140739 0.687955 -0.311337 0.945277 -0.369877 0.678721 -0.456897 0.348564 -0.61872 0.538086 -0.208496 0.892051 0.0608666 0.710159 -0.946115 0.975851 -0.645756 0.815442 -0.055376 0.915683 -0.388697 -0.077453 -0.648026 1.12927 0.370368 0.387441 
-1.26396 0.745648 -0.270251 0.795272 -1.11616 0.698046 -0.355783 0.451422 -0.57347 0.426044 -0.0894055 0.10497 -1.38421 0.509688 -0.0452315 0.665419 -0.573648 -0.0171678 -0.235135 0.888691 -0.554354 1.24377 0.278503 1.11072 -0.819316 0.230731 -0.385256 0.213056 -0.181849 1.02881 -0.130259 0.333177 -1.04705 0.885501 -0.184538 0.969353 -0.0529854 1.32455 -0.396373 1.03206 -1.24623 0.676528 -0.449421 0.475835 -1.43234 0.0595402 -0.0955633 0.068842 -0.223092 0.95092 -0.561759 0.156797 -0.694082 1.1034 -0.145406 -0.0897655 -0.542846 0.858302 -0.863421 0.299992 -1.0818 1.0837 -0.0529257 0.950837 0.0806686 0.478895 -0.625911 0.108507 -0.599376 1.13065 -0.239586 0.849257 -0.822029 0.27278 0.0197504 0.189916 -1.27911 1.18842 -0.64863 0.972321 -1.06118 0.651629 0.263581 0.883629 0.143985 1.48917 -0.335035 0.619299 -0.771619 0.576341 0.186419 1.10097 -0.303752 -0.530904 -0.923127 -0.110231 -1.3163 0.230238 -0.323144 0.350173 
0 0.225808
 4 100
-0.031443 1.16594 -0.552771 0.951844 -0.439881 0.48261 0.0795607 0.435054 0.00525754 0.0544545 0.522328 0.582207 0.104414 1.14065 -0.203437 0.393198 -0.197398 0.442372 -0.0649708 0.595929 -0.250565 0.0128754 0.00335444 0.306289 -0.139901 1.05879 -0.823663 0.235043 -0.465571 0.591657 -0.0629735 0.399245 0.00291202 1.05087 0.104887 0.24329 -0.33358 -0.098384 0.0812435 0.864727 -0.558699 1.37024 0.0865318 0.814627 0.0588717 1.35858 0.197542 0.815459 -0.243412 1.26655 -0.51206 0.926886 0.329316 1.01414 -0.452903 0.517031 0.304332 0.393177 0.118407 -0.126718 -0.139402 0.0453624 -0.893592 -0.411267 0.324063 1.50063 -0.241621 -0.0330405 -0.466171 0.823802 -0.0926022 0.235439 -0.823318 0.75818 0.221092 0.724412 -0.699941 0.796963 -0.951795 0.895924 0.0909476 0.756513 -0.134695 1.2167 -0.0488443 0.584451 -0.487148 0.626311 0.0852077 0.949 -0.707282 0.91636 0.222266 1.32331 0.167264 0.685568 -0.761946 0.446041 0.599637 0.815518 
0.188321 0.118749 -0.578669 1.2153 -0.14704 0.825117 -0.162599 0.0618341 -1.18274 1.69816 -0.367116 0.331142 -0.492254 0.81144 -0.185045 -0.0489985 0.156471 0.86784 0.0385271 1.23915 -0.472118 0.359884 -0.245744 -0.426929 -0.397614 0.315045 0.0398782 -0.637219 -0.913138 0.499195 -0.41108 -0.23285 0.20806 0.0624758 -0.0968012 -0.103778 0.0302136 -0.0384395 -0.0324676 0.513898 -0.235382 0.118373 -0.600284 0.918721 -0.488464 0.45372 -0.531083 0.106104 -0.28311 0.960402 -0.848279 0.994966 -0.343736 1.02469 0.34394 1.4055 -0.639359 0.514484 -0.0245258 0.230695 0.612305 0.0855336 -0.641319 0.186027 -0.175906 0.929411 0.209345 0.667396 -1.42104 1.01743 -0.568344 -0.606634 -0.202102 -0.337687 0.631215 -0.115378 -0.269381 1.19291 -0.0345399 -0.355939 -0.234235 -0.17998 -1.04373 0.242142 -0.0564057 0.364112 0.426877 0.823274 -0.968505 0.0379546 -0.942214 0.184692 -0.252948 0.646414 -0.612609 -0.0469748 0.00210162 -0.304337 -0.360186 0.0930433 
-0.423651 -0.00907241 -0.417134 0.398816 -0.863908 -0.143114 -0.426677 0.0836925 0.252034 -0.351172 -0.842498 -0.277426 -0.7979 0.495811 -0.620525 0.494368 -0.490139 0.403244 0.113782 0.365623 0.381751 -0.162037 0.0993131 0.348468 -0.536793 0.689707 0.513145 -0.239655 -0.820679 0.302203 -0.212757 0.361001 -0.767622 0.378513 -0.323522 0.266196 -0.711394 -1.03487 -0.281418 0.189764 -0.442552 -0.958176 -1.57234 0.268533 0.0610591 -0.228563 -1.35995 0.520893 -0.655385 0.199024 -0.855832 1.01562 0.0296374 -0.202729 -1.02754 0.887238 -0.0313251 0.410115 -1.07148 0.755238 0.0196353 0.703427 0.0791833 0.457342 0.278998 0.640367 -0.15305 0.278838 -1.49491 0.052915 0.238797 -0.31761 -1.73559 -0.28018 0.308994 -0.282482 -1.3057 0.707975 -0.525819 0.312383 0.164454 -0.689849 -0.691963 0.471929 -1.39232 0.21163 -0.334533 1.15537 0.213902 0.283245 -0.695255 0.903136 0.389888 0.130464 -0.848084 0.274442 -0.444995 -0.0699246 -0.71524 0.458414 
-0.0801481 1.39821 -0.703694 0.466633 0.207001 -0.0713151 -0.360482 0.365279 -0.276615 0.359311 -0.410488 0.571543 -0.397772 0.524828 -1.00637 0.885861 -1.01364 1.4307 -0.17242 0.350143 -0.175112 -0.776299 0.0888889 0.22018 -0.1627 0.502763 0.218696 0.369448 0.166102 0.0331877 -0.35947 -0.379393 -0.0572349 0.373763 0.0331175 0.967542 -0.620336 0.104106 -0.160633 0.476309 0.145425 0.438757 0.0396758 1.18871 -0.118517 -0.0623124 -0.131297 0.763718 0.194253 -0.641179 -0.341105 1.17803 0.119625 -0.783075 -1.04316 -0.0372754 0.318662 -0.0482213 -0.267226 1.17711 -0.318459 -0.564352 0.121481 0.309125 -0.147382 0.396173 -1.03967 -0.0507102 -1.05817 0.822303 -0.630825 0.109238 -1.16523 -0.205441 -0.108048 0.423564 0.251723 0.279702 -0.793762 -0.132621 -0.10633 -0.164115 -0.1016 0.967617 -0.818219 0.451085 -1.27033 -0.441541 -0.340933 -0.254808 0.0362837 0.665483 -0.38139 -0.429083 -1.09335 0.0304043 -0.00674448 0.79432 -0.229382 0.720875 
0 -0.913633
 4 100
-0.844656 0.228518 -0.464198 0.587968 -0.980503 0.555052 -0.24382 1.08465 -1.02099 0.541883 -0.0472332 1.20794 -0.559251 0.509554 -0.194946 1.13358 0.0543457 1.16861 0.061278 0.63398 -0.353557 0.891335 -0.859752 0.205663 -0.228664 0.6435 -1.01984 0.666223 -0.514492 0.610465 -0.671679 1.10153 0.172277 1.24086 -0.366512 0.716175 -0.0433315 0.644413 -0.217284 0.301965 -0.867466 1.50662 -0.570418 1.24261 -0.654039 0.963633 0.0131218 1.52143 -0.187906 1.34477 -1.27762 0.385191 0.795725 1.50303 -0.558919 0.544629 -0.217707 0.324742 -0.712367 0.156766 -0.651318 1.02431 -0.608017 0.303426 -0.465268 0.748561 -0.251648 0.558713 -0.466523 1.51485 -0.299529 0.787921 -0.275363 0.483688 -0.767095 -0.237331 -0.901682 0.719724 -1.30631 0.430608 -0.00707131 -0.00714474 -0.419068 0.776885 -0.334088 0.641719 -0.791495 1.31958 -0.650733 0.586494 -0.913214 0.378975 -0.379628 1.15868 -0.0569521 1.41536 -0.274122 0.457601 -0.215905 1.83814 
-0.570708 0.0828591 -0.27012 0.684175 -0.867079 0.233732 -0.761528 0.804792 -0.92553 1.08551 -1.20815 0.751535 -0.783727 0.616206 -0.893751 0.0817817 -0.263173 0.19098 -0.586841 0.708143 -0.798434 0.134245 -0.0899893 0.560613 -0.393575 0.650274 -0.756818 0.60695 -0.731571 0.861292 -0.386477 0.125879 -0.50162 -0.243085 -0.108637 0.804878 -0.359044 0.249218 -0.297175 0.434172 0.0933055 0.0471445 -0.98309 1.05735 -1.04721 0.435178 -1.57223 0.820622 -0.0547148 0.663621 -0.710247 0.59167 -0.120171 0.59894 -1.27941 1.17332 -0.106224 1.10658 -0.884768 1.54851 0.0537502 0.850387 -0.377506 0.62151 0.130935 0.800301 0.154194 0.352826 -0.341446 0.56406 -0.107615 0.834215 -0.796281 0.444501 -0.158613 0.759039 0.300567 0.318417 -0.924513 0.316792 -0.506353 0.0662075 -0.852798 0.497341 -0.756326 0.122405 -1.10752 1.3711 -0.583557 0.375567 -0.656194 -0.0613666 -1.17238 0.208776 -0.191501 0.703149 -0.303285 0.163552 -0.437275 0.976924 
-0.830243 0.51295 0.110499 0.35946 -1.00279 0.767935 -0.959824 0.534197 -0.669933 0.145293 -0.814346 1.10848 -0.287665 -0.152423 -0.0614251 0.264874 -0.771231 -0.0595477 -0.494711 0.614024 -0.673609 -0.668586 0.471501 0.566463 -0.467958 0.670077 0.121023 0.284437 -0.606176 0.61011 -0.493765 0.039513 -0.0296723 0.53528 -0.176249 0.343059 -0.347206 -0.0579973 -0.150373 0.655792 -0.541357 0.184462 -0.496143 1.38935 -0.0621387 -0.107274 -0.00379897 1.21732 -0.4664 0.751245 -0.725608 0.531521 -0.951462 0.408035 -1.78853 0.338551 0.108949 0.195771 -0.632667 1.12924 0.0455944 -0.184529 -0.0486595 0.534368 -1.11059 -0.0370845 -0.460048 0.39967 -0.8855 0.265942 -0.225555 0.334353 -0.420239 -0.387225 -0.693069 0.483725 -0.728065 0.485369 -0.134365 0.985567 -0.514847 0.627139 -1.11315 1.08224 -1.47486 -0.0442458 -0.773421 0.45477 0.346596 0.282211 -0.428229 0.415238 -0.034561 0.891799 -0.757998 0.488832 0.181082 -0.0777167 -0.73473 0.910668 
0.0656059 1.08566 -0.597045 0.813981 -0.905094 0.198184 0.0477736 0.657947 0.296265 0.881056 -1.03654 1.20284 0.0228044 0.68843 -1.07811 0.318807 0.0571368 0.724111 -0.821215 0.173388 0.00390839 -0.277649 -0.434856 0.642197 -0.274065 0.076695 -1.06233 0.705916 -0.45425 0.535794 -0.163159 0.144692 -0.245173 0.0857546 -0.591668 0.761485 -0.506021 0.654035 -0.724517 0.125794 0.36031 0.991255 -0.540767 1.30196 0.303271 1.4544 0.220196 1.11716 -0.252236 0.494427 -0.706366 0.702949 -0.501196 0.427999 -0.149887 0.905942 -0.0701564 -0.0551002 0.245453 0.243652 -0.0102464 0.28418 -1.30601 0.249408 -0.840381 0.61792 -0.913753 0.413285 -0.111086 0.228835 -0.703057 0.677655 0.329284 0.162575 -0.950409 0.857445 0.174197 0.749325 -0.318936 0.288628 -0.0241304 0.49592 -0.138617 0.743515 -0.429289 0.13973 -0.115536 0.788645 -0.272155 0.297852 -1.03829 0.907857 0.60755 1.13297 -0.487747 0.665775 -0.385113 0.693789 -0.424467 1.1893 
0 0.560217
 4 100
-0.600857 0.752094 -0.060701 0.415775 0.049855 0.185489 0.22057 1.09658 -0.816169 0.147396 -0.551347 0.837269 -0.574735 -7.60704e-05 0.121626 0.372738 0.0776981 0.355776 -0.0848055 0.192943 -0.923924 0.583846 -0.281571 -0.0146408 0.17336 0.318933 -0.4615 0.410367 -0.140835 0.296665 -0.784974 -0.207292 -0.293005 -0.0772781 0.126192 -0.00635257 -0.650568 -0.395845 -1.04715 -0.191747 0.383022 1.46935 0.962121 1.01298 0.409047 1.78909 0.971119 1.47127 -0.332325 0.836641 -0.488351 0.229065 0.056069 0.444321 -0.241559 -0.156535 -0.508567 0.400321 -0.717862 0.195824 0.171828 -0.00796552 -0.528413 -0.0520468 0.534574 1.00917 -0.00894687 1.16223 -0.731695 -0.31043 -0.110612 1.3166 -0.239969 -0.412165 -0.311746 0.670097 -0.0609106 0.355075 -0.105755 0.996366 -0.718548 1.34813 0.391289 0.0774781 -0.847736 0.143366 -1.55802 -0.238508 -0.558682 0.466315 -0.524346 0.369193 -0.168384 1.88506 0.664529 1.32759 0.24359 0.424677 -0.221578 1.21748 
-0.286135 -0.0365391 0.650625 1.14509 -0.308079 0.337825 -0.377851 -0.0781978 -0.725801 0.415187 0.680905 0.360747 -0.319843 0.0103884 -0.0325543 1.3434 -0.0321104 -0.364034 0.219255 0.492903 -0.159205 -0.220175 -0.672681 0.0476532 -0.326597 -0.00868811 0.357024 0.433187 -0.391125 -0.448076 0.292283 0.226892 -0.128246 0.105032 -0.617269 -0.384903 0.236722 0.168642 -0.281579 0.423694 -1.37702 0.296575 -0.175051 0.81917 -1.45854 0.29814 -0.201053 1.35801 -0.216715 1.33678 -0.445953 0.293304 -0.465193 0.872106 0.0935691 1.00054 -0.921578 0.960248 -0.573348 -0.0890373 0.604957 0.56008 -0.773168 -0.15541 -0.365218 0.577938 0.672744 0.701377 -0.798302 -0.393269 -0.799159 0.268628 0.31686 0.0375164 -0.214097 0.232619 -0.32285 0.288134 -0.666269 -0.384569 -0.615218 0.0555821 -1.46445 0.15293 -0.188097 1.79314 -0.405247 0.649875 -1.07905 0.262381 -0.381052 0.29331 -0.139505 0.554554 -0.511299 1.34095 -0.0261791 -0.00293888 -0.523159 0.181257 
-0.631653 -0.467623 -0.834911 0.758339 -0.287308 -0.319714 -0.263297 0.0892709 -0.516743 -0.921866 -0.131341 -0.0870605 -0.540816 0.241882 0.0333476 0.236124 -1.02648 -0.292198 -0.138564 0.872163 -0.124894 -0.692562 0.216012 0.473834 -0.76718 -0.398788 -0.0993337 0.223676 -0.214611 0.0873543 -0.358175 0.534853 -0.980794 0.272963 -0.488274 0.335724 -0.276917 -0.181744 -1.1493 -0.0243448 -0.478601 0.0559776 -1.05968 -0.422545 -1.31197 -0.642953 -1.14699 0.417164 -0.873117 0.457698 -0.0242478 0.218434 -0.703436 -0.362206 -0.108906 0.39224 -0.302658 0.810069 -0.408654 0.129659 -0.756175 0.795771 0.0975381 0.0291939 -0.400296 0.118859 -0.626793 0.277143 -0.393423 -0.118263 -0.710392 0.293975 -1.01627 -0.600673 -0.691615 0.660384 -0.0853415 0.0981223 -0.552361 0.537795 -0.599575 -0.41413 -1.2029 0.0494872 -0.410263 0.535567 -0.576303 0.95398 -0.8354 0.128761 0.00326686 -0.386035 -1.07135 -0.784389 -0.86882 -0.0927915 -0.684121 -0.556915 -1.47283 -0.232717 
-0.544603 0.117517 -0.189238 0.561605 -0.444968 0.343809 0.115122 0.55192 -0.795576 0.164485 -0.0415182 0.0746846 0.0814909 0.705818 -0.246556 -0.129019 -0.796695 0.618839 -0.438918 0.316995 -0.51645 -0.34671 -0.315583 0.0655488 -0.216959 0.639272 0.100152 -0.305025 -0.403255 -0.448629 -0.0572441 0.332379 -0.720673 0.571119 -0.141206 0.951332 -0.823146 0.222447 -0.416656 0.226592 -0.319497 0.526098 -0.547218 -0.208791 0.0972693 -0.0158273 -0.573825 -0.35026 -1.58207 0.299816 -0.336842 1.21971 -0.31793 -0.428314 -1.0222 0.494868 -0.726093 0.880688 0.181447 0.974804 -0.639196 0.373435 -0.256508 0.225768 -0.687812 0.243971 -0.754239 0.411426 -1.15645 0.333194 -0.914686 -0.498835 -0.210825 0.0630811 -0.0670326 0.772072 -1.10343 -0.168996 -0.399553 0.169151 0.60887 0.573143 -0.0618271 0.250944 -1.49464 -1.28907 -0.928146 -0.342387 -0.159227 0.854484 -0.511325 0.209727 -0.894687 -0.0596511 -0.238549 0.648072 -0.272051 0.598047 -0.59979 0.716201 
0 -0.405343
 4 100
-0.941821 0.435617 -0.74864 1.07306 -0.656037 0.539581 0.115815 0.422747 -0.182871 1.08949 -0.587364 0.789716 -0.798352 0.713775 -0.774207 0.641459 -0.459022 0.736584 -0.622677 0.573135 0.0692138 0.380673 -0.5488 0.734453 -0.541821 1.06133 -0.494252 0.346548 -0.323003 0.427552 -1.49183 0.0876519 -0.751521 0.323765 -0.403507 0.525423 -0.766274 0.441753 -1.00533 0.856879 -0.179155 0.986752 -0.684147 1.04217 -0.316481 1.56958 -0.0981152 0.796053 -0.860654 0.303017 -0.226215 0.384882 -0.476789 1.14929 -0.558944 0.375243 -0.552831 0.641486 -0.606125 0.769313 -0.366465 0.189896 -0.738844 0.844471 -0.162783 1.10533 -0.640099 0.420241 -0.149778 0.269833 -0.595191 0.446571 -0.445213 0.355498 -1.01443 0.577072 -0.0429297 0.73411 -1.04132 1.04947 -0.0417934 0.88168 -0.340111 0.414819 -1.35397 -0.102175 -0.656337 -0.148855 -0.821497 0.158303 -0.895179 0.18628 0.0543993 1.27088 0.512086 1.29645 -0.787471 0.459509 0.0400882 0.55495 
-0.426072 -0.00481585 -0.457605 0.272747 -0.474072 -0.00552398 -0.654603 0.169107 -0.800894 0.583469 -0.286072 0.521213 -0.869438 1.14191 -0.258903 0.854179 -0.8973 0.305892 -0.683958 0.390166 -0.807558 -0.0604457 -0.226014 0.678836 -0.329427 1.17267 -0.721124 0.271513 -0.207057 0.455294 -0.203174 0.314628 -0.792943 0.758856 -0.401095 0.49368 -0.912169 0.342486 0.099868 0.665387 -1.3651 0.337242 -0.519 0.573789 -0.40025 -0.157597 -0.670705 0.720301 -0.395844 0.0931101 -0.505597 0.228568 -0.142831 0.387742 -0.724704 0.866382 -0.903404 0.225625 -0.15601 0.317659 -0.0510096 0.580001 -1.19029 -0.12244 -0.764708 0.609391 -0.360399 0.793294 -0.412297 1.05304 -0.903167 0.697667 -0.564224 0.239367 -0.861377 0.840226 -0.823122 0.465459 -0.300754 0.116855 -0.327346 0.0200185 -1.24574 0.758768 -0.652236 0.610802 0.293409 0.486387 -0.603477 0.50422 -0.764378 0.303166 0.00304839 0.944092 -0.137976 0.638671 -0.524098 0.205914 -0.914363 0.629248 
-0.92759 0.360914 -0.883544 -0.042348 -0.387406 0.984424 -0.542351 0.387687 -0.961974 0.42703 -0.504618 -0.0559538 -0.502048 0.701879 -1.19799 -0.0106576 -0.645656 0.22908 -0.015845 0.981972 -1.14726 0.456123 -0.190109 -0.0800429 -0.301779 0.0385015 -1.15239 0.354139 -1.28698 0.840155 -0.194823 0.151014 -0.880179 0.710903 -0.469021 0.00399666 -0.755862 0.575225 -0.977126 0.374797 -0.648442 0.677248 -0.43637 0.417641 -0.292454 0.478943 -0.538987 0.572072 -1.22282 0.779407 -0.792612 0.694724 -1.22526 0.0234373 -0.996876 0.797723 -0.901062 1.19413 -0.827592 0.693296 -0.889517 0.721179 -0.13736 0.223083 -0.900221 0.994474 -0.325058 0.0903349 -0.907268 1.29399 -1.22686 0.244221 -0.652315 -0.00275614 -0.688241 0.679648 -0.299736 1.19694 -0.447993 0.904905 -0.633326 -0.0442898 -1.04626 0.70586 -0.77703 0.345174 -0.0169733 -0.104737 -0.0786161 0.0763003 -0.737828 0.813751 -0.380657 0.00777688 -0.310854 0.293511 -1.09537 0.55516 -0.536231 0.40068 
-0.361863 0.0869136 -0.144387 0.0888311 -0.759202 1.13844 -0.574543 1.02549 -0.843646 0.10765 -0.665427 0.311071 -0.559909 0.200034 -1.00466 1.03689 -0.527869 0.71087 -0.914303 0.487261 -1.30196 0.292418 -0.12093 0.726497 -1.1035 1.14504 0.166945 0.222864 -0.891659 1.08121 -0.434098 0.519015 -0.990603 0.816939 -0.193907 0.270634 -0.918415 0.129694 -0.149536 0.492871 -0.372133 0.532879 -0.159776 0.418682 -0.724809 0.953513 -0.342633 0.840135 -0.898498 -0.312136 -0.785418 0.841448 -0.277958 0.227057 -0.381321 0.351491 -0.340932 -0.13012 -0.016519 0.349661 -0.335817 0.00441114 -0.231287 0.268279 -0.886643 0.331385 -0.541871 0.0196847 -1.08528 0.711573 -0.582694 0.505409 -0.841253 0.618549 -0.616133 -0.147613 -0.466839 0.627283 -0.6338 0.0375794 -0.691484 0.353658 -0.250715 0.575857 -0.872927 0.815274 -0.691436 0.394618 -0.450509 0.0481941 -0.232176 0.55877 0.309459 0.200718 -0.593018 0.886832 -0.226209 1.0898 0.213344 0.467774 
0 0.976197
 4 100
-0.0325 0.671718 -0.6053 0.460069 -0.570198 0.0323422 -0.169783 0.775901 -0.247145 0.192617 -0.835211 0.343419 -0.205307 0.354209 -0.991574 0.862405 -0.566623 -0.165302 -0.700746 0.237083 -0.716223 -0.182006 -0.0966165 0.78487 -1.03739 0.440621 -0.483589 0.979141 -0.427786 -0.274919 -0.366628 0.82117 -0.235808 0.260671 -0.211891 0.711197 -0.0592599 0.0476271 -0.874469 0.672662 -0.920522 -0.602249 -1.01068 0.149191 -0.400603 -0.331704 -0.780631 0.181747 -0.148048 0.712282 -0.455336 -0.072859 -0.0214175 0.523645 -0.8614 0.397583 -1.01861 0.214129 -0.967426 0.152667 -1.06898 0.562371 -1.35017 0.196928 -0.966054 -0.211053 -0.205341 0.354324 -0.207195 0.426351 -0.472782 1.22969 -0.119421 1.06113 -1.29424 0.77659 -0.802877 0.146282 -0.300327 0.593975 -0.856272 0.239017 -1.11072 -0.0985269 0.366996 0.951319 0.0149552 0.870245 -0.241523 0.512209 -1.36728 -0.0762603 -0.890151 0.799086 -0.360044 0.00688108 -0.61178 -0.111674 -0.83509 0.556912 
-0.24156 0.810981 -1.03791 0.9027 -0.385752 0.975221 0.138268 1.08391 0.0118609 0.337806 -1.19836 0.403424 -0.233396 0.352802 -0.579544 0.694606 -0.0984075 0.464795 -1.18488 0.102831 0.27066 -0.147865 0.0814721 0.154124 -0.602891 0.286165 -0.319645 0.425212 -0.616173 -0.41443 -0.482652 0.764105 -0.312054 0.805777 0.161365 -0.28698 -0.356935 0.43215 -0.222497 0.460029 -0.574773 -1.05645 0.00995917 0.51238 0.0989294 -0.468059 0.135152 0.578654 -0.43746 1.08226 -0.130776 -0.0246905 -0.814139 0.279587 0.0345635 -0.253817 0.305494 0.842409 0.50547 0.284331 0.109829 0.748095 -0.672126 0.531921 -0.974203 -0.0163149 -0.942202 0.0825846 -0.22662 0.459733 -0.941402 1.26462 -0.06186 0.86592 -0.992316 -0.0155145 -0.207896 0.238263 -0.296621 0.388772 -0.787961 1.02573 -0.212923 0.0709588 -0.940945 1.24386 0.0520332 0.443163 0.334336 0.262968 0.0538804 0.474934 -0.0702412 0.654077 -0.527684 -0.347497 0.232105 0.851296 -0.22478 0.244171 
-0.518204 0.350492 -0.724138 0.849957 -0.246731 0.988456 -0.488604 1.14816 -0.105532 0.633637 -0.599196 1.14573 -0.63337 0.763473 -0.24109 1.11524 0.234055 1.31354 -0.372822 0.339612 -0.377821 0.939503 -0.975658 0.383881 0.139045 -0.00469658 -1.01839 0.667153 0.508798 0.388133 -0.36348 0.554657 -0.126495 0.734203 -0.116079 0.0270592 0.799594 0.695799 -0.581342 -0.197193 0.0528375 0.500473 1.19654 0.297247 -0.159269 1.37807 0.792278 0.486588 -1.058 0.127631 -0.160749 0.198033 -0.546574 -0.175603 0.4704 -0.111319 -1.07533 0.0182518 0.567902 1.03704 0.052627 0.203733 -0.681167 -0.246646 -0.1002 0.379966 -0.635783 0.324701 0.0927012 0.767474 -0.0783203 1.71389 0.614441 0.846054 0.0957387 -0.253899 -0.0254903 0.793066 -0.779149 0.448217 0.203983 1.11841 0.797125 0.967871 -0.921087 0.30286 -0.560359 0.881818 0.297395 0.473352 0.971771 0.940802 -0.413372 0.601804 0.588713 0.826737 -0.796577 1.52914 1.12164 0.159359 
-0.336861 0.0161678 -0.48899 0.0828853 -0.103907 0.12662 -0.776381 -0.0498124 -0.0981843 1.27274 0.159194 0.894399 -0.88093 0.49774 0.238306 0.210009 0.551718 0.154338 -0.735228 0.971652 0.0891285 1.38914 -0.484046 -0.0198406 -0.494303 0.327059 -0.487836 0.741107 -0.330144 0.225171 -0.703766 0.427706 0.122094 0.526174 -0.409967 -0.192592 0.549449 0.936306 -0.255956 0.174793 -1.04375 0.518325 0.97351 -0.166812 -0.088932 1.38285 0.70491 -0.749301 -0.272746 0.357584 0.424723 0.10602 0.730616 1.35631 0.722964 0.64804 -0.895488 -0.44279 -0.182099 -0.616942 -0.585558 0.389607 -0.20193 -0.0575022 0.119237 0.99308 0.137256 0.377088 0.0548657 0.682489 -0.292327 0.579562 0.00625542 0.495109 -0.0729842 -0.171416 -0.857661 0.0914871 -0.469964 0.372713 -1.25235 0.696168 -0.678439 -0.107705 -0.238532 1.13243 0.248603 1.29252 -0.817594 0.187597 -0.573982 0.0564109 0.148745 0.870781 0.205392 -0.221699 -0.481659 1.08318 0.114845 -0.236324 
0 0.0198278
 4 100
-0.485596 0.904038 -0.274532 -0.241688 -0.460693 0.888331 0.0179625 0.446274 -0.116082 0.758316 -1.51135 0.379903 -0.403979 0.784716 -0.584369 0.0304508 -1.06344 0.100475 -0.511805 0.0111057 -1.14655 -0.372716 -0.639044 0.207991 -0.815942 0.295336 -1.03916 0.0674823 -0.651476 0.411126 -0.866173 0.234263 -0.958005 0.873563 -0.287787 0.561924 -1.59319 0.224975 -0.384713 0.184376 -0.252437 1.20044 -1.37456 0.546226 0.265758 0.984046 -0.667707 0.434247 -0.621667 0.265522 -0.612822 0.594662 -0.399409 0.596199 -1.07041 0.596866 -0.305356 0.936492 -0.064282 1.15547 -0.781446 0.556972 -0.637656 1.17095 -0.38087 0.817795 -0.338557 0.584285 -0.16227 -0.0562241 -1.40734 -0.331718 -0.934646 0.385109 -1.22442 0.241691 -0.49035 1.03054 -0.44693 0.381214 -0.494556 0.33694 -0.614271 0.516627 -1.0315 -0.0618747 -0.413587 0.160844 -0.0279748 0.487024 -0.582647 0.650089 -0.396114 0.698741 -0.185227 0.853482 -0.518453 1.02254 -0.82383 0.412976 
-0.435466 0.27149 -1.29393 0.436486 -0.534712 0.269334 -1.06497 0.28501 -0.227305 0.118489 -0.302457 0.756324 -0.623855 0.29124 -0.312906 0.63408 -1.38384 1.14493 -0.419457 0.601478 -0.948922 0.615474 -0.46144 0.821542 0.10813 0.935179 -0.414761 0.653832 -0.436502 0.837448 -0.327591 0.0321207 -1.12091 0.591506 -0.58859 0.283294 -0.915072 0.378835 -1.4113 0.0802525 -0.985322 -0.15449 0.0695877 0.485226 -0.510158 0.251641 -0.556013 0.935373 -0.583091 0.172925 -0.826018 -0.178073 -0.232821 1.00844 -0.062834 0.899361 -0.706598 0.744023 -0.772291 1.00785 -1.09458 0.556991 -0.429359 0.645478 -1.12491 0.425978 -0.949355 0.79227 0.00195744 0.749178 -0.620885 0.783132 -0.403407 0.664145 -1.00424 0.736899 -0.634428 0.671067 -0.0997725 0.869252 -0.571333 0.197253 -0.338595 0.581935 -0.619578 1.04623 -0.594752 -0.213523 -0.607186 -0.374198 -0.340241 0.743318 0.33394 0.529526 -0.131509 0.582747 -0.0134634 1.08813 -0.478082 0.94413 
-0.6142 0.401482 -0.514201 1.26684 -0.596833 0.37168 -0.589296 0.595391 -0.625092 0.352725 -0.599517 0.89223 0.114929 0.911751 -0.7127 1.33332 -0.288401 0.0480864 -0.619271 0.953053 -1.55428 1.38838 -0.563488 0.71429 -0.777738 0.547599 -0.396785 0.641765 -0.618232 0.241107 -0.501753 0.757548 0.127661 1.1235 -0.867457 1.1043 0.245114 1.03002 -0.378147 0.657064 -1.26563 0.190885 -0.20811 -0.145183 -1.14927 0.0221735 0.246014 0.300933 0.142689 0.73699 -0.604629 1.05009 -0.431106 0.483905 0.306335 0.63923 -0.453064 0.625906 0.431531 0.467249 -0.409387 0.883002 -1.25144 1.07591 -0.774946 -0.201321 -0.661001 0.871045 -0.297379 1.02295 -0.610203 0.619847 0.141252 1.02281 -0.397843 0.962486 0.477144 0.114381 -1.09197 0.627409 -0.53365 0.737995 -0.0353472 0.812304 0.233005 0.193435 -0.289048 0.427748 -1.0856 0.169956 -0.273128 0.21719 -1.04145 -0.145668 -0.189854 0.544518 -0.965037 0.317274 -0.512826 0.0898103 
-0.241453 0.333821 -0.18937 0.528318 -0.528843 0.100226 -0.0750968 1.0323 -0.454795 0.733678 -0.546675 0.650818 -0.953841 0.223121 -0.851751 0.462973 0.0849769 0.0386963 -0.647486 1.17034 -0.356585 1.66715 -0.640717 0.877133 -0.706102 -0.282861 -0.207371 0.593963 -0.795524 -0.0725726 -0.045491 1.25443 -0.76747 0.610473 -0.970446 0.661996 0.393616 0.604327 -0.607862 1.39438 -0.757989 0.516545 -0.393132 0.508357 -0.755411 1.18945 -0.332039 0.353942 -0.629608 0.331939 -0.0380317 0.722067 -1.67659 0.151685 -0.931771 0.0382978 -0.610368 1.40038 -0.550872 0.77009 -1.13453 0.644075 -0.930534 1.04516 -0.821408 0.0522858 0.157408 1.12273 -0.314416 0.370043 -0.421212 0.910395 -0.596465 1.01584 -1.09688 0.528517 -0.579554 0.0666475 -0.557579 1.00679 -1.00021 0.277198 -0.790041 0.45912 -0.471254 -0.683967 -0.537267 0.685029 -0.727137 1.27931 -0.226064 0.41605 -0.771941 0.254722 -0.476923 0.516852 -0.499496 0.479817 -0.865753 0.12339 
0 0.676916
 4 100
-0.860669 0.47338 -0.229636 0.241528 -0.183826 -0.0185302 0.0247522 0.697256 0.215623 0.627972 -0.445877 0.336052 0.0963672 0.782994 -0.515322 0.485351 -0.0744033 0.144183 -0.23201 -0.388454 -0.0691005 0.767259 0.089517 1.00457 0.0255714 -0.364478 0.830401 0.393196 -0.165275 0.158445 0.165878 0.0535057 -0.126453 0.677591 0.215181 -0.0873243 -0.239012 0.487735 -0.608954 1.00228 -0.483244 0.281285 0.380181 1.25394 0.00664353 1.00177 -0.138331 0.525256 0.0222442 0.974283 -0.2503 0.213575 0.196522 1.1508 -0.0396047 -0.322093 -0.0348089 0.709024 -0.444304 0.6846 -0.901907 0.316553 -0.183842 0.653121 0.182377 0.724111 0.0776603 0.753078 -0.158281 -0.346921 -0.515045 0.766208 -0.749126 -0.331654 0.00367054 1.3063 -0.382511 -0.0287336 -0.583629 0.161109 -0.812334 0.490045 -0.88064 0.893739 -0.705669 0.0435029 -0.265181 0.478029 -0.2176 0.768648 -1.43916 0.189829 0.0137296 0.679027 -0.907743 0.487572 0.335566 0.193064 -0.453617 0.959361 
-0.592868 0.835104 -0.299283 0.817553 -0.508939 0.415662 -0.34628 0.510164 0.018056 0.480311 -0.391337 0.809408 -0.0651435 0.0568827 -0.0956974 0.212357 -0.722855 -0.0127118 -0.86549 0.647043 -0.397417 0.952611 -1.25301 0.684941 -0.168211 -0.266311 -0.619707 0.106312 -0.260128 0.0182649 0.0497389 0.422224 -0.48487 0.892188 0.235223 0.0932841 -0.394153 0.664337 -0.255959 0.147505 -0.790715 0.341092 -0.540828 0.608518 -1.25331 -0.219663 0.170684 0.299898 -0.320949 0.853918 -0.618699 -0.137668 -0.0310096 1.21043 -0.936625 -0.254745 -0.639727 0.278025 -0.135238 -0.406727 0.0226149 -0.0340545 -1.80804 0.597472 -0.0307224 -0.0133311 -0.645913 0.205115 -0.249004 -0.175403 0.118805 0.422624 0.698889 -0.13069 -0.584515 0.725931 0.0329698 -0.0311804 -0.602299 0.580772 0.0806289 0.744096 -0.613761 0.467537 0.588777 1.34053 -0.537305 0.371759 -0.534747 -0.0273365 -1.06828 0.344352 -0.306017 0.831362 -1.07876 -0.166134 -0.412958 0.113111 -0.890216 0.678242 
-0.748965 -0.0638828 -1.08291 0.806819 -0.776116 -0.062466 -0.893708 0.63528 -1.16781 0.78939 0.154311 1.3083 -0.467414 0.0236918 0.057792 0.806832 -0.129912 0.299369 -0.604562 0.161437 -0.568708 0.123014 -1.00882 0.485735 -0.0195819 0.354722 -1.07336 0.700897 -0.298674 0.250595 -0.0572689 0.467608 0.230199 0.616046 -0.357034 0.673958 0.122545 0.998852 -0.613667 0.450936 -1.15888 -0.0289504 -0.947382 0.169406 -1.34395 0.696594 -0.360627 0.485564 -0.842762 0.439872 -0.320275 0.736248 -1.00303 0.0924379 -0.514081 0.135693 -0.463947 1.08846 -0.605955 0.246925 -0.4025 1.02996 -1.215 -0.413775 -0.392896 0.0207383 -0.0805674 -0.0304233 -0.502609 -0.32909 -1.10185 1.23387 0.0762887 0.222067 -1.43882 0.165506 -0.311922 0.137302 -1.04923 0.0313851 -0.0980348 1.20936 -0.443269 0.592411 -0.00950293 0.492041 -1.25999 0.452686 -0.132788 0.766093 -0.131713 -0.0183863 -0.836845 0.600601 0.0908641 0.390397 -0.803483 1.06446 -0.427542 0.419632 
-0.319446 -0.0967602 0.00427415 0.21126 -0.31162 0.588245 -0.495854 0.380977 -0.53912 0.665696 -0.226726 -0.11838 -0.541281 -0.637633 0.0133041 -0.0576295 -0.667726 0.420286 0.0349722 0.986624 -0.0706618 0.911828 -0.458438 -0.338312 -1.00034 -0.359399 -0.0485693 0.828244 -0.763431 0.0221013 0.0503373 0.315874 -0.385276 0.00215828 -0.165525 0.383255 -0.00551975 0.531898 -0.947778 -0.383539 -0.0487638 -0.208775 -0.642202 0.179305 -0.204771 0.939055 -0.298824 0.240854 -0.476907 0.626456 -0.491764 0.0562407 -0.482066 0.80133 0.109864 0.995438 -0.643892 0.644669 -0.723556 -0.0569346 -1.12979 0.613685 -0.687715 0.193072 -0.582872 0.147145 -0.229296 -0.0198222 -0.892748 0.270355 -0.903594 -0.026522 -0.39421 0.103351 -0.794393 -0.462299 -0.391611 -0.138577 -0.192515 0.247607 -0.0529594 0.443811 -0.206608 0.336655 -0.174487 0.105964 -0.580265 0.141985 -0.338451 0.515873 -1.03682 0.109419 -0.997494 0.53204 -0.217781 0.491312 -0.224965 1.03934 -0.870767 0.330498 
0 -0.815997
 4 100
-0.564822 0.0792856 -0.464431 0.241097 -0.46224 0.47527 -0.677444 0.659776 -0.969669 -0.02688 -0.0387432 0.156205 -0.599542 0.49314 -0.762304 -0.0903278 -0.45899 0.581128 -0.845092 0.123232 -0.350362 0.475271 -0.927258 0.244691 -0.740745 0.916476 -0.655754 0.12528 -0.998047 0.230274 -0.907972 0.179666 -0.690304 1.01143 -0.470744 0.721412 -0.877821 0.0535516 -1.0918 -0.0968996 0.684189 1.23166 -0.220366 1.05157 0.361281 0.677092 -0.682138 1.51594 -0.371251 0.0761973 -0.159995 1.00089 -0.397444 0.784009 -1.04475 0.689868 -0.402103 0.546416 -0.191519 0.889302 -0.531716 0.689187 -0.563878 0.221995 0.00762144 0.902393 -1.17716 0.380886 0.144386 1.13653 -1.20583 -0.264999 -0.846625 0.342814 -0.887566 -0.636995 -0.078707 1.38714 -0.22972 0.862545 -0.27032 1.23209 0.62489 0.716328 -1.29761 -0.474761 -0.905269 -0.140975 -0.439852 0.40067 0.199423 0.450113 -0.477375 0.807007 0.177283 0.864697 -0.306866 0.777938 0.471456 0.0532051 
-0.0702939 0.638521 -0.311118 0.109966 -0.609263 0.496423 -1.14648 0.117729 0.15275 0.0849718 -0.0266643 0.488422 -0.582374 1.02113 -0.154739 0.51868 -0.905653 1.02112 -0.86984 0.704936 -0.946021 -0.239728 0.181625 0.589839 -0.771808 0.893092 -1.07193 0.184762 -0.391837 0.793289 -0.414725 0.0390578 -1.04573 0.140991 -0.700784 1.32322 -0.648305 1.15453 -1.08919 -0.0525636 -0.411077 0.117275 -0.670504 0.788054 -0.972916 0.444013 -1.31607 0.281577 -0.111843 0.454022 -0.034153 0.472345 0.00498844 0.30402 0.0173961 0.985597 -1.18488 0.0786807 -0.926735 0.232324 -0.717212 0.615366 0.366174 0.874261 -0.479736 0.863366 -0.227094 1.3955 -1.16699 1.42266 -1.12869 0.0829734 -0.638758 1.44034 -0.684041 0.215958 -1.22696 0.196603 -0.888159 0.015087 -0.52581 0.245243 -0.997204 0.332525 -0.876713 1.09023 0.351797 1.04285 -1.15581 0.0988253 -0.613661 -0.304595 0.136476 0.937756 0.0137029 0.99996 -0.222856 0.127524 -0.419516 0.453561 
-0.799764 0.87904 -0.358413 0.483638 -0.907631 0.673102 -0.761349 0.31212 -0.415087 0.174384 -1.04964 -0.0683481 -0.0667606 -0.0391294 -0.54588 0.416794 -0.0856109 -0.287542 -0.353697 0.197653 -0.574858 0.853515 -0.81006 0.877442 -0.832978 0.0471076 0.230668 0.63682 -0.969991 0.0767051 -0.569259 0.503474 -1.17273 0.368399 -0.461303 0.492642 -0.912527 0.0560641 -0.815031 1.17499 -0.238761 0.303905 -1.24742 -0.0109222 -1.18461 0.569644 -1.53833 0.138587 0.134872 0.245437 -0.324566 0.298767 -0.0359439 0.471792 -0.466216 0.423483 -0.404782 0.993709 -0.073608 0.511525 0.10024 1.01981 -0.491386 1.44573 -0.968316 0.525736 -0.576911 0.673236 -0.44783 0.674296 -0.945879 0.0256138 -0.275171 0.849488 -0.227375 0.911857 0.00403293 0.143164 0.33696 0.65964 -1.34679 -0.0289808 -0.852472 0.408926 -0.358348 1.17773 -0.624856 -0.111031 -0.671382 0.318483 -0.498344 0.371861 -0.29016 -0.0511352 -1.20316 -0.245053 -0.516855 -0.23412 -0.966678 0.639502 
-0.491681 0.0749868 -0.701915 0.459841 -1.10257 1.1233 0.0984132 0.255179 -0.495529 0.690744 -0.743907 0.850001 -0.836303 0.6128 -0.896151 0.374917 -0.886324 0.506257 -0.0778106 0.75988 -0.728929 0.770094 -0.809535 1.3137 -0.831574 0.760705 -0.458126 0.196143 -0.195468 0.300574 -0.803717 0.370417 -1.27616 0.346156 -0.856528 1.01864 -0.287989 0.292771 -0.323381 1.36594 0.238575 0.488893 -0.577692 0.575939 -0.60913 0.188837 -0.606392 0.0395489 -0.531796 0.297708 -0.250539 0.597942 -0.65648 -0.53345 -1.29351 -0.368265 -0.693687 0.835025 0.334428 0.11449 -0.734883 -0.324904 -1.1067 1.38333 -0.817525 0.417104 -0.547059 0.496636 -0.367966 0.738191 -0.380886 0.154497 -0.212666 -0.360811 -0.261853 1.46715 -0.718912 0.605786 -0.261356 -0.155388 -0.200187 0.567363 -0.349639 1.17137 -0.639434 0.300779 -1.32325 0.622766 0.106747 0.835786 -0.747939 0.544982 0.0575006 0.0300504 -1.48373 0.942383 -0.190154 0.291675 0.0238914 0.284418 
0 0.269336
 4 100
-0.695206 -0.264882 -0.78477 0.427508 -0.557809 0.472439 -0.632189 0.266048 -0.904998 0.551419 -0.999636 0.206278 -0.148525 0.652088 -0.3777 -0.0833113 -0.220574 0.000299181 -0.456788 0.667499 -0.255916 -0.135366 -1.02248 0.522048 -1.16368 0.433532 -0.881221 -0.092962 -0.830801 -0.148939 -0.61234 0.780617 -1.07914 -0.133844 -1.30682 0.129986 -0.669185 0.704168 -0.266276 0.400137 -0.738066 -3.14655e-05 -1.40807 -0.111507 -0.893983 -0.976984 -1.10564 0.172584 -0.541483 0.33255 -0.243986 0.152525 -0.140968 0.20958 -0.69054 1.09508 -0.210305 0.055123 -0.88338 0.48995 -0.182177 0.39655 -0.508312 -0.11145 -0.419309 -0.317234 -0.722236 0.580837 -0.479205 -0.158951 -0.233137 1.44408 -0.424341 0.692563 -1.11185 0.48918 -0.294316 0.103441 -0.499723 0.288979 -0.38178 -0.323435 -0.318595 0.457045 -0.594936 0.15577 0.285301 0.946286 -0.486187 0.999334 -0.868123 0.155586 -1.29284 0.0402104 -0.910186 0.19881 -0.535255 0.394257 -0.296548 0.537951 
0.0595235 0.356094 -0.470872 0.812434 -0.00544035 0.817393 -0.324945 0.638017 -0.24232 0.416954 -1.10266 0.562062 -0.176796 0.641522 -0.576634 0.546459 -0.738754 0.722231 -0.794343 0.0920201 -0.417439 0.696818 0.224401 0.374996 -0.319328 -0.00647547 -0.384112 0.529291 -0.0418459 0.319805 -0.50499 0.683822 0.00759361 0.60311 0.204213 0.556051 -0.109538 0.728069 -0.675173 0.465996 0.365599 -0.230149 0.783304 -0.0888401 -0.197972 -0.477468 0.16076 0.924552 -0.00443606 0.641941 0.251001 0.699164 -0.720216 0.00165701 -0.698461 0.179908 -0.124643 0.440564 -0.253235 0.863943 -0.397555 0.276048 0.109105 0.550969 -0.535385 0.284986 -0.468391 -0.106169 -0.360936 0.544154 -0.867774 1.14929 -0.453514 1.02765 -1.07516 -0.0671487 -0.220906 0.338282 0.24193 0.330353 0.365613 0.29875 0.619349 0.826839 -1.07388 0.797825 -0.177665 0.215472 0.35093 0.567303 -0.0696684 1.13102 -0.613888 0.680675 -0.963588 -0.0728403 0.27056 0.697033 -0.258215 0.519536 
-0.19 0.0862396 -0.801847 0.749646 -0.345669 0.527599 -0.208879 0.653856 -0.231461 1.16858 -0.335625 1.03631 -0.155101 0.779882 -0.279722 0.847979 -0.454267 1.10208 -1.11338 0.430302 -0.301973 0.926405 -0.645112 0.173897 -0.174578 0.0833313 -0.270311 0.544641 0.378128 -0.189318 -0.788126 0.943779 0.315751 1.20519 -0.0450814 0.759589 0.752962 0.831068 -0.583397 0.640768 -0.516433 0.717668 1.28892 0.636545 -0.327597 1.32274 1.17322 0.663688 -0.43116 -0.340416 -0.271648 0.28448 -0.348666 -0.474828 1.01441 0.672033 -0.257199 -0.287738 0.97997 0.0880162 0.021196 0.00879733 -1.02821 -0.616372 -0.468539 -0.268666 -0.0129066 0.360136 0.612572 0.217483 -0.797827 1.39679 0.522662 0.820128 -0.0442668 -0.410618 -0.131039 0.112046 -0.685411 0.405523 0.0575331 0.643357 1.23035 0.481671 -0.546215 -0.0665916 -0.268308 1.1138 -0.33305 0.463391 0.458407 0.692459 -0.383661 0.735254 0.427944 0.548806 -0.754145 1.75062 1.26331 0.332048 
0.127261 0.26818 -0.341318 0.952284 -0.000243083 0.136344 -0.188764 0.0565785 -0.174756 0.828538 -0.225647 0.274027 -0.86769 0.437825 0.0391364 1.02434 0.416282 0.239165 0.0423168 1.04973 -0.335908 0.788026 -1.05936 0.0283336 -0.552857 -0.275567 -0.327438 0.35499 -0.249398 -0.182424 -0.431528 1.17699 0.0856147 0.0859313 -0.702969 0.108927 0.0549127 0.650224 -0.734461 -0.035689 -1.10922 -0.0416641 0.490705 -0.0760973 -0.695903 1.51058 1.01413 -0.211232 -0.24807 0.419628 0.292165 0.870093 0.116365 0.532101 0.485322 0.736717 -1.11804 0.492338 -0.200217 -0.382827 -0.181528 1.29668 0.0202192 0.0923028 -0.189963 0.355521 -0.587108 0.565367 -0.458396 0.54134 0.0837263 1.473 -0.0899292 1.11324 0.0403775 0.122823 -0.0404823 0.0177129 -0.133965 0.64164 -1.3236 0.595148 -0.585219 0.307041 -0.310128 0.79422 -0.234665 0.894101 -0.275961 0.413764 -0.280132 0.576205 -0.829928 1.51056 0.580533 0.119874 -0.33918 0.289257 -0.314457 0.0308101 
0 -0.239078
 4 100
-0.926419 0.529139 -0.320907 0.894146 -0.165437 0.457518 -0.716789 1.31029 0.0534546 0.957938 0.426281 0.805286 -1.00605 0.711575 0.0232264 0.648589 0.0509479 1.18006 -0.972498 0.714945 0.0174644 0.249048 -0.805499 0.50524 -0.354911 0.425196 -0.658335 0.62011 -0.742982 0.301759 -1.27731 0.372629 -0.346053 0.365421 0.117235 1.01454 -0.043227 0.00704085 -0.650675 0.518894 0.170135 0.494607 0.363992 1.18222 -0.202639 1.71338 0.500536 1.91094 -0.213283 0.556199 -0.555269 0.805851 0.256272 1.12687 -0.0418034 1.21862 -0.788173 1.10782 -0.593433 1.00488 -0.38467 0.681773 -1.18435 0.323962 0.157474 0.641544 -0.396241 1.12387 0.0233157 0.523992 -0.813398 0.800076 -0.762451 -0.100015 -0.655037 0.322554 0.0135146 0.375099 -0.979519 0.651437 -0.0642726 0.825933 -0.740032 0.93726 -1.23116 0.281094 -0.68305 0.537611 -0.0828134 0.277556 -0.643408 0.604205 0.11046 0.970342 0.733964 1.73108 -0.164758 0.611038 -0.319137 0.811928 
-0.738191 0.576695 -0.996964 1.33895 -0.314051 -0.237535 -0.317805 0.537301 -0.52762 0.704567 0.198286 1.16581 -1.34989 0.356811 0.138672 0.708915 -0.67091 0.188715 -0.518862 0.425393 0.104475 -0.0569297 -0.139062 0.117077 -0.84905 1.09846 -0.482905 0.644663 -0.700237 0.678077 -0.162108 0.92068 -0.541484 0.0263757 -0.46746 0.577637 -0.349433 0.485262 -0.359157 0.597371 -1.00189 -0.051401 -1.28401 0.93744 -1.73809 -0.667794 -1.12895 1.13553 -0.143011 0.567246 -0.266812 0.241199 0.105827 0.994248 -0.500436 1.31241 -0.948619 -0.0109914 -0.982238 0.473962 -0.199229 1.40773 -0.298448 0.93528 -0.294959 0.903664 -0.805612 1.04266 -0.0467044 0.636733 -0.0266622 0.834305 -0.903669 1.02035 -0.702385 1.37424 0.00643559 0.345763 -0.624214 0.263888 -0.73094 0.0748785 -1.01839 0.141588 -0.212636 0.645384 0.0223442 1.30503 -0.995177 0.621163 -1.04535 -0.283403 0.330868 0.606014 0.075193 0.0919168 -0.809292 0.418094 -1.24839 0.602115 
-1.06894 0.661376 0.060034 0.395343 -0.126828 1.08282 -0.185642 0.0976964 -0.986895 -0.0339999 -0.74813 0.0581626 -1.16894 0.620011 -0.917251 0.451896 -0.136624 0.18988 0.0521712 1.27077 -0.833857 0.379053 -0.702083 0.350186 -1.00897 0.253913 -0.410186 0.490929 -0.748177 0.460627 -0.421425 0.350886 -0.509673 0.948347 -0.605284 0.838224 -0.804727 0.874885 -0.254161 0.703645 -0.691249 0.294796 -1.21507 0.0330615 -0.605577 -0.233585 -0.707665 0.212721 -1.34731 1.06452 0.0209693 0.523697 -1.10115 0.476078 -1.0832 0.468624 -0.94105 0.722758 0.145498 0.805989 -0.0451798 0.612814 -0.688298 0.611638 -0.924233 0.298223 -0.536613 0.324759 -0.107672 0.478806 -0.823078 1.10801 -0.737692 -0.324406 -0.0563268 0.899875 -0.0458439 0.227656 -0.101878 0.723413 -0.626113 0.527532 -0.713116 0.0277481 -1.53318 0.222522 -0.740441 0.123474 -0.136674 1.06767 -0.991548 0.30766 -0.385692 -0.433745 -0.972206 -0.172632 -0.720953 0.367701 -0.876959 0.00158506 
-0.294186 -0.0045349 -0.0676007 0.220608 -0.580904 1.16076 -0.409685 0.216471 0.0316552 -0.0714407 -0.339193 0.669082 -0.724191 -0.460681 -0.800093 0.486946 -0.578072 0.793867 -0.713338 0.319308 -0.178628 0.257818 0.0148021 1.0277 -0.968204 -0.21206 -0.589007 0.00163037 -0.252557 -0.144064 -0.746192 0.663428 -0.11173 0.317927 -1.17524 0.220608 -0.0246657 0.196226 -0.483708 0.409087 -0.0787363 0.821731 -0.737056 0.680067 0.2831 0.475374 -0.548919 0.862775 -0.58487 0.135405 -0.352136 0.250327 -0.797572 -0.304634 -0.838203 0.133533 -0.963296 0.10012 0.00456505 0.0771678 -0.822536 0.214371 -0.481455 0.62756 -0.673643 0.562483 -0.316285 0.0185974 -0.793151 0.659243 -0.109291 0.36656 -0.320986 -0.0665332 -0.855127 0.861314 -1.20261 0.371997 -0.68789 -0.0290418 -0.688258 0.257667 -0.347962 0.91317 -1.2166 0.187126 -0.680696 0.519317 -1.03192 0.130683 -0.873546 0.579978 -0.0641517 0.473903 -0.801236 0.132016 -0.904832 0.601382 -0.0770494 0.655165 
0 0.811966
 4 100
-0.162363 0.632526 0.0924147 0.120588 0.00383814 0.206472 -0.887513 0.474855 -0.671922 0.803022 -0.16671 1.27885 -0.937847 0.181164 -0.176105 0.9057 0.0955342 -0.194415 -0.830937 1.11166 -0.13169 0.0985821 0.335291 -0.0197302 -0.572674 0.367008 -0.594526 0.462075 -0.886754 0.4589 -0.914241 0.681382 0.571251 0.930148 -1.02135 0.852432 0.147505 0.828663 0.110845 0.595465 -0.563574 0.125473 -0.0223633 0.284057 -0.629744 0.644984 -0.255593 0.520023 -0.274337 0.912001 -0.457069 0.191792 -0.521604 1.09512 -0.482894 0.241399 -0.574808 0.560764 -0.876795 -0.350701 -0.183417 0.600331 -0.858741 -0.501054 0.0228579 1.09906 -0.0334883 0.0254033 0.110089 0.595964 -0.187753 1.28212 0.206005 0.625226 -0.863885 0.229803 -0.486946 0.942915 -0.206326 0.220302 -0.287316 1.1426 -0.0494143 0.552344 -0.28088 0.616173 -0.698781 0.208938 -0.580819 0.739203 -0.596192 0.780426 -0.579581 0.488216 -0.225796 0.383683 -0.93375 -0.105908 -0.0160646 0.113988 
-0.775906 -0.170654 -0.00917363 1.05849 -0.670152 0.851113 -0.643443 0.0336812 -0.620437 0.998873 0.185152 0.507466 -0.84982 0.267668 -0.0132391 0.97828 -0.58824 0.107109 -0.226694 1.13894 -0.544511 0.197736 -0.103412 0.089109 0.00534339 0.427512 0.244631 0.239954 0.0198789 -0.105372 0.125976 0.769138 -0.150804 -0.0831743 -0.260358 0.103994 0.127855 0.279711 0.669237 1.08193 -0.940918 0.022888 -0.00758684 0.182389 -0.995082 0.407027 -0.569805 0.406288 -0.466068 0.877131 -0.437563 0.731933 -0.37279 0.572501 0.11493 0.84134 -0.49246 -0.178133 0.0359589 0.47111 -0.265991 0.614224 -0.181451 -0.317748 -0.487752 0.644909 -0.386498 0.525948 -0.078536 0.337196 -0.829858 0.67829 -0.147063 0.358622 -0.136254 -0.358763 -0.769979 0.281421 -0.784292 0.240586 -1.21921 0.66442 -0.505421 0.511145 -0.430568 0.732457 0.15143 1.03373 -0.0431538 0.529711 0.286322 0.442482 -1.01248 0.660198 -0.0633993 0.48367 0.0509776 0.633007 -0.739776 0.82671 
-0.917337 0.00230339 -0.19845 0.671424 -0.583451 1.02546 -0.137519 0.352365 -0.309051 0.701338 0.0126184 0.920478 -1.16142 0.339321 -0.668608 0.155286 -1.07624 0.424808 0.245083 0.179409 -0.369927 0.343313 -0.334237 -0.0301802 -0.913891 0.576739 -0.181709 -0.194321 -0.480348 0.360868 -0.96872 0.718179 -0.478744 -0.0406892 -0.0834353 0.0216263 -0.0993614 -0.259781 -0.18941 -0.404173 0.377635 -0.158601 -0.542939 0.827259 0.0163773 0.174602 -0.392378 0.121228 -0.444974 -0.290309 0.168081 0.285322 -1.02081 -0.49476 -0.0285202 0.857741 0.0179043 1.35639 0.484151 0.3391 -0.595401 0.967216 0.234374 0.501562 0.139071 0.0207929 -0.564924 -0.196597 -0.207945 1.38945 0.175539 1.00502 -1.14364 0.286363 0.0410427 -0.532604 -0.985862 1.2619 -0.0244419 0.510683 -0.223226 -0.127992 0.511045 0.598477 -1.39395 0.0240457 -0.74562 0.723312 0.063465 0.321787 0.547982 0.680285 -0.706256 0.455079 -0.24268 0.0788734 -0.568289 0.31731 0.0554939 -0.0989588 
-0.169824 0.748387 -0.991416 0.207854 -0.688677 0.123952 -0.923971 0.120551 0.126601 1.43283 0.21242 0.891844 -0.0977946 1.6617 -0.674736 0.834322 -0.148516 0.548188 -0.917576 -0.127423 -0.384756 0.408544 -0.319961 0.514792 -0.726285 0.669946 -0.246461 0.236468 -0.59882 0.730137 -0.841198 0.208517 -0.67032 0.818309 0.204492 0.489286 -0.87507 1.09476 0.206895 -0.378687 -0.52416 0.242319 0.965098 0.768914 -0.00332046 0.104221 0.359281 -0.380412 -0.266588 -0.217407 -0.289897 0.8014 0.756393 0.369803 0.0652162 0.557816 0.360279 -0.654873 -0.269636 0.712502 -0.200992 -0.0180482 -0.455386 -0.317833 -0.450239 0.0974622 -0.932581 0.214603 -0.378152 1.1334 0.25979 0.462595 -1.00913 0.389948 0.521674 0.0121537 -0.64606 0.752386 -0.530323 0.642942 -0.649808 0.631092 -0.378701 0.143934 0.0479577 0.884173 0.264517 0.374531 -0.0561249 0.539951 -0.350532 0.0494243 0.0680884 1.29922 0.0880593 -0.0899177 -0.352179 0.791574 -0.127942 0.393009 
0 -0.697434
 4 100
-0.383965 0.763438 -0.393996 0.408138 -0.853346 0.196968 -0.228222 1.77793 -0.256572 0.890554 -0.226963 1.37151 -1.02092 0.412746 0.0382512 0.725789 -0.0164669 0.593357 0.207876 0.338588 0.144984 0.973613 -0.363487 0.672377 -0.393978 0.385568 -0.707213 0.322608 -0.128164 0.684454 -0.942283 0.657506 0.15178 0.556506 -0.774751 0.208252 0.514139 0.318463 0.0580349 -0.127004 -0.864936 1.02587 0.185017 1.10323 -0.471926 1.79477 0.052341 1.4142 -0.336394 0.809421 -0.631333 0.103931 0.414435 1.79556 -0.0122561 0.403927 -0.298369 1.00349 -1.09563 0.877695 0.0476763 1.11945 0.424137 0.155818 -0.150394 1.00075 -0.0292268 0.834247 -0.0432654 0.523344 -0.61922 0.640222 0.104206 -0.544675 -0.458201 -0.51682 -0.327733 0.189624 -0.899309 0.195365 0.171079 0.0161653 -1.0239 1.13988 -0.514591 0.625981 -0.670847 0.23591 -0.772177 0.476997 -0.242209 0.325403 -0.390147 1.62991 0.547122 1.30049 -0.086984 0.633926 -0.295608 0.888339 
-1.52245 -0.215327 0.19779 0.939606 -0.957158 0.135278 -1.15633 0.968146 -1.90875 0.841217 -0.657421 1.16959 -0.876843 0.311827 -0.435612 0.630304 -0.615827 0.0108777 -0.564316 -0.0842725 -0.11105 0.326338 -0.608397 0.161027 -0.536491 0.41024 0.188352 -0.0741231 -1.19109 0.845026 -0.484916 0.934006 -0.476642 -0.369014 -0.725408 0.33817 0.169725 0.268971 -0.418148 -0.165117 -1.48714 0.361703 -1.05736 0.339066 -1.52059 -0.248451 -0.842881 0.461992 -0.88079 0.478187 -0.86168 0.059034 -0.937873 0.768535 -0.505812 0.430018 -0.935906 0.906605 -0.0912518 0.305116 0.0629435 0.80204 -0.763845 1.0992 -0.517795 0.376427 -0.0846944 0.988479 -0.493391 0.571157 -1.04726 0.893434 -0.589776 -0.523945 -0.644209 0.57358 -0.266286 0.305658 -0.759297 -0.15919 -1.19419 0.167854 -1.82361 0.620055 -0.319168 0.746868 -0.915508 0.556631 -1.05212 0.134236 -0.449605 0.313035 -0.528205 0.778752 -0.657341 0.0672627 -0.436401 -0.415537 -1.02292 0.120301 
-1.02536 0.372607 0.0191787 0.582703 -0.615435 0.834766 -0.0545812 0.204416 -0.56293 -0.502015 -0.903798 0.394843 -0.948165 -0.274794 0.106239 0.495161 -0.45267 0.400315 -0.781936 0.737425 -0.846032 -0.485352 0.341119 -0.0472777 -0.4197 -0.472171 -0.70205 0.666922 -0.812872 0.135594 -0.266943 0.622391 -0.432167 0.664294 -0.104456 0.580305 -1.06519 -0.115104 -0.266767 -0.0448277 -0.486493 0.101201 -1.55754 0.597842 -0.567082 -0.464454 -0.964745 0.601353 -1.11394 1.1993 -0.738614 0.790752 -0.894097 0.210582 -1.20215 -0.0139149 -0.983155 0.421041 -0.294908 0.94039 -0.342197 0.299416 0.19371 0.645481 -1.15628 0.939344 -0.772459 0.354704 -0.578355 -0.354601 -0.591493 0.720407 -0.303673 -0.296842 -0.62765 0.274636 -0.92278 0.825276 0.0534249 0.62283 -1.03578 0.168745 -0.410344 0.912056 -1.50698 0.146203 -1.30152 0.164357 0.241834 0.0554296 -0.310696 0.0827138 -1.02925 -0.410458 -1.27833 0.42163 -0.679602 -0.20935 -1.05719 0.792362 
-0.224856 1.45185 -1.27671 0.960778 -0.763693 1.1273 0.395925 0.797411 -0.229172 1.00181 -0.661009 0.534895 0.347532 0.596343 -0.557614 1.11356 -0.268302 0.678037 -1.26992 0.996602 -0.506113 0.693215 -1.29892 -0.29071 0.388763 0.910628 -1.17742 0.34042 -1.08507 -0.310663 -0.69038 0.515603 0.0806754 0.641066 -1.19869 0.715045 -0.589653 -0.345989 -0.616307 0.172875 0.116607 1.17377 -0.338929 0.689865 0.649627 0.942722 -0.178167 1.09364 -1.2777 0.103048 -0.551673 0.170919 -0.217789 0.412037 -0.828859 0.281024 -0.446255 -0.374246 -0.500833 0.831878 -0.0745804 -0.0502238 -1.13849 0.395592 -0.944186 0.478957 -0.316819 0.0438159 -0.273834 0.0832048 -1.09382 -0.132787 -0.388796 0.43328 -0.853617 0.791509 0.0346678 0.842177 -0.725491 0.00758608 0.427076 1.18462 -0.334803 0.229384 -0.491363 -0.280511 -0.615879 0.944223 -0.364012 0.854089 -0.146593 0.388982 -0.032503 1.82776 -0.705461 0.484731 -0.0605161 1.17381 -0.920441 0.959243 
0 0.931618
 4 100
-0.297968 0.17102 0.10231 -0.360945 -0.837377 0.31291 -0.466849 1.01998 -0.58436 0.602314 -1.08678 0.444537 -0.366173 0.609233 -0.288465 0.840431 -0.060085 0.817449 -0.0370698 0.489865 -0.36763 0.500255 -0.652977 0.545531 0.041672 0.423712 -0.0810821 0.734988 -0.652335 0.379564 -0.464613 0.0906865 -0.527202 1.15428 -0.575084 -0.103511 -0.790424 0.171856 -0.972782 0.858517 0.129557 1.09917 0.258126 0.739085 0.0653225 0.667518 0.675788 1.1606 -0.169867 0.503944 -0.980005 0.567949 0.105536 0.167271 -0.90171 -0.474118 -0.443415 1.01466 -0.701492 0.716723 -0.00557026 0.618898 -0.583123 0.243874 -0.480791 0.70551 -0.257741 0.232827 -0.161341 0.364733 -0.329105 1.13296 -0.298868 0.850556 -0.370924 0.633205 -0.0799915 0.472519 -0.0878162 0.453492 0.000537743 0.714306 -0.588106 0.232232 0.0755985 -0.138874 -1.09211 -0.0290072 -0.190992 0.636063 -0.811206 0.839872 -0.171187 0.333115 -0.854601 0.00454137 -0.188079 0.25329 -0.941618 0.252372 
-0.040611 0.125452 0.200266 1.19194 -0.812892 0.787688 -0.209631 0.864125 0.464859 0.467669 0.128998 0.97335 0.070569 -0.156882 -0.0459469 0.819297 0.158775 0.0324657 -0.864554 0.638666 0.208417 0.700217 -0.311743 0.46961 -0.450691 0.454194 -0.236734 0.655763 -0.0239017 0.183834 -0.201778 0.533953 -0.372612 0.722677 -0.141575 0.0913297 -0.318831 1.22788 -1.53723 0.838214 -0.295584 1.53579 0.166118 0.942459 -0.73613 1.37998 0.390818 1.33881 0.365736 0.965718 -0.74923 -0.422815 0.0578921 0.956708 -0.670623 -0.371947 -0.102207 0.194856 -1.20669 -0.132393 0.230026 0.157318 -0.559097 0.280118 0.271835 1.15224 0.124532 0.723076 -0.198231 0.0471273 -0.446102 0.461126 0.304818 0.483492 -0.721746 0.37128 0.0346646 0.621494 -0.620391 0.519216 -0.253747 0.607344 -0.870685 1.14629 -0.0721451 0.623323 -1.40851 0.254777 -0.656683 0.135925 -0.414033 0.926598 -0.473898 0.786682 -0.10641 1.20576 -0.162259 0.905189 0.0801147 0.801356 
-0.215717 0.122264 -0.0846499 0.797166 -0.536019 0.242458 -0.578225 0.417282 -0.322482 1.1925 0.534828 0.70011 -0.554608 0.595381 -0.28711 1.35546 0.123212 -0.564633 -0.749444 0.643786 -0.670193 1.35028 -0.860067 0.433303 -0.76669 0.50842 -0.392938 0.719402 0.212585 -0.220538 -0.580091 0.90196 -0.319327 -0.00999833 -0.757442 1.04071 -0.610532 0.0262024 -1.16127 1.63988 -0.266846 0.0537882 -0.993798 0.408 -0.976349 -0.151116 -0.91533 0.161373 -0.340868 1.08904 -0.369982 0.208212 -0.562663 1.11214 0.745857 1.01062 0.024855 0.412705 -0.326002 0.294762 -0.366814 1.15197 -0.989488 0.744723 -0.206838 -0.206093 -0.0518461 0.452846 0.00483974 -0.0190766 -0.120578 0.101635 -0.641771 0.362677 -1.26207 0.226133 -0.491305 0.0328223 -0.310467 0.0226234 -0.451215 0.415968 -0.863634 0.822522 1.03287 0.478944 -0.494941 1.7478 -1.06002 0.454318 -0.838786 0.0627688 -0.955856 0.871407 -0.190323 0.830939 -0.570968 -0.229403 -1.35818 1.08293 
-1.02267 0.147138 -0.168699 0.215474 -0.323444 0.00522937 -0.349864 0.194847 -0.617529 0.415389 0.0801345 -0.0649783 -1.14023 0.568257 0.0654758 0.228838 -0.345204 0.92556 0.293948 0.412598 -0.100864 0.571312 -1.13116 0.964583 -0.703193 0.461651 0.0405503 -0.0489601 -0.723925 0.656951 0.194257 -0.160413 -0.00898036 0.777746 -0.027462 0.00186624 -0.662118 -0.151223 0.259385 0.874289 -0.769879 0.356424 -1.2755 0.308724 -0.702495 0.470753 -1.05404 -0.121917 -1.18767 1.48619 0.00876967 0.362205 -0.991357 0.27517 -1.0636 -0.000571207 -0.568103 1.27819 -0.327132 1.13226 -0.435971 0.602748 0.00408782 -0.0540443 -0.387726 0.0769151 -0.0796547 0.265631 -1.61393 0.719954 0.236997 -0.0306193 -0.0383873 0.733704 -0.396669 0.963717 -0.54094 0.45821 0.0342852 0.117313 0.41487 0.0484389 -1.0573 0.18902 -0.72494 -0.442369 -0.345463 0.623002 -0.237112 0.886024 -1.18503 0.557987 -1.33635 0.868306 -1.0259 0.323571 -0.702332 0.354528 -0.938133 0.641379 
0 -0.826885
 4 100
-1.03747 0.609733 -1.20968 0.557421 -0.132153 1.06497 -1.01766 0.744677 -0.115746 -0.00334086 -0.0378234 1.03518 -0.711177 0.159713 -0.19647 0.601738 -1.00631 0.365255 -0.900282 0.961377 0.0431299 0.537925 -0.268543 0.198082 -0.141918 0.910371 -0.00531151 1.04956 -0.878629 0.740173 -0.885608 0.774442 -0.621818 1.05131 0.15188 0.546561 -0.403137 1.01429 -1.16999 1.13012 -0.377395 0.572433 -0.872075 0.964747 -0.217445 0.267263 0.460919 -0.0328297 -0.964474 0.474517 -1.14016 1.2355 -0.307351 0.800055 -1.32874 1.08243 -0.202186 0.906422 -0.520611 1.01685 -1.11372 0.63124 -0.935627 0.661909 -1.38351 0.991858 -1.16266 -0.134003 -0.382623 1.09562 -0.42624 1.2164 -1.03612 1.58842 -1.09296 1.72257 -0.0818725 0.844751 -0.598629 1.11811 0.00115669 1.42287 -0.586313 1.0953 -1.00826 0.494523 -1.42513 0.321631 -0.806253 0.693854 -0.584803 0.463464 -0.905513 0.000795501 -0.661939 0.827925 -0.74664 1.21419 -0.552106 0.373592 
0.330354 0.913277 -0.659212 1.0097 -0.0532912 1.16709 -0.258814 0.805334 0.152036 0.317877 0.237539 0.729253 -0.41588 0.372076 -0.749922 1.01676 -0.0196859 1.43021 -0.629313 1.09451 0.149641 0.430112 -0.861056 1.16218 0.0737315 0.749376 -0.819231 0.854839 0.0988433 0.906531 -0.786712 1.02009 0.0827868 0.980342 -0.858092 1.24864 0.0155402 1.76775 -0.859551 0.911116 0.0307417 2.23369 -0.851914 0.39081 -0.0652694 1.68927 -0.351216 0.978936 -0.382365 0.282896 -0.379748 1.39426 0.399236 0.921865 -0.508573 0.358978 -0.588751 0.495356 -1.045 0.0638047 -0.845317 1.04268 -0.847599 1.0237 -0.674362 1.11938 -1.37229 0.682543 -0.389434 1.43875 0.13214 1.14363 -1.25994 1.94416 -0.805386 1.61625 -0.800105 0.73458 -0.52205 0.799339 -0.521773 1.07744 -0.0562959 1.55056 -0.397488 -0.773005 -0.118741 2.03138 -0.888955 0.792277 -0.404606 0.433481 -0.710998 0.936974 0.354853 1.18871 -1.25846 1.46903 0.223622 1.13401 
-0.467638 0.868766 -0.196776 0.86592 -0.418192 0.156388 -0.763703 0.635467 -0.216415 1.78938 -0.393204 0.0367476 -0.302285 1.36458 -0.588254 0.786986 -0.285161 0.230617 -0.327847 1.28213 -0.123463 1.09869 -0.778963 1.44773 -1.31103 1.46249 -1.13184 -0.117076 0.120358 1.10023 -1.0449 0.783519 -1.2971 0.619767 -0.840352 0.350302 -0.37924 0.892032 -0.61585 1.31192 -0.320284 1.23911 -0.674456 0.941748 -0.455171 0.468762 -1.24416 -0.0733301 0.381701 1.29257 -0.985839 0.302539 -0.0424612 1.63791 -0.327634 0.247204 -0.192515 0.317558 -1.05474 0.0269988 -0.956884 1.48991 0.0504823 0.843711 -0.00840726 0.768802 -0.586989 0.23564 -0.683067 1.10385 -0.359392 0.644929 -0.884185 0.695066 -0.442593 1.33709 -0.113166 0.294805 -0.0987033 0.243952 -0.431786 0.191228 -1.3735 0.312058 0.0475752 0.567735 0.570867 0.581634 -0.78451 0.736616 -1.52825 0.387432 -0.185017 1.06703 -0.277668 -0.109137 -0.972859 0.332511 -0.514838 0.379772 
-1.23462 0.919648 -0.443356 0.273783 -0.970693 0.968086 -0.721927 0.0249262 -0.56748 0.441062 -0.373974 0.25529 -1.47317 1.17524 0.064642 0.125785 -0.871724 0.383413 -0.449437 0.361165 -0.588087 0.00217811 0.071365 1.04402 -0.639741 0.477031 0.261977 0.664823 -0.75715 1.01422 0.0669236 -0.0382081 -0.688233 0.444239 0.0232959 1.16892 -0.916225 0.100482 0.334981 1.25833 -1.27212 0.316882 -0.288853 0.554897 -0.81508 -0.559444 -1.15054 0.0211232 -0.422895 1.23683 -0.312684 0.837662 -0.384862 0.976936 -1.15059 -0.00023474 -0.00606537 0.433595 -0.900103 1.01656 -0.466812 0.522033 -0.304912 0.851826 -0.295087 0.272095 -0.725473 -0.417656 -0.970537 0.381695 -0.0910212 0.233879 -1.03059 -0.00952544 0.807407 1.4589 -0.238783 1.19228 -0.746516 0.497979 -0.618983 -0.0336073 0.366281 1.43045 -0.22356 1.26976 -0.377025 0.722493 -0.575317 -0.0640901 -0.458161 1.11212 -0.0813806 -0.213831 -1.71994 0.560728 -0.75364 -0.755329 -0.020011 1.28612 
0 0.147254
 4 100
-0.677337 0.428048 -0.361071 0.456001 -0.221449 0.491125 -0.364423 0.760626 -0.753871 0.693199 0.0817825 0.156016 -0.226216 1.06536 -0.0418796 0.848276 -0.667229 1.04253 0.160429 0.301675 0.0539875 0.167946 0.198854 0.638573 0.269176 0.329137 -0.785485 0.841063 -0.129 1.02986 -0.661665 0.506413 -0.415952 0.59327 -0.751997 0.793447 -0.375263 0.911586 -0.384324 0.356455 -1.01703 0.275541 -0.496514 0.764309 -0.20242 0.934742 -0.193698 1.13302 -0.0385543 1.32657 -0.130531 -0.111434 -0.14004 0.7807 -0.658187 0.438081 0.212018 0.844938 -0.748249 0.98546 -0.566797 0.204592 -0.192599 0.151039 0.140995 0.795049 -0.691658 0.15061 -0.217646 1.35136 0.249929 1.13286 -0.321594 1.0407 -0.310649 0.110556 -0.578721 0.819896 -0.825363 1.06357 -0.0829834 1.07721 -0.286642 0.255254 0.142521 0.0859169 -0.85695 0.940803 -0.132413 0.841358 -0.156106 0.533908 -0.680689 0.916321 -0.844389 0.457395 -0.187172 0.361619 -0.675027 0.926948 
0.0286473 0.757854 -0.581741 0.396568 -0.287581 0.51442 -0.771495 1.03026 -0.513291 0.997494 -0.8141 0.891848 -0.390336 0.613751 -0.56975 0.437728 0.0737607 0.665002 -0.154923 1.18278 0.303426 0.201916 -0.113082 0.494195 -0.397093 0.311699 -0.187331 0.170999 -0.318097 0.348083 -0.562067 0.520478 -0.438984 0.902747 -0.196892 0.139094 0.011107 0.199026 -0.605056 0.439085 -0.389278 0.0994915 -0.586048 0.694272 -0.133814 0.578143 -0.174117 1.4396 -0.405721 0.639459 -0.595032 0.168255 -0.231093 1.19974 -0.264891 0.555287 -0.371743 0.427006 -0.339862 0.617969 0.126545 0.968141 -0.28492 -0.0723189 -0.185469 1.25947 -0.254088 -0.0417165 -0.624771 0.673562 -0.487107 0.144298 -0.531589 0.399097 -0.1879 -0.0363221 0.260645 0.975546 -0.318539 0.224179 -0.753736 -0.191353 -0.867629 0.774628 -0.254937 0.163288 -0.209927 0.801413 0.068739 0.295557 -0.606002 0.984895 -0.712548 0.238668 -0.388425 0.830859 -0.441227 0.36656 -0.524721 0.781603 
