5 5
-0.11777 0.711093 -0.108554 0.455367 -0.0833571 
-0.773696 0.755893 -0.588889 0.690137 -0.312683 
-0.87665 0.800273 -0.646087 0.694124 -0.0367301 
-0.207379 0.671203 -0.838627 0.0171907 -0.914412 
-0.891702 0.591965 -0.901039 0.613624 -0.503288 
5 5
-0.315413 0.360568 -0.361203 0.86325 -0.490176 
-0.845106 0.705956 -0.1054 0.0311614 -0.0672742 
-0.513068 0.0759987 -0.634026 0.746351 -0.86863 
-0.215706 0.307426 -0.442549 0.749266 -0.263523 
-0.253714 0.727744 -0.478886 0.552178 -0.202114 
5 5
-0.668813 0.616859 -0.76236 0.374161 -0.509227 
-0.795538 0.473484 -0.48228 0.838266 -0.272955 
-0.44439 0.964953 -0.354959 0.679107 -0.390203 
-0.604397 0.152752 -0.614317 0.451058 -0.871591 
-0.923916 0.939589 -0.403038 -0.0160572 -0.0344117 
5 5
-0.277472 0.496133 -1.02535 0.379007 -0.150071 
-0.256829 0.35062 -0.28529 0.0428044 -0.571525 
-0.0403674 0.502729 -0.956806 0.24501 -1.00961 
-1.01648 0.933423 -0.435242 0.460006 -1.02293 
-0.676749 0.307905 -0.349569 0.774672 -0.911891 
5 5
-0.942609 0.680912 -0.698735 0.659588 -0.142369 
-0.760938 0.799915 -0.929232 0.773501 -0.188912 
-0.534099 1.00132 -0.437655 0.372694 -0.142257 
-0.533399 0.583657 -0.926175 0.764074 -0.21393 
-0.624017 0.765938 -0.381996 0.794512 -0.212876 
3 3
-0.0154278 0.0117158 -0.275017 
-0.0903884 0.247039 -0.201921 
-0.874218 0.317891 -0.895079 
3 3
-0.0681532 0.469909 -0.148885 
-0.969441 0.892535 -0.731416 
-0.48364 0.625169 -0.0233442 
3 3
-0.686441 0.618792 -0.170419 
-0.536808 0.67117 -0.219257 
-0.224036 0.255777 -0.592597 
3 3
-0.0260807 0.66857 -0.641813 
-0.276907 0.435682 -0.122654 
-0.961868 0.0752266 -0.38005 
3 3
-0.384372 0.539633 -0.308279 
-0.56335 0.825524 -0.281211 
-0.751293 0.649373 -0.0145375 
3 3
-0.339069 0.823447 -0.310459 
-0.617837 0.125589 -0.601921 
-0.813311 0.841302 -0.530028 
3 3
-0.359816 0.0375153 -0.446042 
-0.554222 0.746268 -0.558277 
-0.652351 0.199162 -0.281243 
3 3
-0.771904 0.893553 -0.834257 
-0.34107 0.593516 -0.799736 
-0.885307 0.22891 -0.825179 
3 3
-0.305115 0.0787265 -0.592088 
-0.591015 0.360794 -0.0420061 
-0.70704 0.0556816 -0.0160915 
3 3
-0.551924 0.913493 -0.755194 
-0.456659 0.154571 -0.785369 
-0.74708 0.7173 -0.566602 
3 3
-0.18177 0.9992 -0.663397 
-0.443115 0.925011 -0.100666 
-0.953747 0.0215633 -0.130188 
3 3
-0.794259 0.573383 -0.214889 
-0.960919 0.381949 -0.721273 
-0.57177 0.879789 -0.572841 
3 3
-0.470468 0.837034 -0.147564 
-0.666959 0.210903 -0.390189 
-0.58284 0.821517 -0.114763 
3 3
-0.348202 0.401351 -0.210639 
-0.686622 0.607702 -0.178341 
-0.766954 0.68815 -0.657836 
3 3
-0.609772 0.461844 -0.447546 
-0.326614 0.297479 -0.677246 
-0.839844 0.410701 -0.0917756 
3 3
-0.696973 0.967211 -0.288179 
-0.286946 0.829724 -0.856415 
-0.454899 0.187478 -0.261554 
3 3
-0.113485 0.151899 -0.342388 
-0.0548711 0.960819 -0.935449 
-0.960696 0.455698 -0.515593 
3 3
-0.422316 0.786893 -0.934838 
-0.755484 0.0232495 -0.0273503 
-0.0428198 0.0572395 -0.960749 
3 3
-0.465191 0.620458 -0.746819 
-0.262493 0.517424 -0.360285 
-0.492599 0.164815 -0.252006 
3 3
-0.277931 0.0489362 -0.53539 
-0.158458 0.101067 -0.172504 
-0.745373 0.710715 -0.147848 
3 3
-0.159824 0.666966 -0.476839 
-0.665948 0.916306 -0.134169 
-0.854653 0.237468 -0.905951 
3 3
-0.645023 0.137188 -0.18835 
-0.999471 0.527762 -0.0491145 
-0.639943 0.47782 -0.471455 
3 3
-0.391868 0.140853 -0.263825 
-0.5397 0.0133978 -0.471527 
-0.619622 0.628845 -0.663821 
3 3
-0.615548 0.364019 -0.485516 
-0.991768 0.447784 -0.917733 
-0.187117 0.259272 -0.182552 
3 3
-0.120891 0.29551 -1.00067 
-0.0645903 0.231343 -0.51364 
-0.199426 0.399314 -0.00964735 
3 3
-0.0597832 0.230872 -0.412929 
-0.255346 0.628992 -0.165816 
-0.952639 0.779778 -0.16349 
3 3
-0.577465 0.630452 -0.16647 
-0.186848 0.597208 -0.380774 
-0.199523 0.0959926 -0.261582 
3 3
-0.969116 0.454747 -0.0554566 
-0.896014 0.488469 -0.899885 
-0.858339 0.616417 -0.463263 
3 3
-0.844532 0.538423 -0.73453 
-0.339787 0.366144 -0.970731 
-0.991348 0.274901 -0.31612 
3 3
-0.256254 0.556976 -0.865454 
-0.0812711 0.179156 -0.74059 
-0.629711 0.316317 -0.572765 
3 3
-0.12711 0.137011 -0.716569 
-0.706187 0.387132 -0.357907 
-0.0498046 0.723937 -0.238631 
3 3
-0.250241 0.543021 -0.162415 
-0.901313 0.12637 -0.889659 
-0.532467 0.561089 -0.820882 
3 3
-0.873099 0.103181 -0.078433 
-0.214373 0.949929 -0.751309 
-0.5822 0.109388 -0.716584 
3 3
-0.161973 0.0656907 -0.993773 
-0.741987 0.041022 -0.712706 
-0.776134 0.487419 -0.855835 
3 3
-0.0100131 0.947662 -0.986695 
-0.569549 0.450052 -0.26563 
-0.888112 0.986289 -0.808743 
3 3
-0.421978 0.544139 -0.217466 
-0.770367 0.812907 -0.875575 
-0.688185 0.0296219 -0.886525 
3 3
-0.454382 0.45256 -0.525021 
-0.0655616 0.799458 -0.055382 
-0.921627 0.909937 -0.116162 
3 3
-0.78575 0.0700862 -0.346178 
-0.62549 0.47068 -0.559978 
-0.714355 0.585334 -0.866839 
3 3
-0.956013 0.494856 -0.293522 
-0.49342 0.0828671 -0.358704 
-0.0194644 0.212038 -0.734334 
3 3
-0.44991 0.227664 -0.375048 
-0.163996 0.579361 -0.187345 
-0.574957 0.953822 -0.290597 
3 3
-0.9379 0.251543 -0.439213 
-0.217498 0.18362 -0.85716 
-0.237838 0.0472639 -0.740171 
3 3
-0.925419 0.227864 -0.273001 
-0.22287 0.780145 -0.463177 
-0.0655994 0.647665 -0.255253 
3 3
-0.25789 0.605313 -0.549669 
-0.056287 0.108306 -0.00173777 
-0.346465 0.207038 -0.565804 
3 3
-0.270311 0.501134 -0.250716 
-0.727646 0.459714 -0.304695 
-0.515506 0.532613 -0.425708 
3 3
-0.683444 0.263205 -0.497791 
-0.246953 0.0206765 -0.949228 
-0.0200486 0.92411 -0.264867 
3 3
-0.418263 0.960077 -0.247983 
-0.383119 0.250325 -0.636283 
-0.496544 0.405092 -0.182523 
3 3
-0.834156 0.918129 -0.1488 
-0.652474 0.123509 -0.559495 
-0.815277 0.524269 -0.96559 
3 3
-0.446185 0.576192 -0.0343248 
-0.906267 0.675389 -0.414641 
-0.883965 0.429171 -0.468044 
3 3
-0.150108 0.716797 -0.697616 
-0.607265 0.14362 -0.754399 
-0.731073 0.470961 -0.440496 
3 3
-0.877316 0.30342 -0.00398594 
-0.89746 0.931431 -0.12632 
-0.794164 0.10162 -0.56972 
1 50
5 5
0.427869 1.54424 0.403599 0.200209 0.458096 
-0.0707067 0.475105 0.570939 1.31515 -0.0238264 
-0.116658 1.65041 -0.279781 1.27907 -0.494605 
0.331901 1.13278 -3.21138 -0.986829 -2.97837 
0.435574 0.998397 -0.0576955 1.72847 0.503635 
0 -0.886737
 5 5
0.268405 0.592585 0.498731 1.22548 0.832171 
-0.34869 -1.46141 -0.400293 -0.0896977 -0.80181 
-1.13529 -1.22956 -1.56096 0.348478 -0.266474 
-0.0943817 0.976221 -0.854979 0.347001 -0.473176 
0.592379 1.33997 -1.15117 0.929392 -0.160066 
0 -0.126881
 5 5
-0.358542 0.20251 -0.182384 0.201682 -1.02557 
-0.0545726 0.51619 0.264456 1.09103 -1.17325 
-0.667473 0.496716 -0.707782 0.339304 -0.253088 
-1.8393 -0.52483 0.0285842 1.22416 -0.597054 
-1.20446 0.113685 -1.30555 1.35053 -0.0124821 
0 -1.00038
 5 5
-0.553577 0.195613 0.107741 0.0818827 -0.346612 
-0.390471 0.726199 -0.541236 -0.625405 -0.618843 
-0.171841 0.0992348 -0.481776 0.934941 -1.41584 
-0.7391 -0.164529 -1.22745 0.534113 0.825235 
-0.305783 0.373573 -0.204844 0.0147984 -0.408201 
0 0.498298
 5 5
-0.541048 0.453872 -0.426641 -0.0337316 -0.455147 
-0.193273 0.560068 -0.225743 0.380188 -0.608918 
0.157113 -0.319624 -0.716265 1.06857 -1.78688 
-0.734886 -0.835166 -1.21584 -0.163018 -2.45395 
-0.787093 0.786313 -0.876853 -0.313088 -0.705328 
0 -0.438506
 5 5
-1.09138 0.70655 -0.717983 0.494724 -0.690269 
-0.491422 0.771188 0.231227 0.597119 -0.597694 
-0.358454 0.742366 0.427443 1.07256 -0.653455 
-0.116104 0.57906 -0.0802894 -0.0243236 -1.1715 
-0.10291 -0.167866 -0.395066 0.0488491 -0.2735 
0 0.596838
 5 5
-0.77177 0.323281 -1.26235 -0.676508 -1.07423 
-0.793628 -0.158263 -0.345173 -0.253996 -0.789645 
-0.754838 0.971548 -0.0676053 1.48534 0.0675426 
-0.308956 1.01803 -1.19432 1.29734 -0.235074 
-0.926294 0.982822 -0.639573 0.120206 -0.61073 
0 -0.640761
 5 5
-0.111272 0.296985 -1.37756 0.518346 -1.107 
0.417549 -0.0988563 -0.64477 0.582355 -0.325464 
0.592596 -0.0651854 -0.171397 1.68653 -1.33288 
-0.843277 -1.11064 -1.44005 1.37256 -0.507944 
-0.567351 0.393584 -0.0865198 0.928478 0.49266 
0 0.43916
 5 5
-1.13487 0.185038 -1.33715 -0.161463 -1.2111 
-0.645516 0.339225 -1.10741 0.642712 -0.344603 
-1.15024 0.617919 -0.0130588 0.930732 -0.109805 
-0.4604 -0.319554 0.142168 0.577318 -1.94947 
-0.618554 0.394804 -1.38307 -0.193297 -0.929766 
0 -0.484213
 5 5
1.71322 0.9556 0.492067 -0.119624 -0.282299 
0.427055 0.171478 0.0122282 -0.055335 0.619127 
0.654524 0.814897 -1.04202 0.143372 -0.461683 
-1.31469 0.548622 -1.00749 0.830586 0.495017 
-0.910187 0.720299 0.303369 0.606384 -0.0709328 
0 0.725479
 5 5
-0.723494 0.120536 -1.30743 0.312774 -2.76278 
-0.413776 0.0403756 -0.638491 0.00847537 -2.7083 
-0.343899 -0.158888 0.226057 -0.637228 -0.597761 
-0.969804 0.810523 0.68983 -0.438624 -1.28841 
-3.10372 0.473563 -3.11969 -1.35487 -2.11158 
0 -0.408429
 5 5
-0.644354 0.676958 -0.277344 0.28523 -0.497695 
-0.558103 -0.351941 -0.305036 0.199674 0.160012 
0.0865076 -0.492537 -1.00141 0.665059 -0.411367 
-0.0185509 0.378722 -0.924445 0.914292 -0.279251 
0.0354851 0.342833 0.334008 0.694653 -0.994819 
0 0.00286206
 5 5
-0.468553 0.699576 -0.474261 0.257693 -0.0676701 
-0.266762 0.468334 -0.309724 0.335227 -0.457559 
-0.741966 0.428716 -0.768373 0.882519 -0.830535 
-0.983655 0.509389 -0.838507 0.952165 -1.27137 
-1.31524 0.922685 -1.46348 0.460957 -0.685894 
0 -0.0698409
 5 5
-1.18956 -0.458059 -0.0157451 0.598307 0.721002 
0.0945117 0.0300691 -1.02494 1.02674 0.245848 
-0.763471 0.469701 -0.519653 0.69537 -0.903053 
-0.86375 0.979001 -0.774601 -0.155578 -0.980347 
-0.234956 1.02901 -0.00486218 0.205468 -0.168073 
0 0.348221
 5 5
-0.363682 0.500796 -1.70269 -0.113816 -0.253101 
-0.974531 0.750905 -0.866509 0.170124 -0.0539311 
-0.60726 -0.315937 0.0374624 0.0929386 0.167816 
-0.431862 -0.335959 0.0576738 0.261549 -1.16587 
-1.36047 0.283709 -0.79217 0.74164 -1.24166 
0 -0.569525
 5 5
-0.415196 1.47495 -0.41159 -1.01475 1.12042 
-0.785642 -0.131436 -1.12866 -0.966537 -0.418314 
-1.71128 0.000805408 -1.09426 0.200379 -2.13395 
-0.981098 0.199073 0.212926 -0.428811 -1.01204 
-1.87255 -0.030447 0.114412 0.508088 -0.408427 
0 0.296134
 5 5
-0.07785 0.085154 -1.21778 1.24651 0.00256362 
-0.124265 -1.26842 -0.736163 0.804591 -0.546744 
-0.00865904 -1.56012 -1.2815 -1.29007 -0.384413 
-0.42844 -1.36427 -0.674496 -0.436692 -0.274495 
-0.193466 0.236951 -1.32047 0.925219 -0.537928 
0 -0.661382
 5 5
0.183218 1.07078 -0.424257 0.105932 -0.304413 
0.944948 0.85174 -0.295627 1.35619 -0.605633 
-0.110877 0.870684 -1.64199 0.992815 0.058075 
-0.533928 0.872887 0.282308 0.168348 -1.09992 
-0.393706 -0.210613 0.289623 0.611886 -1.09114 
0 0.331829
 5 5
-0.500709 -0.153071 -0.287851 0.527341 -0.884182 
-0.551513 1.32154 -0.340844 0.363003 -0.398283 
-0.290044 0.822124 -0.671685 0.337894 -0.666245 
-0.930004 1.14377 -0.882061 0.484526 -0.862473 
-0.795143 0.71524 -0.74675 0.903279 -0.315312 
0 -0.206869
 5 5
-0.552196 -0.131339 -0.220523 0.749141 -0.331115 
-0.585079 1.65671 0.583346 0.0520187 -0.406497 
-0.520006 0.17918 -1.0869 0.576572 -0.953585 
-0.17022 -0.381698 -0.705471 -0.203205 -0.491349 
-0.485939 0.378373 -0.153789 0.278288 -0.501396 
0 0.168992
 5 5
0.0802446 3.31494 0.0465685 0.290763 -0.0889944 
0.449317 4.15739 1.48777 1.56525 0.140334 
0.813235 3.34207 0.0594061 2.31727 0.535456 
-0.927864 -0.3499 -0.731947 0.78925 1.06009 
-1.27405 0.290984 1.22184 0.589418 -0.0260747 
0 -0.322072
 5 5
-0.404093 0.852432 0.0514943 1.56981 0.106949 
-0.593721 1.69387 0.966574 1.74955 0.358459 
-0.600365 1.17995 0.11225 0.671164 0.119132 
-0.370219 -0.437625 -0.55145 0.471058 0.741671 
0.131089 0.414098 -0.344214 0.532466 0.209109 
0 0.705864
 5 5
-0.7599 0.685394 -0.685314 0.575867 -0.903307 
-1.48388 -0.294543 -1.08185 0.27536 -0.284652 
-0.892651 0.970862 -0.494029 0.3222 -0.995725 
-0.484474 0.855957 -0.583733 0.133334 -1.33423 
-0.0620793 0.501445 -0.512945 0.435196 -0.117392 
0 -0.599702
 5 5
-0.65755 -0.989738 -2.17247 0.967683 -0.054174 
0.636763 0.738313 0.456611 2.60228 0.322178 
-0.800459 1.65034 1.78507 0.749995 0.66226 
1.05024 0.169331 -1.32549 0.612245 -1.20724 
1.10794 1.07129 -2.94652 -1.07748 -1.65543 
0 0.647215
 5 5
0.128179 0.717251 -1.03054 0.738335 -0.807879 
0.651126 1.15869 -0.841488 -0.147162 -0.327517 
-0.838728 0.625875 -0.0642271 1.30231 -0.805758 
-0.937357 0.398753 -0.522553 1.96307 -0.49452 
-1.09331 0.472437 -0.215872 0.524109 -0.288671 
0 -0.0879029
 5 5
-1.17687 -0.233238 -0.737911 -0.887264 0.15624 
-2.31486 1.00396 -0.625204 -0.0356727 -0.880271 
-1.13067 2.18615 -0.754232 0.0039209 -0.707214 
0.625207 0.660537 -0.756016 1.24826 -0.515287 
0.843816 -0.567157 -0.494612 -1.18956 0.439489 
0 -0.32041
 5 5
-1.49322 1.04835 -0.784497 -0.0880239 -0.490755 
-1.91991 1.03786 -0.222998 0.0475642 -0.738567 
-1.36903 0.863765 -0.87719 0.97243 -1.36794 
-0.127155 1.85946 -0.992385 1.6466 -1.22675 
0.404588 1.24386 -0.766274 0.0805305 -0.994318 
0 -0.381582
 5 5
-0.0816423 2.70407 1.31871 0.744799 -0.520519 
0.250739 1.43176 -0.132498 0.784593 -0.966406 
-0.612254 -0.338643 -0.991692 1.49894 0.107619 
-1.11366 0.86989 -0.284168 1.94458 0.819258 
-0.302735 -0.0355224 1.9914 1.46114 0.939791 
0 0.834412
 5 5
-1.3958 -0.54592 -1.50697 0.686358 -0.240854 
-1.69806 -0.677646 -1.40433 -0.302068 -0.233814 
-0.35388 -0.43866 -0.960619 -0.271634 -0.779605 
-0.888352 -0.0099354 -0.218367 0.243801 -1.09362 
-1.55128 1.00696 0.295797 0.870524 -0.10227 
0 -0.381824
 5 5
0.753493 2.57884 0.0788473 0.733571 -0.039905 
-0.2419 1.01329 -0.879799 0.141492 -0.951897 
-1.55029 1.47724 -0.0107855 1.28755 -0.178193 
0.612921 1.15186 -0.949068 2.40064 0.336 
1.85617 0.565603 -0.275893 1.55041 0.0610017 
0 -0.222744
 5 5
-1.35434 1.06417 -0.887901 -0.743415 -1.18373 
-0.446202 2.46796 -0.903542 0.89235 -0.408776 
-0.42136 0.659039 0.863621 1.70411 0.452762 
-0.851801 -0.18214 0.549679 0.928577 0.142918 
-0.138483 0.460465 0.606964 0.80243 -0.502062 
0 0.153686
 5 5
-2.10586 -0.942427 0.14371 2.28906 0.681658 
-1.33444 0.335002 1.35209 3.36204 1.99549 
0.778941 0.238483 -0.209459 2.73113 1.45529 
-1.76687 0.172313 -0.0408768 0.691602 0.713402 
-0.266277 2.20551 -0.502572 -0.240874 -1.63327 
0 0.859682
 5 5
0.0680684 0.361452 -0.19792 -0.451341 -1.63476 
-0.377951 0.914145 0.774915 0.352822 -1.72749 
-0.537583 0.416029 0.167142 0.962566 -0.134395 
-1.05137 -0.0754512 -1.06832 1.6745 -0.78202 
-0.877746 -0.372436 -0.903138 0.432554 -0.730052 
0 -0.704189
 5 5
2.6318 3.17783 0.513649 1.44906 1.05135 
-0.861497 -1.73544 -2.45639 -2.94939 -1.05307 
-2.3238 -2.292 -5.04042 -4.09671 -0.864068 
1.05071 -0.687166 -2.83351 0.0811774 2.33956 
-0.371777 0.443134 0.712619 3.58194 3.00161 
0 0.121184
 5 5
0.0800115 1.117 0.768706 0.87116 -0.905 
0.333807 1.24025 -0.813886 -0.320238 -0.0333823 
-0.0500273 0.840854 -1.33427 0.427805 -0.579934 
0.432978 0.391732 -0.0630512 1.17869 0.365058 
1.16681 0.476622 0.108978 0.567592 0.260343 
0 -1.08663
 5 5
-1.23154 0.256556 0.0478147 1.27378 0.983778 
-0.606429 0.269088 -0.439056 2.07407 0.423424 
-1.03228 -0.134486 -0.359978 0.243088 0.305751 
-0.837378 0.452865 -0.763389 0.410649 -0.162767 
-0.171945 2.19155 -0.150392 0.577507 -0.865335 
0 0.653967
 5 5
-0.548983 1.77523 -0.888147 1.68828 -3.47233 
-1.71499 1.82311 -2.52938 1.00322 -1.71933 
-3.03426 2.81828 -1.75631 -0.216325 -0.694196 
-4.29506 0.877549 0.305726 -0.729504 -0.195109 
-0.425248 0.214899 -0.79156 -0.065446 -0.263856 
0 -0.55273
 5 5
2.28779 1.08927 1.83552 3.85123 1.61593 
1.98159 2.02026 0.196092 2.52543 2.33803 
1.59226 2.64716 -2.23022 0.950249 -0.781482 
-0.835441 0.864021 -0.0250139 -0.460833 0.0715554 
-0.694504 1.3336 0.398546 1.27815 1.09271 
0 0.110579
 5 5
-1.10459 0.880282 0.539333 0.70884 -0.920206 
0.356559 0.802201 0.155653 1.27618 -0.467567 
-0.371597 1.58527 -0.521203 0.463736 -0.844015 
-1.07496 0.997361 0.144194 0.357978 -0.969044 
-1.91585 1.11275 -0.323763 -0.0519507 -0.580566 
0 -0.762901
 5 5
0.38246 -0.932155 -0.456927 0.835128 -0.280247 
-0.102427 -0.377727 0.606425 -0.326483 0.104837 
0.459778 0.352302 -1.59532 0.457007 -1.22091 
0.727874 0.697832 -1.71033 1.08022 -2.54908 
-0.522499 -0.204577 -0.340358 -0.358813 -0.596502 
0 0.556011
 5 5
-0.203658 0.378728 -2.0853 -0.468547 -0.821459 
-1.65397 -0.110562 -1.43077 0.667967 0.141151 
-2.00169 -0.254097 -0.926498 0.268932 -0.235072 
-0.619517 -0.592369 0.0486915 0.701478 -1.22333 
-0.280979 0.0802814 -1.07474 0.921875 -1.34306 
0 -0.104994
 5 5
-0.334595 0.574023 -1.55931 0.68682 -0.919517 
-0.232553 0.455804 -1.35536 0.954745 -1.9074 
-0.453683 0.448197 -0.378924 -0.753725 -1.37034 
-1.20553 0.516431 -0.662363 0.19204 -0.041775 
-0.782527 1.76525 0.158022 1.45024 -0.646909 
0 -0.013965
 5 5
-0.592748 0.800786 -0.615028 0.596759 -0.298683 
-0.609406 0.312218 -0.438584 0.872174 -0.0287686 
-0.485906 0.373614 -0.826505 0.523542 -0.85022 
-0.680988 0.399176 -0.855646 0.200182 -1.51142 
-0.392276 1.43938 -0.722779 0.893528 -0.969248 
0 -0.240507
 5 5
-0.610678 1.20003 -0.414276 0.60555 0.275623 
-0.926065 0.895858 -0.631844 0.610984 -0.541169 
-0.698799 1.40339 0.00293975 0.632195 -0.501041 
-0.78642 0.675386 0.0280114 -0.893141 -0.396168 
0.344873 -0.478567 0.0509769 -0.193027 -0.186113 
0 0.777002
 5 5
-0.61731 1.17088 -0.527577 0.404745 -0.301032 
0.34897 1.80482 -1.23054 2.81706 -1.54798 
-0.213863 2.79536 -0.636218 1.28813 -2.00386 
-1.21198 0.67007 -0.0588807 0.655462 -0.835229 
-0.404415 0.853343 0.149237 0.419006 -0.650727 
0 -0.384879
 5 5
0.0976775 0.188913 -0.28479 0.620929 -1.23234 
0.413123 -0.138164 -1.30228 1.00975 -0.775132 
-0.0164693 -0.461826 -1.32343 0.464025 -0.440408 
-0.81125 0.469782 0.538353 0.477629 -1.0744 
-1.92171 0.492182 -0.846357 -0.436348 -0.0604263 
0 0.477846
 5 5
-0.953589 0.744994 -1.37216 0.368153 -0.505248 
-0.388826 0.428738 -0.485573 0.202151 -0.494681 
0.15453 0.00253887 -0.436014 1.00504 -1.17163 
-0.718425 -0.0460077 -1.27666 1.02212 -0.682095 
-0.561283 0.330912 -1.48325 -0.0180556 -0.948533 
0 -0.0330028
 5 5
0.0842262 0.410125 -0.0437689 0.944702 -0.29787 
0.170886 0.870566 -0.681557 0.089719 -0.52255 
-0.286767 0.311104 -1.06114 0.252373 -0.391086 
0.40209 0.745176 -0.629765 0.0845584 -0.165637 
-0.383884 0.479039 -1.06892 0.243591 -0.503468 
0 0.0697916
 5 5
-0.362089 1.30832 -1.8041 0.721403 -0.344202 
-0.947026 -0.0290793 0.249561 1.20902 -0.142428 
-0.0361274 1.27757 0.439337 0.306907 -1.45243 
0.75599 0.843822 -0.736659 -0.403127 -1.01184 
-0.114622 1.53198 0.173433 -0.4348 -1.617 
0 -0.572288
 5 5
-0.99436 0.580316 -0.0124942 0.178263 -1.25018 
-0.653724 0.75245 -0.773504 0.305864 -0.648404 
-0.72518 0.481225 -1.26937 0.981753 -0.361226 
0.0569285 -0.345416 -1.08282 -0.363956 -0.898832 
-0.27803 0.803283 -0.890897 0.138193 -1.44747 
0 0.365665
 
1 10
1 50
-0.622567 0.0242298 -0.641448 0.0485063 -0.806735 0.341169 -0.908662 -0.0476579 -0.447934 0.269182 -0.144965 0.076213 -0.14016 0.437064 -0.884418 0.894002 0.0621731 -0.0615448 -0.27596 1.00694 -0.0904139 0.312369 -0.270974 0.863313 -0.783457 0.274174 -0.619809 -0.0649672 -0.0433205 0.0575194 -0.0363187 0.984888 -0.628957 0.63944 0.00671092 0.861718 -0.112609 0.874415 -0.285634 0.0933887 -0.281302 -0.0635636 -0.663164 0.804792 -0.967968 0.145925 -0.174689 0.600607 -0.422628 0.609938 
-0.00494525 -0.630948
 1 50
-0.20263 0.133329 -0.0243843 -0.0246125 -0.214692 0.54537 -0.393921 0.639111 -0.173841 -0.211167 -0.143901 0.662176 0.0344001 0.751836 -0.589502 0.522334 0.0155643 0.410801 -0.910345 0.0602 -1.19844 -0.164031 -0.200837 0.508951 -0.776138 1.03765 -0.210949 -0.153842 -0.136272 0.302035 -0.457367 0.00711589 -0.760882 0.269134 -0.186046 0.526159 -0.0440034 0.0315512 -0.816034 0.0385362 -0.138008 0.205954 -0.168349 0.630025 -1.32233 0.650761 -0.172178 0.309089 -0.122028 0.730125 
-0.0359724 0.254071
 1 50
-0.654606 0.82809 -0.578593 0.986142 -0.148492 0.156177 -0.283414 0.913514 -0.677709 0.701895 -0.209351 1.04695 -0.682634 0.325182 -0.0586284 0.838031 0.133334 0.453114 -0.422476 0.20584 -1.13572 0.254983 -0.364919 -0.203027 -0.602817 0.196298 -0.05997 0.883109 -0.0687681 0.369872 -0.87371 -0.111072 -0.775168 0.613211 -0.431375 0.406644 -0.542743 0.392121 -0.644916 0.938555 -0.491871 0.169623 -0.132315 0.708068 -0.504514 0.794323 -0.653441 0.742731 -0.67703 0.754003 
-0.0006707 -0.966336
 1 50
-0.546599 0.804425 -0.0251349 0.377512 -0.901092 0.479858 -0.149703 0.616102 -0.572192 0.382198 -0.800005 0.687566 -0.968709 -0.0143936 -0.765208 -0.0095053 -0.016777 0.457512 -0.987687 0.806172 -0.597415 0.398322 -0.746534 0.110507 -0.386007 0.325386 -0.364715 0.671179 -0.286813 0.994175 -0.0830918 0.58254 -0.205081 0.515312 -0.213014 0.622482 -0.352547 0.00838457 -0.988254 0.037086 -0.812053 0.128076 -0.797581 0.540945 -0.807882 0.663248 -0.751637 0.518761 -1.00453 0.322676 
-0.000246789 0.883514
 1 50
-1.01626 0.0262769 -0.582414 0.438909 -0.879147 0.82018 -0.709767 0.840057 -0.291534 0.108818 -0.687711 0.249407 -0.36054 0.718394 -0.119655 0.783519 -0.496409 0.637215 -0.358813 0.816669 0.0943314 0.593671 -0.802002 0.0909366 -0.585827 0.28132 -0.0530186 0.388574 0.0432013 0.092728 -0.650823 0.54316 -0.292174 0.269792 -0.975509 0.744155 -0.0667375 0.107069 -0.564278 0.0428434 -0.379399 0.506299 -0.494722 0.567653 -0.397403 0.914051 -0.681898 0.200442 -0.767929 0.199791 
-0.0359724 -0.351776
 1 50
0.045657 1.02396 -1.11292 0.397565 -0.642477 0.420738 -0.308736 0.239037 -0.925687 0.138509 -0.938202 0.429972 -0.598261 0.859737 -0.745707 -0.0402616 -0.0132952 0.813769 -0.266358 0.145868 -0.855424 0.782253 -0.264655 0.829466 -0.880849 0.921302 -0.15402 -0.00775381 -0.69928 0.596441 -0.817049 0.056024 -0.212349 0.307119 -0.204885 0.283336 -0.897908 -0.112857 -0.965853 0.897577 -0.749263 0.252635 -0.677857 0.815819 -0.0669642 0.121221 -0.261085 0.14183 -0.583025 0.747957 
-0.0018221 0.850669
 1 50
-0.296613 0.0070425 -0.0169603 0.155941 -0.719029 0.686351 -0.245445 0.199957 -0.46497 0.573295 -0.134028 0.678325 -0.223162 0.290414 -0.973734 0.734782 -0.900003 0.340488 -0.362985 0.468636 0.0261328 0.397422 -0.239792 1.01008 -0.336921 0.978601 -0.0231515 0.641146 -0.559424 0.78145 -0.612197 -0.191255 -0.994088 0.820935 -0.383116 0.326275 0.0514202 0.588188 -0.953129 0.475673 -0.906872 0.570355 -0.59789 1.07115 -0.232844 0.541059 -0.524567 1.12007 0.0555121 0.326785 
-0.0133857 -0.223862
 1 50
0.132945 0.765328 -0.295833 0.578762 -0.464779 0.140041 -0.913305 0.52471 -0.47251 1.01995 -0.334443 0.459118 -0.770456 0.618242 -0.683429 -0.0575296 -0.0804229 0.909167 -0.182296 0.437079 -0.759689 0.347409 -0.978341 0.549259 -0.337728 -0.119647 -1.03741 0.265273 -0.833235 0.405837 -0.612105 -0.0531933 -0.388086 0.377649 0.00367837 0.432953 0.209128 0.669584 -0.488089 0.849707 -0.612944 0.329517 -0.679863 0.310219 -0.792513 0.664476 -0.183912 0.79485 -0.887797 0.821949 
-0.0133857 0.683143
 1 50
-0.114596 0.977246 -0.154565 0.061211 -0.9286 0.347684 -0.634061 0.367997 -0.758256 0.0282517 -0.918727 0.7668 -0.13952 0.895079 -0.810836 0.790007 -0.347631 -0.145958 -0.442884 0.483598 -0.428426 0.786291 -0.427549 0.942062 -0.343461 0.806919 -0.208768 0.828228 -0.51188 0.651788 -0.32054 0.0550001 -0.823743 0.17448 -0.260325 0.367971 -0.703333 0.890104 -0.289028 0.690719 -0.543704 0.715624 -0.0645074 0.450533 -0.589349 0.772402 -0.391829 0.492827 -1.02101 -0.0198991 
-0.00494525 -0.800488
 1 50
0.00889777 0.368514 -0.505509 0.7538 -0.502637 1.00171 -0.920649 0.967083 -0.285163 0.280474 -0.325009 0.950319 -0.762063 0.177435 -0.148224 0.00296426 -0.864462 0.0964767 -0.652217 -0.0797147 -0.737135 0.718733 -0.957455 0.992032 -1.00222 0.124283 -0.721806 0.317949 -0.726556 0.141357 -0.144396 1.00024 -0.870333 -0.07253 -0.679764 0.728384 -0.125752 0.515747 -0.821184 0.974431 -0.0137976 0.820134 -0.84943 0.25785 -0.691233 1.0717 -0.702919 0.721886 -0.584843 0.83111 
0.0948517 0.0302658
 
