5 5
-10.4995 -8.51441 -8.25353 -7.01669 -5.93445 
-13.4077 -11.767 -11.1462 -8.79135 -7.99273 
-15.3917 -13.7795 -13.6203 -10.9536 -10.1723 
-16.367 -15.0502 -15.2659 -12.805 -11.6244 
-17.302 -15.4122 -15.6655 -13.8161 -12.8053 
5 5
6.38982 14.0267 18.048 21.6949 19.0312 
7.22187 14.5974 18.6318 21.874 17.243 
8.06854 15.0407 18.3603 20.2516 15.8414 
8.65439 16.1037 17.3161 19.46 14.7314 
10.4024 16.5273 17.0017 18.0459 13.4279 
5 5
-10.5115 -8.29291 -8.60487 -6.31981 -6.70054 
-11.1012 -8.92545 -9.52001 -8.06423 -8.37946 
-12.2455 -10.9741 -10.615 -10.2759 -10.5921 
-13.7015 -12.7975 -13.2749 -12.1964 -13.018 
-16.2184 -14.4348 -15.391 -14.5802 -15.3859 
5 5
-4.67875 -0.668089 0.249619 0.895334 -1.39488 
-6.47159 -2.25282 -0.923338 -0.711222 -3.0104 
-8.67535 -5.02446 -4.52747 -3.9519 -5.66675 
-9.14706 -5.64948 -5.21212 -5.14483 -7.20447 
-8.2238 -6.01028 -7.07832 -7.36455 -8.22625 
5 5
-4.16771 -0.368728 0.668087 2.0087 -0.0699809 
-5.46727 -1.11654 0.106666 1.07097 -1.48253 
-7.31332 -3.65584 -3.15619 -2.45073 -4.52717 
-7.52726 -4.80172 -4.18647 -3.93097 -5.91516 
-7.12629 -4.25871 -5.60461 -5.44664 -6.47429 
5 5
-3.34533 -0.224275 -0.587536 -0.838745 -2.88573 
-3.37587 -1.40679 -2.05516 -2.45229 -4.86846 
-3.4484 -1.02102 -3.02127 -4.93451 -6.11751 
-2.5321 -1.14885 -4.05552 -5.37681 -6.94851 
-2.82454 -1.67546 -3.96729 -4.69572 -6.52599 
5 5
-11.8772 -6.30209 -3.61648 -2.67865 -7.43287 
-7.92815 -0.348665 -0.0490438 -3.66378 -9.4904 
-3.82108 5.09598 2.59476 -4.21277 -10.8122 
-3.44989 5.08631 1.90354 -6.43587 -11.6853 
-3.60044 2.02059 -2.58071 -9.22527 -13.4085 
5 5
1.44181 2.55891 2.90149 4.53071 3.92286 
-0.72996 -0.179964 0.229613 2.21055 1.88953 
-3.96699 -2.87973 -2.43929 -0.666289 -1.79399 
-5.35714 -3.65592 -3.12389 -2.92211 -3.78576 
-2.89733 -1.11858 -2.45081 -2.25095 -3.68065 
5 5
-4.87099 -0.786902 2.95966 3.98759 -0.438077 
-4.62585 0.810656 2.55567 2.21563 -2.20714 
-5.30534 0.552373 1.98804 -1.26471 -5.48095 
-4.81772 0.600537 0.619395 -3.44537 -8.40507 
-3.74269 2.21481 -0.770311 -4.47076 -7.58286 
5 5
-3.29757 -2.00198 -2.74393 -2.02491 -3.04383 
-4.35161 -2.15419 -3.09921 -3.15587 -3.8913 
-5.12546 -3.56965 -4.2712 -4.33461 -5.02734 
-5.59362 -3.54695 -4.19734 -4.74141 -5.7577 
-5.53524 -3.90142 -5.93333 -5.51122 -6.28866 
5 5
-3.69036 -1.55998 -2.9817 -3.21901 -3.962 
-4.25987 -2.53116 -4.63343 -4.17072 -5.02162 
-5.65145 -3.81004 -5.38329 -5.46016 -6.58368 
-5.52161 -4.26115 -6.363 -5.63042 -7.2363 
-6.12221 -5.32172 -6.77078 -7.02994 -7.51624 
5 5
-2.21623 -0.942538 -1.62003 -1.94077 -3.17907 
-1.54484 -0.441627 -1.73328 -2.18475 -3.59234 
-1.47376 0.118521 -1.42403 -2.19332 -2.66502 
-1.79433 -0.00819466 -1.48402 -2.1014 -2.95683 
-1.60105 -1.38908 -3.23587 -2.95754 -3.94397 
1 120
4 36
1096.34 159.106 623.777 1066.33 822.38 -55.0657 375.583 743.117 577.278 75.5355 267.168 1399.39 -682.623 -900.945 -3222.91 -4359.74 -191.869 599.989 -39.7798 -430.034 -592.309 544.54 -910.675 -1720.6 951.7 357.109 641.691 1186.84 1062.04 448.819 696.499 1472.01 375.316 156.124 285.204 855.433 
1183.69 7.52546 672.012 948.114 926.821 -3.13507 495.237 551.155 719.912 -335.795 437.473 1396.11 -1518.05 1071 -1949.15 -2885.48 -596.126 -242.119 -649.838 -214.266 -1082.81 448.81 -1506.62 -680.491 998.954 165.337 501.29 1084.66 1168.36 171.936 516.516 1442.57 498.714 -77.5576 164.124 727.011 
2141.31 1357.12 1382.53 654.851 1650.18 1073.05 1059.51 302.639 1410.3 334.863 510.555 1088.76 -2850.36 736.091 -1971.48 -1940.24 -1315.76 -986.078 182.493 -37.579 -1748.58 275.58 -859.285 -452.956 1655.66 959.844 894.243 934.224 2002.82 1101.77 937.83 1270.44 752.353 194.887 319.399 748.982 
2490.23 1967.18 1527.19 761.661 1818 1616.58 1294.68 445.407 1676.93 603.791 603.124 903.178 -3202.2 -984.636 -963.189 -1799.33 -1054.95 -1279.6 -672.217 -295.171 -1085.57 -774.558 -1248.11 -671.039 2090.38 1338.2 850.664 831.823 2543.45 1514.55 856.091 1128.27 884.281 274.651 278.607 556.585 
0 -0.274795
 4 36
-705.223 -197.245 -137.616 -314.836 -537.283 -159.402 -122.858 -236.501 -392.375 -39.2373 -88.9197 -391.296 751.738 -18.2459 391.165 1423.03 332.986 33.7926 -26.7059 102.768 326.014 -132.517 136.976 550.095 -573.327 -157.504 -117.013 -331.452 -667.357 -162.613 -104.53 -417.701 -224.626 -24.4003 -55.1699 -235.99 
-511.148 -10.5305 -38.6307 -294.659 -359.173 0.954795 -25.0653 -157.999 -251.003 127.018 -94.3342 -490.113 710.246 -463.45 279.442 1303.74 400.833 166.492 6.87103 144.518 292.086 -47.8919 245.837 383.9 -458.764 -15.5831 -43.795 -376.803 -531.627 17.0952 -29.3872 -492.848 -198.254 25.9291 -38.8521 -232.843 
-485.028 -179.818 -90.5906 -99.4044 -364.086 -181.361 -81.6433 15.7407 -253.686 24.3553 -10.3233 -335.097 566.682 -279.591 337.003 1247.32 314.185 208.508 -157.494 -105.545 256.156 -12.6966 102.053 188.191 -397.184 -69.4832 -37.0158 -292.277 -447.563 -34.9304 -16.7849 -407.184 -133.193 35.8771 -27.1455 -259.703 
-565.163 -297.451 -288.675 -353.502 -423.058 -263.126 -259.627 -218.334 -271.773 -105.778 -153.41 -359.671 403.477 150.521 288.491 929.265 346.117 216.281 114.725 65.3341 272.117 178.435 265.58 293.692 -474.107 -203.421 -147.259 -366.294 -546.303 -225.191 -154.596 -484.888 -197.456 -54.1569 -73.9368 -242.336 
0 1.70441
 4 36
943.023 278.09 257.317 306.48 639.072 99.2879 195.161 183.311 519.318 -52.2323 -63.5138 801.471 -916.117 884.617 -1387.98 -3651.01 -32.4528 592.391 433.892 29.699 -360.294 722.494 -327.605 -1181.62 908.121 243.936 113.663 529.692 1040.69 254.643 2.33999 711.641 368.738 81.1996 91.3916 554.763 
669.752 71.8962 768.373 763.2 553.218 148.027 637.66 486.246 422.63 -164.622 430.693 904.084 -905.593 1164.06 -698.661 -2245.78 90.4928 -219.546 -579.424 -237.597 -597.241 -26.141 -1312.84 -548.258 588.428 25.3672 359.125 712.649 659.925 -5.09519 360.15 1001.01 269.541 -134.395 55.117 481.297 
1015.66 573.427 1053.64 743.541 799.997 398.71 730.663 451.873 712.373 117.198 526.363 1014.64 -1242.48 1142.47 -2200.34 -1627.55 -486.551 -112.483 371.337 -365.909 -1097.17 628.405 -807.284 -592.819 803.936 471.904 751.853 878.051 975.834 555.493 809.051 1186.36 408.922 125.152 291.885 628.848 
1750.16 1400.68 1234.5 677.523 1342.7 1203.67 1040.51 406.289 1151.6 379.711 558.137 842.067 -2045.83 -807.648 -1449.48 -1513.36 -953.546 -1366.85 -788.393 -627.922 -1181.28 -1007.12 -1328.21 -505.591 1331.66 894.871 740.089 822.211 1632.89 1019.51 761.662 1124.12 549.736 165.643 295.976 516.91 
0 0.643997
 4 36
111.533 152.588 181.408 -131.946 128.84 128.51 141.605 -69.6441 229.659 -9.96324 -96.0385 -88.6722 -145.828 566.245 211.047 112.175 -337.992 -303.372 -164.135 54.735 -439.26 264.474 20.2066 36.3742 68.8413 85.426 80.9066 -104.97 122.239 138.791 84.7044 -139.623 97.7172 9.75913 -2.44859 -28.7598 
520.037 877.212 783.24 261.377 364.861 704.647 691.865 200.227 546.16 332.426 302.568 146.846 -2224.22 -160.439 -784.538 310.484 -688.529 -834.35 -586.542 -146.317 -859.417 -317.741 -477.722 138.45 456.32 545.787 437.306 182.607 623.069 647.495 474.709 232.319 256.262 142.202 108.963 69.9718 
218.682 677.622 538.547 125.489 37.3471 544.744 431.207 51.0633 303.798 295.381 464.301 96.0738 -2382.61 -1770.18 -1426.04 248.219 80.5524 -667.056 -412.169 -249.749 -157.748 -655.821 -611.495 198.436 386.587 490.375 408.589 161.614 506.691 527.19 440.388 234.811 201.451 158.394 210.063 55.6656 
-428.871 10.7833 -14.893 -154.184 -433.544 3.04865 -61.7508 -161.761 -194.849 61.8248 242.076 -137.051 -253.328 -670.733 -363.063 380.755 467.318 303.171 509.408 118.989 411.951 17.0128 340.432 288.494 -84.8379 74.7601 108.31 -11.9033 -93.2711 57.2679 137.909 -2.61506 -7.3364 60.0211 143.557 -42.4702 
0 0.993486
 4 36
796.032 61.8286 -145.482 165.951 655.277 -53.609 -245.415 44.2781 260.405 75.4691 -369.281 619.222 683.278 -301.77 -1220.47 -4128.22 -231.624 402.424 619.8 468.492 -363.727 370.128 537.065 -1186.02 600.237 157.667 85.4319 502.98 629.131 240.373 58.1733 599.954 205.312 91.793 35.2063 560.369 
903.699 3.37664 462.238 549.736 751.44 -76.8501 394.203 402.177 728.863 -206.859 83.4145 801.462 -1416.77 864.452 269.809 -1194.76 -805.562 -400.747 -968.732 425.422 -1188.21 488.128 -1215.18 -413.223 749.84 204.804 257.738 479.71 902.214 271.195 189.066 639.766 375.077 -92.6174 -70.7251 401.213 
1545.43 840.723 987.528 463.808 1113.6 656.18 829.322 223.384 1065.54 49.8857 390.488 872.137 -2830.08 615.025 -1504.39 -678.314 -850.393 -511.433 155.288 -55.2889 -1308.27 767.807 -1035.05 -272.883 1345.33 676.574 619.627 570.54 1659.55 752.548 606.17 817.293 690.872 160.681 209.058 524.391 
2182.94 1563.08 818.787 41.6937 1678.03 1444.52 761.499 -176.93 1293.04 251.625 193.712 436.308 -2755.11 165.214 -399.921 -1385.61 -1262.42 -1230.87 -191.827 -116.228 -982.715 -589.37 -802.714 -207.866 1709.52 837.033 310.221 401.35 2082.91 874.96 215.842 642.146 627.49 27.8597 62.4585 340.756 
0 -1.89588
 4 36
-273.391 205.133 435.716 501.483 -175.12 111.595 219.524 358.579 -135.608 452.47 271.685 194.124 921.301 -1372.53 -928.661 -737.537 182.994 60.8767 -4.03865 26.6274 44.638 -469.639 263.648 -175.762 -229.464 309.084 534.571 428.6 -298.237 455.708 713.353 459.534 -40.0613 254.679 235.834 172.799 
-30.7347 11.7954 106.446 192.034 17.9694 -124.939 38.9782 169.957 161.541 243.572 -4.42624 62.5032 -300.704 -897.52 417.664 81.3238 -334.675 25.4108 -383.206 328.472 -578.588 146.59 89.4021 -34.2235 -61.6752 266.378 234.954 129.178 -49.1547 421.033 301.989 72.2368 53.2746 140.368 34.8226 54.7735 
483.658 120.362 46.4321 -56.0425 327.448 9.53495 80.176 -10.2736 376.706 -7.21503 -109.294 47.5285 -1265.81 -248.254 -124.849 315.339 -509.539 -156.226 -190.798 283.073 -584.324 409.253 -255.91 62.3382 393.862 271.203 88.253 -97.9187 523.35 342 61.6541 -142.028 266.538 117.076 9.96928 16.0559 
759.538 572.986 184.425 -272.332 592.068 529.842 225.526 -249.95 450.82 51.8949 -90.2431 -167.496 -1592.17 -31.8281 416.824 334.004 -590.843 -521.782 -61.3513 149.284 -396.86 -155.968 32.2552 237.217 555.688 269.692 -45.1264 -209.625 697.87 284.086 -116.993 -225.864 183.641 -13.202 -87.4837 -82.7686 
0 0.687137
 4 36
912.584 424.272 304.386 143.966 672.239 194.963 190.191 80.9283 570.905 70.9017 -273.782 625.028 -400.674 788.452 -1021.2 -3527.86 -216.121 416.967 322.122 313.69 -648.063 699.057 -47.4294 -1069.54 821.092 389.128 184.616 403.84 944.997 486.09 122.187 517.052 379.344 164.389 55.8112 496.47 
1054.34 750.482 1363.77 870.305 836.207 632.434 1163.29 608.527 917.155 220.471 512.379 823.856 -2124.1 422.742 -496.83 -1385.14 -413.588 -772.513 -1280.35 24.4809 -1367.7 -206.687 -1442.97 -307.152 899.681 574.14 691.016 673.669 1085.55 703.609 732.178 916.919 482.386 37.62 51.1519 427.175 
1243.47 971.625 1412.38 738.204 869.928 645.059 1014.64 456.289 1081.45 346.08 723.821 958.2 -3155.13 -261.526 -2664.6 -839.762 -451.519 -472.443 -118.886 -328.902 -1454.64 429.685 -1226.56 -447.155 1149.78 908.008 1064.13 807.001 1443.82 1072.4 1142.34 1069.97 658.455 303.208 394.931 583.092 
1511.26 1380.62 1212.14 411.386 1060.87 1143.7 1022.56 196.847 1154.63 344.835 569.114 644.071 -2436.98 -968.133 -1332.66 -870.595 -517.365 -1180.79 -512.41 -388.879 -821.703 -844.457 -1145.74 -249.612 1343.83 965.502 755.145 608.526 1676.8 1086.95 743.615 864.514 601.97 191.361 307.811 406.875 
0 0.0559404
 4 36
-473.248 -246.994 -151.976 -391.2 -397.225 -266.145 -158.445 -315.527 -146.544 -160.475 -276.032 -201.058 619.936 577.36 -113.514 286.101 296.66 328.591 305.312 225.688 108.98 448.946 211.084 267.973 -323.775 -137.956 -145.733 -250.483 -369.873 -125.523 -165.037 -314.476 -59.8408 -6.6242 -49.9087 -77.9359 
218.993 493.416 421.825 -50.6461 246.771 467.12 428.349 -3.07464 248.013 168.659 -46.1787 -220.101 -476.455 238.582 332.298 569.096 -144.633 -430.995 -299.999 201.31 -496.616 -52.2943 -61.6909 263.622 23.5704 223.918 115.305 -157.732 66.6436 301.182 132.382 -209.564 41.4929 17.0328 -78.6769 -96.1767 
285.552 547.275 610.037 172.951 165.894 364.318 498.405 178.212 443.266 319.343 183.915 -18.4605 -1412.79 -659.967 -543.185 660.506 -140.421 -448.992 -504.096 -38.2163 -511.341 -122.886 -413.934 11.8924 286.418 463.271 351.311 -49.3085 413.324 582.8 378.648 -98.5864 210.833 167.511 50.8655 -62.9867 
-277.295 94.321 266.303 -69.0788 -338.627 -23.494 210.45 -26.0331 132.924 112.781 151.192 -57.6932 -724.373 -627.924 -656.886 742.134 570.917 129.028 -66.6272 -17.072 209.802 -17.1833 -249.602 230.083 -9.42712 211.318 193.728 -118.895 38.7526 257.542 176.135 -154.293 73.2564 74.5495 52.9864 -69.1631 
0 1.98978
 4 36
838.418 275.825 -342.528 -620.717 615.843 53.0825 -338.673 -458.868 506.479 110.362 -670.886 -154.841 -741.205 361.006 507.464 -2608.05 -301.714 300.465 645.426 896.812 -621.341 705.51 990.658 -627.723 801.474 337.388 -189.685 -263.42 917.293 423.407 -322.321 -348.306 390.871 189.901 -93.4045 170.369 
850.93 829.139 1508.15 839.592 688.593 702.389 1355.9 744.753 847.455 264.631 480.083 508.547 -2215.39 724.476 661.892 108.557 -557.175 -720.754 -1447.86 -115.353 -1383.09 -21.5343 -1600.2 -318.813 783.199 589.09 668.84 370.059 953.496 704.942 657.482 529.986 414.174 51.4929 -2.52838 192.754 
710.581 924.934 1756.71 1286.9 434.437 667.833 1323.63 891.879 678.09 394.62 1172.46 1173.46 -2518.63 -537.321 -3730.98 -572.213 -16.2944 -182.69 -323.811 -1082.96 -991.304 264.068 -1937.36 -532.479 786.703 815.379 1273.07 1075.84 977.924 953.534 1391.26 1441.35 508.242 325.201 531.687 581.725 
1165.17 1161.64 1017.94 605.82 911.566 1073.54 773.156 243.982 696.639 364.665 801.461 746.707 -1670.74 -1070.47 -2354.92 -1987.03 -833.341 -929.67 -162.687 -764.517 -823.059 -826.132 -1034.98 -429.522 930.471 736.173 812.262 962.183 1138.34 803.88 894.224 1312.51 379.035 175.199 443.273 504.108 
0 -1.11494
 4 36
-606.53 -597.255 -398.754 -43.815 -479.945 -528.606 -393.186 -24.9198 -435.981 78.5732 -13.1278 -246.703 905.146 -1790.84 -618.149 -87.1641 585.879 522.774 441.994 200.952 617.285 -120.529 697.582 2.14883 -429.921 -199.734 1.29554 -31.262 -559.7 -211.678 48.7818 -107.773 -173.265 64.6171 64.9454 -46.5968 
-611.462 -770.627 -411.261 146.841 -413.776 -640.736 -334.255 222.88 -489.434 -297.221 -152.671 -25.1374 1493.31 260.296 796.194 217.616 294.44 813.503 297.575 -116.925 352.181 629.844 45.4706 -373.788 -522.241 -424.148 -194.343 -53.872 -657.602 -462.56 -210.251 -111.127 -215.652 -84.144 -39.6304 -63.6124 
294.218 171.678 340.176 575.678 353.21 202.736 385.781 489.306 33.1828 46.8696 86.285 299.516 774.811 768.211 -624.252 -423.954 -562.642 -135.077 -215.547 -304.488 -279.138 90.0805 -478.823 -178.14 -25.402 1.66922 87.2729 262.981 -33.5922 49.7496 120.423 339.999 -34.0893 -3.92832 2.96064 79.243 
570.309 454.415 227.583 206.196 481.931 398.829 137.881 28.7517 275.302 275.558 197.273 166.995 -479.94 -344.563 -758.82 -776.064 -655.251 -117.397 -7.23527 -84.1741 -290.338 -96.762 -79.2061 27.8522 321.384 237.416 145.133 305.92 388.97 277.723 184.338 391.362 60.3001 40.0593 52.6412 134.932 
0 0.561473
 4 36
1023.69 43.4275 224.394 771.527 791.556 -116.454 48.4066 484.755 450.305 -95.9478 54.1492 1274.93 289.12 -25.7133 -2513.72 -4148.42 -234.275 513.16 170.84 -298.443 -416.911 627.651 -428.379 -1477.47 867.3 184.131 364.96 1058.37 959.847 234.089 405.233 1315.63 321.574 58.6937 202.7 830.196 
1749.95 438.913 589.718 842.39 1421.68 368.256 476.125 465.459 998.817 -292.144 261.915 1378.58 -1603.64 1339.71 -1144.02 -2627.45 -1262.65 -772.34 -724.878 -11.5326 -1408.05 476.873 -1230.68 -589.033 1289.55 315.311 378.732 1047.5 1536.73 329.479 376.098 1369.19 565.746 -76.3104 90.4333 712.342 
2340.3 1477.88 1198.56 398.393 1703.99 1169.83 943.747 62.5498 1592.31 419.124 296.765 972.245 -3379.08 352.885 -1333.4 -1803.91 -1227.27 -1045.86 211.847 318.43 -1687.99 291.552 -658.846 -298.832 1939.32 1017.96 699.617 736.868 2338.23 1131.84 689.405 1005.07 847.738 189.411 178.966 690.52 
2198.64 1426.58 973.766 434.353 1568.57 1161.16 867.681 216.372 1440.39 426.654 269.186 748.547 -2686.27 71.9646 -181.045 -1526.74 -680.956 -571.284 -197.202 54.9765 -575.712 -150.061 -973.123 -619.894 1978.61 1072.33 483.143 568.256 2382.37 1198.37 407.431 799.985 863.415 233.12 107.324 491.272 
0 -0.1453
 4 36
332.441 694.84 1237.79 1353.96 198.902 539.241 958.602 1037.32 344.547 615.132 1104.56 748.115 -1695.4 -1706.07 -1880.69 -468.381 34.9427 -222.853 -744.723 -956.051 -212.255 -766.02 -1222.83 -515.946 365.391 626.577 972.496 918.887 453.762 742.76 1163.11 1127.71 203.408 316.142 468.166 296.625 
-477.246 -455.247 -180.045 323.904 -437.293 -433.076 -306.86 135.487 -395.458 88.2533 323.392 333.976 197.506 -949.61 -1777.84 -1737.98 555.21 705.424 526.091 -551.833 486.581 -241.853 92.7086 -369.573 -241.161 -124.908 198.444 493.797 -325.625 -135.213 304.884 590.183 -88.8109 113.276 280.609 243.533 
-209.346 -586.423 -609.881 -57.9174 -59.8582 -475.799 -542.83 -45.6011 -434.271 -303.143 -168.304 42.2354 1465.58 616.389 -283.229 -1123.18 -208.606 319.098 352.381 -27.3698 264.746 5.20645 306.453 -118.324 -362.321 -390.569 -260.638 142.114 -479.838 -455.098 -269.628 186.832 -226.295 -103.217 26.7442 101.863 
632.372 468.191 356.773 465.25 608.934 453.657 309.85 384.801 152.544 119.968 198.687 205.315 -612.598 -843.932 -231.568 -436.177 -925.755 -872.201 -606.414 -401.344 -860.75 -695.483 -84.5965 -206.946 202.246 146.389 187.472 291.187 216.52 182.604 272.839 351.162 8.52503 51.1339 107.903 90.0588 
0 1.44385
 4 36
-263.851 159.421 123.18 -135.947 -197.966 135.235 152.409 -67.8811 -159.368 131.047 -1.92191 -196.17 408.892 674.694 1230.14 598.021 253.169 47.7798 -150.214 16.6274 18.9267 -77.0198 196.525 84.7442 -174.226 58.0592 -22.2379 -193.814 -211.955 82.9309 -52.8376 -230.194 -84.4529 25.337 -50.0818 -111.899 
-571.525 -115.953 229.275 -8.5074 -452.5 -132.557 114.027 -14.3765 -184.95 164.686 199.808 -129.753 241.49 -449.058 605.544 848.585 571.584 210.757 -269.668 -21.6022 82.5953 -99.6125 -75.418 294.917 -345.793 29.0033 182.918 -73.0846 -415.209 64.9686 224.22 -86.3945 -99.5063 39.2095 49.0784 -86.2999 
-681.642 -476.041 -118.549 -195.493 -528.081 -468.751 -191.579 -136.24 -329.14 -107.199 21.3278 -139.839 802.474 169.292 189.61 1100.95 655.861 803.805 433.595 14.9357 229.825 646.219 335.495 229.818 -484.077 -145.848 88.9895 -112.246 -565.172 -134.27 116.54 -151.475 -132.891 13.6722 53.0616 -63.0887 
-145.644 -138.241 -178.588 -410.287 -12.5093 -55.461 -87.414 -275.582 -151.235 -186.495 -250.327 -311.394 524.092 412.932 909.934 970.424 -10.8047 -78.8909 -43.6479 45.5522 -157.395 91.581 118.721 222.777 -265.873 -121.081 -137.861 -312.388 -296.532 -128.32 -177.563 -377.425 -125.888 -79.9725 -88.3979 -162.885 
0 -0.313385
 4 36
-369.994 -299.138 -212.967 -245.056 -341.936 -273.477 -150.595 -167.452 -154.315 -102.498 -172.319 -173.23 275.024 43.887 -25.1181 -42.2513 370.173 410.962 346.188 236.064 297.375 253.413 246.241 98.5902 -210.925 -144.213 -164.931 -186.89 -257.92 -181.082 -202.808 -233.244 -51.7709 -1.3687 -52.1222 -74.6887 
-231.69 -120.212 32.3794 19.1334 -139.982 -27.025 77.6745 52.7402 -169.257 -8.31891 -95.1412 -160.503 725.402 117.89 743.063 28.0407 360.551 226.852 91.277 79.7191 104.022 39.6726 168.331 -54.2349 -248.184 -138.671 -94.5857 -130.768 -321.806 -138.218 -83.7057 -165.518 -82.6799 -43.4055 -99.1114 -93.9254 
90.4382 88.6919 277.299 288.378 145.27 29.7336 231.072 289.239 137.75 128.727 -6.9672 82.7955 140.477 249.389 -145.94 -71.1862 -224.77 -53.2466 -304.098 9.87589 -406.59 58.8514 -142.782 -197.59 -68.3031 86.5845 140.875 65.251 -60.9143 164.188 178.415 43.0513 4.85421 46.9468 -21.9603 2.00074 
-64.1872 76.124 311.434 227.544 -113.574 -46.5041 235.124 189.689 155.989 141.726 168.97 158.208 -242.288 -566.949 -649.154 212.073 162.78 -32.7947 -279.04 -73.0061 -53.7931 -128.187 -325.711 52.6899 -3.44563 179.251 229 128.095 28.9324 246.448 245.774 147.224 48.2409 75.8302 66.6396 64.2574 
0 1.02183
 4 36
1020.31 87.2794 -327.208 -256.733 784.044 -45.692 -298.63 -220.712 539.499 -144.015 -704.286 381.207 132.952 875.453 -233.807 -3565.4 -419.114 453.841 667.77 645.401 -582.637 890.094 567.046 -1006.96 835.881 149.522 -208.572 140.938 937.268 185.81 -315.309 168.363 346.839 35.6383 -142.89 388.32 
1512.25 742.945 963.479 671.897 1196.02 619.803 904.088 489.526 1115.51 38.6449 113.974 745.407 -1975.7 952.245 952.447 -1251.98 -1036.39 -958.548 -1120.47 371.191 -1567.49 120.241 -925.609 -414.893 1171.04 518.846 354.915 469.321 1402.89 618.814 322.016 633.617 585.743 -18.5517 -143.818 320.043 
1576.88 1137.56 1325.54 607.749 1094.16 816.462 1041.57 342.193 1367.15 432.404 423.16 869.574 -3691.29 -189.029 -1396.52 -1067.02 -758.972 -757.412 -303.731 129.838 -1664.9 385.688 -1019.66 -495.831 1433.38 962.816 858.344 627.471 1767.24 1115.78 886.417 816.165 756.412 256.515 202.051 533.685 
1226.14 927.159 982.017 474.492 754.87 686.267 861.367 252.637 1036.2 273.047 396.227 713.246 -1941.28 -328.594 -958.146 -1127.12 -89.086 -436.97 -234.246 -65.858 -287.119 -259.984 -1082.54 -407.076 1298.01 820.007 565.745 570.014 1599.5 926.62 501.059 803.719 645.895 177.469 181.347 446.901 
0 -2.24957
 4 36
-226.078 -146.814 33.5868 56.9286 -165.864 -94.3426 22.2291 17.5545 -163.279 -66.9208 79.5729 60.2664 277.076 -91.2608 -396.066 11.2178 103.01 36.5249 10.5031 -76.121 166.502 -73.0079 -160.182 32.3459 -204.315 -128.513 25.0687 52.7969 -241.819 -145.368 28.6501 77.0104 -105.788 -52.9315 26.9137 17.7623 
-360.906 -353.604 -287.99 -198.809 -274.727 -291.001 -257.36 -159.57 -243.528 -150.499 -81.3036 -102.007 474.753 80.5551 -341.444 5.57519 283.277 278.152 237.947 83.1748 357.719 89.3817 32.9563 91.0064 -270.05 -220.918 -138.161 -116.483 -322.228 -255.583 -161.947 -135.719 -130.213 -72.8399 -10.3283 -17.2859 
-154.183 -205.355 -253.978 -187.973 -82.4404 -134.27 -182.365 -126.925 -173.634 -169.759 -107.907 -143.417 458.564 456.776 403.602 324.148 -70.2348 23.3805 170.097 62.7836 155.282 72.3741 207 124.581 -163.249 -182.947 -193.855 -148.995 -188.896 -214.929 -212.546 -168.991 -85.5852 -68.1762 -48.846 -79.3033 
103.131 120.61 -80.1167 -215.715 113.394 143.775 -49.8497 -163.966 33.2799 -23.2905 -106.117 -176.609 -267.119 108.28 307.585 341.865 -226.903 -264.761 -42.7243 61.9972 -170.694 -129.892 132.682 204.555 -3.35691 -38.3874 -116.347 -171.364 5.91664 -57.5874 -128.469 -208.539 -52.093 -64.6366 -59.7261 -99.2749 
0 1.15592
 4 36
2243.61 1009.94 569.274 802.362 1704.84 725.862 461.478 640.107 1291.64 354.369 95.6188 991.16 -2433.49 -223.21 -811.472 -4070.91 -1085.8 -181.334 -194.272 -100.273 -1237.73 239.722 -457.597 -1618.67 1849.23 828.931 451.939 836.33 2156.69 933.158 441.066 1037.68 753.551 255.305 133.34 633.672 
1708.77 704.422 1028.35 1229.78 1193.32 520.009 811.843 799.76 1094.92 156.275 591.092 1395.66 -2623.26 238.87 -832.309 -2969.91 -1111.45 -770.451 -883.368 -494.259 -1324.15 -292.466 -1185.39 -1016.11 1566.57 602.679 639.598 1157.64 1825.58 645.486 675.123 1516.97 736.874 129.64 169.15 647.286 
1351.82 597.287 747.627 707.287 963.206 431.755 464.081 316.887 858.639 190.494 473.407 1178.87 -2350.18 -111.761 -2036.82 -3051.98 -574.25 -319.721 207.26 -153.817 -1066.92 94.5654 -838.105 -797.172 1189.05 540.604 689.913 1082.68 1353.09 564.509 727.443 1433.96 521.722 121.916 323.572 811.597 
1689.71 953.912 1055.96 1219.45 1279.4 805.703 894.355 826.151 880.165 275.145 597.216 1204.24 -1226.89 -435.47 -1154.95 -2808.97 -923.046 -746.862 -413.549 -454.508 -818.999 -545.716 -1095.34 -1120.99 1394.31 739.228 715.952 1193.65 1625.43 843.084 778.573 1575.54 630.072 237.724 362.344 745.189 
0 -3.08814
 4 36
-172.294 -101.766 208.371 44.4286 -134.225 -140.77 118.954 15.5358 109.793 -117.616 -33.4897 187.547 329.825 443.218 -797.908 -168.27 -5.78389 81.6781 -25.8162 -151.476 -224.143 480.246 -201.958 -29.6809 -97.9036 -14.8237 139.77 117.547 -86.1004 34.2419 183.881 137.758 55.8582 1.45993 54.0692 94.7869 
848.742 882.346 581.71 128.369 707.826 754.417 533.964 50.7951 650.171 200.485 94.4518 170.826 -1840.69 331.246 -447.278 -196.684 -822.357 -894.612 -332.313 121.844 -1025.48 -2.23817 -114.252 202.181 526.407 486.836 307.446 191.407 703.106 591.97 354.402 223.951 286.541 93.796 45.6142 112.861 
835.756 1104.36 789.04 76.4871 517.722 848.764 675.587 29.7299 850.496 487.682 225.044 50.6353 -2982.17 -1358.16 -688.333 198.363 -464.468 -1031.4 -595.78 164.263 -771.669 -525.017 -422.142 157.882 822.375 793.565 429.092 28.9174 1061.88 911.905 443.481 20.342 410.901 205.93 81.2176 42.9526 
-278.65 152.583 308.622 3.36862 -432.727 -5.32314 239.864 17.5767 167.764 185.553 246.541 6.77659 -977.105 -830.083 -543.398 640.235 879.091 525.108 203.017 148.678 560.88 193.379 -71.5552 161.602 207.077 340.419 223.531 -58.1214 287.547 383.831 204.043 -80.2912 206.792 143.332 85.6549 -16.7811 
0 1.56801
 4 36
1280.55 -62.3751 -460.646 276.081 822.22 -178.696 -341.833 162.111 543.811 -211.418 -143.533 805.29 -1048.34 476.963 -733.108 -3816.19 -141.225 812.089 763.455 -22.5395 0.713216 671.953 108.72 -1320.49 1275.41 90.3663 -239.583 570.751 1421.89 -41.6087 -368.389 753.637 458.297 13.2765 0.609653 558.667 
1376.98 -68.0412 19.2069 885.927 1137.82 102.425 22.3525 544.985 349.109 -427.083 50.7173 1173.34 814.929 1776.74 1176.97 -3422.56 -553.302 -8.84885 162.888 -444.624 -380.505 268.97 -374.477 -1270.79 939.153 -263.216 -141.581 882.316 966.942 -432.068 -160.13 1177.42 304.903 -188.754 -66.9137 524.21 
1508.48 433.93 626.01 926.223 1250.26 311.318 403.576 529.017 856.198 268.666 -56.2913 1201.34 254.686 2116.73 -413.709 -3668.75 -992.706 102.74 501.676 191.574 -1269.24 633.231 -153.891 -1133.18 983.784 250.648 334.154 1020.32 1061.26 293.779 358.075 1285.48 320.541 -8.43424 -26.3022 768.724 
1727.5 550.23 943.519 1528.5 1321.04 330.633 802.771 1125.87 953.205 343.748 373.943 1516.73 -470.307 497.755 -1118.56 -3098.86 -846.547 -125.086 -656.704 -448.262 -748.598 -18.6147 -1588.03 -1454.85 1323.95 677.677 621.044 1303.05 1521.2 841.826 648.231 1671.3 657.565 305.31 202.127 886.907 
0 -2.59141
 4 36
-88.9716 -335.764 -5.30516 201.359 -141.952 -241.969 74.2608 127.131 -71.4708 -399.154 336.729 290.616 -326.212 770.387 -559.673 751.253 146.524 93.9446 -233.805 -618.223 351.118 195.438 -863.817 81.7658 12.5495 -325.294 -108.695 162.083 24.9847 -479.2 -162.882 281.459 -39.6693 -212.682 38.4619 48.3429 
72.2251 -145.349 -393.653 -129.207 77.7844 26.224 -359.886 -230.555 -354.133 -322.842 43.9808 178.557 817.499 751.171 -1318.06 -1039.16 177.459 55.9532 761.413 -614.994 604.297 -151.704 90.4429 -116.82 -45.3756 -387.776 -225.483 199.051 -100.822 -568.012 -219.768 312.052 -136.977 -128.089 115.516 126.127 
-17.2969 65.1535 -236.074 -127.777 61.6837 140.872 -239.812 -163.2 -174.122 78.5854 -146.542 -123.848 1323.02 223.81 510.78 -848.87 -64.3888 -180.69 304.099 72.0005 336.051 -654.391 667.519 40.5148 -138.452 -187.183 -244.991 55.2411 -227.233 -247.434 -247.708 72.5367 -235.712 -133.955 -96.354 2.34881 
-353.218 -407.576 -212.913 269.706 -283.679 -427.839 -233.004 283.58 -258.335 71.663 -13.8332 121.421 1007.07 -131.618 300.555 147.096 324.445 549.378 37.2701 88.5109 285.519 228.697 125.645 -160.703 -242.035 -105.073 -21.5918 102.747 -336.054 -85.6779 36.0213 64.8944 -47.7818 100.491 18.4086 53.5745 
0 0.435648
 4 36
621.728 -280.261 -616.621 -584.629 400.803 -338.759 -452.151 -410.187 278.657 -291.389 -600.192 -104.053 -1023.85 329.453 344.481 -1729.87 -41.7664 604.952 618.912 578.981 -188.643 844.784 473.351 -571.074 630.507 -100.794 -467.786 -326.609 704.872 -182.888 -683.534 -379.759 229.537 -55.8335 -205.214 74.9345 
293.745 -66.0537 639.97 582.211 236.169 71.8895 615.081 515.996 127.949 -276.353 265.721 463.077 -103.799 1270.77 380.627 -499.201 271.115 82.0587 -464.307 -421.843 -145.381 185.306 -1149.69 -538.071 324.068 -148.136 141.399 246.719 326.763 -242.376 79.7648 425.147 138.396 -164.334 -50.9091 143.575 
441.993 614.578 1362.51 1205.32 410.212 515.334 1025.38 858.341 332.337 313.679 810.167 980.751 -80.205 705.323 -2211.81 -1333.85 -149.679 -47.4587 -41.8018 -888.807 -659.655 90.8608 -1044.28 -684.695 291.91 372.359 867.162 989.068 325.634 465.936 995.853 1309.85 152.474 118.763 328.145 499.984 
791.759 738.149 933.109 890.59 605.143 587.353 668.482 534.562 564.349 404.206 694.144 877.83 -363.781 -887.549 -2055.14 -2136.72 -456.605 -459.713 -375.473 -621.064 -573.284 -523.083 -1058.71 -653.162 613.015 597.825 784.9 1026.64 744.583 706.144 905.672 1328.69 292.116 192.22 386.182 545.648 
0 -1.79994
 4 36
-496.728 -342.61 -93.8094 51.1205 -413.135 -340.542 -145.263 23.9485 -231.75 80.2575 -58.6269 13.9355 1003.78 -714.234 -721.371 -774.441 512.311 529.564 447.513 242.022 349.175 141.762 473.883 -88.1801 -333.479 -63.6683 91.4272 95.9844 -418.731 -17.6845 141.57 67.7185 -70.5663 101.863 77.3179 78.0952 
-183.986 -302.767 -101.289 71.9035 -63.5883 -251.658 -40.3143 104.465 -76.6453 -68.0986 -189.855 -33.9923 392.712 188.4 742.435 -93.9184 43.485 239.496 -38.5362 295.679 -219.366 386.854 67.5682 -104.619 -243.432 -112.281 -68.1875 -50.6223 -284.598 -56.7755 -62.2324 -110.013 -54.8981 -39.1787 -103.287 -13.9004 
495.163 284.713 361.759 257.077 418.343 198.652 390.278 254.028 391.459 66.7749 -54.0056 160.017 -715.877 263.22 -514.718 62.5824 -592.736 -312.863 -382.132 108.377 -635.426 250.866 -461.054 -70.8071 282.558 235.456 128.329 34.3501 394.277 323.256 124.748 32.9319 187.724 75.7756 -30.6747 45.2761 
510.043 603.261 487.419 50.0763 334.907 472.588 424.504 -28.5765 475.183 232.383 183.406 55.928 -1301.76 -803.515 -684.619 327.023 -242.206 -382.963 -286.033 -8.00627 -304.937 -337.103 -308.199 301.469 435.179 383.197 200.187 60.1017 568.134 443.466 179.811 96.2759 165.099 46.6046 21.2345 33.8211 
0 0.879488
 4 36
1348.63 623.082 -392.768 -602 1021.92 406.34 -318.533 -409.347 742.115 255.116 -754.996 -239.463 -1248.72 362.393 1464.02 -2771.99 -674.01 4.21074 672.819 1069.21 -832.127 417.726 1230.39 -684.309 1154.65 514.688 -276.582 -310.003 1330.33 596.156 -425.18 -411.497 501.716 218.862 -177.169 118.384 
951.809 780.873 1291.36 887.405 700.726 608.802 1159.21 795.973 890.394 373.33 380.207 503.986 -2201.86 184.799 1576.74 -153.596 -683.578 -737.325 -1383.19 -46.673 -1311.29 -254.099 -1189.7 -556.409 929.301 619.734 552.052 343.819 1097.25 736.884 528.077 474.565 472.226 108.615 -66.9148 153.719 
442.338 369.089 1170.36 1145.33 231.059 202.295 843.526 801.1 456.627 189.84 868.957 1134.2 -2006.3 -383.214 -2916.53 -1204.33 144.401 238.303 -189.387 -862.844 -751.25 487.695 -1624.53 -758.737 580.407 487.654 956.773 982.101 685.943 562.655 1040.1 1296.31 403.171 231.827 411.64 576.579 
1024.17 723.869 760.221 719.854 842.167 717.962 605.129 359.647 484.939 140.121 603.039 843.245 -796.084 -325.876 -1991.22 -2394.85 -856.91 -763.879 -153.431 -707.643 -747.721 -641.878 -1017 -637.736 747.141 439.182 607.364 990.199 888.009 469.189 661.454 1353.72 306.792 95.3292 362.307 560.266 
0 -2.00874
 4 36
132.844 104.059 44.9624 -234.536 97.2714 121.165 92.6871 -167.476 146.816 -176.811 -1.4848 -144.483 -831.257 799.441 350.695 981.889 -233.287 -338.391 -252.739 -109.335 -221.961 121.539 -398.976 298.193 95.651 -62.8854 -125.534 -248.494 160.374 -102.042 -199.03 -259.779 35.2555 -114.031 -59.5905 -123.441 
-40.3078 286.78 238.072 -111.833 -83.1052 285.341 208.908 -96.1788 -3.50523 31.5697 201.18 -82.0976 -809.299 187.732 -1368.02 474.614 124.88 -295.021 14.2986 -367.862 190.009 -340.888 -397.568 204.811 53.9633 56.5348 109.599 -49.5637 94.4719 6.86618 96.163 -3.9152 -14.5887 -6.01059 99.631 -18.6758 
-546.751 -3.46398 24.7734 -22.0912 -451.343 62.455 -28.4796 -43.4979 -394.098 -14.4776 314.749 -99.7689 231.068 -710.662 -771.79 323.609 556.963 -11.4297 68.62 -459.589 646.701 -568.278 -60.6506 185.644 -322.232 -101.596 55.0542 53.5339 -397.054 -161.752 82.2273 111.474 -186.292 -31.8001 124.34 -61.6151 
-615.62 -262.185 -221.902 -83.8331 -445.426 -177.63 -263.11 -56.0214 -428.969 -49.2793 102.377 -146.329 702.539 -397.64 -271.059 169.385 288.142 136.404 180.867 -111.632 164.256 -99.913 280.073 97.3099 -477.495 -207.813 5.54839 -7.52341 -589.985 -253.096 85.6735 -30.0884 -206.215 -12.9921 105.464 -74.7161 
0 1.16569
 4 36
1701.52 685.827 -355.17 -228.364 1266.04 502.351 -231.803 -117.612 871.318 184.536 -410.814 12.7254 -1956.19 277.151 1466.17 -2125.96 -883.148 -214.464 273.168 518.095 -772.085 168.04 664.139 -728.269 1452.24 515.52 -242.34 -62.9526 1686.53 514.252 -369.72 -77.0709 563.445 144.516 -134.618 158.135 
1225.53 684.138 792.677 899.263 873.707 566.636 685.701 712.779 717.325 220.093 351.049 741.386 -1348.23 259.521 1129.96 -1051.25 -837.496 -597.674 -740.754 -476.942 -807.172 -312.697 -732.472 -842.84 1105.63 430.71 337.815 579.871 1253.61 420.596 326.515 778.698 451.577 97.0579 21.9071 259.781 
366.693 61.8536 526.802 926.224 217.022 15.0277 289.161 570.011 186.397 154.155 500.837 1022.73 -396.392 -9.85598 -1693.04 -2332.55 190.809 467.595 185.899 -579.842 -277.818 208.217 -826.265 -859.604 418.231 134.308 522.222 965.207 390.056 114.83 579.733 1250.82 170.451 71.5163 243.345 586.414 
750.138 41.826 345.581 1082.71 675.352 92.2612 249.377 728.079 119.065 34.72 397.055 1057.15 709.8 496.981 -1274.92 -3033.48 -687.614 -12.687 -20.8533 -582.341 -403.151 -57.0221 -841.255 -1170.37 488.602 132.555 416.774 1119.09 499.066 153.83 503.197 1461.27 236.924 138.721 290.814 663.07 
0 -3.11464
 4 36
599.353 860.687 4.54047 -274.001 495.261 764.096 72.4227 -121.497 337.524 543.062 -303.338 -601.749 -803.251 -280.379 2175.59 -4.35963 -613.467 -580.488 0.567969 679.702 -406.914 -713.697 707.328 233.273 401.581 545.412 -101.235 -407.098 475.404 635.889 -97.6708 -553.029 181.984 246.118 -164.341 -291.322 
-79.122 432.868 395.913 187.708 -138.112 221.158 316.974 291.212 196.035 735.223 16.2045 -441.37 -317.658 -1724.94 2122.3 720.881 -60.5411 -58.607 -430.247 262.18 -206.609 -656.344 574.197 -181.226 49.6364 494.845 199.273 -276.087 36.2637 666.571 249.179 -411.091 76.8377 293.37 -92.8198 -266.394 
-929.895 -996.881 -573.412 199.293 -741.436 -952.374 -552.727 293.517 -522.132 -190.609 -72.9571 -49.599 580.051 -391.868 478.603 -98.6858 611.345 1026.56 -173.439 -192.771 426.226 449.673 -78.3083 -542.048 -646.87 -369.196 -93.1239 -71.6959 -800.318 -376.47 -69.2808 -182.33 -167.079 44.7894 11.598 -110.728 
-568.358 -713.828 -314.18 233.989 -354.363 -571.414 -242.286 228.825 -498.435 -391.961 -100.496 131.486 1305.66 746.806 -234.871 -742.042 -98.6062 7.88748 -57.3042 -316.032 66.2175 14.9919 -68.2724 -356.881 -618.242 -522.636 -148.697 104.42 -759.287 -601.466 -143.264 134.048 -255.89 -127.594 5.31349 41.5502 
0 1.29244
 4 36
1022.47 14.6412 -383.641 -182.645 812.304 -76.3824 -352.918 -163.588 411.78 -98.3141 -568.523 327.929 -304.362 42.0537 -309.909 -3239.28 -430.993 327.659 553.064 579.174 -529.326 602.733 530.915 -998.089 805.371 88.0732 -191.36 135.182 889.726 107.024 -313.373 161.762 275.63 7.5884 -118.775 365.759 
899.142 85.1195 580.752 572.975 701.389 56.6184 534.619 455.708 661.076 -246.56 155.432 737.059 -1398.89 1125.03 347.116 -868.056 -625.22 -394.351 -858.225 126.383 -931.709 374.446 -1231.83 -466.879 811.555 148.954 226.309 404.179 957.751 149.435 138.535 587.108 385.823 -110.338 -71.5524 318.031 
1156.67 827.787 1164.54 715.289 845.47 682.568 934.253 421.556 826.89 165.327 593.049 931.211 -2083.24 508.981 -1653.33 -1050.95 -514.194 -397.989 84.669 -376.871 -1005.71 440.811 -1041.03 -450.481 1030.6 592.848 735.016 750.113 1244.16 659.952 771.464 1044.21 520.145 136.368 273.232 542.094 
1555.16 1149.62 821.338 404.198 1179.87 1034.76 690.98 122.787 956.567 274.641 389.372 647.92 -1564.82 -109.676 -1021.88 -1998.08 -821.689 -800.895 -177.811 -303.061 -672.04 -467.976 -898.358 -518.662 1276.48 701.857 477.301 682.704 1544.13 753.16 468.52 960.209 507.359 80.4327 195.17 448.74 
0 -0.842164
 4 36
-299.14 -12.7852 -30.4316 -71.2612 -248.406 5.31767 -10.5131 -28.3426 -162.828 141.795 12.2259 -245.544 163.634 -394.156 389.659 295.601 258.204 115.604 166.883 193.712 255.992 -213.172 315.858 187.582 -209.78 24.8118 -12.1226 -140.929 -252.097 32.8599 -4.60138 -193.999 -67.6285 75.4818 5.23375 -122.893 
-562.83 -282.04 -114.654 -4.05878 -423.652 -237.045 -96.9927 65.5566 -334.733 99.2987 -52.1651 -261.972 883.731 -543.421 725.774 297.745 502.023 441.516 117.292 35.2163 373.615 -79.3618 269.252 -58.3773 -435.536 -136.266 -72.7185 -176.712 -542.015 -115.785 -52.2358 -250.228 -175.934 21.8293 -39.3434 -134.686 
-417.729 -441.06 -215.837 139.685 -253.991 -388.326 -167.273 191.764 -307.554 -115.545 -80.8636 -33.2714 997.768 261.889 63.2478 78.8701 79.6957 375.435 -80.6171 -81.3537 126.423 200.099 3.68368 -116.466 -439.105 -245.462 -104.107 -33.8752 -524.424 -236.088 -84.6405 -70.07 -164.135 -17.1107 -34.6029 -73.2329 
-88.8924 -78.8291 -35.6896 9.29498 -15.4404 -61.0719 -33.6368 6.53241 -83.8619 -27.8858 -14.574 -29.1358 170.598 -84.5326 -167.133 146.961 -216.409 -183.888 -132.669 -59.8526 -200.532 -140.703 33.1854 149.969 -214.051 -105.079 -19.3073 3.22762 -245.926 -102.573 -3.69044 0.499993 -120.521 -35.9987 -3.52148 -22.9711 
0 2.07527
 4 36
426.472 182.999 64.1507 161.266 192.851 -45.0884 -0.0386998 127.85 341.058 188.784 -75.8523 324.053 -499.785 -210.021 -688.895 -2078.19 232.776 718.888 466.479 166.015 -67.6189 430.847 229.429 -664.699 585.421 377.338 148.531 292.522 652.691 422.036 156.304 339.839 323.479 264.829 102.965 278.264 
830.217 530.495 831.001 843.832 718.574 513.752 719.022 628.58 469.821 251.136 234.195 546.583 -52.2666 214.792 1094.07 -1446.09 -211.431 -173.984 -517.987 -174.041 -840.554 -64.3282 -308.688 -618.258 527.532 322.028 372.317 544.406 564.82 403.154 466.772 672.919 275.482 80.0181 -12.664 232.241 
1057.95 608.309 1065.17 990.733 828.962 302.373 742.064 735.55 883.098 489.831 281.955 871.866 -1157.66 398.79 -1530.11 -1655.84 -654.505 -54.9702 -334.115 -101.69 -1437.16 443.58 -798.56 -817.785 728.703 648.238 773.708 752.656 871.854 841.961 860.264 882.041 404.608 247.454 158.148 475.894 
972.334 653.543 1118.18 1095.82 648.826 370.729 913.555 825.578 802.474 373.553 577.22 1004.44 -1268.66 -767.616 -1709.56 -1325.94 -242.866 -310.17 -665.123 -497.134 -518.566 -303.672 -1336.49 -728.248 858.968 751.861 793.928 872.554 1049.58 933.557 830.747 1111.41 493.01 312.422 285.222 537.07 
0 -2.75612
 4 36
-282.492 -572.053 -606.383 -444.621 -256.557 -432.14 -411.892 -311.816 -230.495 -355.085 -251.464 -322.211 307.986 301.754 624.17 589.664 265.577 323.91 349.171 185.905 441.226 316.185 349.914 235.945 -187.305 -405.823 -446.044 -364.521 -231.502 -536.661 -547.443 -436.282 -109.485 -177.196 -157.801 -175.653 
-189.91 -284.36 -325.973 -66.7141 -119.428 -128.422 -208.343 -2.68708 -349.383 -268.68 -154.325 -98.9537 1251.26 590.517 576.597 43.5389 286.21 300.229 430.141 -213.319 554.353 161.015 195.381 -190.987 -227.544 -374.388 -319.015 -148.113 -310.701 -489.942 -357.533 -163.86 -156.525 -125.898 -79.3128 -102.88 
-121.734 43.2127 89.3927 268.99 -8.65724 108.477 119.876 215.679 -127.459 119.636 -33.2211 50.2734 1126.07 270.515 281.787 -515.351 -77.9103 -80.3603 -114.086 -54.7088 94.502 -313.022 154.461 -126.629 -232.118 -137.998 -91.5439 112.317 -312.683 -141.355 -59.4118 129.532 -182.75 -66.8385 -87.9184 -7.81245 
-423.911 -405.57 -135.447 220.608 -355.832 -435.445 -177.686 159.947 -207.962 98.4521 37.826 152.968 885.08 -68.9761 -219.506 -203.749 310.806 574.664 113.952 148.27 279.95 300.611 73.1443 -26.1065 -290.217 -106.426 22.1831 176.869 -366.846 -78.7973 68.1871 184.094 -76.7815 58.1402 22.8399 98.8168 
0 0.213868
 4 36
-103.969 148.792 220.663 -90.3551 -47.2713 87.9503 178.215 -64.5854 -26.9774 -79.037 -8.05387 116.993 376.017 1217.51 253.446 604.499 250.881 -110.02 -382.496 -273.021 -227.445 232.591 -407.512 46.1157 -94.3144 3.5431 40.738 -34.5171 -84.9385 43.8366 10.4232 2.05038 -59.4169 -71.0979 -20.4915 40.8471 
-232.487 68.6163 382.037 -86.7032 -230.177 60.2254 284.241 -151.592 76.7534 -53.9741 254.978 121.886 -536.945 231.158 -1331.78 909.556 454.949 -242.708 -443.807 -28.4583 -126.784 -18.4677 -702.15 695.024 -42.3958 69.8821 228.606 87.7954 -0.625268 65.8809 235.435 172.004 22.1815 -63.1667 64.1126 68.6655 
-284.088 -10.8243 56.1876 -490.008 -295.847 -29.8247 -53.7309 -457.628 -94.811 -111.003 149.696 -157.513 33.3251 -352.219 -763.119 1749.22 945.593 357.146 421.949 -73.3166 294.252 259.852 64.6851 643.498 -72.5259 52.1422 169.853 -137.435 -54.5102 33.1473 163.836 -114.66 18.1084 -0.37266 109.226 -25.0052 
-47.8443 110.099 -181.932 -672.099 1.7117 182.756 -106.659 -488.827 -18.0854 -161.14 -210.219 -434.831 282.323 93.0205 863.418 1524.96 421.904 -113.005 73.336 129.967 79.5018 1.73752 208.086 410.948 -47.8054 10.645 -113.507 -441.585 -26.4045 0.612064 -164.757 -518.27 -53.5096 -80.0968 -65.4627 -233.949 
0 0.0843317
 4 36
59.2549 83.5253 49.3941 181.79 45.4175 114.854 37.4367 120.993 9.25723 136.404 197.791 72.6308 153.977 -126.638 73.118 -464.16 56.9313 -73.1175 131.642 -28.3738 135.891 -205.294 281.537 -71.5518 53.3982 48.5898 97.2097 169.513 54.8772 55.0648 125.516 203.004 24.8319 36.4596 100.469 77.5423 
-71.5533 -172.32 -241.947 78.6835 -47.6175 -176.875 -224.403 48.4776 -102.309 -36.234 -8.28841 135.678 127.598 45.6908 175.283 -541.195 -152.283 84.1198 168.58 -78.74 40.8523 22.8957 84.2806 -233.269 -62.7202 -96.7107 -66.4841 133.347 -78.5403 -113.172 -65.6294 138.643 -50.0447 1.5643 38.5196 71.3929 
-13.97 -206.154 -328.228 -81.5517 -15.2474 -123.825 -212.534 -100.517 -146.569 -154.427 -143.838 54.6327 437.327 130.304 26.1549 -438.553 -79.4386 96.5206 200.09 161.595 208.979 45.3032 90.2236 98.7916 -27.6285 -196.27 -240.125 19.4928 -55.7316 -260.137 -278.907 52.8991 -55.2557 -65.0397 -62.2822 47.8016 
321.167 35.7969 -209.368 -102.198 329.239 114.925 -151.307 -129.719 -30.236 5.79683 -126.035 -58.9335 -168.444 162.615 385.511 -19.3243 -572.701 -171.39 97.5825 134.556 -322.832 -90.975 281.523 156.06 110.963 -85.8718 -189.962 -0.475575 102.386 -110.281 -199.562 17.962 -19.0583 -30.6576 -64.9968 21.9832 
0 0.620316
 4 36
929.934 -157.754 -141.559 359.761 661.558 -320.532 -215.333 259.173 460.044 21.2868 -176.115 695.657 -421.813 -1028.72 -1624.18 -3715.6 -54.3068 796.302 541.752 190.212 -309.6 703.255 302.289 -1330.06 872.61 204.953 178.364 590.408 952.757 243.349 164.136 693.842 368.649 151.137 108.408 557.76 
1206.3 113.998 666.151 1044.19 978.93 123.096 598.656 769.885 656.722 -285.99 261.718 1163.08 -854.109 1277.07 63.8675 -2122.49 -754.383 -172.439 -641.23 -259.92 -1080.7 598.06 -1162.99 -932.02 931.412 131.592 332.83 859.709 1066.22 130.1 325.496 1121.27 448.552 -72.2193 28.655 505.966 
1962.43 1372.76 1634.95 1185.84 1519.48 1097.02 1327.87 742.904 1325.42 514.516 599.136 1304.64 -2290.63 566.54 -2290.18 -2404.38 -1239.46 -849.362 -210.795 -239.89 -1721.41 181.036 -1246.76 -708.483 1469.93 928.915 962.097 1137.85 1752.26 1087.58 1036.06 1495.44 663.6 215.362 279.437 770.436 
2010.88 1462.96 1366.75 1082.65 1444.88 1146.08 1099.76 628.835 1333.72 651.647 733.803 1150.03 -2278.61 -963.02 -1769.83 -2537.54 -887.084 -600.531 -395.527 -309.956 -792.398 -430.65 -1252.16 -794.54 1733.27 1152.85 890.212 1161.59 2087.9 1332.32 935.436 1525.07 775.746 324.642 335.779 723.572 
0 -2.72374
 4 36
-203.306 -179.191 -356.541 -675.853 -103.648 -106.808 -252.865 -509.41 -98.5034 -325.23 -457.327 -424.617 464.468 1145.31 975.013 1179.51 -177.704 -224.704 -16.0202 284.845 -135.84 324.628 174.148 496.523 -255.678 -268.187 -395.937 -534.62 -271.844 -306.653 -481.408 -642.505 -116.994 -188.061 -228.596 -238.966 
187.816 490.43 245.246 -336.104 134.395 420.821 275.849 -216.205 267.628 82.8594 -69.7232 -335.333 -883.97 193.941 -22.1386 1351.2 -242.944 -601.919 -301.194 215.752 -245.579 -121.32 -81.4516 496.717 134.14 220.599 12.1058 -347.828 222.266 243.931 -35.402 -411.066 61.6154 -1.48123 -79.5399 -178.795 
-263.386 273.466 173.516 -258.533 -303.204 235.15 147.567 -191.095 27.2894 134.958 157.364 -320.141 -1011 -1025.46 160.856 1233.7 427.504 -287.409 -230.17 -48.4459 230.502 -368.148 -27.6308 319.964 -1.94791 180.663 87.4247 -281.863 37.3047 188.867 84.3979 -351.774 33.2976 53.3742 23.0767 -205.989 
-902.232 -458.542 -373.564 -481.675 -781.509 -406.383 -327.693 -336.273 -388.017 -150.134 -126.16 -402.651 603.236 140.613 328.863 921.016 895.683 551.314 411.89 233.254 710.936 325.399 352.246 316.595 -485.035 -232.319 -179.99 -404.328 -564.741 -284.99 -206.391 -517.892 -151.633 -61.4175 -53.2796 -234.533 
0 1.08368
 4 36
1674.12 584.234 848.127 1270.27 1164.1 292.238 647.87 959.294 1010.74 319.415 495.576 1432.85 -2439.63 -836.714 -2742.16 -5066.02 -250.722 679.15 105.437 -457.093 -676.118 503.932 -898.735 -1984.24 1581.01 695.692 715.796 1259.51 1815.14 772.266 724.95 1578.82 677.037 316.108 361.302 869.466 
990.534 -151.221 774.108 1363.64 739.349 -73.3596 573.47 862.449 461.352 -227.477 639.871 1557.4 -989.417 1022.75 -1406.85 -4232.4 -89.2274 191.211 -328.223 -718.672 -684.267 100.522 -1368.49 -1266.26 924.005 0.43444 517.016 1339.91 1002.99 -44.7995 581.13 1772.55 450.27 -55.0952 211.459 785.778 
1673.3 705.117 1150.73 1141.91 1393.2 519.738 797.916 689.138 959.383 186.529 520.07 1485.01 -1101.36 1590.88 -2658.2 -3683.74 -1191.77 -314.204 375.347 -294.554 -1566.68 466.154 -910.736 -1012.08 1122.46 527.54 846.788 1390.61 1293.83 628.38 927.662 1833.03 479.443 108.339 350.783 975.439 
2593.25 1876.94 1875.87 1624.63 1991.15 1533.15 1552.29 1106.46 1574.96 689.085 962.146 1536.52 -2701.1 -1615.08 -2182.35 -3038 -1634.81 -1658.91 -1186.52 -851.715 -1721.12 -1286.61 -1744.64 -1129.34 1954.23 1306.96 1182.61 1554.13 2343.54 1534.47 1294.66 2027.07 830.041 353.637 497.126 913.612 
0 -0.13094
 4 36
251.197 598.69 744.77 878.491 214.132 517.139 535.901 623.037 113.209 487.12 580.276 519.099 -189.622 -1133.01 -1053.08 -569.729 -132.611 -369.734 -418.701 -400.522 -54.0116 -848.02 -651.765 -241.023 113.37 417.159 585.41 636.169 133.665 523.173 743.101 772.28 28.8452 200.48 242.933 208.69 
-276.063 -424.17 -511.417 -197.815 -247.665 -470.546 -544.354 -214.377 -158.102 101.654 -125.99 -67.4153 384.049 -1079.3 -377.611 -725.362 207.632 414.695 319.761 373.037 272.655 -138.437 498.132 49.3093 -169.974 -44.9319 -77.0267 -3.9703 -220.801 2.7999 -47.3197 -50.3141 -67.0714 84.6667 35.2372 59.9857 
-122.111 -795.5 -970.358 -560.44 -52.1737 -685.194 -781.208 -371.482 -240.34 -460.559 -539.743 -316.331 680.364 715.562 1294.32 147.776 -165.007 404.605 304.411 448.1 155.949 463.735 531.614 53.2622 -173.609 -422.926 -539.106 -405.219 -214.775 -485.019 -619.412 -530.265 -68.5606 -120.084 -166.416 -124.649 
535.085 180.832 -58.1836 -110.372 500.268 231.164 62.6375 -14.5778 172.653 -199.691 -286.345 -129.781 -468.425 558.188 831.199 308.968 -621.048 -702.582 -385.612 -55.9145 -435.287 -267.627 21.2535 13.2841 178.253 -117.57 -264.82 -266.457 214.098 -156.912 -324.7 -318.922 -14.8801 -139.324 -169.341 -127.767 
0 1.74777
 4 36
1065.39 331.981 4.81893 127.377 769.129 78.5603 -57.0774 149.811 573.253 345.123 -311.688 269.599 -1373.31 -1313.77 -488.801 -3170.14 -201.146 586.197 405.823 559.138 -560.992 360.368 452.591 -1135.77 984.221 531.284 160.806 226.628 1095.06 631.619 114.199 228.59 426.027 313.715 18.0737 323.131 
511.826 41.276 1024.24 1059.51 385.681 18.2571 868.292 889.573 452.428 70.0714 424.182 746.979 -685.493 175.582 689.18 -1051.2 15.0491 197.16 -984.127 -230.565 -775.743 176.897 -1211.51 -798.302 568.209 246.711 523.945 567.87 610.334 319.041 542.772 762.139 349.001 43.7007 13.4139 288.883 
961.881 612.312 1509.94 1428.55 801.797 391.837 1113.41 1053.37 701.5 313.643 841.872 1283.47 -1097.68 701.981 -2677.61 -1733.79 -545.726 54.0037 -198.371 -803.794 -1317.94 589.572 -1465.73 -963.572 679.436 619.735 1129.19 1177.54 802.97 796.183 1270.43 1522.73 428.995 249.8 435.021 683.801 
1748.92 1396.63 1468.77 1195.36 1360.77 1156.88 1167.48 742.465 1126.4 484.169 851.157 1163.22 -1676.24 -1076.22 -2342.02 -2795.04 -1146.88 -1176.69 -727.566 -821.843 -1130.05 -859.62 -1470.15 -922.342 1289.84 973.253 1032.31 1259.6 1574.79 1134.17 1138.8 1657.48 553.208 240.15 450.617 692.724 
0 -1.00804
 4 36
-360.241 13.1659 271.409 217.313 -323.873 -38.4463 181.135 174.526 -72.4209 149.253 276.529 45.4568 102.354 -307.674 -485.312 377.947 349.486 150.278 -64.519 -227.895 171.422 -33.0428 -81.4624 87.6857 -190.254 108.824 253.665 137.319 -212.233 149.344 331.014 150.435 -1.47823 119.801 155.364 11.0908 
-65.2476 170.8 162.942 143.915 -11.8185 160.796 132.093 101.935 -46.6316 154.692 91.8838 1.37239 72.1539 -217.232 -97.4743 -202.134 34.1562 0.290523 35.4741 -157.443 -129.7 -32.3929 134.692 -31.7424 -124.701 93.4559 135.463 119.245 -142.169 137.049 206.481 110.405 -31.9414 74.0834 69.6707 12.89 
113.594 158.81 167.916 109.955 88.2937 81.21 137.561 101.445 124.836 149.978 -3.38132 18.8929 -208.648 -259.234 -512.423 -97.093 -156.753 -135.257 -216.479 30.4144 -240.1 -79.9756 -143.808 19.6877 36.9407 150.435 102.985 36.4569 60.7124 204.937 114.108 17.6608 27.6337 66.7576 5.94941 1.98434 
-83.3772 40.258 169.573 107.995 -97.9799 -18.2529 129.873 101.321 22.2111 113.227 129.188 26.7796 -407.202 -553.729 -377.942 392.701 90.8572 77.8296 -84.6421 -46.1213 -15.204 -25.9586 -65.7172 99.7616 -20.9985 117.883 131.927 27.0303 -14.1924 166.096 146.111 19.1567 26.2613 88.4381 47.0457 -2.11968 
0 1.49577
 4 36
1233.21 -176.362 45.7445 562.593 938.281 -319.588 -61.5637 375.423 585.431 -183.638 -170.636 1126.34 -502.459 -566.578 -2496.01 -4595.25 -303.849 715.497 333.234 -33.3344 -597.229 930.085 -322.862 -1719.14 1034.24 112.67 241.135 846.838 1145.1 141.574 193.383 1050.61 382.578 24.0594 102.077 768.811 
1448.58 42.0163 690.596 979.379 1130.82 55.8577 595.523 630.815 848.822 -520.262 344.59 1455.44 -1700.61 1783.33 -1312.02 -2663.73 -883.954 -411.702 -747.085 -203.514 -1220.13 669.522 -1695.73 -816.653 1200.72 104.1 381.849 1013.94 1411.42 65.3736 330.47 1378.67 572.674 -162.999 68.7659 691.777 
2341.36 1701.61 1769.05 907.149 1784.21 1415.1 1429.4 452.39 1580.08 467.096 685.634 1290.65 -3271.53 621.173 -2256.12 -2254.23 -1398.83 -1271.21 34.0519 -144.676 -1861.2 87.9768 -1142.36 -520.097 1853.23 1096.05 1029.98 1117.15 2233.99 1236.82 1082.95 1529.88 819.941 197.724 341.853 838.795 
2405.26 1888.96 1511.3 843.187 1707.05 1534.7 1243.95 431.649 1651.26 683.218 697.06 1035.89 -2947.73 -1001.84 -1318.57 -2351.21 -901.302 -940.69 -424.204 -193.034 -872.25 -601.385 -1260.24 -721.768 2134.2 1363.83 898.42 1023.55 2587.9 1537.33 914.206 1376.69 924.417 298.327 321.221 675.896 
0 -1.9433
 4 36
471.409 -126.943 214.807 572.092 432.405 -67.5663 158.969 456.425 225.302 5.76408 210.966 460.978 -443.817 -1197.82 -1071.11 -1146.74 -312.018 -84.5997 -237.405 -237.776 -308.071 5.13452 -299.489 -591.456 273.082 1.61523 301.055 471.871 307.824 27.8237 353.809 556.226 80.6975 -23.9138 109.702 249.349 
184.06 -415.799 -237.823 239.087 62.3102 -405.422 -207.435 137.739 59.1931 -354.742 51.6147 535.574 -712.46 337.812 -1205.58 -1056.6 -395.823 144.567 134.664 -175.786 -82.1832 401.406 -368.168 -344.344 276.727 -154.333 -11.1243 361.319 343.741 -205.056 -51.5205 468.941 149.208 -56.804 91.2545 248.702 
678.3 428.255 102.432 -1.6242 549.423 483.454 197.457 -97.6651 276.55 -24.608 50.3271 216.755 -774.678 -57.9012 -165.304 -1027.93 -651.786 -750.606 -10.0561 135.84 -200.789 -438.809 -73.2983 94.6992 475.957 107.247 -49.6338 226.838 554.983 65.0077 -65.4173 362.199 127.38 -70.3657 36.1434 197.729 
669.168 505.289 170.97 87.6963 484.652 440.187 124.918 -40.8456 341.807 232.087 120.546 105.08 -751.165 -473.713 109.368 -762.704 -447.271 -153.597 158.238 298.46 -178.136 -82.1346 262.002 -0.627465 596.51 282.789 62.859 210.834 697.598 298.629 90.1481 276.346 193.741 34.2933 41.2518 126.792 
0 0.307718
 4 36
-121.687 -40.2336 -33.6481 -375.752 -54.1031 -47.8892 35.9291 -205.18 -7.02585 -192.661 -314.004 -243.327 604.103 1106.95 949.027 1362.96 230.644 249.037 -329.989 -37.7839 -109.824 503.649 -73.9713 112.764 -87.8893 -68.2929 -146.871 -363.486 -85.7841 -63.686 -212.832 -440.888 -52.6803 -108.79 -176.883 -159.534 
-352.954 -25.8964 429.438 47.0555 -349.203 -26.0755 366.01 27.599 19.3187 -59.2522 225.617 57.664 133.516 178.04 -278.989 1362.56 519.098 -39.73 -541.33 -168.603 16.0916 66.203 -427.619 432.018 -84.7269 67.2019 233.509 27.4749 -71.4407 80.8551 250.507 77.5851 54.5587 -37.057 6.87102 -44.899 
-575.205 -32.0903 246.416 -270.087 -492.971 -61.0438 110.138 -240.365 -141.086 25.1906 169.173 -97.4598 188.797 -283.818 -454.24 1456.36 893.039 307.831 190.684 -3.61667 139.664 301.807 68.2447 421.053 -306.583 85.2244 298.425 -56.8819 -346.952 112.636 337.337 -44.8714 -52.7348 20.4145 116.642 -10.898 
-560.571 -160.582 37.9402 -375.322 -457.096 -140.334 45.7522 -259.285 -147.538 -114.521 -42.2591 -264.566 748.514 -230.947 558.382 1375.82 797.34 175.365 33.81 209.51 325.824 119.863 99.0023 308.217 -290.241 6.53346 72.4932 -266.22 -305.951 41.9852 52.8705 -316.092 -62.0928 -23.388 9.94712 -144.616 
0 -0.0672572
 4 36
-490.22 -86.4148 127.765 29.2499 -338.166 -78.8651 53.789 32.3686 -238.074 104.885 61.7422 -155.606 591.907 -641.738 -225.546 906.998 208.57 -8.33929 -166.854 -8.70365 106.909 -178.557 8.55273 292.027 -442.428 -10.5341 152.237 -54.7477 -514.297 47.0376 231.012 -101.81 -154.169 49.9472 42.4485 -105.319 
-317.989 -13.5277 15.782 -155.9 -232.179 -54.7378 12.1956 -69.673 -77.3951 106.688 -46.1123 -270.093 86.8545 -503.274 -134.141 908.821 124.615 113.886 -83.8007 174.44 4.76954 99.2921 134.449 295.689 -267.544 83.8449 64.6192 -196.538 -282.97 153.857 86.5154 -281.264 -74.0706 63.8388 9.03877 -124.758 
-99.8075 90.583 54.2071 -105.918 -83.6616 59.8572 82.267 -17.4692 -2.76639 51.1815 23.2877 -241.161 -266.444 -474.469 96.0878 949.014 21.1438 -142.545 -266.146 -5.31724 20.4922 -99.4516 -59.1049 232.681 -80.1837 105.497 33.3078 -223.325 -52.4456 151.253 43.6775 -299.875 12.0776 58.8196 11.6619 -173.96 
-242.781 21.5703 -77.6707 -302.029 -211.27 9.28742 -72.0673 -218.8 -46.7637 2.10154 -49.8129 -309.308 -243.173 -221.952 170.924 719.544 215.171 51.6065 103.821 126.6 187.981 63.9327 272.498 304.292 -150.539 -7.7396 -62.7422 -295.792 -149.232 -13.6757 -71.5322 -384.373 -73.4074 -27.6134 -46.6977 -198.688 
0 1.95525
 4 36
1689.87 142.896 -785.01 -693.943 1391.01 152.447 -525.429 -489.346 703.282 -436.101 -974.976 -25.0781 -1228.39 1185.89 1569.96 -1900.56 -1260.04 -332.318 151.351 685.166 -999.726 658.886 338.492 -710.099 1183.41 -54.9075 -702.155 -374.949 1367.27 -142.279 -957.044 -421.774 326.8 -255.927 -462.551 81.4355 
1270.94 396.356 466.847 273.621 853.922 315.841 460.716 219.418 844.455 -262.935 86.9602 583.525 -1925.6 1099.35 338.772 -196.989 -926.984 -833.104 -777.432 41.8201 -693.359 35.5585 -991.526 -310.466 1226.84 243.11 66.1809 179.571 1452.57 164.464 -90.3888 361.744 521.546 -105.724 -125.817 178.139 
496.175 491.23 639.341 285.154 286.219 479.832 456.784 51.2959 408.07 115.581 489.75 555.063 -1531.52 -104.078 -242.882 -959.542 179.286 -219.561 250.123 -288.753 -201.352 -55.0694 -381.17 -393.568 669.385 290.971 447.148 511.218 744.692 247.551 472.556 732.996 283.12 9.31346 198.847 376.029 
349.052 4.59656 114.224 355.98 228.192 34.7664 83.5663 187.385 171.573 -79.9089 111.785 527.981 842.585 894.72 -132.554 -2165.03 127.617 224.093 282.969 -63.2634 269.111 256.831 -459.711 -840.68 470.418 97.1826 162.3 524.143 525.481 65.2682 169.528 714.013 245.938 -3.80327 122.592 366.1 
0 -3.45469
 4 36
-137.497 -189.741 -198.448 -21.1722 -154.751 -202.635 -161.185 17.465 -30.2766 13.2467 -63.9408 -80.564 293.279 -104.593 262.979 -320.64 242.767 365.42 288.492 47.6716 246.216 217.797 458.25 -95.2069 -1.35068 -17.4958 -66.1702 -20.279 -20.0986 -33.5474 -51.726 -57.9247 55.2693 66.7975 11.5456 -8.83507 
372.567 282.202 203.062 361.724 353.196 272.053 211.199 299.34 125.897 100.582 7.60983 182.7 311.874 277.295 952.362 -568.541 -367.121 -98.2468 -62.0581 -195.209 -366.811 96.0069 163.383 -365.25 137.998 100.156 62.6196 204.247 142.268 129.079 113.635 215.728 63.5056 53.1222 -14.5588 37.0048 
455.307 382.848 435.907 456.235 349.974 254.151 360.105 341.129 377.591 321.526 38.5734 311.608 -431.881 -182.57 -512.958 -982.681 -368.876 -181.403 -302.389 70.3673 -531.68 -82.6609 -292.651 -283.406 288.417 290.205 229.419 283.9 336.173 374.049 255.518 315.522 125.428 93.977 -5.03582 152.584 
17.2641 -90.8943 205.65 436.059 -55.4298 -184.835 140.697 320.23 82.865 168.009 194.68 358.349 -126.464 -254.77 -670.939 -535.841 127.741 467.524 63.2938 -3.88022 130.414 230.662 -256.045 -226.326 127.317 162.283 204.081 330.934 141.705 223.973 221.691 403.296 133.815 147.913 82.3214 209.038 
0 0.603476
 4 36
748.83 383.114 929.012 1348.12 539.806 160.394 633.726 977.198 427.53 251.142 737.481 1316.67 -273.422 -825.849 -2938.44 -2446.26 198.719 430.387 -450.902 -870.354 -235.046 145.979 -1076.32 -1168.97 675.535 443.462 846.359 1262.12 768.271 546.32 1004.11 1569.03 278.72 203.435 424.298 732.492 
900.488 126.363 553.543 950.909 709.307 109.751 354.228 533.525 436.342 -125.374 524.032 1252.12 -539.174 409.777 -2188.42 -2517.16 -339.852 -149.619 -331.263 -556.76 -658.456 261.492 -1018.57 -542.915 691.6 166.572 507.352 1134.71 804.994 158.918 603.37 1458.74 310.941 7.09159 287.016 659.883 
1574.84 892.947 781.531 411.924 1206.95 689.371 544.535 130.074 920.412 297.189 258.323 799.295 -1173.47 326.841 -1739.14 -1878.66 -724.9 -482.909 347.642 57.408 -1056.33 155.742 -361.088 -217.551 1142.96 625.307 554.871 726.701 1357.43 716.509 587.085 961.899 463.481 127.052 202.292 567.638 
1869.29 1217.16 858.033 585.707 1419.97 987.905 707.67 386.942 1130.81 432.013 304.507 689.141 -1846.75 -472.194 -329.625 -1216.77 -723.039 -566.964 -363.31 -122.402 -709.955 -231.222 -663.251 -581.223 1467.96 902.656 535.447 592.053 1759.67 1058.46 552.273 771.125 619.99 246.373 149.302 399.184 
0 -0.161042
 4 36
-151.229 -173.513 -417.005 -429.917 -50.5812 -64.1854 -314.558 -304.723 -193.519 -30.9278 -332.527 -461.095 528.675 -201.741 970.704 399.163 -39.7567 -121.75 241.736 477.736 109.787 -137.909 660.406 276.043 -235.009 -181.345 -291.708 -399.257 -286.618 -195.11 -343.583 -514.562 -137.053 -78.2773 -160.359 -207.778 
-496.331 -416.285 -358.699 -302.306 -399.885 -392.324 -263.497 -122.023 -227.011 -126.885 -229.688 -360.338 308.31 -77.7108 823.004 1025.4 157.368 242.293 18.0801 272.142 298.706 180.464 113.92 119.642 -319.749 -197.507 -243.211 -407.065 -365.12 -211.345 -321.383 -519.131 -136.121 -61.3754 -124.998 -208.505 
-471.767 -344.346 -267.624 -101.427 -344.167 -205.308 -126.588 -26.7184 -365.702 -250.84 -36.6767 -163.556 520.028 102.309 331.11 608.559 232.092 175.891 -16.6263 -134.198 435.141 112.234 -49.9525 129.204 -352.677 -291.99 -225.47 -196.31 -414.866 -351.219 -247.443 -219.132 -139.682 -83.4194 -50.7495 -149.947 
-193.695 -147.886 -374.695 -381.789 -82.258 -19.8611 -305.612 -355.543 -223.807 -147.518 -180.137 -285.801 410.66 368.264 221.266 34.6057 -173.131 -46.272 251.19 113.248 38.2527 22.1727 378.404 289.586 -257.316 -285.497 -284.911 -196.987 -307.44 -368.087 -305.31 -225.907 -193.678 -170.601 -99.6594 -129.717 
0 1.35654
 4 36
2077.58 553.665 -13.2648 451.055 1550.83 337.372 9.19162 385.066 1078.15 233.608 -312.321 770.029 -2064 -574.704 -430.705 -4952.21 -808.597 427.422 510.029 430.966 -892.468 500.74 285.159 -1762.07 1758.27 603.261 90.4523 604.604 1997.02 646.25 -0.433646 727.545 687.527 231.084 -16.4761 584.411 
1382.65 58.3537 673.738 1214.13 1003.45 33.7178 578.052 878.813 795.058 -128.478 286.427 1265.89 -1178.31 806.266 1062.52 -3093.28 -712.204 -126.071 -657.724 -186.051 -1017.4 131.9 -891.347 -1309.09 1258.93 190.784 298.255 928.959 1395.93 187.823 278.484 1230.71 607.393 -12.4992 -49.3295 534.468 
1504.22 488.044 975.575 1109.2 1202.14 330.536 704.511 694.84 983.28 176.959 361.045 1413.19 -1534.78 1286.28 -1454.47 -3518.12 -985.791 -115.605 132.095 -87.2674 -1525.2 669.246 -897.921 -1208.61 1120.6 462.504 725.313 1213.18 1268.28 545.165 782.59 1575.44 527.564 99.7322 235.137 893.603 
2066.72 1151.9 1418.45 1556.43 1553.82 901.458 1206.72 1048.09 1233.72 394.783 697.32 1549.97 -1433.52 -428.194 -1775.81 -3600.14 -1202.51 -958.469 -778.823 -594.625 -1098.74 -648.376 -1640.16 -1348.84 1639.09 916.377 891.787 1482.78 1944.75 1075.52 944.914 1952.58 744.73 249.953 371.394 935.8 
0 -1.68053
 4 36
-226.531 -320.342 -530.438 -599.229 -160.4 -194.439 -355.653 -425.63 -169.17 -229.683 -441.517 -471.525 492.096 600.24 1167.98 395.451 63.7471 112.32 418.681 493.068 206.43 231.546 634.995 313.782 -217.611 -293.015 -461.566 -501.059 -257.548 -363.346 -563.44 -619.124 -107.394 -134.567 -217.035 -231.833 
-253.007 -145.886 -178.854 -207.134 -188.123 -85.1788 -69.8774 -75.0345 -148.327 -68.5948 -220.787 -328.234 487.416 173.18 1168.08 592.801 187.116 77.3213 97.0936 215.948 235.624 20.646 285.85 44.1692 -213.529 -166.039 -251.085 -356.551 -257.355 -187.697 -302.448 -444.959 -95.4921 -71.0926 -162.821 -203.545 
-336.485 -170.876 -79.0653 8.73788 -232.196 -116.976 -5.20228 63.7401 -144.738 -32.4906 -87.0572 -118.019 309.436 25.1985 482.453 218.365 114.21 41.6892 -180.541 67.3899 116.568 -6.14093 63.6259 -22.3072 -274.616 -148.5 -127.293 -133.463 -318.413 -153.646 -125.299 -181.132 -106.044 -37.7192 -88.2991 -112.167 
-532.72 -384.344 -210.887 -146.117 -444.972 -359.654 -178.94 -118.033 -230.24 -72.9877 -82.3574 -109.198 595.692 90.4552 -17.7316 305.427 345.569 284.243 125.681 176.784 269.342 143.133 144.688 237.792 -362.889 -210.247 -125.722 -104.204 -422.277 -229.934 -138.312 -134.104 -134.64 -63.1087 -47.0939 -51.0531 
0 0.979998
 4 36
1363.86 332.492 -397.899 -262.103 996.111 112.407 -335.827 -166.863 768.537 1.55811 -572.341 183.192 -1090.17 418.439 538.518 -2422.59 -655.724 234.571 394.673 483.264 -717.952 683.533 565.034 -819.2 1209.76 388.168 -204.128 34.9757 1391.26 410.537 -284.142 23.1373 514.285 134.308 -132.89 249.94 
1849.85 1125.14 1119.93 927.402 1430.05 967.861 1019.04 706.588 1148.7 224.712 249.684 823.881 -1713.55 774.969 1293.27 -1142.65 -1300.05 -986.058 -982.182 -147.944 -1522.86 -29.5504 -661.838 -678.489 1414.11 674.141 451.838 633.374 1650.8 745.052 467.536 826.557 645.478 103.904 -50.571 295.378 
1325.12 1008.87 1309.2 975.894 901.091 697.05 942.982 605.659 1109.24 624.07 522.224 1033.89 -2489.07 -386.699 -1533.09 -1967.87 -445.121 -352.447 -329.364 -158.279 -1328.26 97.9864 -1005.39 -825.131 1195.52 863.78 924.4 908.661 1389.84 1004.61 997.707 1128.5 579.641 257.111 237.338 606.021 
757.075 288.071 839.328 1177.4 450.577 94.4346 665.823 848.165 565.596 260.095 558.132 1150.67 -408.384 -88.7318 -1525.93 -2426.31 86.1354 331.095 -129.953 -385.843 29.1092 179.773 -1221.24 -1170.33 881.121 603.41 704.822 1038.02 1025.64 726.153 743.103 1338.51 544.36 308.138 309.85 663.521 
0 -2.84972
 4 36
-276.639 -53.6717 88.7912 -196.605 -135.585 -13.9897 68.3858 -113.139 -99.7041 -36.7001 -108.246 -284.489 106.567 -182.691 220.91 1289.97 -92.0097 -254.943 -349.684 67.3206 -191.759 -19.0641 -150.827 359.382 -352.887 -79.6975 13.2154 -278.733 -387.292 -39.2152 24.4756 -361.378 -139.263 -54.7732 -75.2237 -202.931 
-352.147 63.6051 160.58 -263.319 -326.837 6.56993 151.598 -144.027 -0.665593 73.5056 35.6078 -327.284 -664.352 -399.796 -755.203 1362.32 165.571 -74.5647 -221.497 115.788 38.8373 -11.6902 -147.885 467.998 -174.557 129.334 112.702 -297.202 -146.144 180.681 98.2714 -363.83 -20.1044 45.1866 20.3174 -165.841 
-385.298 133.372 120.571 -200.921 -327.766 141.705 126.16 -106.56 -157.413 24.5493 223.493 -336.476 -538.172 -915.446 -75.9979 1324.24 322.196 -265.829 -264.248 -204.419 309.153 -397.568 -91.0774 369.111 -208.915 89.8828 96.9723 -246.231 -201.313 106.129 121.551 -293.312 -44.0703 42.0926 97.2168 -220.075 
-611.466 -71.9512 -158.257 -437.612 -510.834 -48.8689 -169.077 -330.251 -237.353 -42.7215 -4.36408 -450.393 135.91 -425.566 183.428 834.484 493.109 92.6445 240.833 144.199 384.323 14.848 466.818 396.376 -378.013 -105.901 -68.7038 -364.421 -418.262 -142.029 -50.4191 -471.874 -169.76 -70.0768 -1.56603 -272.199 
0 2.43052
 4 36
732.158 222.008 709.289 898.636 543.823 55.2238 474.602 579.031 405.117 -34.5347 314.125 1292.48 -330.823 191.49 -2919.82 -3462.16 -133.657 361.589 -133.457 -558.203 -470.973 454.102 -1153.44 -1304.62 634.653 226.226 538.087 1032.59 719.612 289.422 571.164 1326.72 242.554 56.0691 251.675 739.785 
884.196 77.5425 501.613 501.701 706.392 71.4642 339.47 177.168 582.895 -252.14 352.617 1013.12 -1478.34 956.579 -2185.96 -2365.85 -368.637 -394.058 -473.015 -28.4927 -840.351 174.399 -1226.97 -236.662 728.033 134.18 393.291 799.471 871.673 137.404 405.811 1089.09 350.945 -97.5559 140.83 598.421 
1547.04 937.655 830.274 101.964 1157.8 718.549 588.529 -81.4404 1052.81 127.861 281.623 603.788 -2448.37 683.572 -1204 -848.103 -873.944 -711.713 399.238 128.065 -1239.14 350.997 -381.42 -127.666 1270.55 695.303 567.42 468.743 1564.82 779.425 563.753 672.443 589.562 127.575 211.049 478.539 
1906.09 1582.68 1087.29 230.948 1395.83 1341.49 968.634 124.043 1313.95 346.739 296.206 429.504 -2790.1 -566.999 -215.837 -536.882 -740.149 -1249 -600.44 -209.28 -902.088 -742.519 -914.085 -294.928 1589.68 986.686 512.177 306.751 1952.33 1095.73 463.901 461.922 656.663 144.961 129.774 258.675 
0 -0.504682
 4 36
-85.9189 204.676 843.884 1133.56 -89.5655 84.5848 532.344 774.789 6.06817 358.131 757.009 891.583 114.92 -1441.89 -2696.76 -1295.21 269.178 156.876 -269.383 -701.393 25.4051 -408.221 -827.847 -527.355 -24.3863 307.298 806.222 995.494 -44.936 421.44 1019.12 1212.91 32.0093 218.823 414.957 456.669 
151.817 -255.557 -247.556 132.135 173.553 -269.083 -310.544 -25.5165 35.8283 -67.7121 5.62761 373.36 -60.8403 -168.856 -1137.7 -1499.17 -167.122 198.912 244.724 105.003 -249.197 273.813 55.8774 -143.564 15.3769 -21.7219 88.0611 403.825 18.9749 15.3804 147.725 459.718 22.0546 27.321 120.732 285.779 
903.461 261.34 -62.0782 -150.704 709.763 175.611 -20.9819 -135.6 493.021 -38.2082 -264.729 69.6702 -727.336 592.225 127.573 -543.475 -822.329 -332.518 118.164 357.534 -615.617 268.157 105.251 -24.2715 599.464 222.503 -70.6927 -36.3799 744.654 265.19 -124.074 -50.7305 258.024 32.4232 -55.9342 100.191 
1165.25 867.363 487.598 133.74 892.249 735.198 472.377 117.742 710.732 198.989 22.639 112.727 -1894.22 -281.693 85.746 -93.6637 -652.406 -645.699 -441.709 -106.808 -565.66 -329.729 -316.431 -116.185 850.185 481.758 119.483 0.439495 1038.32 541.364 79.9617 11.6941 312.613 63.1434 -52.2926 26.9641 
0 1.51841
 4 36
-521.36 -223.656 -33.383 -399.693 -358.462 -203.003 81.7739 -201.349 -275.222 -99.6423 -292.284 -389.711 1009.69 872.804 1633.65 1226.97 534.392 421.664 -231.094 201.634 46.9706 478.366 365.355 143.105 -418.329 -139.147 -163.682 -454.356 -501.892 -124.235 -238.598 -575.067 -179.902 -64.7973 -173.046 -217.66 
-711.712 -118.774 649.244 232.263 -591.143 -109.942 544.488 206.101 -158.537 57.0601 349.867 15.9523 404.052 -416.888 550.555 1621.77 858.441 236.107 -704.393 -168.899 23.3828 145.222 -492.877 384.505 -403.645 47.9582 346.416 11.8645 -463.242 97.2468 404.298 36.5099 -51.4086 -2.97261 46.9278 -106.328 
-583.329 69.8155 616.62 41.7173 -463.424 -27.5458 414.953 18.3725 -51.0138 205.013 307.773 10.4203 246.158 -521.303 -484.667 1597.43 789.997 502.932 94.7334 2.03112 -122.712 461.156 111.476 397.321 -391.341 220.704 534.166 82.6478 -423.477 317.733 637.047 97.4722 -40.2205 118.225 180.997 23.5504 
-521.639 -98.513 135.986 -401.083 -438.129 -139.885 132.432 -299.546 -50.1451 -3.04546 -44.154 -285.176 813.094 -225.966 904.662 1593.73 784.656 374.016 59.246 305.465 270.214 284.042 180.975 402.232 -298.526 128.775 145.08 -265.672 -290.649 202.084 128.281 -334.477 -42.6679 20.5405 6.44761 -140.876 
0 -0.0634755
 4 36
-93.2823 -144.254 57.3707 331.853 -165.158 -99.2522 106.979 237.679 -38.4055 -151.225 279.693 348.318 40.2331 713.809 -447.585 -540.867 196.704 300.184 180.255 -393.36 427.582 134.103 -391.027 -164.485 50.4769 -118.363 -26.6772 314.598 46.0189 -220.652 -27.3686 431.329 21.541 -51.5997 68.989 122.458 
251.2 0.682548 -285.397 88.3165 255.959 121.09 -255.662 -48.7172 -186.259 -58.5795 -83.1767 166.013 1015.78 447.473 448.061 -1729.41 -70.7425 53.0276 694.845 -162.836 146.948 -168.87 692.833 -356.378 -5.91103 -217.582 -202.823 240.885 -79.5913 -289.361 -139.189 297.226 -60.7952 -30.2126 -4.16596 111.556 
297.193 -105.156 -344.763 -96.0565 301.058 -137.4 -314.801 -82.6387 193.672 116.704 -481.506 -72.7915 644.561 655.392 1223.99 -1202.58 -532.746 -56.9979 97.3402 589.079 -383.848 -100.288 732.79 -226.319 61.574 -89.0227 -277.958 -36.4944 34.4856 -73.9582 -294.253 -121.759 -60.4255 -67.5473 -229.277 31.2086 
-133.368 -450.656 0.189574 410.798 -188.674 -566.191 10.8887 430.525 7.98848 26.2835 -86.1824 292.057 413.899 86.1122 285.134 252.7 246.149 471.194 -252.199 116.649 129.264 304.651 -224.88 -255.721 -17.3612 2.13854 8.38913 96.9414 -41.3281 69.3891 -10.1479 70.7128 104.512 127.908 -44.3335 126.134 
0 0.363537
 4 36
1651.87 424.939 -571.455 -203.893 1257.74 269.229 -475.637 -215.059 701.384 -45.3762 -738.884 506.961 -258.641 1199.22 533.479 -4510.61 -781.62 250.541 871.945 724.201 -631.984 569.319 882.402 -1237.13 1367.15 300.097 -379.4 273.676 1537.11 293.311 -518.59 353.88 488.619 60.4548 -178.942 509.256 
1877.65 641.631 582.191 730.712 1493.38 521.788 541.411 503.959 1155.57 -4.38136 -13.396 936.521 -1513.75 1100.72 2124.6 -1949.1 -1404.85 -976.651 -955.347 410.23 -1517.38 60.2013 -649.51 -758.856 1436.48 426.425 142.398 593.976 1658.22 463.258 78.8751 791.12 607.67 -36.5 -201.005 415.079 
1495.54 486.01 648.459 503.399 1028.62 282.374 442.634 214.064 1127.56 142.797 82.3117 1022.14 -2492.83 882.859 -477.357 -2014.56 -583.566 43.0741 320.366 290.482 -1348.44 1035.04 -629.5 -825.644 1383.15 529.114 478.126 663.611 1617.28 578.152 442.372 864.723 676.336 124.242 59.598 654.68 
1697.47 607.147 607.432 656.997 1277.43 523.957 619.999 410.932 950.11 -2.78736 72.4753 987.802 -1079.79 1297.86 -374.796 -2400.56 -735.293 -421.509 -239.761 -243.353 -541.927 -19.6654 -1304.81 -1031.58 1414.81 507.856 256.525 735.623 1665.79 553.634 144.828 1046.77 649.541 89.2445 51.517 625.438 
0 -1.61535
 4 36
259.608 297.882 26.2822 -249.513 239.99 301.59 38.4978 -206.512 153.605 0.240438 -100.63 -167.859 -174.546 744.058 555.439 197.196 -398.308 -551.951 -35.4579 166.87 -319.064 -98.2042 141.418 217.551 137.398 52.4861 -69.8691 -180.864 192.929 67.7331 -112.303 -198.91 53.5559 -44.6042 -34.8745 -47.7863 
145.976 420.362 275.18 -59.2551 65.5844 308.298 229.591 -33.7778 249.644 187.14 152.448 -52.6619 -1498.37 -153.637 -657.117 614.128 -368.869 -583.057 -369.984 -66.6303 -293.492 -378.164 -428.534 215.291 215.296 262.395 174.853 -41.1455 316.27 290.164 149.128 -30.8563 69.9847 49.8263 62.0629 2.83577 
-323.092 -72.5533 -162.669 -153.981 -350.218 -14.9917 -144.177 -154.726 -262.329 -168.55 254.107 -45.0719 -836.7 -876.739 -861.426 502.563 458.355 -19.6435 125.221 -340.85 546.078 -259.023 -276.566 240.367 -48.9916 -72.7796 -26.4534 -30.7304 -48.1277 -161.524 -48.7294 25.7168 -23.4769 -5.70145 117.588 -37.1981 
-189.894 -47.4238 -420.87 -441.704 -78.2578 131.67 -360.206 -397.786 -330.129 -181.701 -83.7733 -306.714 143.195 277.755 121.81 217.996 -161.666 -158.736 445.361 27.1722 17.4825 -159.278 423.704 352.324 -208.243 -265.478 -252.084 -176.312 -270.389 -378.764 -253.584 -180.103 -177.572 -127.524 1.04261 -123.532 
0 0.697895
 4 36
-678.204 -206.43 -174.407 -338.689 -482.406 -202.154 -140.594 -213.454 -420.822 -172.153 -231.362 -204.75 2090.83 1086.87 658.262 1608.48 692.886 462.021 -162.452 -45.1828 418.656 368.445 195.791 248.545 -548.406 -184.857 -171.976 -262.893 -656.995 -192.45 -199.086 -327.082 -259.879 -92.5219 -98.8432 -115.276 
-446.629 -103.001 200.527 -96.482 -340.977 -85.9298 178.045 -94.2164 -97.2782 -48.1965 74.3748 -50.2934 1095.66 -245.958 570.842 1645.23 565.971 -85.0949 -495.729 225.728 30.1917 66.9541 -97.156 596.246 -319.652 -14.5851 75.8667 -77.4604 -362.816 11.9648 103.008 -91.8441 -77.3197 -57.3084 -59.466 -94.1707 
-328.905 -146.505 -32.9264 -654.755 -308.705 -201.379 -100.15 -527.687 39.8099 -17.8645 -203.164 -338.835 129.945 -31.1555 311.376 2184.05 786.706 362.348 316.051 486.77 -200.308 685.734 239.354 705.628 -169.249 22.5424 49.0618 -418.548 -170.918 60.3256 23.1153 -527.045 21.8715 -0.623488 -71.0738 -143.332 
-306.967 -229.466 -267.925 -886.669 -263.067 -184.969 -130.25 -618.652 5.88244 -240.643 -446.439 -544.851 242.491 815.574 1520.33 2532.88 759.456 184.071 132.177 420.41 314.634 409.479 173.915 651.283 -157.971 -70.418 -268.263 -732.106 -139.639 -44.708 -413.089 -870.232 -4.01467 -79.0433 -229.998 -315.481 
0 -0.592723
 4 36
189.081 -487.75 -274.268 56.073 146.239 -317.673 -149.82 1.18798 4.05262 -558.42 -39.4807 371.478 172.531 1062.9 -692.374 -639.683 -120.798 110.161 112.368 -311.242 133.672 522.216 -451.415 -238.383 99.1135 -481.871 -287.622 164.282 110.752 -631.147 -379.596 269.265 -36.8272 -318.848 -84.307 154.745 
511.413 -176.394 -477.221 -141.07 422.714 -41.5205 -370.488 -218.292 15.0142 -521.633 -136.674 355.697 73.2717 1505.7 -936.126 -1458.06 -389.928 -240.983 550.419 -180.677 165.273 248.021 -43.8243 -231.646 284.966 -361.814 -330.759 186.593 331.615 -525.687 -405.636 299.461 29.2114 -212.41 -14.4426 190.114 
621.547 528.286 44.2999 -205.112 502.316 560.912 100.18 -260.917 326.211 112.29 -162.439 -10.6292 -192.715 412.127 806.465 -1061.68 -459.631 -707.199 240.332 390.99 -61.2817 -497.542 521.855 92.7632 448.425 78.7176 -204.134 16.2358 514.045 34.4288 -238.669 62.6219 58.5651 -112.531 -131.707 74.7555 
20.4887 -127.791 -137.566 21.0622 -81.8226 -184.618 -136.553 13.5846 92.7339 111.199 -95.8034 88.6014 215.838 205.64 415.755 -251.513 317.275 520.339 216.623 365.9 350.608 357.948 134.804 -81.756 215.592 47.3655 -99.6586 24.2739 235.001 55.3031 -116.12 10.2434 130.646 42.9005 -66.169 80.0792 
0 0.403601
 4 36
1037.52 401.941 709.856 998.223 741.576 263.23 583.819 734.431 613.107 29.8362 527.975 1131.47 -875.802 552.148 -1789.85 -2359.07 31.3313 345.852 -341.007 -781.997 -342.161 417.211 -1007.17 -1119.21 900.08 294.122 483.244 943.42 1054.35 310.917 499.839 1224.09 346.429 50.1851 253.758 605.012 
703.609 -52.0079 431.055 867.5 509.487 16.7765 276.905 459.062 263.588 -269.733 530.614 1206.89 -416.317 960.961 -2221.82 -2869.54 50.7105 -53.0227 -105.325 -784.035 -232.232 67.5625 -1022.15 -640.047 600.319 -79.0475 334.677 1056.5 678.009 -174.908 388.666 1405.74 235.353 -112.296 232.225 613.822 
911.004 400.27 418.069 315.74 725.247 340.536 226.783 41.9523 423.911 64.2411 202.289 776.812 -60.3038 736.785 -1764.5 -2251.06 -262.389 -129.773 627.692 -0.288721 -531.586 178.588 -102.968 -254.367 614.088 204.115 332.655 747.205 690.31 198.006 362.953 1015.61 186.668 -20.2921 161.095 566.911 
1366.08 811.264 662.585 599.245 1062.2 673.615 538.448 391.834 758.786 300.347 296.949 705.825 -804.52 -486.677 -424.516 -1155.52 -562.309 -534.149 -357.33 -139.548 -708.454 -343.374 -550.883 -477.67 1015.17 605.7 457.505 673.908 1199.06 722.765 504.368 878.169 418.608 177.435 178.679 434.746 
0 -0.699194
 4 36
27.4301 -33.5274 323.227 823.997 36.0323 -0.0108486 212.758 606.226 -98.7781 147.471 555.903 514.735 40.8983 -1276.37 -1391.68 -420.249 41.5998 30.1318 -317.471 -632.539 228.035 -487.224 -600.663 -389.996 -17.2213 39.1124 397.159 631.306 -46.7516 39.4732 525.053 766.838 -60.6144 38.6633 215.409 218.251 
-152.776 -645.646 -700.188 6.98737 -113.524 -574.44 -671.424 -68.0616 -354.037 -277.913 -106.854 234.219 1195.63 -28.0105 -777.241 -1243.11 3.70589 622.832 604.322 -144.452 493.167 283.674 347.59 -326.271 -158.215 -345.539 -223.682 232.754 -234.714 -417.467 -208.765 264.595 -114.796 -40.0671 79.6867 151.566 
300.443 -265.48 -595.183 -278.778 327.356 -152.364 -438.352 -234.781 -94.0947 -209.113 -418.289 -115.975 1146.33 979.996 1037.54 -892.359 -539.756 -40.9664 322.569 384.877 49.5424 61.128 571.146 -15.2237 28.6512 -299.158 -442.076 -112.456 -15.2304 -357.981 -492.06 -141.973 -99.5102 -148.528 -163.167 0.798252 
555.202 85.0429 -132.271 58.6686 478.169 79.5294 -81.2929 61.1834 179.699 16.3339 -199.948 22.1113 -166.017 482.527 704.952 -508.635 -551.773 -128.095 -65.4223 142.309 -191.937 128.128 147.019 -223.23 310.375 -4.77444 -183.982 -34.4645 339.844 1.24776 -205.582 -55.7608 70.88 -19.0311 -128.004 9.2987 
0 0.71416
 4 36
-680.821 -241.582 -219.758 -354.462 -469.434 -209.552 -160.811 -191.967 -485.603 -144.852 -243.639 -319.868 1864.94 1475.84 1239.95 1217.54 527.025 314.623 -214.719 -20.5486 341.247 319.673 238.302 159.29 -574.274 -229.057 -233.141 -352.4 -695.552 -242.935 -277.332 -428.836 -288.038 -93.4179 -150.029 -194.056 
-554.611 -150.337 290.854 -75.0609 -406.194 -106.87 232.156 -58.4414 -205.882 -17.4023 132.975 -175.949 943.703 -266.938 226.007 1497.17 568.134 -14.6901 -607.051 47.94 18.8964 -47.1374 -224.773 568.604 -422.408 -54.1353 121.457 -117.812 -499.036 -21.6156 159.764 -123.549 -136.573 -50.5139 -44.2177 -151.499 
-489.27 -282.716 28.4408 -478.088 -389.27 -314.287 -93.1689 -367.892 -124.76 -24.8371 -22.151 -300.281 424.698 -261.422 -128.903 2061.32 709.116 405.791 206.672 201.737 -168.975 560.727 171.367 597 -347.776 -48.9084 166.16 -294.068 -388.961 0.867014 179.984 -369.644 -62.7801 10.5215 14.089 -146.276 
-363.198 -379.433 -440.247 -938.84 -272.357 -311.199 -314.264 -684.462 -118.045 -298.103 -426.669 -582.209 628.208 688.806 1499.54 2304.93 529.016 239.431 340.324 516.107 330.16 572.096 325.556 638.877 -277.721 -166.685 -284.189 -697.568 -284.688 -154.856 -408.506 -838.968 -86.5765 -104.127 -193.269 -331.945 
0 0.946749
 4 36
-279.587 -569.729 -251.135 -144.49 -224.735 -546.992 -244.818 -103.844 -129.341 -228.163 -170.001 -23.0483 176.43 -724.263 -804.791 119.418 255.989 453.046 136.069 38.1705 104.382 476.074 2.88724 -61.7955 -191.842 -242.481 -64.4576 -72.13 -242.412 -261.684 -72.2294 -114.051 -62.3548 -60.7903 -38.0289 -0.465177 
120.675 -141.178 36.3836 29.181 125.644 -65.2454 84.9893 52.9908 35.9382 -293.903 -67.0441 103.227 79.7015 900.786 -273.11 150.886 -50.0622 123.831 53.5775 -44.6764 -131.218 550.471 -261.93 -32.0785 41.9346 -125.917 -28.7893 -2.00029 59.4408 -156.935 -61.9377 14.5002 49.8611 -90.8615 -31.3662 13.1017 
650.446 865.927 888.969 419.815 535.23 746.938 782.606 310.946 513.029 366.319 295.521 214.306 -785.563 26.8075 -538.164 -68.2472 -519.212 -716.004 -394.318 -165.696 -565.899 -352.688 -427.326 -38.3249 430.632 482.853 411.388 236.269 544.853 587.28 461.629 309.153 191.563 98.2019 89.9702 93.373 
138.004 427.026 527.785 334.098 -13.3821 246.811 374.461 210.986 340.041 358.902 366.119 229.59 -650.722 -941.1 -912.892 -390.788 295.365 209.484 -68.355 -43.9721 176.387 5.76776 -300.069 -124.254 318.474 446.349 394.262 275.668 411.802 530.915 446.79 323.707 189.966 149.987 136.133 119.431 
0 0.162211
 4 36
-466.478 -210.039 22.6447 -384.905 -266.605 -181.141 116.99 -146.05 -229.927 -72.9636 -278.201 -453.052 1371.19 1162.69 2174.85 1872.78 504.166 363.165 -418.703 84.1587 -21.4105 599.968 397.407 130.202 -399.832 -130.68 -101.305 -507.489 -467.724 -94.8107 -158.103 -646.059 -184.485 -82.3216 -189.155 -270.202 
-697.622 -6.94954 859.651 249.14 -620.377 -40.9827 702.611 218.092 -74.5208 59.8104 520.672 66.197 -9.84326 -244.211 -113.786 2106.12 771.153 199.026 -903.186 -360.666 -57.418 169.693 -752.04 562.749 -295.525 165.44 518.979 57.5383 -307.186 227.209 578.414 108.849 20.2164 48.2542 134.656 -103.89 
-662.339 239.71 809.784 -25.4106 -542.317 161.468 563.26 -72.2233 -89.4141 267.873 535.311 -42.2822 70.7049 -1160.46 -1056.92 2198.39 1055.53 405.732 62.1111 -107.333 31.1865 247.7 -56.7847 730.143 -381.576 309.111 698.543 111.143 -413.516 412.471 809.65 163.801 -48.0629 128.372 295.145 19.444 
-693.763 -165.551 32.9639 -575.251 -560.353 -176.656 7.79358 -459.904 -200.347 3.85311 25.9302 -456.495 1235.02 -383.127 1144.76 2068.66 993.043 627.851 422.519 479.232 545.067 464.574 480.813 586.608 -381.265 106.016 150.522 -347.081 -395.154 171.407 147.949 -431.969 -79.0989 20.5744 48.827 -220.807 
0 0.395246
 4 36
-175.076 -2.81459 -109.745 -229.548 -134.934 9.54687 -55.5269 -136.714 -81.4691 1.7574 -150.784 -306.26 -24.4547 -42.9633 662.652 851.663 -2.08123 -22.746 -35.5883 173.064 53.6154 -101.853 87.9754 301.385 -150.865 -6.07407 -127.225 -271.975 -173.73 -17.5803 -131.827 -346.453 -57.3685 8.18218 -99.9797 -199.579 
-168.82 123.376 77.7526 -82.5924 -143.986 109.103 78.8237 -10.0589 -75.0479 193.398 -65.0822 -319.915 421.848 -575.679 658.201 688.459 218.828 99.0968 0.43265 91.5382 142.34 -198.99 377.187 115.502 -145.342 79.6794 -13.8061 -237.129 -187.897 115.998 11.3472 -311.745 -43.4199 70.5949 -60.3622 -182.242 
-342.43 -240.35 -128.078 2.59833 -240.898 -257.022 -140.816 81.8315 -131.368 68.7572 -72.5595 -203.902 386.625 -234.243 678.464 409.14 167.089 205.842 -211.99 44.6517 52.0501 -51.3363 209.495 -97.9965 -303.055 -66.2741 -16.5642 -155.879 -362.234 -26.1722 12.3479 -259.89 -99.1119 28.893 -38.4951 -150.896 
-572.104 -459.264 -142.483 40.2023 -478.12 -480.133 -135.679 113.91 -232.351 -107.11 -65.4718 -48.8398 708.345 160.598 126.228 346.774 442.276 344.915 -8.09028 41.9972 328.712 250.672 36.2439 -44.8915 -406.264 -174.211 -23.5524 -114.051 -477.489 -165.287 -16.2554 -177.03 -111.734 0.333854 -14.3761 -76.5343 
0 1.24138
 4 36
-570.895 -242.617 40.9539 -228.506 -370.751 -220.968 67.3624 -107.859 -339.332 -193.832 -127.762 -158.984 1208.16 1036.34 632.544 1385.17 492.38 234.897 -413.222 -278.683 60.8517 395.2 -128.359 111.053 -482.54 -215.279 -61.2743 -248.849 -564.903 -202.003 -95.0279 -305.563 -236.379 -136.065 -100.78 -115.857 
-577.651 -114.995 446.978 39.4761 -491.588 -111.761 345.746 3.08184 -100.133 -124.201 322.941 103.644 148.986 260.723 -892.272 1446.24 611.511 88.8842 -500.42 -238.446 44.5842 334.547 -680.213 551.362 -276.386 28.8087 314.246 75.3308 -278.164 41.2525 349.899 127.127 -30.3951 -44.9214 106.686 -12.802 
-450.022 215.438 432.431 -371.318 -404.054 151.855 285.258 -344.562 -50.8323 105.194 235.247 -203.791 155.579 -261.731 -497.552 1800.31 846.864 256.564 400.503 -15.8612 187.953 346.561 239.837 674.843 -201.391 223.796 365.281 -122.49 -188.488 274.837 412.637 -121.061 -7.85333 55.7566 142.64 -54.732 
-436.641 -57.5022 -187.432 -816.787 -357.359 -42.5104 -135.813 -620.96 -79.9476 -95.1737 -247.204 -595.795 593.777 -37.783 1340.53 1687.84 769.962 334.928 260.155 414.49 418.868 323.264 424.687 470.404 -197.248 53.5729 -108.241 -569.494 -178.676 77.4144 -167.314 -705.307 -55.1178 -43.7661 -96.9691 -297.962 
0 0.64428
 4 36
206.305 -404.483 -844.195 -734.665 155.847 -319.011 -637.35 -533.131 39.3223 -272.556 -653.046 -464.572 195.156 230.711 1197.49 -444.523 -163.681 196.79 678.414 749.434 44.1166 461.864 1075.06 81.5361 160.304 -258.449 -565.458 -510.645 165.742 -331.354 -689.067 -653.094 55.1953 -108.371 -251.329 -145.368 
443.908 132.655 17.9457 63.3097 365.425 156.202 140.724 153.757 223.161 -125.728 -219.909 -18.4217 -174.818 703.76 1660.59 321.155 -506.775 -242.658 -153.705 105.058 -307.43 229.327 2.76711 -262.722 290.976 -26.1123 -191.931 -160.81 339.039 -54.595 -269.809 -195.971 109.038 -72.6349 -180.925 -98.2668 
306.318 384.677 502.093 487.527 220.888 356.81 493.854 361.86 286.972 207.767 162.952 345.274 -707.427 -202.597 -303.903 -700.16 -243.411 -302.147 -391.181 -114.48 -320.877 -173.163 -471.797 -278.437 269.516 186.906 177.889 271.725 312.033 212.189 196.216 349.317 117.518 32.0042 -5.14502 132.404 
-111.147 -173.417 54.1668 313.343 -148.909 -198.039 4.87145 153.101 -18.2107 107.547 172.941 333.319 290.715 42.3675 -777.781 -1000.49 147.403 498.299 260.392 78.5945 244.844 264.695 -157.27 -155.093 54.885 26.2308 109.725 371.284 49.0364 33.6745 130.789 475.495 69.4495 52.9152 74.0735 230.824 
0 -0.214172
 4 36
1144.91 441.817 60.0514 370.626 797.719 130.865 -31.2592 315.328 630.774 420.375 -308.486 525.35 -803.782 -1191.89 -732.759 -3802.9 -182.136 784.309 516.717 489.309 -480.463 315.498 434.232 -1313.71 1072.85 663.657 245.391 501.034 1179.37 781.709 276.517 551.886 479.323 393.291 42.2661 442.865 
1184.3 381.764 951.062 1135.15 945.346 287.905 802.753 883.317 792.566 260.371 191.094 817.465 -304.044 -132.834 1986.56 -1878.65 -477.089 -41.2809 -944.167 165.578 -1244.7 117.004 -421.979 -936.656 907.091 470.882 467.156 675.332 986.992 622.137 541.734 834.178 514.903 127.662 -99.1552 319.328 
1598.9 645.331 1274.12 1196.24 1262.32 276.455 898.921 895.045 1285.33 478.599 287.703 1183.96 -1921.21 900.274 -1172.15 -2211.34 -1060.29 -14.6141 -366.479 44.4954 -2076 955.525 -999.197 -1212.85 1141.87 830.959 989.927 942.105 1361.61 1081.06 1091.01 1112.47 658.815 304.39 210.166 674.068 
1795.01 1093.61 1555.1 1425.14 1261.29 719.223 1329.57 1045.32 1348.85 394.855 638.351 1380.4 -1878.1 -447.922 -1775.6 -2472.54 -658.687 -732.854 -925.575 -567.088 -803.13 -381.956 -1837.47 -1206.78 1513.73 1055.69 985.668 1149.29 1850.66 1275.2 993.02 1498.11 774.252 322.87 308.619 745.918 
0 -2.19126
 4 36
-701.922 -93.4468 221.858 199.016 -524.903 -87.3168 95.6523 92.8288 -395.811 82.0762 271.767 62.664 1061.17 -307.001 -758.84 765.888 384.447 -5.78058 -153.131 -263.21 329.867 -303.173 -190.449 310.186 -581.808 -69.1077 226.452 155.198 -680.984 -26.7323 329.757 185.128 -221.881 26.4709 139.611 11.0845 
-336.283 -79.0582 -211.418 -289.014 -198.081 -94.6745 -218.958 -233.61 -169.711 49.9286 -87.2432 -246.137 393.886 -337.951 -449.283 615.657 105.593 83.5774 92.5121 203.163 87.5657 99.9302 181.789 381.701 -365.428 -10.6627 -16.9712 -149.289 -402.612 28.1871 10.9162 -225.169 -169.733 18.8395 38.8874 -55.8789 
-52.7586 -35.632 -234.541 -353.157 -62.4035 -46.9152 -162.906 -229.258 -50.4808 -65.6849 -160.722 -345.941 28.3383 -108.986 378.856 1146.96 18.1629 3.40417 40.8675 138.443 134.522 101.362 191.825 367.901 -39.9259 -0.75218 -167.784 -370.952 -7.45436 8.11335 -200.777 -480.323 -0.265277 15.9637 -69.7337 -215.605 
4.95123 78.7648 -262.44 -539.186 35.7302 117.202 -187.876 -382.183 -9.93809 -74.8792 -258.922 -459.591 -471.636 279.873 709.628 1085.98 -24.3864 -72.2947 108.853 153.679 33.2872 77.8368 337.097 390.485 -58.4368 -67.3923 -259.696 -502.524 -50.0742 -100.162 -316.001 -632.301 -73.7004 -70.9926 -157.781 -282.499 
0 2.15012
 4 36
1479.51 310.708 510.016 1071.53 1021.66 70.2551 338.445 730.94 812.351 82.9356 268.576 1545.55 -1187.75 -36.7355 -2899.82 -5676.53 -163.839 838.499 458.069 -361.086 -469.772 727.116 -636.41 -1999.09 1406.86 448.6 495.226 1288.45 1591.07 482.72 484.259 1627.95 579.122 198.011 301.418 975.341 
1471.92 9.2851 576.403 1169.9 1189.64 78.0335 441.162 676.233 715.045 -340.593 383.939 1590.7 -1029.89 1582.04 -788.436 -4377.53 -613.347 -218.359 -372.795 -304.037 -1077.78 280.274 -1206.22 -1154.26 1140.97 24.4746 340.104 1283.94 1276.31 -19.7438 369.723 1691.74 512.6 -126.903 89.1654 822.967 
2225.74 1014 1151.05 846.528 1754.45 749.558 841.749 428.492 1420.09 243.187 247.307 1392.3 -2183.29 1713.38 -1884.19 -3373.91 -1480.26 -592.705 416.505 192.881 -1961.13 701.568 -731.439 -885.705 1639.25 737.408 731.105 1151.54 1939.6 851.751 751.042 1519.75 712.145 128.173 197.42 946.274 
2772.09 1858.42 1719.01 1284.65 2060.34 1494.79 1490.1 859.599 1767.63 611.042 676.865 1394.87 -3144.77 -852.006 -1458.07 -2492.01 -1399.56 -1422.59 -1025.44 -530.897 -1478.68 -953.329 -1770.32 -999.484 2225.39 1337.76 947.026 1241.33 2679.19 1549.84 944.955 1659.37 972.743 327.785 316.183 844.162 
0 -0.771962
 4 36
-56.1365 -808.098 -948.051 -665.618 -106.136 -647.096 -704.427 -555.165 -146.442 -668.08 -483.803 -149.125 352.984 1040.79 315.875 -427.649 98.6227 382.734 716.179 321.544 390.091 763.779 484.016 99.8264 10.2686 -613.041 -705.671 -350.55 -1.81325 -801.015 -877.942 -389.11 -41.6469 -305.333 -219.474 -27.3429 
550.899 -19.0401 -355.121 -119.433 510.961 163.792 -166.954 -77.892 10.9326 -464.423 -293.853 117.84 317.416 1629.82 533.876 -589.961 -378.592 -292.567 417.972 -124.608 90.3935 324.647 -83.6573 -305.886 233.874 -364.226 -442.224 -71.2638 257.173 -531.081 -543.809 -33.0537 -17.6705 -235.89 -149.824 27.2892 
565.819 643.257 465.525 380.499 454.25 625.273 468.81 230.994 371.344 298.439 26.9103 266.8 -192.155 222.156 124.115 -1049.72 -435.099 -597.18 -128.598 2.31112 -232.66 -518.824 -32.3867 -206.035 408.035 177.529 -1.16305 244.556 466.334 181.313 2.56007 324.873 69.6539 -31.18 -112.151 120.829 
-111.906 -203.734 -12.5225 320.885 -176.09 -281.116 -70.4687 200.856 36.1776 219.459 86.4858 341.424 410.343 56.4994 -492.078 -736.522 382.048 768.104 175.875 169.562 355.236 385.472 -180.276 -164.299 91.1415 74.9272 69.9673 318.737 78.1461 106.147 97.0165 372.072 101.577 111.335 26.1418 228.68 
0 0.259037
 4 36
1745.04 359.117 548.244 1316.61 1292.01 150.622 340.074 896.043 856.133 154.077 299.473 1770.3 -867.806 -485.656 -3234.63 -6565.25 -387.508 691.858 424.582 -357.588 -587.625 535.006 -592.85 -2294.28 1510.38 470.509 602.984 1537.77 1691.59 534.962 627.613 1922.07 577.563 189.659 329.096 1125.53 
1586.42 -235.698 308.316 1136.97 1256.25 -203.263 192.62 631.493 808.536 -485.036 288.684 1760.61 -1322.54 1590.57 -917.881 -4692.14 -940.213 -201.645 -399.823 -89.2095 -1191.1 492.902 -1275.63 -1227.61 1281.68 -15.1078 268.965 1351.66 1455.1 -57.1048 256.206 1770.61 578.956 -153.269 77.2963 918.889 
2516.87 996.39 914.978 600.71 1960.85 787.53 715.975 199.788 1520.01 63.8881 109.494 1380.47 -2639.44 1892.94 -1433.82 -3453.88 -1720.07 -745.968 585.987 415.878 -1973.85 838.939 -636.776 -766.495 1901.2 687.464 543.953 1062.79 2253.55 748.771 513.509 1446.69 812.177 66.62 151.395 979.583 
3279.23 2093.06 1585.55 1039.99 2478.9 1770.77 1429 621.799 1959.19 556.362 493.694 1282.97 -3604.34 -385.384 -813.804 -2697.52 -1817.84 -1654.99 -887.441 -318.852 -1630.36 -942.338 -1567.62 -933.484 2587.78 1347.7 737.841 1118.38 3102.82 1517.55 682.715 1536.13 1054.37 240.395 207.038 815.539 
0 -1.00382
 4 36
267.732 91.0402 -413.824 -452.182 247.315 173.591 -257.881 -333.696 49.3042 -93.9271 -397.082 -339.947 14.7101 767.459 1435.76 73.722 -372.658 -288.592 238.375 410.92 -93.3657 -78.2379 481.26 192.626 117.884 -94.8225 -417.663 -375.125 137.205 -143.858 -506.417 -451.269 -9.11591 -111.34 -228.672 -173.019 
-23.8041 -114.711 -367.797 -348.512 -47.9276 -121.633 -275.375 -223.186 8.63711 -28.4986 -291.557 -317.414 69.2643 49.2264 1284.91 415.664 -117.721 -82.9327 109.107 366.55 144.842 -92.0866 452.113 68.5822 15.4456 -81.9957 -303.17 -366.588 9.73019 -105.25 -379.314 -459.103 -20.7566 -42.2269 -178.147 -175.081 
-520.425 -598.142 -621.814 -349.532 -419.744 -466.126 -477.318 -232.376 -336.659 -287.528 -302.607 -257.182 501.193 351.915 1258.37 241.13 330.882 414.943 178.125 210.753 443.489 288.6 376.445 -31.1272 -326.402 -392.946 -400.047 -321.767 -412.763 -482.522 -456.398 -412.017 -136.571 -122.002 -156.126 -148.671 
-439.437 -564.872 -466.133 -202.875 -296.955 -418.593 -330.596 -122.084 -363.85 -322.026 -309.753 -145.587 971.685 931.088 553.927 -47.0536 120.14 184.59 125.647 61.6546 216.584 202.868 154.373 -35.8884 -396.005 -451.236 -367.115 -204.799 -495.945 -538.121 -417.952 -242.579 -182.187 -168.359 -148.991 -81.6761 
0 1.09187
 4 36
-338.763 -294.628 -282.457 -551.159 -208.224 -218.351 -147.371 -363.263 -229.302 -330.944 -376.281 -346.577 811.289 1012.28 1017.02 1365.48 243.963 136.015 -234.083 -1.29015 13.5532 358.811 23.1324 237.138 -329.273 -325.951 -346.232 -488.257 -383.73 -375.925 -458.437 -577.692 -191.458 -227.447 -233.606 -206.266 
-476.499 -133.14 204.567 -201.977 -410.805 -107.265 171.034 -143.748 -119.236 -175.066 123.397 -97.5289 416.485 440.527 -272.197 1451.37 555.294 139.089 -305.318 -26.5322 246.776 211.832 -417.026 503.353 -238.698 -79.2686 72.9004 -174.787 -252.914 -114.322 39.1682 -165.339 -54.4122 -99.1838 3.54092 -105.212 
-522.082 85.794 305.723 -286.159 -433.381 90.2709 204.656 -256.532 -187.486 50.6403 219.457 -235.064 510.883 31.3411 51.3566 1557.64 823.656 283.339 318.008 -54.6975 352.293 247.582 250.749 486.435 -300.841 58.8701 222.22 -148.676 -334.376 73.5723 260.345 -157.844 -83.7288 6.79918 94.1821 -106.958 
-526.396 -194.314 -201.537 -559.694 -413.447 -152.625 -180.923 -413.341 -185.801 -84.6781 -163.3 -421.719 716.089 244.264 740.283 968.654 626.907 273.328 206.002 217.263 343.363 272.434 283.084 257.32 -322.966 -61.3328 -64.9954 -380.554 -346.719 -62.915 -88.2733 -477.836 -110.227 -53.4793 -52.2229 -215.161 
0 -0.851986
 4 36
-578.96 -416.416 -345.117 -517.971 -452.051 -306.276 -234.136 -406.903 -349.213 -343.907 -240.392 -333.906 638.578 847.102 426.426 959.465 284.067 122.314 154.572 125.919 341.878 247.77 56.7603 433.039 -469.925 -397.606 -363.838 -421.568 -541.298 -483.026 -457.152 -484.71 -213.588 -189.501 -144.703 -198.86 
-463.127 -145.138 -126.771 -358.282 -327.036 -45.2735 -68.9136 -238.742 -292.9 -123.9 -96.6474 -371.452 614.495 311.238 -120.551 841.861 480.837 93.7254 149.704 37.204 448.726 -20.0515 -27.8177 325.156 -400.603 -225.019 -174.652 -354.964 -467.083 -280.361 -212.354 -408.754 -205.286 -111.515 -64.6482 -168.38 
-459.378 -74.9674 -4.80384 -105.724 -329.92 -35.0632 -1.67424 -36.5463 -258.303 -11.2265 50.9103 -257.433 584.414 -21.7827 198.233 964.588 290.131 35.0011 5.45984 -139.845 303.18 -153.033 154.668 214.356 -361.971 -113.36 -54.0247 -199.449 -410.986 -116.049 -40.0347 -246.983 -158.938 -24.1929 -23.7581 -190.585 
-551.061 -241.691 -246.515 -356.14 -428.779 -209.374 -234.443 -246.89 -243.915 -58.5236 -106.642 -316.588 428.825 3.05877 227.333 899.246 370.332 165.607 118.529 99.3817 220.712 62.795 241.528 362.057 -427.561 -171.57 -118.563 -289.547 -492.145 -194.465 -115.365 -379.53 -179.605 -55.7951 -43.6991 -188.731 
0 1.82825
 4 36
1098.35 609.907 473.639 793.616 842.841 334.177 245.888 576.013 532.893 483.404 139.703 827.264 -633.01 -1408.96 -1552.56 -3346.94 -340.489 217.201 -58.3902 -20.9753 -587.698 -134.55 -190.632 -1262.12 918.844 657.38 562.592 827.038 1019.19 808.028 659.339 980.61 367.92 330.852 207.944 572.702 
914.742 191.647 679.141 872.337 700.45 49.8887 478.239 610.031 669.2 124.128 340.7 920.523 -1031.65 -268.096 -225.978 -1560.81 -579.678 -140.647 -889.062 -4.47254 -1020.86 141.662 -943.111 -602.29 806.135 417.019 524.11 755.213 921.399 521.219 568.971 958.367 420.268 109.061 98.7236 454.419 
1335.09 521.005 785.762 633.931 1000.24 307.965 532.198 384.792 862.643 147.855 356.409 899.561 -1749.51 489.017 -1435.89 -1346.77 -702.471 -60.7854 148.352 -158.398 -1224.49 684.575 -825.702 -593.579 1063.93 589.548 687.44 717.837 1261.84 700.932 726.962 934.492 551.959 195.124 262.988 560.952 
2051.72 1322.39 993.779 671.642 1614.29 1155.83 877.82 414.862 1164.61 248.301 333.575 776.518 -2017.29 55.1762 -625.845 -1955.87 -1207.2 -1075.61 -497.136 -415.058 -978.833 -488.636 -1042.34 -801.505 1519.83 827.47 548.209 695.285 1826.53 926.895 538.243 954.88 613.462 153.289 178.636 463.859 
0 -1.45611
 4 36
301.896 462.2 446.861 735.155 260.367 388.151 281.599 534.672 87.0163 439.504 496.776 372.97 -148.355 -1247.66 -609.396 -256.506 -188.186 -353.778 -363.787 -367.141 -61.2014 -783.226 -273.263 -212.046 189.713 364.932 478.452 553.422 209.297 449.854 636.812 650.771 55.5523 180.391 220.148 185.724 
82.4485 -180.912 -370.088 57.184 52.3266 -262.18 -404.923 1.76424 -22.7045 74.4336 -48.3296 162.803 319.691 -668.293 -314.546 -592.672 -306.919 221.342 161.554 48.8006 38.6929 46.6988 274.203 -176.722 66.9269 56.1121 -8.81527 194.692 62.307 82.8318 22.4147 191.138 4.9847 102.865 84.7455 119.91 
115.35 -441.454 -682.094 -281.068 86.4532 -360.316 -545.447 -233.303 -154.413 -271.233 -349.815 -75.7844 637.584 407.765 615.52 -432.306 -141.945 289.454 302.107 249.686 224.213 272.986 258.856 -13.6594 47.8073 -269.946 -380.248 -133.016 17.4574 -339.255 -445.735 -177.639 -25.6677 -85.5336 -102.812 2.15306 
562.977 50.4512 -227.754 10.469 543.209 137.49 -127.947 20.0544 47.8902 -138.247 -240.177 3.58967 -63.3292 830.445 640.95 -554.975 -669.296 -252.705 -25.2423 -34.2428 -235.244 39.0365 86.3709 -260.76 238.767 -129.13 -262.201 -58.5617 245.005 -174.159 -300.469 -60.8396 15.103 -71.2404 -130.468 -3.113 
0 0.40886
 4 36
1679.13 364.682 -255.781 -179.512 1327.67 270.186 -147.271 -97.0668 875.942 -121.54 -628.582 319.692 -1304.14 712.707 501.414 -3104.68 -989.528 -54.7576 269.124 533.326 -982.147 669.034 264.018 -1069.05 1287.52 253.334 -244.022 63.4524 1489.66 258.097 -399.718 88.3926 473.598 -25.082 -216.387 294.564 
1356.45 516.758 774.911 673.348 945.906 403.131 712.406 488.674 960.522 -60.281 234.562 827.708 -2248.03 813.001 268.341 -1387.12 -935.061 -796.95 -875.599 -9.9173 -1092.97 -53.5643 -997.715 -589.599 1257.56 392.818 296.726 507.199 1487.54 404.958 226.065 723.882 600.835 -17.2599 -64.8436 327.106 
973.875 668.509 863.908 524.975 665.172 541.154 649.17 243.431 777.894 194.273 471.765 832.134 -2477.45 -183.086 -1193.74 -1699.88 -347.59 -481.711 -18.3516 -120.969 -880.779 48.7008 -753.301 -545.72 964.856 520.601 620.246 720.43 1132.26 551.073 651.26 980.204 463.536 99.3107 239.77 548.888 
895.763 559.99 702.958 665.382 592.303 448.9 593.982 395.148 606.108 154.995 404.33 778.538 -648.659 -175.224 -860.506 -1977.04 -225.255 -321.606 -102.003 -158.714 -246.594 -250.869 -785.161 -679.011 924.942 495.474 478.4 769.855 1099.38 547.272 492.812 1039.62 448.883 112.848 241.45 507.807 
0 -3.07688
 4 36
-301.218 -497.179 -769.497 -739.254 -236.553 -339.192 -530.746 -532.9 -270.058 -350.227 -530.586 -552.416 628.667 699.105 1399.09 505.82 133.546 222.189 533.003 536.927 378.346 275.21 741.185 365.339 -259.031 -422.188 -625.412 -596.295 -318.469 -544.786 -760.174 -728.905 -150.132 -192.09 -271.505 -272.134 
-270.06 -227.678 -301.6 -213.746 -188.143 -118.763 -165.7 -69.8071 -263.559 -144.691 -278.725 -345.41 1094.67 320.207 1496.26 596.513 263.947 200.691 235.455 155.531 433.837 63.2493 387.199 -37.5205 -271.184 -285.801 -364.491 -390.983 -350.88 -349.848 -425.597 -480.297 -150.316 -111.492 -193.535 -229.755 
-362.374 -235.271 -118.598 90.187 -225.241 -165.044 -45.4213 125.821 -191.747 1.3613 -138.849 -95.6417 885.762 284.614 806.96 49.3026 101.344 149.365 -126.381 84.3242 147.087 1.17987 212.248 -109.278 -348.127 -220.912 -176.955 -101.233 -427.283 -227.22 -165.337 -156.186 -167.421 -62.2728 -134.343 -112.47 
-593.149 -565.932 -308.867 -55.7245 -484.193 -544.126 -274.845 -35.742 -289.513 -81.3716 -137.062 -29.2665 1022.86 395.325 101.831 127.687 392.653 512.034 162.075 215.347 358.724 338.33 125.619 115.749 -432.262 -268.695 -152.334 -52.6175 -520.735 -282.633 -157.913 -83.8007 -147.701 -45.2949 -65.053 -9.57697 
0 0.88611
 4 36
106.184 -131.328 -244.498 -443.981 126.118 -77.5138 -93.9128 -246.187 11.5844 -274.412 -409.604 -225.026 1035.55 1341.42 1362.58 1138.67 366.4 315.252 -134.666 139.435 55.681 550.404 185.837 25.1776 48.9643 -171.763 -294.954 -361.608 55.6587 -218.285 -412.15 -422.066 -48.2192 -161.761 -218.913 -119.313 
-302.125 -206.513 342.767 145.681 -314.644 -131.522 326.61 104.243 -41.2721 -214.249 207.515 205.097 523.218 123.454 -236.869 1125.37 732.156 38.9603 -635.31 -166.662 154.882 -16.0037 -539.262 321.597 -26.2676 -95.3876 119.409 101.41 -26.4518 -138.212 108.779 198.529 50.7709 -108.578 -30.9009 -6.5285 
-449.126 -112.941 200.56 -182.617 -336.386 -71.8227 81.8375 -205.685 -163.196 -61.0543 117.707 82.0975 446.172 -307.385 -694.821 1168.33 809.765 202.987 186.542 67.5322 -12.849 280.96 45.5898 454.268 -302.278 -57.9955 238.573 97.6922 -360.298 -56.2849 276.286 169.968 -102.854 -52.5717 85.6162 111.136 
-396.332 -264.861 -102.887 -348.83 -334.577 -227.699 -69.5315 -293.492 -120.459 -146.736 -91.4679 -112.675 1100.11 -149.908 846.286 1377.71 776.962 238.314 167.516 430.74 395.36 201.23 172.377 411.554 -196.655 -51.3884 -3.51726 -131.618 -204.86 -28.2926 -41.1589 -130.046 -44.6552 -59.7904 -9.21301 -30.0256 
0 0.725645
 4 36
148.638 -204.188 46.8562 62.9341 220.354 -96.9398 103.999 136.236 104.77 -217.39 -71.7784 -10.8512 -345.262 -15.1343 290.257 596.912 -361.704 -202.107 -554.622 -222.27 -370.659 258.604 -382.407 -160.877 -29.9567 -172.219 -31.0356 -85.1968 -20.6612 -186.574 -50.9762 -120.172 -49.6755 -165.652 -121.267 -102.13 
61.1921 -7.00016 66.0866 -7.41276 -46.4322 -33.2718 78.5691 -20.6965 77.8814 -173.04 99.7573 131.068 -904.335 -92.9586 -1011.43 28.3203 -169.786 -145.48 -37.2732 -191.261 -58.2486 64.612 -142.089 40.2526 173.421 36.4017 61.2641 52.335 241.818 19.172 42.686 91.3462 138.973 7.92793 65.2643 8.61873 
