5 5
-0.317087 0.779504 -0.632282 0.00189215 -0.665242 
-0.1901 0.0761742 -0.519852 0.931455 -0.823908 
-0.199774 0.10715 -0.195502 0.25248 -0.355296 
-0.00650044 0.331492 -0.547594 0.745811 -0.853236 
-0.199561 0.330149 -0.403516 0.365703 -0.699576 
5 5
-0.235328 0.919706 -0.780297 0.591784 -0.0745262 
-0.0831019 0.561296 -0.491684 0.476363 -0.0827662 
-0.417585 0.944884 -0.287027 0.431318 -0.157384 
-0.988098 0.511856 -0.265542 0.411969 -0.103122 
-0.0791345 0.179846 -0.759789 0.969237 -0.207526 
5 5
-0.249489 0.282144 -0.920835 0.657857 -0.399304 
-0.0821863 0.516404 -0.651509 0.774377 -0.797388 
-0.125248 0.735557 -0.268929 0.637898 -0.937651 
-0.376782 0.869961 -0.981445 0.305277 -0.565294 
-0.970977 0.0559099 -0.818354 0.209021 -0.313272 
5 5
-0.741508 0.0244758 -0.600909 0.710196 -0.0226142 
-0.197302 0.739097 -0.210578 0.122105 -0.0594195 
-0.782281 0.858547 -0.847926 0.867244 -0.420789 
-0.704428 0.184027 -0.762932 0.445265 -0.224647 
-0.65688 0.800684 -0.293466 0.805567 -0.508164 
5 5
-0.552477 0.857173 -0.448225 0.205969 -0.700766 
-0.329783 0.350078 -0.324473 0.523331 -0.376568 
-0.519761 0.324595 -0.677084 0.408155 -0.0814844 
-0.265877 0.186926 -0.238746 0.42497 -0.981475 
-0.046205 0.910642 -0.857601 0.747124 -0.334147 
3 3
-0.965697 0.914335 -0.97586 
-0.25779 0.945463 -0.982635 
-0.96878 0.0235298 -0.401196 
3 3
-0.397595 0.254219 -0.945189 
-0.194647 0.664327 -0.545976 
-0.694601 0.371258 -0.963378 
3 3
-0.851558 0.101138 -0.386822 
-0.595813 0.762566 -0.40614 
-0.969024 0.523667 -0.457656 
3 3
-0.378796 0.394726 -0.66277 
-0.449812 0.19953 -0.464949 
-0.083346 0.608753 -0.517319 
3 3
-0.957945 0.775414 -0.490371 
-0.586901 0.842158 -0.134678 
-0.503677 0.892666 -0.030427 
3 3
-0.825526 0.947203 -0.164525 
-0.956297 0.176946 -0.445479 
-0.193426 0.753502 -0.768456 
3 3
-0.817469 0.351085 -0.320902 
-0.360912 0.907682 -0.221686 
-0.0529801 0.830195 -0.411451 
3 3
-0.250893 0.517594 -0.258309 
-0.225745 0.818659 -0.862423 
-0.839442 0.356426 -0.642232 
3 3
-0.231025 0.756493 -0.913572 
-0.915494 0.970244 -0.68453 
-0.225654 0.0906095 -0.909238 
3 3
-0.0777612 0.604663 -0.709067 
-0.492721 0.895566 -0.792169 
-0.187048 0.048616 -0.924284 
3 3
-0.618793 0.962859 -0.971618 
-0.351329 0.907712 -0.911374 
-0.104312 0.747124 -0.153264 
3 3
-0.43263 0.0966216 -0.111484 
-0.00668355 0.120426 -0.0251473 
-0.141087 0.0993377 -0.417219 
3 3
-0.0532853 0.373455 -0.235145 
-0.161534 0.413923 -0.36433 
-0.483657 0.43437 -0.495437 
3 3
-0.554521 0.204443 -0.610523 
-0.31251 0.982543 -0.534654 
-0.0213935 0.14301 -0.498886 
3 3
-0.370403 0.135228 -0.612049 
-0.638813 0.373943 -0.661214 
-0.00460829 0.809565 -0.03708 
3 3
-0.483657 0.0880154 -0.948027 
-0.332743 0.832728 -0.225196 
-0.305612 0.985687 -0.597278 
3 3
-0.0604877 0.516312 -0.893277 
-0.186987 0.558763 -0.604022 
-0.728477 0.849361 -0.679312 
3 3
-0.085757 0.255104 -0.847865 
-0.465896 0.826777 -0.387768 
-0.408155 0.83404 -0.803827 
3 3
-0.526749 0.837642 -0.836604 
-0.432936 0.199774 -0.725333 
-0.689413 0.617878 -0.541765 
3 3
-0.62804 0.337779 -0.175542 
-0.643452 0.149052 -0.845271 
-0.794733 0.300516 -0.815882 
3 3
-0.385998 0.183874 -0.194464 
-0.662526 0.121799 -0.565233 
-0.036256 0.923887 -0.74517 
3 3
-0.170232 0.704123 -0.746941 
-0.969726 0.893735 -0.906796 
-0.326426 0.749046 -0.762108 
3 3
-0.403241 0.370067 -0.505325 
-0.37257 0.310617 -0.300455 
-0.149052 0.959166 -0.531022 
3 3
-0.0993683 0.170812 -0.241798 
-0.8287 0.201056 -0.58684 
-0.715323 0.589068 -0.340342 
3 3
-0.0192267 0.533494 -0.79046 
-0.762383 0.692038 -0.645741 
-0.22013 0.699698 -0.624836 
3 3
-0.34138 0.465499 -0.523362 
-0.804743 0.858882 -0.71218 
-0.47383 0.618091 -0.215339 
3 3
-0.879818 0.378582 -0.323344 
-0.91348 0.12714 -0.26191 
-0.845973 0.681082 -0.257363 
3 3
-0.253945 0.677145 -0.900662 
-0.0550554 0.704337 -0.156957 
-0.884396 0.0863063 -0.907559 
3 3
-0.923917 0.65096 -0.992676 
-0.345775 0.811335 -0.360912 
-0.810541 0.855403 -0.972655 
3 3
-0.0661946 0.347484 -0.623768 
-0.516221 0.930601 -0.146031 
-0.422193 0.431196 -0.57683 
3 3
-0.0668355 0.981689 -0.085818 
-0.717215 0.0222785 -0.917203 
-0.0789514 0.723594 -0.891537 
3 3
-0.107242 0.726646 -0.292886 
-0.148656 0.934874 -0.964476 
-0.864834 0.234809 -0.295755 
3 3
-0.947417 0.947691 -0.205847 
-0.780816 0.127995 -0.00842311 
-0.686453 0.938261 -0.0944243 
3 3
-0.0839564 0.662313 -0.0223701 
-0.949461 0.768822 -0.141362 
-0.134861 0.511765 -0.736259 
3 3
-0.215522 0.164617 -0.120731 
-0.448988 0.553819 -0.43321 
-0.326182 0.215369 -0.858638 
3 3
-0.451003 0.243629 -0.247597 
-0.31605 0.691519 -0.85754 
-0.878292 0.571581 -0.789087 
3 3
-0.0523392 0.591052 -0.262429 
-0.0669271 0.653829 -0.0224006 
-0.637806 0.801447 -0.261116 
3 3
-0.590258 0.298196 -0.128941 
-0.15128 0.905393 -0.585376 
-0.00143437 0.03708 -0.622974 
3 3
-0.653462 0.0974151 -0.959746 
-0.88934 0.753533 -0.0938749 
-0.0976287 0.0407117 -0.761956 
3 3
-0.206091 0.772454 -0.710593 
-0.484176 0.400983 -0.433393 
-0.000762963 0.765191 -0.190771 
3 3
-0.901639 0.874111 -0.938047 
-0.412946 0.655568 -0.423231 
-0.641163 0.902646 -0.438307 
3 3
-0.173132 0.536332 -0.463942 
-0.968841 0.0729698 -0.958312 
-0.0464187 0.0376598 -0.333598 
3 3
-0.0270089 0.532731 -0.768883 
-0.76693 0.254433 -0.0438856 
-0.329081 0.783715 -0.176244 
3 3
-0.168493 0.865139 -0.70571 
-0.0406201 0.0219123 -0.951384 
-0.548479 0.0847194 -0.541734 
3 3
-0.328288 0.931089 -0.430189 
-0.925932 0.212867 -0.269234 
-0.129246 0.6198 -0.963134 
3 3
-0.907651 0.392407 -0.758049 
-0.37669 0.348216 -0.528916 
-0.46794 0.406049 -0.230079 
3 3
-0.631611 0.940489 -0.570696 
-0.217994 0.536729 -0.674917 
-0.847804 0.455061 -0.0909757 
3 3
-0.803766 0.322855 -0.736167 
-0.255867 0.903836 -0.381115 
-0.0583514 0.081576 -0.200018 
3 3
-0.721366 0.704642 -0.0811182 
-0.567888 0.973327 -0.516831 
-0.0360729 0.241249 -0.199622 
3 3
-0.514451 0.765374 -0.631245 
-0.0640584 0.515458 -0.887875 
-0.162694 0.946684 -0.915098 
1 100
5 250
-2.96192 36.3864 -13.3328 -13.9731 -11.0256 1.83847 34.7684 -11.2995 -24.9781 -9.53254 -3.27745 16.0717 11.8488 -11.8607 -18.2412 5.37237 13.9697 -10.1044 -28.0257 -13.1695 -8.67548 -9.7113 1.22831 0.54388 -16.8651 2.45335 15.6042 11.7884 -14.1803 -26.4541 -3.47995 -1.40753 -13.0897 2.53262 -20.6532 -4.72361 22.1567 -17.2631 -17.6334 -6.56189 -0.755184 34.6211 -24.6944 -7.53385 -19.3004 0.404291 34.1833 -23.4083 -13.7198 -10.1519 -13.3192 -12.6235 -8.78544 -2.7059 -32.5821 -0.844032 -8.97029 -3.44224 -1.11874 3.80461 -4.03994 -10.6935 -10.806 1.03446 -11.3893 -1.4156 -11.4507 -4.9407 1.17203 -8.20285 -9.1126 -6.60018 -13.562 -12.5028 -23.674 -8.19296 -13.5306 -6.03671 -12.3675 -19.9657 -8.33102 -15.7376 -21.4641 2.87717 -21.6453 -6.20849 -18.8065 -14.0072 -3.85381 -17.2794 -3.80151 -11.7729 -20.2734 5.04451 -8.94699 -1.91324 -16.8183 -29.6726 10.0769 6.35844 -0.276028 50.0932 5.46776 -4.90325 -18.9166 -8.16372 54.9575 -0.89335 -0.68983 -23.4013 1.96342 30.4083 -4.11764 -8.91667 -26.1251 -5.50204 18.0143 46.5128 -8.06863 -24.1345 -3.83843 43.2395 -7.57962 -7.60308 -23.45 -6.87022 22.1506 16.8321 2.16374 -31.1121 -2.57893 10.5809 71.1249 2.53652 -27.4308 -1.31986 38.6222 1.73177 12.2358 10.4541 -5.3747 43.9058 5.44052 6.34726 -34.1931 -5.44475 22.2877 -13.5299 1.94562 -19.8934 2.77231 4.46161 19.8765 -11.8298 -25.507 -4.56658 -5.73824 -4.29596 -9.45161 -31.8853 -3.34592 3.41192 9.82596 -20.0051 -29.9682 -2.13516 -6.45188 9.23152 -32.6706 -24.6015 2.04363 -0.365898 12.7876 1.6249 -11.0825 0.32339 -5.35175 8.35598 -5.49938 -26.2989 -8.60196 -8.12194 1.68833 -44.0982 -25.02 2.14574 -1.71174 30.8027 5.2007 -10.5256 2.15796 -1.04513 10.2393 7.01403 -8.98511 -2.08773 -6.67574 16.376 -46.4382 -34.0024 -3.78466 12.5882 -17.4003 -13.8623 -26.4968 2.64937 22.2896 -1.06236 -8.6939 -18.4706 -5.41116 -1.29753 -15.9468 -9.85834 -17.0343 0.101421 30.6268 -3.00803 5.18895 -10.414 -2.39354 16.3704 4.52509 5.06171 -30.6006 2.66763 15.3605 -10.4735 -18.5829 -18.8412 -5.25831 11.0812 -7.88565 4.41225 -17.7757 0.452809 11.7076 -18.105 -2.10231 -10.6075 -4.44834 7.60442 -6.85699 12.3177 -21.6353 1.89622 19.6824 -13.9153 -23.2781 -25.5027 
2.42825 0.694085 -15.4146 -43.0907 3.27163 0.712314 4.31362 -1.29289 -17.8334 5.60251 -16.5036 1.06727 18.3791 -41.9294 19.0248 7.49707 22.1254 13.7704 -19.5143 2.79642 -9.43561 -1.47777 28.7921 -57.574 7.89091 -5.3357 1.68687 12.0105 -15.6851 12.4373 3.42062 -2.88789 25.0423 -44.1464 -2.1942 -2.33216 -14.8535 -16.7411 -12.69 14.066 -1.83848 -3.24703 -17.6804 -29.9124 7.93931 4.84686 -12.5843 -21.7495 -10.3432 4.15355 -29.2464 -19.7478 -13.1754 0.569146 2.10913 3.04778 -1.17888 -9.04496 -12.3929 -2.33342 -8.68366 -0.770617 -7.45913 -17.9677 -4.3054 -12.9322 -8.28532 -10.7946 -7.56182 1.18504 -14.2523 -24.119 -36.3449 2.60666 18.2371 -18.933 -16.7305 -27.3019 -10.4093 11.2574 -17.7308 -10.5454 -2.60039 -10.8336 -2.4827 -19.497 -11.0249 -15.9344 -12.5857 6.92057 -5.1366 -11.1915 -20.1272 -8.41042 -9.23563 15.4656 -18.1162 -33.2519 -25.8912 -6.80948 -2.44381 -11.1078 27.1464 -7.75835 8.38071 -3.18356 -8.20296 1.49136 -38.5856 3.75261 -1.16749 8.25799 19.4939 -14.9711 1.91774 -12.385 -8.41914 -1.45996 -25.9979 40.6708 -5.20594 3.57027 -0.155984 -32.1132 2.58186 -2.733 -5.54169 7.18135 -27.9118 11.0325 -19.743 -6.42356 18.9641 -42.7654 31.9139 -0.950767 -45.2447 -67.3488 -4.75111 4.31826 0.469938 -19.1659 24.4933 -25.7657 3.442 1.31764 -24.6527 -11.1963 -37.853 3.6523 -22.3019 -2.5753 25.1108 -73.4318 -6.0996 -7.25065 -16.2338 5.3785 -69.5207 -17.3207 -13.5934 -4.53314 -16.9003 37.3783 -18.0187 -10.6273 10.6771 -21.5061 -38.9958 -7.36555 -18.7759 -1.27832 -0.718652 -33.7635 0.956487 -16.0254 -8.67627 -3.33107 -45.414 -9.35542 -9.8732 6.90109 -14.7234 -18.545 -25.843 -16.6051 5.85446 18.236 -43.8136 8.40622 -13.0924 13.4508 -0.925514 -3.91482 -0.162134 -14.6962 11.0712 7.17289 -37.8022 -20.3623 4.95113 7.25565 21.167 -26.1458 -0.660233 9.78426 17.8436 29.4341 26.4182 3.65849 -0.169218 9.20435 13.7431 -15.3552 3.71567 11.4837 15.352 9.16142 6.96729 3.73693 4.54303 -0.103605 11.3667 0.703814 2.35098 6.80874 11.5206 27.625 -3.25032 3.53661 3.50841 0.826144 19.2968 -19.1967 5.33764 8.3537 6.9544 16.0652 -10.5857 -5.29521 1.36653 -7.55649 5.34769 -25.3355 -4.63776 19.3237 7.43001 11.6907 -13.7306 -4.96004 
-18.2168 -70.0563 -11.8282 -4.98976 31.2643 -19.208 -64.3945 5.96591 12.7611 22.1912 -31.8034 -33.0961 -25.5532 -8.81242 47.6192 -17.373 -41.6619 -6.73954 4.04136 21.0132 -17.7665 3.92882 -18.9253 -24.5638 34.9696 -37.8617 -42.0846 -14.0975 -20.8197 33.6061 -13.127 2.28286 -2.15363 -14.3468 31.2162 -14.5467 -42.9829 -7.51017 -4.51346 14.8724 -24.1542 -65.5076 -1.53679 -0.978404 16.9227 -13.9162 -50.7568 -0.948721 7.53361 8.35294 -24.1769 17.5561 -20.0862 -44.2469 27.6707 5.7539 0.266972 2.6928 3.04107 -3.7578 -7.84192 2.42967 -0.294679 -16.3759 11.2335 0.414126 2.45264 -0.0736594 -20.0208 6.86503 2.2857 18.416 -21.6267 -28.0433 -3.16947 -2.27102 14.8649 -25.4473 -28.6148 21.9472 -14.431 2.53749 4.51185 -27.8558 17.5766 -9.11051 4.48046 3.25311 -28.893 22.1811 -1.01957 16.5195 17.439 -22.9595 -16.1187 21.3248 20.8487 32.094 9.43068 -34.1383 -0.69567 -14.6651 -22.7098 -5.36343 39.1508 10.2922 -40.8726 -1.19555 -15.1403 43.2263 7.26951 -22.9463 -15.6417 -17.7805 36.8552 -12.232 -11.135 -17.6044 4.72127 31.4339 12.6774 -42.8272 -10.6324 -5.23453 36.3806 -12.4029 -26.8859 -21.6976 -14.4264 42.8247 -19.1642 -1.93286 -25.0197 -13.8279 64.5662 23.8942 -39.8511 38.7134 15.5158 7.06141 8.60382 -34.5983 9.10858 -23.3015 50.8965 11.3016 -26.3897 7.13576 9.04975 32.2796 -22.9028 23.7755 -63.2654 -21.3232 17.6876 -24.6718 4.50038 -12.1079 -30.0316 19.9821 -3.63925 16.2976 -46.6186 15.3369 -34.9873 -3.78782 11.4908 -40.2946 8.11657 -17.1013 -5.99794 4.27557 -20.1444 -16.7202 2.10956 -15.6163 -2.50344 -28.6159 -35.0852 3.1524 -9.74565 32.0565 -23.4027 8.87037 -2.71146 -6.59099 15.7752 -6.18457 7.0906 12.405 -6.34948 -19.5469 -20.9054 -21.871 -2.74024 -17.199 30.2769 -15.7141 -26.3964 17.7381 -11.4534 6.12767 20.9871 -10.1746 44.9849 -9.25361 -40.7427 -16.2043 -16.844 21.6532 -7.66808 1.19749 -2.1805 -13.6361 23.6963 0.760851 -51.805 0.662092 7.12991 17.7521 -17.8599 -20.6865 -3.24696 -27.7832 27.9023 -10.5598 -16.8545 13.6678 -2.44096 25.7886 -12.5364 -13.6571 9.57464 -9.35992 26.3301 -5.46199 -3.97421 24.2 -7.00121 24.884 -13.6823 6.7844 12.3846 -16.8614 29.0289 -8.45 -5.44387 20.7014 -10.7283 36.4 
48.3297 15.5917 13.1539 -19.8522 11.1439 42.5562 12.323 3.16391 -13.4376 5.18854 44.4918 12.9492 11.2979 -22.3894 5.14184 21.977 -12.1095 -15.4677 -1.34756 5.33009 10.5429 6.78387 -33.6485 -17.1485 10.9805 47.1405 12.763 3.52808 -5.62182 13.4456 7.11615 -7.89372 -48.1583 -8.32634 11.7128 50.315 27.8871 16.0163 -14.661 5.44162 53.1265 24.0186 -7.85613 -1.97672 6.80286 47.5842 29.8702 -2.18799 -5.76903 6.69359 31.0287 51.6242 0.395796 -70.2826 19.7955 -3.39908 -18.1779 0.310695 5.01502 -1.11337 4.5029 -3.11545 -12.0535 -26.8874 18.1638 13.9947 -3.74178 -0.456628 -20.3858 5.05085 21.0502 23.3168 11.1078 -26.4435 -5.97838 30.0285 40.1831 8.93584 -44.7675 11.4117 11.1731 22.604 -8.61106 -67.2224 23.693 18.1971 25.4317 -3.09784 -53.608 16.4773 12.4735 -17.3216 -24.3726 -34.8925 11.7613 -10.8401 -94.6092 -39.2484 19.5795 -5.00469 17.7052 24.3622 9.92516 19.8218 -2.72313 26.5586 50.2121 9.69252 -11.3647 4.42022 14.1471 12.9744 -8.55886 12.4433 6.41686 27.9445 47.8337 36.8197 17.0942 -5.8037 20.9717 40.9462 5.74596 -11.7576 4.62721 21.195 25.8721 12.5351 -5.55394 3.16524 21.7467 40.6565 47.2805 25.9847 0.999488 28.8886 19.0914 -25.5207 14.8356 22.2903 31.195 23.2365 -0.430814 9.82814 15.994 11.4429 10.1571 -13.5161 -0.194965 9.05324 8.21511 14.2169 -4.58496 10.264 -19.9645 13.6696 6.15283 10.2057 -5.44304 -12.1473 26.1972 37.499 11.4195 -16.0039 -24.0461 27.3998 18.0175 5.10276 -3.65734 -19.991 17.9678 -2.28283 16.6438 -1.42755 -15.4382 22.0264 -3.62708 17.1853 -9.44367 -23.2145 22.0723 27.5274 -12.6562 -30.1824 -10.6908 21.8887 7.64246 -3.09702 -9.62554 -8.13956 12.0525 -3.30235 14.1205 -22.0289 -16.0419 2.06109 21.6315 -29.6316 -37.8532 -15.092 -1.40974 3.79528 -7.22529 -10.157 13.7087 17.6474 3.58276 21.1396 13.4107 16.7862 -5.44171 -3.42846 7.96194 -1.10728 8.05534 12.7347 32.1067 22.4074 0.357871 19.9414 12.543 26.2062 10.6539 2.37928 17.0923 5.73661 -6.57062 1.64121 -3.18912 9.3356 3.51759 28.4322 7.25511 -5.37665 16.0413 -3.36324 2.08463 3.00786 -0.545554 3.82518 3.66409 19.3527 2.00426 -5.04796 8.03904 8.16913 20.1124 -0.982277 -28.4666 14.1891 
71.0812 37.5975 5.60397 -25.3353 -9.11345 55.0054 46.2315 -6.39779 -16.3786 -4.09458 49.6784 33.6581 37.5171 -14.9678 -8.41562 40.9622 31.4319 3.90103 -6.47535 -5.26927 34.642 -0.658703 20.0904 -21.6236 -9.9709 47.0089 20.3465 36.5198 -13.1883 -13.6445 32.9199 -2.59201 8.02319 -11.7719 -6.21741 34.1938 11.1626 -22.9578 -22.0538 -5.67072 58.5538 37.2365 -1.74603 -16.3713 -4.5029 47.7153 29.7423 -28.4287 -23.1062 -2.09155 -17.9846 35.6035 -15.162 -49.8216 -1.47953 -0.63258 -10.6874 -7.07302 1.7114 1.5339 -0.833701 20.3863 8.57104 -24.4111 -3.42355 -21.0802 -1.35631 -12.5998 -19.1222 -1.61523 -24.5912 -38.2373 -43.0865 -8.64958 -0.161454 -19.6104 -10.0907 -29.2615 -30.6959 -5.58282 -21.028 18.4326 14.0449 -37.0511 -6.17208 -18.6999 13.4723 1.65452 -38.3624 -7.50939 -14.0762 -18.3328 -19.5084 -11.8902 8.24124 -6.82901 -36.1131 -24.2927 10.4852 9.84532 17.4173 13.1968 13.9531 -9.41018 -3.64168 31.2582 20.1094 0.831577 -16.9698 -2.71806 14.0546 6.87048 16.4056 -5.32721 -4.69513 18.852 21.1147 22.7415 -19.4267 1.07385 20.7298 15.5194 5.59831 -19.4642 -2.56521 23.1792 16.9979 11.3277 -10.1838 -7.08856 24.2265 29.2319 55.5447 -7.97359 -8.36679 12.1173 16.8799 -5.65374 -0.0550753 -3.06503 26.048 -1.19392 11.0936 5.61853 0.88778 10.2085 -9.55606 1.94229 -6.79838 -0.824586 13.6754 31.5447 21.1238 -43.6742 -9.7561 21.8918 27.0828 31.6178 -62.0168 -12.443 29.5937 27.4329 -16.5002 -9.275 4.41733 34.1158 21.8163 -7.30684 -44.8991 0.359942 8.86713 14.1746 26.2732 -12.1732 -3.00398 14.6502 14.0128 36.966 -14.5602 -2.19671 26.0405 22.6629 -9.91736 -58.8526 -5.76008 15.7054 18.1916 27.1699 -33.013 1.14837 -3.99985 10.6022 44.9706 11.2824 1.39048 18.6133 17.2284 8.81311 -45.9372 -11.3716 31.9312 29.1502 -4.3479 -8.97937 -10.0973 31.8767 22.1272 8.6702 8.35589 8.92532 11.3861 18.4289 -3.9997 -6.98873 4.69769 27.8127 6.29347 -11.7067 -4.09498 3.1886 16.4707 24.2381 -0.259191 -7.83049 5.97048 34.1134 38.4909 13.9108 3.77211 -4.73795 20.4131 14.5691 -13.0422 -17.4943 -6.84144 34.5557 35.7539 -0.0409229 -0.955952 -4.40957 19.4114 14.087 -6.46254 -14.6982 -5.38498 29.0531 16.9356 -14.8537 -16.1429 -7.30323 
0 -0.0783341
 5 250
28.989 1.89783 26.9723 12.6812 26.8293 27.2988 -4.46122 28.7129 24.9528 21.6302 17.9416 14.0579 4.07913 6.3448 33.6459 13.5423 6.03709 24.9283 18.9626 18.0549 2.2123 6.38278 -15.6592 -31.792 21.9065 17.0666 4.017 3.86095 4.11361 36.3926 2.61468 -4.83321 0.551677 -30.2488 17.4728 25.2724 -2.41094 19.2571 5.4604 19.5682 26.9161 -5.90018 35.0447 7.76289 27.5951 25.9811 -12.0148 28.3372 13.779 15.9379 14.1983 18.5075 12.5431 -3.8314 27.2954 -0.966736 2.01453 -1.90612 -1.2432 -1.73267 0.628957 9.08717 0.804641 -4.06245 5.20645 0.611057 3.65601 -2.39209 -5.68471 9.45599 8.61161 6.82075 14.8084 11.5963 25.4049 10.2661 14.0688 5.95877 10.6798 23.4594 3.70814 12.2513 10.7611 -3.62898 14.057 4.66906 15.2847 4.95138 -0.913498 16.3086 -2.08171 0.0779461 4.38903 -12.5947 2.85007 -6.59692 -9.42558 3.6779 -19.2064 -7.98639 12.6055 -17.5822 22.6688 21.5944 18.276 21.9908 -21.0319 18.6259 4.26163 24.6793 5.7098 -7.65196 19.3945 6.00501 23.8733 19.2467 16.1111 -7.11186 9.96981 37.7348 15.6769 -10.4123 22.2247 9.66385 18.5611 17.1223 5.56299 6.24894 -7.37196 37.7466 12.4251 20.4654 -21.3264 11.7654 52.8569 17.7437 -23.9995 3.77199 7.53574 0.316089 14.2361 -16.3757 24.1742 11.606 46.6897 10.0384 -12.0169 15.9282 -6.08091 20.5993 3.51998 20.6141 -5.58998 19.4463 15.2393 10.0264 24.5259 8.71757 5.53914 20.7676 9.80927 0.917942 -14.2824 0.127804 9.51422 5.10246 19.1013 -15.5251 5.07429 11.2696 2.28272 14.0628 -8.41999 10.4915 14.0346 9.49012 19.1532 3.94465 16.7693 23.5337 10.1929 11.0182 -16.808 10.7102 -1.6172 1.25258 16.1142 -31.0428 -2.21295 7.22953 0.777256 14.3084 0.56561 8.41817 18.7743 8.21341 17.0671 -20.5192 26.5476 14.3098 1.83721 -0.338413 12.1417 -5.27918 23.1183 9.9123 7.68239 31.7346 23.3556 24.6676 -0.71627 5.82344 12.0836 -5.14189 19.2331 12.5507 1.15059 27.301 1.35881 7.36372 5.88798 0.851904 7.43219 -6.63831 37.0016 3.17642 2.14279 21.8126 17.1172 21.2488 4.02643 5.07408 11.4274 -7.89525 17.9117 0.691137 -6.64083 13.843 -11.3841 7.34846 1.08808 -3.27447 -2.29201 -25.0129 19.2142 3.88583 -4.90669 16.2763 -2.6797 16.7074 
10.2241 -6.92978 -1.33305 42.1539 20.7386 7.89553 -9.0835 -0.0550951 34.6817 7.74061 15.427 9.28635 -23.135 39.8358 9.41821 5.21213 -9.05994 -6.89078 19.1463 10.1561 13.342 10.6901 -39.569 28.2291 12.6919 -0.0780331 2.06206 -22.7414 6.53705 14.8425 -0.747048 13.3921 -25.3815 25.2214 10.9238 0.101977 -9.87812 -4.72196 11.211 1.04567 4.09616 -13.9497 -0.628452 25.5291 10.4974 -5.02046 -13.0773 9.20035 8.16898 6.22442 15.5573 1.28767 -14.7759 -3.61022 7.21795 0.39798 -5.72629 4.71828 0.912271 -0.21397 7.49821 1.35145 3.8443 11.7286 4.51414 6.50314 -2.1706 -3.28597 -5.11108 1.62936 1.96601 -8.6802 11.3333 -16.0197 -9.95818 8.19335 -9.52589 3.71081 -10.8255 -4.97281 10.0111 -0.884956 -5.57627 5.65382 8.4857 11.8428 -3.71772 4.83494 -0.838481 2.8063 2.23326 -2.05633 9.9349 3.0363 3.44407 -6.85938 -0.267057 30.1787 3.07259 -4.79229 -9.74385 -1.3674 -25.5675 15.1568 18.3362 -4.37104 -18.831 -14.4763 21.3407 27.0933 0.812124 -12.0103 -18.4202 16.4975 12.9738 -1.07637 -20.8803 -12.011 33.3361 -5.24373 3.15503 -21.0164 -11.577 21.7584 19.4831 3.32048 -15.3659 -17.1894 15.125 16.3024 9.32423 -4.69084 -25.3902 50.1793 5.03236 -11.6158 14.7073 29.6451 -9.76727 -0.936702 -4.5367 4.9216 -40.896 25.0779 11.1968 -2.08802 11.7962 -10.1642 18.7933 11.809 8.80226 -23.17 -39.3481 44.3152 2.55181 8.99491 -0.676405 -26.0429 32.7349 2.77452 23.843 -20.1656 1.90721 -49.1753 23.8835 15.5817 -40.2463 -12.4167 1.56724 -5.54618 12.5348 -17.4627 -9.17782 17.6048 1.18378 13.109 -19.6719 -5.43149 25.7311 15.9124 12.9361 -25.3554 -19.139 -10.302 3.6001 12.6886 -19.7737 -24.4051 21.8435 -12.8613 13.9681 -19.7938 7.53186 -0.364673 17.3146 14.1419 -21.1433 -17.6966 18.6855 6.52421 -2.10428 -2.30533 -10.4555 15.0839 3.39295 -3.04617 -7.30007 -11.274 -10.3915 6.92164 2.77753 -4.60118 -12.8671 8.17848 -3.22739 -5.50643 -14.1132 -1.56407 -7.97285 6.08093 -11.9999 -4.0559 -13.0083 -7.41564 2.90403 2.9359 4.32215 -2.73235 8.30216 5.51778 -2.68041 -3.3822 -16.2531 4.76085 1.54394 -0.151157 -1.30251 -7.37631 3.55154 9.14389 -8.78857 -0.905826 -18.9597 8.31705 7.51846 -17.2861 -7.62542 -8.01318 -4.93074 7.35541 
-6.7892 43.0084 -32.0408 -7.09377 -3.37711 2.16188 28.3594 -34.4755 -13.2809 -4.76312 6.05296 10.4093 -25.381 -15.8149 -16.4279 -0.162357 9.51125 -20.1866 -8.67936 -12.1605 -4.29137 -14.4339 -18.5182 -9.82264 -18.5042 16.5805 5.32325 -39.0949 -1.03637 -17.3269 4.29427 -19.0665 -25.7794 -7.53442 -24.0985 2.60932 20.6694 -21.8374 -17.8727 0.192432 5.71502 25.1198 -27.6008 -8.87703 -7.80534 4.81405 13.6138 -16.2041 -7.25308 -2.20654 -6.56456 -46.9321 -9.40385 10.315 -31.1167 -1.1159 2.24947 1.81001 -0.248126 1.71614 -3.99031 -12.2187 -1.80038 12.736 -14.5546 -8.63845 -11.3315 -7.10232 9.85627 -11.1187 -8.22759 -22.4834 7.51709 4.36487 -4.7553 -13.4882 -28.7906 4.54247 -0.0349788 -34.5678 -4.4141 -20.4234 -5.41811 17.1376 -23.7803 -10.023 -22.0598 -7.56891 10.6795 -27.6561 -0.16453 -20.9683 -5.28612 23.7638 11.4848 1.91756 -11.1522 1.11494 3.029 32.5365 6.1067 -5.11382 -4.17011 8.23999 -32.8989 -3.57725 14.0234 -9.94034 12.2528 -25.2939 -8.24352 -0.496078 -0.968897 12.9679 -34.4742 -0.287663 18.4533 10.7713 -9.80299 -12.581 -10.6454 16.8677 1.71817 7.77507 -25.9072 -5.54407 6.1192 4.2185 2.92309 -33.0525 -6.42763 13.4301 10.0678 -6.51208 -51.0328 -1.31086 42.9496 -23.6422 -6.31536 17.8212 -3.26061 16.4982 -28.1002 2.23114 -37.4296 0.174774 17.5183 -11.5463 -7.67799 -18.8744 2.47845 -53.3993 -1.45981 -8.1364 -21.7397 5.24955 -44.4929 -17.1808 8.85255 -26.2839 1.68474 -49.6512 -14.8349 -25.4345 2.83491 -8.74995 -43.348 -29.9131 -31.0025 -3.20262 -9.00137 -26.1236 -16.0649 7.0895 -8.80563 0.140121 -34.227 -12.0122 15.9784 -14.9834 -6.92914 -53.7751 -28.0626 -23.7075 -16.0626 -10.2423 -44.2037 -29.7332 -23.3305 -18.5448 -4.00123 -15.9663 -10.9756 1.56643 -8.15348 -0.69388 -57.3318 -30.9552 -3.06845 -22.8963 -12.0409 -31.8095 -40.6368 -0.585156 -32.9601 -12.894 -5.96631 -13.2559 13.5992 -7.71263 -9.40152 -18.1204 -19.6774 -5.97598 -21.7572 -17.8179 14.0891 -18.5286 -2.27741 -7.32319 -3.4122 -17.603 -29.4086 9.83984 -23.5783 -8.77232 -13.6883 -27.6838 5.47443 -10.1841 -10.9061 -10.4217 -29.908 -4.44158 -13.1577 -7.73497 -20.7508 -29.5432 3.57352 -14.1543 -4.32142 -28.4046 -35.6951 -5.36695 -24.64 -12.7183 -33.868 -35.0782 -0.629015 -35.7886 
-7.17231 -7.7903 -42.5957 1.74298 10.9652 -0.831378 -10.4496 -25.8278 22.9976 12.5158 -26.6892 14.4037 -46.6465 -2.48091 30.186 -2.36643 2.79799 -13.8035 -2.74698 6.41873 -32.9087 -14.6827 -25.5505 -46.2477 8.25486 -18.2983 -5.01935 -39.5728 -27.6313 14.664 -16.8996 -13.8158 -4.12033 -32.6783 -2.81158 -8.70843 -18.3863 -23.4692 4.32452 7.5969 -10.6172 -16.9888 -22.7832 -1.19703 8.697 -0.152031 -35.4912 -12.8214 12.4697 -1.37684 -32.4232 -29.7365 -12.2584 47.8456 -19.6768 -3.22545 12.3518 2.46305 -3.20894 2.78112 -14.0239 -9.41793 -3.85223 12.6912 -23.959 -23.7201 9.15674 0.039122 15.0981 -5.97128 -8.29892 0.469255 4.94817 29.3946 8.68163 -12.8247 -19.4302 0.631908 34.0194 -12.4645 -25.4365 -24.6243 0.974827 42.5172 -32.1155 -20.5558 -18.3834 4.21742 32.4309 -24.6937 -26.0378 2.00655 17.6296 25.2915 -20.9226 -14.9066 53.2438 33.9409 -16.7027 -2.09725 9.93617 3.95472 -15.6807 -4.02224 17.5912 11.0649 -24.4976 -17.7965 17.8836 3.30777 -6.47778 -4.9552 -13.7465 -9.04465 1.44098 12.4598 8.0155 -27.6828 10.2613 32.549 5.11498 -22.9391 -14.0606 18.6556 1.40464 -1.67494 -1.29984 -22.5219 3.9534 9.98027 3.70126 30.5769 -37.0498 -19.7927 38.7016 11.8197 -7.41031 39.0365 41.9831 -4.19421 -0.26796 11.2273 -1.87701 14.7309 -1.47693 1.11544 -0.00864841 7.20269 2.94063 -5.44671 -10.247 29.3033 -28.9946 -26.3261 20.1392 -20.9799 7.59288 -26.9983 -12.9228 4.04412 -10.7837 -55.5841 -15.819 -25.4009 3.58826 -13.1583 -7.1548 -18.3519 -22.6921 11.9229 -12.7248 30.9289 -9.44509 -12.3249 10.2993 -15.3593 31.4934 0.0276894 -9.55529 14.1023 -14.8163 -31.882 -11.1607 1.28547 -3.87335 -16.4249 25.9111 -21.6301 -10.5384 4.72485 -14.3393 16.5533 3.61094 7.78976 13.3468 -10.2842 -13.2297 -7.65416 7.59534 3.3861 -6.87691 -21.8203 -36.5258 -26.305 -10.9501 7.98785 0.126348 -35.1021 -10.0802 1.07846 -8.56016 -9.87487 -22.6338 -26.7836 -4.61675 11.9808 -31.9274 -31.29 5.31796 -10.3722 5.74112 -25.5835 -32.7625 -24.1514 -8.93053 -3.71056 -4.66509 -31.4229 -10.1611 3.52175 -5.0729 -33.1267 -30.5388 -24.1147 -12.3677 -7.49063 -18.3588 -32.705 -16.5329 -0.51138 -6.44439 -24.7517 -32.9968 -31.1458 -8.55968 5.35021 -44.501 -35.0327 7.70889 -19.8604 
-22.4647 4.02406 0.817813 29.5979 17.6402 0.167434 -12.8364 14.9925 29.3851 8.9147 -10.9754 12.316 -26.5064 23.1492 26.2257 0.203697 -8.12416 -4.07717 14.1775 12.9332 -13.7737 6.24225 -29.9864 -1.30334 25.4467 -15.7231 17.82 -35.8485 -2.14787 29.4846 -15.6507 11.5701 -17.329 3.03618 18.7214 -9.05859 1.14669 20.8682 12.4245 7.47114 -14.7399 -9.64488 0.905931 19.4019 6.23026 -10.8201 -18.4067 24.8125 21.4108 -0.278622 7.59957 -12.4274 -0.992069 19.8889 -2.91996 -4.27327 -3.97945 2.19008 -5.75528 -2.34555 -6.60285 -11.9767 -19.666 10.5784 -2.61784 4.06625 -11.0372 1.32713 -1.52935 2.27295 10.0778 24.898 29.1294 -5.72605 -2.559 5.44362 7.76936 13.3418 8.62709 11.3447 -6.62703 -5.5242 -34.5562 9.2182 -3.88424 -1.03701 -7.72742 -17.9325 11.0552 3.0109 -16.3111 -0.408872 -7.38916 -9.39211 -20.5054 -18.9281 -15.9506 -9.19165 -21.9101 -20.3784 16.1572 6.74489 0.386633 18.4055 9.7465 6.59667 2.92175 -0.173021 16.5801 7.13461 6.15134 4.81228 -10.5095 14.7851 10.05 16.1685 11.5112 -8.69199 19.7397 9.16715 7.77625 2.76233 -1.28626 23.8986 4.23261 6.03241 10.3675 -5.80609 7.29966 16.2855 15.474 21.7988 -28.8446 23.1076 31.0898 7.87395 -15.3345 -0.0698641 4.39166 9.58263 8.10076 29.1006 -3.32509 15.5738 20.79 2.78894 10.3473 2.48299 7.23263 7.81409 3.82502 -15.486 -2.80375 8.22309 4.52748 1.62773 -7.72664 -21.5253 18.8954 5.13741 -4.99174 -37.2347 43.7554 -16.4015 -16.4101 -6.91761 -32.4155 12.8639 11.6401 -7.30426 -2.38767 -7.86874 -6.27593 -3.69493 -0.805413 0.429114 1.15598 -1.10856 -9.51602 -0.915733 -1.9551 -23.8257 -4.03238 27.0975 -1.77838 2.40673 -9.22809 -20.532 2.69135 -0.553852 6.7677 4.679 -3.28836 -22.3617 -1.70607 0.501614 -2.23508 -5.90789 11.0393 8.34836 -4.81467 -7.9256 -8.80175 -4.4318 10.2739 -1.39489 9.79279 5.09726 2.84206 0.79908 4.09804 -6.71218 -0.380034 1.424 -1.46761 -1.66773 2.56853 18.5938 12.1078 -6.4867 -0.593465 7.10894 -1.74884 -5.94397 -1.35751 -3.81512 -10.0093 -11.0342 -1.58697 14.1312 -3.87317 -1.56416 4.6038 3.17563 3.64539 -8.98029 -14.4806 -5.64407 -5.41973 12.0488 -14.747 -3.91862 -9.33556 -11.6917 7.81982 -2.94561 -6.18304 2.07488 -2.1646 4.36664 
0 0.463078
 5 250
-50.7409 -24.2296 -17.4651 9.22626 7.07132 -45.5851 -10.5684 -18.5574 -1.50553 1.83263 -30.7277 -29.5436 -6.02341 -3.92769 -1.4726 -23.5876 -8.50981 -16.119 -7.40199 -5.72303 -2.89367 -2.30342 20.8576 7.85634 1.56937 -29.7499 -12.1592 -3.23442 -1.90104 -5.20049 -4.07881 13.4944 8.5411 19.4815 -3.69134 -39.2842 -10.8642 -6.06458 4.92328 6.18197 -47.8253 -8.34491 -18.5461 15.2893 -2.48232 -43.7982 -0.903485 -11.7392 14.9274 2.62578 -19.8943 -12.7453 -9.44893 -4.87066 -0.645093 2.72064 0.317539 4.14958 -4.27711 -3.02291 0.300278 -5.02931 2.48554 -4.94766 -5.77 0.203278 -1.97051 10.7964 -6.89149 -0.779452 -13.8958 -1.18174 -14.2363 -9.85721 -8.92218 -13.3662 -4.99899 6.43165 -20.7775 -3.6161 -2.91329 -4.14984 1.29426 -13.3328 -7.60581 -4.15079 -6.81271 10.6645 -16.2352 -4.5425 4.56624 7.04374 3.03999 7.20337 -14.0557 13.5721 15.6662 7.98154 8.53512 -21.3165 -28.7935 -9.29022 -19.0464 -3.36007 2.44609 -40.7508 -9.57741 -6.18011 20.9272 -3.4432 -13.8827 -6.90252 -9.5075 15.7055 -5.55337 -35.265 -42.2899 -12.2699 2.76796 -14.4856 -31.5081 -13.2203 -6.15278 18.0953 -2.02201 -27.0191 -21.1375 -8.78746 26.7341 -15.6978 -26.9924 -47.5751 -7.18732 -5.70047 -24.226 -40.9569 -13.0705 -17.5328 -4.57046 12.0225 -32.8963 -11.2746 -27.5083 9.44257 -18.0539 -18.8297 -5.75499 -1.51723 23.0355 -2.18174 -14.4853 -35.1983 5.25367 -14.0863 4.09087 -13.0135 -35.4513 -3.75385 2.42528 -6.77614 -12.3078 -5.31272 7.2888 12.4543 -12.6307 -10.384 -24.8408 24.3766 10.2393 -0.593113 -8.02594 -23.0873 8.05789 -8.69443 -13.9511 -12.7309 -28.1141 0.190118 -13.0626 -22.0859 -13.8005 -11.2631 27.5778 11.8738 6.75307 -7.02637 -30.6402 34.0405 2.70332 4.24423 -6.40398 -23.1524 1.50448 -5.64754 -13.3275 -12.9358 -21.0779 32.4502 -13.3962 0.56173 -6.08571 -4.29875 10.9112 4.23231 -9.98681 -15.3679 -27.1606 -30.7937 -6.93755 -5.15915 -2.46145 -4.18306 4.23377 0.61448 -7.44914 -18.9644 -23.3895 -24.7451 13.2533 10.2557 -13.5975 -9.58138 -0.0937645 15.902 -15.8441 -6.25313 -12.2955 -10.6001 -12.9353 -14.8725 -9.48485 -12.5264 -0.288392 8.50165 1.58447 -2.74275 -2.78031 0.290399 6.753 0.156682 -4.86747 -1.40323 13.4878 20.2878 -2.37722 -9.96483 -5.09119 12.1119 5.42929 -7.17293 
-32.7723 17.6306 15.7588 -39.3947 -4.70669 -26.1496 20.026 3.96677 -26.4233 1.56633 -29.3551 -2.21263 26.4155 -44.1932 5.51219 -17.3082 10.3921 2.07611 -11.2014 2.65653 -13.4876 -3.26133 48.193 -39.4534 6.18038 -9.84445 7.85885 21.423 -22.1601 7.04111 -3.86519 -2.76711 21.8148 -24.5653 4.84442 -9.95732 33.5011 17.4678 -27.2045 -2.84751 -23.7382 33.6162 9.01041 -26.3623 -1.26777 -10.9716 35.0662 -4.27987 -10.4033 -1.65757 -18.914 15.265 44.7708 -40.0141 -9.93145 4.41092 2.94588 1.30791 -0.52221 -7.22517 -5.81003 0.30334 5.88854 -18.1641 -0.760511 1.69401 4.87021 18.9204 -18.5045 -12.0134 -2.1362 27.6403 6.73852 -20.6166 -14.3768 -7.59424 20.9164 26.9709 -24.0995 -5.54941 -6.03856 10.0922 27.5157 -34.6928 -9.10479 -6.11844 10.9617 24.7052 -31.0399 -5.88088 8.61626 5.1474 -7.97073 -17.1861 -15.9912 24.4884 7.73433 -42.6064 2.38843 -20.9152 -9.87595 7.76428 6.54223 -8.67647 -21.5049 -16.5897 26.6012 3.9457 -18.4848 -26.8842 -14.9614 13.0778 2.64869 -3.31334 -12.0014 -14.0779 19.1512 6.18882 -33.93 -10.3851 -21.1314 27.7072 0.0357759 -10.6854 -17.4344 -14.9791 14.5489 14.942 -7.44997 -21.3983 -24.0103 -7.51462 16.1561 -49.4273 -22.1337 -14.2536 -3.93632 -13.778 9.60627 -12.9593 -23.9041 0.538444 24.6792 -17.8766 -19.1149 -12.4925 -3.50166 7.17691 -5.88979 -10.6014 -13.0088 6.32217 60.437 -40.9599 -7.92229 -14.915 -3.02902 47.2665 -11.4273 -8.72329 -25.3451 14.5799 -3.17868 61.1101 -37.1548 -16.9645 22.0657 37.518 13.2153 -5.20212 -11.7319 7.06466 21.7057 -13.3766 -16.2326 -11.9694 9.72754 22.3093 -17.6582 -24.4988 -20.2125 21.8361 44.3926 16.1671 -6.96446 -15.0878 5.81287 40.1284 -30.1695 5.60588 -13.8983 0.845393 -13.1925 1.99253 -27.0828 -18.5122 8.03312 42.8895 -20.4168 -2.30813 -6.66824 -0.336823 28.628 -25.3997 11.4854 -9.72883 -11.5696 -2.82763 5.79236 8.4588 -8.80059 0.448624 30.558 -12.6245 9.05024 -6.91746 -2.43372 4.88889 6.64832 5.6828 0.529325 4.76265 20.6896 -14.6248 9.86218 -11.034 -16.618 -1.59554 -13.9151 14.5596 -6.81126 3.82764 34.929 -15.1041 8.95476 -6.08647 -7.19973 13.0636 -6.45889 10.4657 3.02136 9.48732 39.7679 -24.8022 6.55526 5.13639 0.654103 27.427 -6.92498 1.1685 
-1.49095 10.2312 29.8712 -41.8174 -24.4204 -1.19623 7.77302 17.4958 -14.5208 -10.4193 -11.1662 -1.84686 48.3734 -24.1851 -9.09195 4.6432 9.52947 14.3787 -7.1867 4.06388 6.40494 11.4385 58.2724 -20.8285 -3.55518 -7.8246 6.75067 56.2888 -41.2093 0.694307 -0.342563 19.4639 38.3846 -7.26297 10.5908 -3.32026 10.5403 18.2042 -15.9313 -17.6161 -2.2438 19.4287 12.3431 -24.4985 -10.8685 -0.325528 25.8536 -8.66346 -18.8991 -8.93895 14.8131 28.5441 79.6902 -35.4472 1.28099 7.37278 -4.4656 -4.70001 9.67021 1.78754 6.90774 2.1585 29.0692 -14.4153 9.53885 19.7533 0.103139 38.2 -8.01464 0.358564 16.9583 14.0069 18.6191 -5.47093 -3.61912 23.2948 9.2906 45.7404 -11.3366 14.8853 18.2835 2.53375 57.415 -23.5959 10.3424 23.3654 0.686769 59.2763 -19.3398 11.1163 15.5248 6.63301 17.9484 -12.2551 2.48315 14.3394 -1.12383 -25.8866 33.035 -0.421243 -6.3462 2.65456 -15.1142 -18.465 -2.66456 -1.59529 6.65307 -14.4895 -18.6993 -14.5352 6.82535 2.84878 -2.52131 -1.23324 5.26382 -4.20674 -18.7275 -10.4941 -19.724 -29.4223 1.53502 3.62983 -17.4041 -9.89033 -8.2627 0.198317 3.37559 -4.47298 -5.838 -7.67076 1.81781 -27.9915 11.6805 -15.5773 -13.6573 -4.21582 -21.3339 -3.75852 -25.4442 -42.1621 -1.7725 -9.34648 6.85127 -0.574062 -12.2146 -0.943533 -6.27018 -4.15788 3.51872 -10.2189 -4.88597 23.8681 41.0176 -12.0713 -5.20938 -8.01129 18.4179 48.3652 -15.9877 11.3704 -2.2973 37.3368 10.6574 45.3349 -20.6637 6.09433 19.7415 45.2808 11.3515 -5.01739 6.62497 2.62602 24.8917 -8.74977 -11.5676 3.23112 3.79764 28.4822 -5.63861 -3.35916 0.474141 33.7802 45.8909 7.01689 16.4941 8.8658 13.9016 35.5428 3.14706 -5.4355 5.64865 -6.31613 5.39467 14.9175 -16.3576 0.0776653 32.9033 63.5622 -13.9093 9.93236 9.96654 22.8346 60.3129 -31.7921 10.798 9.48597 13.3915 7.91449 -32.9874 -3.45902 8.51099 11.9902 44.7782 -8.5089 8.99892 12.9179 -3.32827 9.05029 -23.127 -4.67016 5.78415 15.3851 48.1115 -31.8777 4.29819 5.60704 10.4422 29.5152 -30.4335 1.81105 7.75807 15.2621 50.2429 -25.2697 -5.46599 4.23197 13.6662 32.4152 -22.3321 3.25149 1.79624 21.9424 53.842 -20.9798 4.33074 16.7068 21.0614 41.2735 -20.6989 13.8347 
-0.356982 -1.19086 20.595 -26.5604 -37.1263 -5.44627 4.65964 0.749562 -43.365 -28.5134 16.7703 -14.4968 48.2634 -30.3688 -56.6484 -7.515 -4.49481 3.13764 -19.7495 -17.7865 25.0448 10.9788 67.1831 34.174 -32.3491 8.78031 -11.121 43.7368 -4.84495 -39.7152 10.8908 10.4935 37.4877 24.4605 -15.8746 5.04821 0.254269 14.0159 -13.0482 -22.4428 1.31384 2.22427 0.72444 -21.9206 -26.0284 -5.08784 15.227 -14.6758 -24.7567 -9.61926 47.8071 -3.22009 64.8815 -22.1466 -5.58642 1.78238 -7.03277 -0.875833 7.55464 5.28562 16.4503 0.234598 26.9979 0.481546 12.1314 28.5275 -12.1453 20.7627 5.7177 4.89486 20.3506 -6.5576 5.86 -4.75134 -4.27452 29.308 -1.54329 22.4692 -9.1596 4.05633 35.1473 -4.51629 39.6333 -5.34446 14.5537 32.8718 -2.91034 32.2302 -1.30672 13.44 27.2309 -11.405 20.9999 12.4827 19.2916 6.7755 -31.0864 -16.9964 47.1009 27.9157 2.03909 -21.895 3.68001 -31.6525 -41.6813 4.38532 -16.7167 -4.28218 -30.2365 -28.239 13.4419 -10.6913 12.6835 -9.06343 -22.0414 -10.9357 -14.7044 11.7572 -51.8466 -56.0768 2.76397 -2.39628 -6.57304 -23.4442 -23.3925 5.4293 -22.8165 14.5846 -18.1019 -34.8528 -3.32378 -33.5468 27.0762 -45.1329 -85.9053 12.8368 -7.14072 -60.1666 -68.3121 -18.1368 20.3268 -35.3237 -13.267 -52.3162 -34.6281 14.6702 -17.7337 -10.4356 -7.95473 -11 4.95439 -34.1142 40.4729 9.29945 -25.5234 23.65 -25.881 49.4631 -8.49314 -6.76829 20.0848 37.4942 4.98162 56.2364 -9.91807 13.7103 0.902397 22.5543 17.5725 -14.0474 7.06256 -31.1636 7.7716 4.903 -17.4025 17.0733 -38.1959 10.4432 5.99216 -18.7841 21.3204 22.7221 36.9904 3.20961 7.52069 12.6402 -31.7756 22.7722 2.01293 -14.1578 2.21336 -24.2167 -1.35987 6.88038 -34.496 16.1407 -1.98549 37.6747 -4.00836 -1.51886 6.0536 11.8776 45.8406 14.8408 -12.3976 -11.3339 -13.2353 9.09085 -19.1593 -19.9001 10.5713 9.5732 28.506 20.6614 -11.3842 -13.5992 0.66921 11.1772 -23.7428 -10.996 -8.34166 11.7225 27.447 9.45586 -13.8158 -0.849168 -4.41736 19.6755 -10.0331 -20.3919 5.13247 15.4588 33.2164 13.9508 -12.6558 7.0022 7.32372 31.1415 0.0867704 -12.6722 7.53698 14.2077 48.5631 21.135 -8.82445 -3.71597 23.2415 42.3366 -3.91396 1.91737 
30.9447 7.43214 -10.2355 -33.863 -29.2359 16.6363 8.26786 -28.5125 -38.1919 -13.0177 22.4275 3.25462 7.50328 -38.7109 -38.5726 7.6271 2.33521 -4.77851 -23.6395 -16.9259 13.9749 14.4487 33.935 1.7012 -38.2864 33.9043 -6.20918 32.2859 -6.90545 -39.7433 16.4518 -0.800662 19.0214 -6.31012 -28.5721 27.4544 12.2734 -11.4423 -8.23265 -11.4555 32.3836 11.1532 -6.71708 -18.5658 -15.3972 30.524 12.703 -19.5155 -16.9225 -3.39476 26.6248 24.5263 16.1076 -0.868445 -5.78638 -3.3937 -0.564255 2.14289 6.90119 6.48747 6.09424 9.44112 20.3108 -1.52766 -2.95474 -2.41676 12.9792 10.9729 14.322 -1.80059 3.99968 -4.08505 -13.2555 14.484 4.35882 9.98491 8.76687 -0.327537 4.59652 -9.20859 11.3549 11.8852 39.7663 10.373 -0.968625 7.6554 9.78414 24.6855 7.23318 -3.07075 3.16901 -7.5331 16.0945 27.5434 20.0339 -15.2172 -16.2579 22.7888 30.819 28.7903 -2.99561 -3.05388 1.08807 -31.2906 -17.5568 18.158 -0.734814 3.78381 -20.7639 -13.5952 3.82723 0.2998 8.57609 -24.2511 -17.6306 6.47685 -3.40424 0.372216 -32.5695 -14.466 11.8133 -4.53432 -0.954022 -25.4553 -9.56902 11.5996 0.137526 4.5255 -19.1347 -22.0269 3.06004 -2.77802 8.93481 -53.6693 -45.7124 17.3558 3.25198 -15.6782 -18.649 -13.3424 14.0822 -11.7422 -21.4037 -51.9665 -37.1924 13.0005 0.484608 -1.47912 -11.2882 -12.5416 15.8352 38.7572 26.6849 -2.58954 -6.36349 16.5223 20.763 51.4101 1.34964 -6.60129 26.2398 18.141 -10.2726 29.1319 -2.24344 33.5113 43.0749 17.6953 1.64969 5.59944 13.4279 30.7702 19.8648 9.61576 -7.01911 13.753 19.5662 27.5392 18.2029 -11.1055 23.1939 26.6939 24.2614 -4.61617 0.351087 15.2509 30.1676 27.3616 5.9002 -7.70323 1.33879 15.0096 11.7445 21.1354 -16.4789 20.6872 4.2676 18.3862 -3.0609 -8.53702 8.0178 12.8048 17.2166 7.50247 -20.9012 7.41024 -4.98814 -9.02107 -20.0397 -12.1169 -1.09832 8.10812 6.71687 -0.747272 -9.72516 8.55195 5.38367 -15.0574 -13.3371 0.204974 16.2328 5.69625 13.2341 6.57855 -10.5518 5.28325 6.2984 1.56081 -12.2038 -23.8182 10.3624 11.6588 6.87883 7.06395 -11.9568 7.18902 9.8184 8.04441 0.548607 -19.1951 22.3177 11.0125 29.7819 20.5228 -15.9523 8.32926 16.8203 9.95176 6.76098 -6.88523 
0 -0.287445
 5 250
27.0223 -4.87439 -19.6424 -22.4014 6.37754 27.1009 -15.4777 -21.5819 -5.39873 8.109 22.2834 6.4471 -25.114 -21.43 11.7303 10.7192 -8.62519 -4.03447 6.0572 11.6086 4.27842 4.03292 -3.65265 -15.2019 13.8193 18.2652 -4.28833 -25.5478 -8.22287 16.8022 1.78649 -4.6695 0.828573 -0.941251 16.3231 25.4694 -6.99422 -16.4664 -12.0056 8.58458 26.9083 -12.8132 -19.8539 -13.3191 10.0188 24.7604 -16.3518 -19.1563 -6.73805 6.30269 19.6623 16.4501 -14.3257 3.1531 26.6556 -0.817841 3.23978 6.13452 0.236245 1.92196 -0.29757 14.0903 0.794135 7.64418 13.3738 1.88095 6.35491 -1.48554 -0.519016 12.9864 11.6279 5.99339 -7.56779 0.817539 17.3441 13.9854 17.0877 -16.5635 8.01795 27.7263 4.79253 18.16 -2.22571 14.2746 22.1238 6.87883 18.4879 -8.84506 10.5928 26.1286 -3.93616 8.57032 7.88339 2.48929 15.0572 -10.2176 -0.140361 21.5243 1.35044 7.8716 17.0055 -5.39465 -6.48091 -4.31958 -7.70195 28.2166 -3.94211 -8.73814 -19.4279 3.49565 7.00428 -2.83634 -2.37621 -12.8527 5.46674 28.4225 22.6413 -8.12565 -25.7533 3.78791 19.4779 -1.65535 -7.64222 -13.6592 0.316091 18.7214 5.15873 -4.03621 -24.9851 15.4368 22.5173 24.4665 -11.7506 -20.4558 3.97296 27.1721 5.85779 -13.2167 -28.4277 -18.4693 23.5417 4.97244 -13.0905 -32.728 9.03069 14.6028 2.91205 -4.81296 -25.5463 9.83797 12.9573 21.1771 -17.9711 -1.76654 4.31323 14.608 29.9626 -7.04364 2.97279 5.0492 8.31159 11.7659 -11.3702 -1.31818 15.7815 12.2443 25.2171 -9.28022 -7.15175 15.1741 6.68427 20.8618 -1.7529 -2.86358 14.0993 13.1492 26.5172 -5.20979 7.45761 15.2961 12.7566 20.3936 -21.0525 16.3973 4.38629 10.1056 22.9427 -18.9035 -5.23646 17.4523 5.60414 19.9488 -1.28576 -16.6011 9.96477 14.554 14.9291 -35.2081 20.3701 20.5112 4.44358 -4.30677 -2.50461 -7.75761 35.5721 8.12396 0.272982 -3.32048 -13.6263 5.11836 2.51715 2.36371 3.74637 -9.51337 23.2194 10.9938 -0.79476 -6.40669 -13.1781 -2.35886 10.6391 -0.327236 -13.7436 -21.1522 25.3219 1.8897 -4.42505 1.49662 0.877238 22.4246 6.04732 2.40733 -8.18136 -11.3742 18.5243 1.68424 -5.873 5.29997 -6.02813 6.2961 5.73829 -0.573453 -6.96044 -16.9769 17.9516 4.48165 -6.61127 -10.8617 1.79645 33.3577 
38.7027 -18.379 -27.1078 35.1498 23.0752 36.3615 -28.2162 -20.0064 29.5486 12.7176 40.1729 3.042 -28.9085 27.3931 10.3007 18.5623 -22.8605 -15.2569 8.66966 10.4287 17.3773 2.57701 -24.0451 26.8517 22.234 24.9214 -10.8618 -19.0632 9.6475 17.3495 8.09462 0.249084 -10.3852 28.7997 16.3101 24.0467 -27.0331 -12.3826 31.5715 17.1696 34.9145 -34.0463 -21.4153 31.4388 15.5681 25.8227 -33.6508 -6.39728 28.5725 15.9299 28.5656 5.81739 -7.64045 26.0281 34.0052 -3.67235 -4.39652 6.7601 0.213237 2.35359 7.23506 1.76596 2.75873 9.29709 8.56426 6.5598 6.5438 10.4563 6.52363 17.7741 7.57162 -7.61216 17.2919 7.38456 9.72672 17.9404 -6.60152 14.7145 10.7574 21.0276 14.0744 -1.83287 9.554 13.2708 24.2446 16.5921 -1.42115 13.4013 11.5094 22.8669 -5.70593 -0.108745 30.4198 4.54347 14.2814 -28.3547 -13.6333 48.2229 -4.898 -8.55467 19.5539 3.75453 -28.0429 -3.42542 20.9677 30.0867 -11.7096 -18.6525 17.2106 40.4777 16.2063 -10.9582 -14.465 2.90092 16.6112 27.5633 -11.9414 -21.7127 15.1374 25.5428 27.1524 -16.2061 -18.8118 10.7093 26.1499 20.9091 -8.72829 -21.3077 1.96547 35.6426 34.2477 15.9847 -19.9067 14.6415 34.3781 23.7204 7.8303 4.73329 12.8895 23.0779 31.3331 5.54387 -35.9623 27.7905 21.9929 16.6121 10.1128 -14.4472 4.45544 24.992 25.8566 -0.487578 -24.3424 38.2779 19.6698 18.0753 13.0272 -21.5539 24.7708 15.0646 16.7019 13.5603 4.61028 -12.4545 12.0456 19.9216 -3.11921 -14.6524 24.6988 12.0078 20.3981 0.257128 -2.97853 14.2674 10.0798 21.5671 -2.23334 3.40055 14.1688 10.5682 18.4549 -4.96066 -29.8189 13.8504 16.1213 23.9773 2.63999 -11.4411 35.7163 13.0246 16.9098 5.49307 4.65066 -5.99857 6.43457 24.0949 -0.251397 -23.3069 29.5244 18.4157 7.29748 -7.52987 -21.0792 13.218 26.937 11.7208 -4.59904 -7.0784 -12.5726 -4.13083 7.16963 -4.0482 -28.2615 11.9041 8.62374 9.36697 -10.0678 -6.65468 -10.4831 10.6045 6.09109 -8.19791 -15.3143 6.91416 19.8258 10.6203 1.54215 -10.3031 -5.97784 3.89891 7.68283 -2.98999 -22.5307 -0.975475 20.6563 6.00219 -5.25769 -18.0955 -4.18406 15.9021 4.33408 -4.93674 -16.3635 21.0978 29.2566 0.0126035 -12.3454 -17.7774 0.762387 43.9746 
39.8843 23.3599 -16.9704 44.9583 37.438 31.6823 6.02757 -15.8336 21.5299 18.9921 38.3135 31.3814 -35.4077 11.5793 26.7695 13.2043 -2.08138 -17.2896 12.4946 8.35716 -6.09728 3.08671 -40.9749 -6.5348 22.7735 36.781 16.082 -38.33 30.9862 22.2133 1.90081 -10.6424 -37.0418 -9.4934 -0.669799 28.7008 7.3669 -6.80372 16.8887 29.1047 35.27 4.5045 -4.82094 40.6772 25.1979 31.978 -12.8626 15.3287 34.4074 18.4173 0.658741 -16.8442 -28.8084 -16.3799 2.52607 -12.5013 -2.47001 5.08297 -4.6611 -5.63498 -6.99041 -3.401 -13.4978 2.48088 -4.77586 -19.029 -2.3316 -13.7959 -10.2822 -0.423383 -18.3964 -13.9362 2.09233 -22.7058 -7.56051 -16.5282 -13.793 -13.8812 -20.0453 -19.9943 -15.5988 0.203269 -16.0271 -12.6168 -5.10145 -17.0739 -4.74888 -16.8421 -11.9601 -6.75169 -23.178 -13.4251 16.548 -5.58848 -3.3286 -41.7846 -20.3733 36.7426 -21.9122 -12.3838 31.61 18.029 19.428 24.7251 3.52312 32.0593 14.7865 14.6919 39.1228 11.247 4.53588 9.5631 5.76022 9.91193 -6.19483 31.5093 38.9908 30.3629 27.8538 30.6694 16.4488 13.3671 7.97255 32.5546 1.6479 13.5959 12.5359 10.1145 12.0468 9.40486 30.2162 55.2195 25.115 17.6183 29.1077 36.8819 55.0173 6.85436 30.7952 41.4654 35.5818 29.2167 -4.13855 1.18684 19.7724 16.6825 12.2074 -1.47953 8.70439 5.11976 19.7577 -8.95075 -27.8175 28.2575 12.1063 26.763 -11.2994 -21.1047 30.724 20.6992 -0.656026 -18.1982 -0.899313 -32.3984 4.24231 3.47653 0.546917 -36.1516 9.08148 11.5458 6.18423 10.4978 -11.0344 20.7358 15.0889 16.2777 8.27372 -8.4564 14.8095 16.5377 5.45181 -31.1763 -38.0765 -3.05567 2.8895 6.39356 -0.512853 -23.9169 14.0085 7.75234 3.79888 3.98351 14.9959 -15.0536 2.64376 9.77005 -33.4212 -48.8892 5.63072 0.634571 1.81398 -10.5264 -47.0238 21.3217 8.88315 17.7642 -9.45896 -2.18906 27.126 20.7356 -5.26999 -7.40994 -43.0579 -8.29107 7.82263 16.9391 2.16698 -1.06955 27.6441 25.5199 13.5055 -6.05977 -29.8336 27.4524 21.4488 12.7801 -3.42678 -25.4211 21.594 8.41385 7.27546 -2.15988 -31.3931 19.9264 23.6322 4.19626 -9.57253 -27.2045 13.7391 10.1754 7.55762 -4.19962 -35.7949 14.7546 16.1447 -1.84706 -22.9356 -27.2084 12.5911 3.73026 
32.5793 39.0575 -31.2007 19.285 44.423 38.8815 19.392 -5.5533 41.6831 31.1509 17.0227 54.9045 -34.8307 23.0327 69.2479 31.6772 26.9373 2.46445 19.4482 21.6598 -18.3645 20.1629 -40.2456 -39.926 42.3581 17.7994 47.4914 -28.1708 0.456362 51.6305 -2.1847 9.81273 -25.0415 -24.3064 19.1385 10.8174 14.4298 -20.7898 1.02854 25.5019 29.2711 22.6913 -14.5109 7.2668 32.6976 29.3441 -5.91272 -6.78768 13.8543 13.1538 -59.8915 9.69679 -32.9399 32.4835 -19.415 -5.24998 -0.148952 0.876039 -6.20199 -3.28623 -16.7618 -0.00506829 -18.9658 7.91099 -21.4709 -38.636 5.0343 -6.37735 6.14809 -14.1113 -47.2082 -3.17453 -6.68283 15.0676 -5.62308 -41.9423 3.59017 -1.88015 16.9324 -24.9301 -53.5768 10.6955 -19.3124 20.0871 -27.6188 -44.3638 8.71593 -7.73239 12.629 -26.9661 -39.571 -3.22675 -14.6206 9.17327 -22.3092 -18.3947 -5.01793 4.81377 -26.7218 -10.3493 11.1725 28.3379 -8.89681 16.808 32.7283 6.06421 12.0362 -9.51619 4.81421 19.6188 -4.213 21.1928 -8.28467 -2.19198 12.5928 21.2767 19.768 -18.8474 24.2504 52.9895 3.4483 8.13006 -1.90976 7.06367 12.7354 1.58621 31.9261 -13.7219 -0.761731 28.6741 21.3074 57.6873 -10.7325 13.2303 79.7088 -9.52215 -30.9784 3.9967 57.0866 9.30299 2.33181 48.6989 7.51029 41.8758 26.0816 -7.30496 12.7006 -6.36106 -6.28913 4.19055 -3.12886 49.8053 -19.5648 -14.7548 33.7655 -10.3373 26.7134 -20.5091 -27.8388 13.1619 -3.4853 -36.544 32.2407 -53.2494 36.8222 -0.299729 7.34674 0.633521 -49.8912 22.7892 -1.13932 43.7643 11.41 -18.1116 25.9572 -0.738477 47.3316 30.5599 -20.408 33.1827 -6.2384 -16.2241 -13.2704 -28.788 -5.29455 -7.75334 54.0012 -4.52231 -30.9983 19.3145 3.82803 44.9393 36.3248 -8.79585 52.2292 -4.44309 9.09005 -14.3388 -3.33722 11.5551 10.6792 11.7988 -27.7449 -7.79124 9.97155 40.8329 40.925 3.53349 27.0743 20.9727 -0.397878 1.06478 -12.9728 -25.36 6.35111 31.7443 14.2683 -8.67688 28.19 7.7836 18.1284 9.64441 -20.0156 -3.50506 9.01036 26.6384 25.6597 -8.12512 19.6514 25.8443 5.54974 5.96012 -21.3956 -17.755 8.05937 8.98782 6.34319 -22.8704 -2.12979 10.4502 -1.7271 7.26029 -36.1561 -30.1053 1.93301 15.4815 -6.85546 -29.9764 16.8102 -12.5072 
-18.9022 -8.01846 -2.08985 23.9538 33.5513 -4.75443 -22.0483 15.7 35.2198 17.1389 -13.9951 -1.62168 -21.5357 22.9993 43.2561 0.526964 -9.84392 1.36203 16.8649 19.9906 -1.54866 7.22257 -24.9402 -15.1982 41.2378 -22.6101 7.14605 -32.9612 -14.8037 42.85 -6.51153 15.4142 -7.46171 -2.43723 29.9347 -22.6195 -19.4501 4.73093 2.99869 13.3376 -22.4755 -19.0533 -1.99007 10.656 14.3717 -22.3018 -24.8593 13.1604 14.6454 2.9207 -34.0915 -20.2484 -9.41534 15.8474 -5.59671 4.21124 2.2209 0.669119 -9.32991 -2.70876 -10.1869 0.422538 -6.57343 10.2243 -2.04128 -4.42292 -11.8688 -5.99475 -9.91045 1.45844 -5.81713 -3.94721 4.55655 -6.9364 -1.73736 -23.1128 -14.4434 -5.55385 2.92491 12.6054 -22.5943 -0.780686 -20.7938 10.1052 -3.60279 -20.7514 -6.88336 -11.9931 6.50891 3.11367 -2.1584 12.1416 -1.78478 -12.3753 -22.4114 20.3622 17.4018 -1.59507 -26.3565 -21.7313 8.07945 -10.063 -8.77727 13.3048 18.2343 -5.75427 -5.97998 -14.5044 10.302 14.0379 -2.87154 -5.36007 -11.8707 14.8336 15.9688 2.72992 -13.6846 -24.3498 12.0265 17.8364 -8.71002 -5.12651 -5.54063 19.7205 8.35574 2.28176 -1.60088 -16.3495 8.14153 24.4007 3.3819 -5.15201 -38.8999 29.4846 48.9755 -14.3603 -32.6135 -10.7889 3.54281 10.459 -8.63186 -17.3078 -20.8552 15.7886 32.3062 -9.85097 -11.8416 -5.88636 3.20465 11.3914 -0.405762 -26.5453 -8.92262 -16.5626 5.06613 3.95129 -8.62402 -21.2689 -11.2947 10.0669 -7.72233 -25.6003 43.3743 -22.7448 -0.977311 -10.0692 -35.3905 9.63209 -15.568 -8.83672 -5.27424 -18.8435 1.57623 -9.65433 5.28228 1.27062 -7.55388 6.23385 -17.6594 11.4855 -9.47086 -13.8361 -7.60154 6.34965 0.396557 -2.82346 -20.1207 -1.42279 -10.064 5.58333 4.67968 -12.6947 14.2894 -10.7944 10.8622 -7.561 4.17632 3.30188 0.469611 10.8098 -4.04261 1.57187 -14.2275 7.97509 20.3405 -9.98014 -9.88206 -13.9024 8.83202 11.4228 -1.7852 -3.19033 -11.4626 1.07617 6.51712 -13.5835 -20.3072 1.00307 14.6155 -6.34957 -14.1918 -2.78613 -14.6726 -9.20696 5.42165 1.11871 -2.38989 -7.73444 13.3083 26.0441 -10.5767 -7.48835 -6.33654 4.50806 7.32019 -5.56845 0.0945595 -6.55467 7.27682 20.5224 -17.9891 5.15677 -15.0116 -13.5214 12.6944 -8.14997 -14.3736 -0.0475271 5.90641 6.20433 
0 -0.0480374
 5 250
14.3146 4.85633 -11.3864 29.9765 -7.10609 1.75326 6.5454 12.555 2.98584 -6.56884 7.5389 7.70189 6.43981 31.1134 -2.96868 5.46364 5.16792 1.82679 -9.80843 -6.98173 7.68498 4.91638 -23.1598 31.9317 4.36575 1.15553 5.33187 14.1696 16.4296 -4.83701 0.703726 1.72041 -13.3551 13.1399 -8.02799 2.05715 -0.499357 -8.7471 21.3519 1.84135 1.3777 3.84019 -5.61683 13.3736 -3.94493 0.742895 -2.52791 5.41486 4.95569 -4.01874 -7.73069 -2.32918 -10.3116 31.349 -11.8847 -1.66842 -7.59273 -7.50798 -6.48408 4.96407 -4.91028 -5.31487 -17.4248 1.54899 -4.03432 -0.712109 -1.50644 -11.7267 8.45002 2.5301 -5.33782 0.752272 -10.1466 14.8326 -14.3382 -6.74979 -3.7449 -12.953 24.5962 -9.46306 -7.55088 -2.73155 -28.0297 7.83615 -9.72416 -5.19319 -8.42833 -20.1944 11.7202 -4.42374 -5.79099 -2.30753 -23.6166 -5.59861 -7.13037 -7.20407 -5.03346 -26.7889 -22.8693 5.76494 12.9881 15.22 -8.83553 6.00832 -7.99952 13.2188 7.69519 -23.0975 14.4416 -12.8982 11.2116 20.2477 -4.66578 9.15412 -19.8463 12.5511 -0.982246 -11.4323 -5.60303 -3.69479 12.9269 12.3857 -16.488 6.41022 -13.6942 14.4387 15.9239 -11.6649 3.13402 -22.3107 15.6777 19.8438 3.03982 -15.0515 3.97764 2.79252 -27.9057 -36.9904 12.6407 18.3569 11.4911 3.19039 2.23796 36.3488 -10.172 1.72726 -4.16234 -21.6842 9.79882 -15.7621 9.45633 8.96063 -5.10938 15.3694 10.384 1.12453 -3.31666 -23.5234 -21.1758 5.87664 -8.96709 10.4046 6.73417 20.1985 13.0801 2.52395 -16.113 -24.3993 9.24387 10.3033 2.727 -4.46747 -20.512 0.260192 16.8784 0.0895271 -1.41427 -20.3126 -10.8966 15.6918 -7.81385 -6.5827 -10.4038 -14.3847 12.8674 9.02528 -10.5421 2.52513 6.11719 24.0085 2.66476 -2.23308 -8.11875 11.7975 14.548 2.88538 -5.84981 12.5722 -16.4092 -7.70611 14.6024 13.5962 -33.2161 19.8512 -26.9255 14.0365 13.9015 12.8477 13.3893 -20.2412 7.05749 2.51822 -29.5672 29.8769 -7.16296 10.9366 8.83435 9.08068 3.26011 -3.78405 6.85378 11.4837 1.07559 40.1249 -24.8459 14.3649 14.9111 -14.4202 -0.933492 -20.7027 13.4382 10.8824 -17.8204 15.5571 -15.8563 11.0565 12.4317 -20.6034 5.90208 -11.105 10.63 12.4392 -11.2595 28.5119 -22.6443 15.9362 12.8852 -2.10495 3.70185 -24.2779 
-30.888 -34.5533 8.95751 -0.523167 17.9609 -30.605 -33.3509 34.3711 5.42536 12.6764 -10.3709 -44.3416 -4.37832 2.64163 34.5339 -17.7379 -15.2722 16.1164 -2.25213 2.36616 4.54668 -9.91245 -7.24988 -16.5609 21.0318 -4.5578 -36.4506 2.45274 7.23566 22.0753 2.1377 -12.793 8.43082 -27.7487 6.69971 -24.1022 -34.4878 8.83753 5.76614 21.416 -31.791 -35.0589 20.2202 7.40299 7.4823 -28.0229 -34.1964 27.1293 19.1311 3.48084 -8.90952 -10.5919 -41.6053 19.4199 11.7457 -0.755095 8.23668 -6.77107 -18.4479 -6.2429 -2.41479 6.31474 -13.0601 -2.73844 -7.43813 -2.67355 -5.66234 -24.7942 -5.31551 4.62496 -5.13536 -8.70869 -49.7806 7.15664 12.17 -2.12745 -12.0702 -58.2322 5.96315 9.95997 -4.20719 6.63693 -35.5179 4.26568 -5.12954 -4.18898 -1.45599 -46.4562 7.78242 4.36951 -4.2256 20.6922 -27.1412 -10.7955 -16.4529 -0.0188673 29.0787 -5.25743 -50.4485 -19.5183 -10.3012 -44.8001 4.00309 10.261 5.9344 -19.8366 -46.2907 -1.43892 -5.83239 -11.6918 -12.0059 -20.6818 -2.39158 -7.0586 -2.74895 -6.57929 -35.8973 -7.03273 -10.2132 35.274 -22.9933 -40.2746 -3.08707 -6.84071 -10.7046 -11.2763 -25.3102 -13.0487 -6.94035 1.09473 3.48505 -43.3527 -28.7635 -35.2329 36.0883 -0.800505 -26.5744 -5.96595 24.7453 16.7345 -3.17099 -33.5778 -3.53181 -21.1431 22.39 -4.43657 -35.5411 -5.09522 -9.43469 -4.77271 -0.795975 -18.7319 -38.0226 -36.4992 17.5939 0.261804 -3.71879 -30.6948 -5.93471 30.4713 -34.0062 39.7842 -28.4364 17.0916 -12.0327 -10.7529 30.6311 -27.4079 -9.56434 10.366 -8.46301 1.25079 -31.1439 -14.4251 17.2505 -8.4042 2.93989 -54.4732 -19.2119 24.1779 -11.2844 28.3331 -10.1745 36.5443 1.51974 -2.13129 -5.85158 -12.9638 -11.5617 29.8483 -13.4968 21.8279 -29.7143 -8.12154 1.50252 -7.3042 9.00089 -20.6025 2.12711 11.7927 7.53525 2.46113 -22.2498 12.5519 13.2664 -2.73038 -22.5154 -0.0286871 14.339 12.3064 4.11116 3.70929 -13.5472 -8.13032 10.4441 -4.70548 -17.9554 -3.60319 28.9297 8.85619 7.43325 -18.85 -10.7037 17.703 7.26848 -0.721098 -10.3034 -13.1621 13.8012 15.3283 2.4058 -5.32098 -23.3608 28.6705 14.2 3.64986 1.71356 4.67993 20.7607 2.77662 7.20555 -7.05925 -19.1138 8.03162 5.03998 7.53854 -9.61442 -8.23292 29.1749 -0.498299 
8.30156 -74.7465 48.1403 44.299 23.0387 -4.41013 -55.3391 54.2835 43.8218 16.5039 7.20867 -37.2787 -9.0572 61.8119 35.4743 -6.38475 -33.9196 39.3979 28.0645 21.3199 4.44964 -22.6613 -31.5081 45.7576 30.2398 4.22025 -33.6429 21.2052 39.0095 33.3506 -7.89412 -28.0844 -9.3279 30.3957 37.1203 9.88993 -30.4785 38.9495 41.5663 7.07253 -10.7836 -43.9462 54.7469 40.1458 16.6386 -8.73193 -31.6003 55.3348 26.7854 8.54248 26.1877 44.6984 -51.0136 28.4495 42.1466 -2.18814 -2.92388 6.52547 -8.66048 -6.12109 6.59891 8.60183 -29.8571 -2.06062 12.8494 17.8657 6.49705 -13.4105 -10.4206 11.2543 15.4584 37.0749 -11.9718 14.1296 9.37454 23.8001 36.7839 -39.273 7.04943 43.7538 17.8461 30.0835 -57.6915 -3.17398 24.9408 22.9062 30.5287 -44.21 -1.11411 32.2168 0.305339 22.7676 -17.7082 -23.9529 -20.4025 -22.1375 1.18774 24.8693 -39.3548 -50.8715 -7.08126 -10.066 10.7076 13.4537 60.8962 -8.23233 -35.2165 19.5279 -16.2061 53.8085 -6.85755 -18.0196 0.803849 -5.67695 52.3017 10.1427 -9.40875 6.47981 25.8901 50.5168 -9.53533 -26.3474 13.025 -14.7716 46.4188 1.04571 -22.6879 -2.12686 -2.10786 57.9147 17.6303 -19.9976 -29.4189 33.9112 90.7552 -1.52826 -54.8852 29.1234 25.2856 1.00848 -7.81168 -53.1126 30.0244 14.2509 59.8075 -8.52763 -36.3214 18.8916 0.172226 39.5428 12.0225 28.9643 -41.0518 34.0358 45.6808 3.00648 4.14762 -18.9803 11.7736 37.3202 -11.5158 51.25 -39.9129 17.8046 24.3269 18.3947 27.96 -18.4218 30.0333 23.7561 18.8374 20.508 -19.1117 -14.6115 20.6051 12.8854 10.1335 -34.3049 -23.1927 33.19 7.18755 25.4917 -15.1903 48.5617 21.2279 19.7176 27.9368 -16.4329 14.571 29.2974 15.0924 26.905 -43.0582 -13.5508 35.2684 13.5134 25.5782 -23.0504 22.3565 35.521 18.5669 -0.175706 12.3976 19.73 41.7204 23.2415 9.98615 39.3811 9.88963 11.9996 9.62764 3.35988 10.5605 31.5136 25.8978 24.0087 -15.6355 60.0439 11.7337 12.2785 17.1834 8.91053 17.566 6.14759 20.1092 14.8441 -7.24838 16.2712 9.37438 21.5059 18.0863 -2.17275 15.3811 19.3415 17.2666 9.27133 -15.2674 4.97053 6.37594 22.1465 16.7887 9.06084 -4.81879 19.1986 24.6506 22.3898 -3.1364 29.6087 0.971252 42.9015 
15.7631 -49.5246 56.3571 31.8988 7.62037 6.36867 -32.7943 50.5562 0.126607 5.62708 42.9659 -45.4428 24.8821 30.9487 -16.0324 6.47171 -25.9857 24.5397 13.9288 2.661 35.251 -2.68302 -13.7364 64.5038 2.24587 12.9087 -33.8449 16.5283 45.9226 -0.549719 3.48642 -2.42354 -18.8045 43.5935 12.8553 -1.95199 -32.8333 32.2998 14.3124 12.4711 5.91277 -42.9669 28.2891 28.7061 3.45938 -13.1635 -23.157 33.2281 9.86338 13.7174 37.5156 -5.91344 -62.0964 -32.7839 45.3313 5.18235 -10.0793 0.573162 -0.911453 -9.91326 9.19241 5.07091 -12.6043 -10.66 32.2875 17.3117 -20.8091 -28.1283 -24.5445 14.2427 7.63578 -15.7864 -27.0677 -25.6478 -8.78647 12.6401 -3.82578 -42.6357 -28.7102 30.3598 19.3338 3.20922 -41.3675 -56.8678 43.9082 15.7165 -3.14728 -44.2158 -45.2204 39.3073 10.1276 -4.52851 -30.6534 -40.905 8.70349 12.7446 -35.7625 -8.25543 -15.9436 -32.5684 -12.2923 -30.394 8.47625 13.0865 -2.92797 -10.6905 -4.59411 22.8074 0.669318 23.7405 3.56904 -10.112 2.35309 13.2899 12.6204 13.1292 -26.5575 11.323 19.151 -1.99327 -2.35626 -0.918751 17.4949 -8.08274 19.7723 10.9385 -13.494 4.56901 7.89247 17.0798 28.0282 -33.3356 -10.2124 43.6258 -3.49695 0.0306116 9.1509 -18.2136 -2.60521 44.1731 -0.408411 -22.5284 -2.64089 13.0935 38.9507 -5.69694 -12.2842 -8.85637 12.8297 30.3857 17.6251 -88.1575 -39.3123 51.8054 -13.4704 20.6016 -49.8757 -37.4247 37.8886 13.1255 -12.6548 27.1382 -48.3037 14.8019 -12.3699 10.9029 -44.782 -46.0749 47.3299 -4.84728 15.1718 -65.4894 -33.5134 24.643 -9.0166 15.4316 -70.4349 -56.5105 20.0266 -4.6408 11.5147 -13.5986 -46.5161 30.4208 8.05722 27.227 -70.1873 -33.6441 41.7457 6.89516 26.538 -30.9917 -25.3424 -13.7763 -12.4324 21.6219 -31.9041 -48.4429 15.5195 1.4354 8.14937 -2.39755 10.6713 38.5059 24.0288 -12.4307 -18.0458 34.1459 16.553 11.5663 10.453 -5.36377 10.9215 39.8013 19.1159 -10.6948 0.600966 21.8966 -3.87451 25.1643 -17.6565 -2.49952 11.4365 35.8309 25.8904 11.2085 2.11507 32.9613 21.1374 3.55539 3.86603 7.12497 3.18224 31.1236 28.2041 13.2215 9.0407 28.7174 34.3143 10.9888 0.99219 -5.36343 3.31772 49.0445 20.0088 -12.1113 2.24068 17.9653 -15.7699 38.2911 
12.3826 -41.3302 9.03521 6.26055 1.5647 -8.02718 -12.6532 11.549 -0.668218 2.5579 29.935 -36.9986 24.2396 7.38672 -2.13563 -1.23783 -14.2131 12.8218 3.89924 -1.71737 15.2954 -39.7032 6.67675 11.8052 0.660923 29.1665 -45.4162 24.5144 18.7796 -5.19365 18.643 -42.103 1.47452 1.63408 -0.864025 3.22035 -23.936 -9.48377 4.73151 7.91613 -0.39367 -21.396 24.4154 -1.88955 9.72284 -6.25465 -8.29457 0.916422 -6.86048 12.2427 -2.21143 6.90266 -18.9393 -13.0984 21.9491 -1.35725 1.75511 1.55768 2.24567 -2.27029 8.78245 1.06865 0.818066 -13.7121 7.46326 3.14097 8.50277 4.15868 -4.59894 2.92253 -2.80799 -1.22392 -7.10976 5.94557 4.91635 13.897 -4.08848 -8.1961 -6.69848 -2.69196 15.267 -6.39667 12.6246 -20.1101 12.4653 17.7119 0.0214319 6.46149 -17.5542 7.77389 6.11024 0.473292 4.37472 -12.1448 15.4924 -7.71413 20.9298 14.8648 -3.99502 0.315668 -16.248 -15.3681 22.6444 8.35667 9.84726 -20.4966 -22.4618 35.6856 2.25099 11.8486 -10.6994 -15.658 21.2444 -6.46366 5.63901 -11.6673 -8.86573 41.2938 15.8656 9.9213 -19.3918 -17.4954 27.654 -6.36687 9.43213 -13.3922 -24.8086 22.3681 4.9943 6.10623 -2.31518 -26.0571 26.7397 6.01641 2.29034 -18.069 0.811287 30.2651 6.40134 2.2569 -15.8238 -35.988 36.0857 17.2708 8.66835 -9.45775 -23.7217 16.7447 -5.18268 5.89991 0.688082 -17.2405 -43.8216 33.13 0.578971 -2.29701 -34.5814 -22.8242 1.07671 6.87634 -19.6189 42.7044 -123.682 4.86961 28.6684 -3.5319 12.7123 -67.6978 10.1289 15.0134 1.6827 -8.7529 -29.4599 11.5583 7.9738 -1.00041 -29.0418 -50.689 5.38667 16.0909 -8.78024 -4.67038 -41.6771 -12.3393 8.17556 1.87481 -17.0776 -21.3019 -6.07207 6.421 -6.00435 -3.66649 -41.925 4.14518 20.3095 -0.515754 -28.7214 -34.9364 5.60537 2.00479 8.73485 -30.1078 -15.2699 2.18096 7.0067 10.3905 -20.7166 -2.08589 16.7119 16.7764 -1.00792 -18.442 -8.7008 2.02727 17.407 1.89967 -20.0612 -19.6553 5.86394 23.2156 0.555626 -33.1163 -9.42639 14.9218 18.7048 12.8834 -14.4477 0.674476 7.04444 1.09248 1.29676 -24.2627 -25.7359 2.01193 15.0844 19.8598 -14.9844 -10.079 0.350417 0.865793 11.9243 -24.6874 -15.8308 8.31859 6.89795 -0.0419098 -27.5146 -16.6281 -0.201558 7.59472 
0 -0.436866
 5 250
1.30799 23.2089 35.2166 8.76642 18.2745 4.55462 15.4167 30.5922 19.1309 19.0255 -2.99525 8.55611 11.6515 15.2853 33.0936 1.62199 10.0531 17.7225 22.8291 17.5178 -4.7867 -1.01403 -27.3025 -11.7667 22.4929 1.79194 6.2666 -6.06489 19.6636 27.379 -3.07096 -1.79767 -14.4363 -16.2312 15.2213 3.58545 14.7286 13.9167 0.867153 18.3271 3.04025 19.2602 20.3955 6.55341 18.7665 3.39067 18.6883 15.3 3.91739 10.0841 2.38434 -8.7548 10.5519 -22.9386 32.0538 2.47575 2.03952 -2.09077 -9.29552 -1.48615 1.82991 -2.34903 2.9064 -12.2117 7.78414 0.804944 -5.96403 -11.8424 -12.6613 11.5048 0.66543 -10.5813 7.36099 -10.4285 25.1246 1.91528 -15.7179 1.08679 -11.7444 31.8003 2.59551 -7.95589 1.67714 -18.6297 18.8688 1.86763 -10.127 -4.4385 -18.0524 25.0507 2.92236 -7.89863 -11.0952 -32.987 -0.709173 7.0493 -2.73651 -20.0186 -43.7712 -12.3138 -10.3141 6.7157 14.1506 39.1827 10.2254 -6.22688 7.86516 12.8043 19.1375 20.6287 -7.97338 2.34996 9.08997 20.9096 19.0673 -5.42757 5.44765 27.5532 33.7095 25.4796 -7.78249 10.6314 14.3366 22.3878 14.3209 -2.3441 0.0240356 8.79711 10.4756 30.4726 -10.1607 -3.09247 16.6004 46.3483 43.4512 -4.93497 20.0771 38.2007 18.1205 8.23137 -11.3845 11.814 29.649 30.3972 46.9736 -2.27634 8.53626 12.4928 6.16946 16.9965 -7.40752 1.40386 4.45662 -4.88707 14.5727 1.83372 5.03917 6.99715 -6.60841 11.0871 4.45688 -14.6431 -5.48355 -30.0981 4.68982 -2.65958 0.642503 0.817197 -30.2457 7.3951 -1.74146 2.66756 -0.372167 -3.97659 18.3896 2.54604 0.860976 3.08952 -5.06924 26.5669 2.43684 -6.25022 -3.64624 -24.6033 -6.08964 -5.67788 4.78834 -9.8466 -10.8747 6.88918 -2.26357 2.52053 -3.53991 -6.90639 23.1104 -1.47532 1.36984 -9.52438 -4.55 12.9974 -7.84764 -2.91577 6.89444 -4.90978 26.0548 -2.27559 14.079 31.8661 18.8776 19.2687 -5.01695 -0.615652 4.65592 -8.18698 24.0442 -0.75781 13.8982 27.1572 2.63196 -0.105461 -5.96234 -1.1259 2.80494 -13.5311 34.2144 -4.71803 4.71241 27.4872 21.1146 25.4473 -5.23678 2.89988 10.0114 -3.65625 14.5237 -4.4987 0.413105 10.4855 -3.5194 5.12176 -7.37485 -4.30867 -12.8096 -15.0632 13.9377 -7.14652 -0.608965 -3.19269 -2.6009 14.6999 
8.85356 4.27472 -24.6282 52.5812 42.1124 17.3327 2.67917 -15.4407 46.8146 18.4475 -0.737657 -0.300339 -11.4841 38.1787 29.3887 9.75517 -8.74936 -8.13245 28.6157 16.4388 -7.24741 -16.1341 -33.8103 20.9483 34.6538 1.3565 -13.8086 -24.9131 19.5009 28.1492 -1.72965 -9.55462 -21.7863 27.6215 23.9084 9.35541 -7.45955 -30.7547 28.899 22.8592 14.5939 -8.83806 -23.5441 34.2576 28.3998 14.688 -4.82694 -18.8939 20.8832 19.9044 3.64386 -25.8637 -26.5933 -28.3226 40.6335 0.751426 -3.69013 3.25663 -1.37514 2.14685 1.74044 -12.8549 -1.64224 0.628805 15.7863 0.655134 -13.3941 -6.00801 -31.1611 23.6231 3.72807 -12.1135 0.463335 -12.966 7.37194 4.00891 -19.8079 -15.7322 -33.9068 18.4103 4.35459 -24.3632 -19.8391 -15.8449 28.5402 4.96605 -22.776 -14.4044 -24.7733 25.0665 5.03312 -10.7675 6.66319 -11.3909 15.3861 6.74196 -7.19262 30.001 2.59206 -5.62556 8.11288 -3.68428 -2.97885 15.7031 26.7174 12.7502 -8.26861 -13.7121 16.8525 40.692 10.3491 -13.3184 -2.75836 7.74944 17.7204 -4.24788 -6.85766 17.6297 15.3982 18.3951 14.4768 -10.9879 -7.07314 16.4608 28.3512 -0.072557 -14.6582 -1.75541 0.795721 31.3001 -10.1128 3.259 17.3392 31.4808 25.2481 12.6371 20.5462 -1.40404 -11.163 27.196 9.99679 -5.29644 -16.6293 21.421 25.7613 12.727 8.96302 -8.75185 7.6239 20.8924 -10.3748 -12.6119 -19.2687 13.4988 19.9457 -3.89737 -24.1281 -7.13 -21.7321 9.40256 26.8656 -42.1591 -15.8114 -47.4885 20.4812 1.83391 -29.3546 -19.305 -19.8147 8.1151 -0.877121 -8.56373 -5.96837 -1.236 18.9039 1.02443 -28.5287 -3.77311 -5.0852 25.164 4.82102 -31.7568 -28.0318 -36.8139 12.1365 -4.85732 -9.20206 -13.3815 -8.77907 15.5418 6.68243 -23.7422 1.95462 -7.23201 26.9348 0.866275 -27.6844 -24.6998 -6.3147 19.8646 -6.55523 -12.9667 -20.4552 6.81896 24.6559 -2.23404 1.1163 1.02686 -3.00637 10.0893 -3.42022 -9.14222 -23.9227 3.06205 11.224 0.399197 0.621617 -3.75776 0.178507 14.825 -5.46563 -6.73887 -13.5253 -5.7144 20.2213 -1.41933 1.51551 7.97986 5.89022 11.195 -7.07438 -11.7943 -22.3154 3.27399 20.3943 -1.71975 -6.07681 -10.0884 -6.72133 18.6025 -11.5567 -14.4136 -33.8524 -2.66309 25.8404 -6.46086 -12.0349 -26.9983 -11.168 35.1177 
-3.9911 -4.75696 -63.9391 30.2507 20.4997 0.651569 -6.09278 -44.0772 8.61792 7.86459 -6.77698 12.1286 -49.6518 -5.49805 12.6065 -1.29655 -1.86625 -24.6855 1.23701 -1.27728 -14.0331 12.2335 -34.6048 -0.629154 12.4509 -5.0252 -6.53519 -48.891 2.26884 6.24256 -3.2806 1.44678 -13.893 -4.41304 1.18691 1.09536 -22.8136 -38.7042 6.52773 15.0454 0.535803 -25.5985 -44.9158 17.824 5.41675 6.01925 -38.887 -20.7168 14.6776 7.00311 -29.0836 -33.564 -69.0935 33.1739 5.09443 0.21081 6.0135 1.5392 -5.66663 -2.42814 -14.3489 -5.17574 -20.08 11.862 -5.42996 -17.7622 -3.42213 -33.7968 16.5136 3.04399 -13.9582 -22.6615 -31.4865 16.9 2.53813 -23.875 -17.5758 -43.3411 18.561 -7.53161 -30.9757 -18.4464 -41.5598 14.4659 -2.01943 -28.252 -14.7527 -49.2401 16.1886 -3.19664 -13.8142 -21.6297 -19.6285 13.0666 -0.48742 5.41488 -8.93484 7.77938 -25.4097 -0.874141 10.7896 -14.398 -7.83905 1.79713 1.82943 16.5586 -22.2525 -4.44391 9.01221 15.1293 1.03439 -4.5129 3.57449 0.868189 -1.67227 3.02391 15.2162 -30.5321 -12.5733 22.1562 10.4146 -12.5641 2.83764 6.93214 9.10929 3.6464 -2.7811 -8.25827 -8.48968 10.6677 -8.60638 31.6247 -26.2755 -23.3373 5.45758 9.86307 -4.55323 -35.6871 0.497585 19.8095 3.9444 8.42433 -24.0977 -17.6867 6.39596 8.86969 0.214794 -5.65574 -13.6756 8.8798 -4.77825 -3.01139 -46.9606 -3.86122 1.9119 -10.5583 -8.31727 -43.6177 -3.4009 -11.9334 17.8801 -52.9146 -4.65023 -13.1326 -17.2865 2.55779 -18.875 -54.3386 -11.4262 3.46996 -11.61 -5.98574 -38.2221 4.87264 1.27559 -10.2344 -8.98706 -35.0663 4.34726 -13.5552 -0.403316 -22.6831 -57.1605 -1.89958 -13.1939 -8.97568 -5.84981 -44.708 -1.24635 10.0865 -7.77234 -9.70496 -4.62817 -9.29261 -8.98255 -5.65601 -18.9242 -52.5086 10.2681 -4.134 -19.0366 -5.10906 -54.6622 4.21952 -6.80257 -20.8349 -14.5869 -20.2332 16.424 -2.34511 -7.96727 -3.08393 -39.489 2.13898 -13.2799 -21.1305 -1.05262 -37.776 -1.77686 5.82776 -20.704 -14.6851 -49.8161 6.93463 -5.07348 -14.4904 3.07543 -27.764 12.3452 1.54552 -17.5866 -8.61315 -60.5971 2.24103 3.87694 -10.0202 1.87028 -28.7521 5.8314 5.72953 -12.7197 -14.6105 -44.2353 -3.66023 2.71792 -20.6041 -7.49534 -41.2068 -1.4584 5.20529 
9.13231 -2.74453 -45.2651 -3.4866 16.4359 0.872151 -17.6168 -22.943 12.752 12.5297 1.49284 11.3381 -77.9915 3.65213 30.4013 -5.3694 -11.2293 -20.9326 -0.312131 11.4436 -11.2721 -0.719735 -75.485 -28.1713 22.3919 2.23778 -1.74173 -67.6719 -16.5984 23.7602 -13.867 -5.15628 -39.7929 -23.1742 13.0942 7.92424 6.73643 -17.7805 -6.44545 9.47626 -0.838258 -9.63714 -21.2305 -1.84116 15.9128 1.0167 -22.9798 8.75299 1.35529 7.72299 -1.31757 2.07658 -58.5509 19.1267 12.1966 -1.2897 5.15731 2.18919 -5.52452 0.612233 -8.54626 0.618243 -27.5534 0.186551 -4.20922 -8.15577 11.1823 -17.357 -4.09368 4.42822 13.931 11.8334 -1.60861 -0.180851 7.32528 10.6721 -12.8791 -24.6275 4.91464 1.82053 -10.9438 3.62985 -32.327 9.10793 -2.6667 -3.96282 -2.62732 -26.0051 5.74501 -0.146959 -22.6552 13.2171 -8.27383 -5.36779 -4.42254 -29.1532 35.9438 32.4522 -32.5519 -15.0683 18.31 19.4239 -10.1317 18.2836 22.9161 12.6905 0.840573 -6.16441 14.0725 15.4076 -13.59 0.747898 -7.28599 6.92667 14.1286 33.6844 22.8939 -19.447 23.294 20.0827 0.298487 -14.7628 0.799324 20.9081 10.2009 8.38665 16.2939 -18.6477 10.2154 17.6629 28.6573 41.8413 -39.9825 8.55833 36.5694 19.2633 34.7952 69.4572 18.286 -5.1718 2.96198 30.6735 -13.9449 9.73523 12.5983 2.1455 16.5955 15.1978 3.64033 1.59994 46.8017 46.1988 -50.1807 -4.56525 11.1468 19.3422 42.8065 -47.052 36.001 2.2448 -6.74098 -16.6923 8.13244 -50.1321 -13.1586 22.8883 13.1634 -23.2154 -6.021 0.950734 28.5122 45.046 -18.3379 -1.82639 0.623131 29.2611 54.4459 -16.6921 -5.52595 -2.32634 -0.232065 -13.7256 -28.2937 17.9352 -8.98016 35.0106 34.2317 -38.1336 8.19573 0.261226 10.0758 26.049 -9.58848 -24.5882 3.33488 9.23968 2.73952 -38.2804 3.64967 3.65285 -4.93707 -11.6602 -58.244 -34.3214 6.89827 6.20982 -14.5107 -40.4481 -17.6866 7.30654 -8.71596 -6.89754 -39.7069 -25.7131 5.05011 5.23911 -18.212 -24.0665 -7.37275 10.6675 17.2332 -17.3424 -45.6905 -29.3753 4.59162 -8.53904 -16.3005 -44.1961 -20.1465 9.15932 0.907982 -16.9768 -40.1958 -25.8618 7.87369 -8.93957 -10.8824 -40.723 -21.6393 10.4598 4.13447 -6.47441 -49.8873 -28.2974 9.977 -1.46207 -23.1002 -42.9732 -16.265 6.67126 
9.75841 26.7808 -16.0229 4.53981 6.79588 15.3107 0.648319 2.44671 2.37772 2.70411 20.2148 17.8275 -25.7547 15.4651 5.64312 16.2665 1.7136 -4.79467 2.13515 6.34198 4.12516 -1.85809 -39.7561 1.22235 7.57901 15.1034 21.7262 -38.7956 -3.52561 13.4975 -6.89797 1.66779 -29.4656 11.1212 7.66398 -2.05351 9.65604 -0.452092 -5.17859 2.18545 6.6254 6.31169 -17.6743 -2.13836 1.82046 -1.79688 -6.28775 -0.562696 -2.64058 0.0946282 20.7584 -18.5568 -21.2546 -10.0515 1.10638 -7.95386 -4.05852 1.3588 -4.0386 -2.41827 0.874871 -15.6273 -23.3865 2.70909 0.847997 -0.0025307 -13.4906 -8.64481 -12.0332 -0.348404 0.202651 10.8269 9.81528 -20.8153 -7.45822 9.99072 -2.36652 3.88279 -15.857 -0.553608 4.2002 -16.0049 -42.9417 -9.33832 0.677032 8.98232 -14.3236 -23.8643 -12.6079 -0.51073 -25.2743 -6.86587 -20.7875 -12.6842 -9.93931 -39.3317 -17.8557 -18.4651 -12.4202 -12.8582 29.7069 16.6881 -19.4438 8.93561 -2.42377 17.1851 13.3237 -28.9175 0.935747 -2.55267 13.6126 14.6878 -20.9581 8.66651 0.746031 32.822 20.3975 -17.6713 1.28943 -4.3048 12.2477 20.1473 -24.2965 11.3786 -3.7147 22.5086 15.118 -18.055 -1.21778 1.74731 50.8624 38.2547 -18.2538 9.65786 5.23459 10.1209 6.39247 4.57458 10.2219 6.20393 28.2956 44.2951 13.1975 23.5605 6.26349 4.7207 18.6327 -4.0738 2.87188 0.0828502 24.3111 -25.12 -28.1373 0.115514 -2.94825 27.2329 -24.804 -46.3453 6.26003 -8.33203 -15.3612 4.32843 30.4771 -35.6108 -6.87226 -12.0673 -30.5973 -5.12871 -6.32361 -8.23381 1.79504 -10.4422 -12.721 -18.2667 -2.31898 13.8769 -0.0299146 -13.1105 -24.6651 -5.72811 2.74535 -36.182 -18.1944 5.7256 -10.241 13.7373 -16.2517 -28.0139 -11.2312 7.78175 18.7491 28.7995 2.77055 -32.3869 2.45003 24.8878 -5.79023 -19.8266 -1.64108 0.405851 18.7553 4.80197 -20.662 -21.6278 3.94704 27.5771 32.7475 16.6801 -3.28655 -2.85457 11.8406 8.74418 2.39195 -5.11197 -4.80688 23.1663 19.2208 17.5704 -9.33592 -2.05292 21.0619 18.2148 -10.2877 -15.0726 -2.15589 24.1987 6.05413 -8.93083 -11.243 8.20996 18.6105 16.1077 -5.60235 -15.4541 0.368349 13.497 -4.57992 -15.3226 -12.8058 7.6973 4.73855 2.64857 -30.9103 -19.9668 3.12308 17.6841 -10.519 -19.5566 -19.5353 4.7656 
0 0.481652
 5 250
-8.11156 26.794 5.45219 -11.6092 -25.0077 -5.73871 27.2912 1.26301 -19.9395 -13.9548 -8.99826 8.91222 11.3516 7.29132 -26.1815 1.51922 4.53405 -12.0135 -13.9671 -15.2778 -9.18935 -13.9135 -11.7477 24.2253 -26.2038 -3.3309 6.28562 0.582664 6.30355 -34.6673 -6.50197 -8.32469 -17.2425 13.7025 -25.9243 -8.67083 16.4211 -1.88618 -9.26834 -15.7247 -6.82258 28.1208 -17.4156 -3.78896 -28.4984 -5.33742 29.3315 -10.1026 -17.3774 -16.7657 -12.5006 -23.1514 -2.18218 -9.58127 -37.3986 -0.191367 -6.16905 -4.50141 -0.852084 2.7883 -3.01385 -14.7471 -6.92444 -2.10003 -10.7034 -1.70908 -9.91863 -10.0883 2.73173 -13.1404 -6.83908 -13.2261 -1.53499 -18.2014 -25.5023 -7.93011 -29.2447 -4.13224 -15.6296 -24.9854 -7.65922 -22.1252 -16.8885 -3.83858 -21.5054 -5.87486 -27.1788 -14.4123 -6.8016 -19.0586 -1.72477 -12.6067 -12.0617 -6.74344 -8.01153 0.0586987 -6.79856 -19.7328 -1.94959 7.88176 -5.82793 41.0331 -3.67752 -0.571847 -15.9135 -11.8159 40.0648 -2.0855 5.254 -13.9881 -4.34365 21.6582 -11.4576 -1.34282 -23.4026 -8.10143 6.45023 37.7413 20.8509 -17.0409 -9.56021 33.3031 -13.7129 -1.69827 -14.713 -8.69941 6.02549 4.44843 14.9502 -25.8069 -7.72338 3.39401 47.2357 34.7332 -24.7914 -3.57543 44.9506 38.6627 18.5597 12.5628 -11.252 35.792 17.161 12.2943 -31.6287 -7.64782 18.9722 -9.21379 6.32225 -16.5372 -1.53347 1.09073 7.29485 -21.4164 -19.5214 -7.25008 -13.6212 -10.2019 -9.02872 -21.4821 -3.71332 -14.0385 16.3333 -29.7069 -20.4265 -3.28954 -19.5503 1.97564 -36.497 -21.2513 -0.740788 -2.36104 3.65725 -4.47628 -11.1079 -2.42759 -12.8846 1.44182 -15.5663 -14.3256 -7.88383 -23.5982 2.2713 -43.6859 -12.8688 -0.919459 -5.44717 13.4766 0.0907848 -19.4231 -0.689736 -3.84376 -0.722001 -2.16615 -16.8188 -3.98406 -13.7631 12.924 -48.9939 -29.3936 -6.1877 4.1456 -24.472 3.70186 -33.1456 -1.03802 18.8589 -1.08818 -6.33053 -16.9874 -5.71214 -6.74197 -21.5816 1.67852 -22.5848 -3.3693 26.1263 2.51466 -0.0926698 -7.41691 -5.8539 8.46934 -8.53694 7.98514 -34.3195 -0.423836 9.69337 -10.0168 -5.74721 -19.5104 -6.52246 6.14847 -8.10083 9.47267 -23.1065 -1.25261 9.16902 -19.335 9.14665 -12.3031 -6.35971 4.35106 -18.2949 22.7951 -30.1521 -1.36633 10.546 -24.1555 -5.93942 -30.7954 
-10.2394 6.18557 -19.3016 -24.4797 -7.84942 -6.3482 6.70544 -6.59752 -16.5825 0.976099 -24.712 -8.48293 15.1797 -25.7373 2.96932 0.182286 15.6924 12.2742 -5.57904 -1.22745 -20.3127 -14.0875 22.2337 -25.1864 -6.5203 -11.3894 -6.15804 8.2295 9.87566 -2.62458 -4.06147 -12.5163 20.1589 -18.7221 -5.91999 -8.89409 -10.0864 -22.4199 -1.04616 6.85635 -8.81489 0.72986 -18.9046 -13.192 1.5277 -1.00005 -4.21557 -21.1376 -4.1833 0.67396 -28.1207 -39.6189 -21.9435 -2.83988 1.20187 1.91299 3.56687 -4.98942 -6.89974 3.65155 -9.71629 -8.43847 -8.98454 -9.37514 -2.17264 -15.3284 -14.8476 -10.4158 -7.00767 10.8385 -11.4919 -25.684 -29.6902 11.7793 20.8978 -16.074 -21.6522 -27.9159 -5.10453 13.9618 -19.2534 -17.0112 -16.6284 -3.37365 -3.29975 -18.6982 -18.4777 -23.7432 -5.61685 5.48672 -7.84924 -8.55023 -16.0853 -1.46346 0.818278 12.5609 -0.843955 -13.0707 -8.03243 12.0832 1.36021 -9.58963 27.9284 -0.441095 -10.1706 -2.71648 -11.0012 6.10121 -12.2579 -17.447 0.544348 5.35906 24.2109 -7.29112 -11.3677 -11.6927 2.53795 15.3221 -34.5539 14.8757 -4.19192 -0.361581 13.6814 -13.1397 -15.6463 -7.44948 -8.15124 12.688 -14.2451 -8.09125 -23.0257 2.72251 25.0853 -35.175 10.548 9.92936 -36.554 -64.8256 -20.9387 4.38536 3.32689 -21.3494 24.9323 -13.7081 -3.28152 5.8301 -26.3083 0.304267 -21.373 -10.5607 -23.2599 1.6878 10.2997 -60.5125 0.0335122 -7.92178 -26.3417 7.00827 -71.7043 -7.36377 -6.83209 -26.297 -1.90563 13.9799 -8.17865 -12.4606 -1.63356 -9.70167 -42.6419 9.57687 -20.3721 2.8437 -0.557616 -35.065 11.0593 -17.7597 -7.33224 -1.12235 -47.6479 1.24381 -7.31874 -9.81615 -8.62894 -23.1122 -12.0868 -18.2743 0.680796 9.47509 -49.0544 21.9992 -14.7161 11.0663 5.92237 -8.99052 4.96955 -14.4267 -0.866933 -6.15093 -33.6204 -5.78971 -0.718308 8.75549 -8.87025 -7.55091 -8.07129 4.62387 24.3774 16.6502 28.2097 0.864948 -3.08327 10.0146 -1.43953 -4.69215 1.99334 7.553 22.5121 -4.08849 18.2729 -5.88674 3.11863 6.32763 -8.50759 15.1031 -5.90641 1.23975 12.9866 14.2396 4.92535 -3.55629 -2.44768 -0.0250819 -3.66738 -0.991412 -7.42275 3.49603 8.82482 2.97646 -5.39531 -9.08142 -2.85774 -7.42562 -18.2556 -13.4599 -13.3791 13.2151 12.3875 -15.7904 5.95739 -9.99636 
-30.8915 -86.2435 -22.0831 9.07401 27.0684 -28.1601 -64.1533 -0.219375 14.021 18.89 -35.7758 -32.0036 -20.5225 -1.63826 37.9284 -21.7253 -35.5841 -1.35294 4.23372 14.6949 -17.637 11.0356 -0.383319 -5.5616 29.0884 -46.0233 -40.4042 -3.57459 -10.1515 24.1326 -17.37 11.0259 23.4148 -0.842314 24.8159 -22.6038 -54.9423 -10.1144 7.64635 15.329 -37.7056 -74.8504 -11.7946 7.43617 12.6708 -26.8058 -62.5041 -8.32164 11.7999 8.50849 -13.1269 13.6177 -41.4972 1.77277 31.3784 5.12392 5.11874 4.9493 -1.10378 -1.77176 -5.00673 6.16322 -9.5213 -5.63639 8.63793 0.620219 9.18153 -6.76966 -4.01916 12.077 9.16249 13.0255 -28.2928 -1.49684 5.10206 7.70495 17.0807 -38.6887 1.51455 28.9761 -13.0403 8.36599 -20.2481 -3.73819 17.0037 -3.68538 9.6537 -24.1674 -4.61721 24.6391 -2.78966 19.6744 5.93957 -6.84514 -15.27 18.2729 27.2553 33.9749 0.347473 -30.6377 -12.3324 -25.6375 -15.7931 -12.4987 40.4195 -0.30972 -60.0724 0.20058 -20.4507 43.1216 3.28543 -24.3751 -13.281 -22.0649 37.3687 -14.1705 -24.9279 -47.5786 1.05902 34.6915 6.13954 -52.9723 -12.2318 -13.5192 36.6361 -8.60075 -31.5708 -22.5295 -15.9466 45.1894 -19.5741 -6.31458 -58.6388 -22.0167 61.7694 2.40448 -67.7268 17.3035 19.4575 1.83521 -9.9624 -38.1496 3.67339 -25.5979 46.3271 -0.0633944 -32.4056 10.1412 -1.2448 32.2497 -15.6818 39.2965 -43.0446 -9.59385 22.6689 -22.5411 20.6477 -4.66802 -26.2037 16.527 15.6759 -9.82222 1.1976 16.3491 -26.1605 11.6801 8.54728 -12.7423 23.5594 -7.3189 -4.38766 16.8832 -16.0398 -11.8788 4.5711 -15.0723 13.3395 -15.9539 -31.8469 1.98398 7.72389 24.1314 -4.63365 20.3546 -0.961643 -0.516563 29.6515 -0.343923 14.4679 21.4775 -7.21889 1.60597 -8.51631 -16.7146 -0.155997 -5.30231 31.5731 -0.51571 -3.56105 18.2727 -15.441 16.5553 3.21121 5.03883 34.3132 -16.8531 -21.6959 -18.5615 -9.10873 8.72504 -4.6291 10.8691 -4.48682 2.96645 12.0106 -10.0346 -31.8117 -15.3795 3.80467 12.3615 -26.6518 -6.17448 -11.2435 -8.67995 15.4375 -15.3783 -3.60648 5.51807 3.27568 16.4446 -14.6546 -9.51308 -12.3761 3.19377 20.1597 -8.44734 10.3685 14.9009 3.89505 18.6989 -14.5845 7.9875 1.96178 3.10762 25.872 -14.9536 17.5382 3.62517 6.99138 35.644 
17.2271 3.55872 27.8731 -6.8486 6.66759 6.94965 -0.769828 11.8398 -9.92214 2.62947 28.9628 -13.6728 3.26532 -9.3671 -0.215656 -0.247294 -18.3471 -9.24789 1.94152 5.37461 21.879 -3.27271 -38.6333 -1.56383 10.711 27.1544 0.254809 2.56246 3.48033 11.5079 2.74268 -6.34766 -46.2326 -2.21684 14.5968 24.9745 24.751 28.2036 -7.16249 2.47526 19.5762 16.3147 17.3957 8.27246 4.92639 11.7606 32.9137 27.4512 -2.70187 6.38396 49.3065 36.9493 -31.6292 -61.1419 24.2642 0.218516 -12.6638 0.730339 0.232726 -1.76707 9.43733 3.393 -20.9038 -22.4882 19.3769 27.4344 0.717224 -11.6699 -25.5984 7.21563 32.9592 17.8787 -0.293087 -33.1697 -5.63276 36.7586 21.65 -16.7039 -45.4361 14.619 28.1396 25.56 -28.7306 -58.7149 25.2519 29.6768 17.7017 -27.3255 -48.2013 20.1947 18.0657 5.93515 -28.3054 -40.3154 10.7528 -10.8317 -46.2418 -17.7581 -0.576416 -12.1341 5.73936 21.8273 15.9817 30.695 -3.19792 9.0017 43.2555 25.9743 4.84291 4.03244 2.10589 5.35666 3.71675 21.3391 7.13153 20.3156 30.2901 45.1746 26.1723 -11.5492 5.58078 25.8676 22.2706 4.63197 5.10194 13.4769 15.8154 19.4827 8.98326 1.06167 15.4546 15.6769 30.0936 42.2788 -6.40768 16.9295 42.8113 11.3015 -5.81309 15.7378 9.77825 11.8097 -1.38305 9.48056 12.8052 4.70974 7.19891 4.95556 5.06522 8.44775 42.1687 -2.66959 -1.71465 21.0382 -19.1776 38.8332 5.99935 4.64751 27.0654 -10.0029 20.2329 36.9223 7.55731 -22.5202 -33.5674 41.3206 2.17598 -1.1844 10.1201 -20.0827 35.145 -5.64775 0.801084 4.7557 -17.0814 37.3458 -3.16717 -8.33799 -4.84112 -25.2345 24.7527 11.6336 -19.8231 -5.13506 -9.66179 49.2888 -15.3349 -0.0556105 7.48811 -10.5127 24.16 -1.05405 -16.1265 -34.9832 -19.7703 22.3545 6.59067 -28.2613 -30.2172 -11.9003 -0.907667 1.3016 -10.4265 -4.07764 13.6311 -3.22261 -9.11114 16.0646 12.8894 14.9504 -0.534679 -4.42869 -6.23541 7.71655 9.09899 -4.49445 32.428 31.0601 4.36778 19.6884 8.25263 19.9164 8.96113 4.50552 17.4133 -5.31183 -13.2942 0.0983908 -5.5653 7.16237 2.12134 22.7166 8.51805 9.69401 15.9686 -3.18859 0.641737 2.82149 -0.779085 5.83167 7.44973 12.491 -2.41898 5.00511 12.3791 -1.6745 20.7493 0.15098 -28.3282 20.203 
37.0324 23.5631 -5.22859 -21.1306 -13.4132 18.9761 33.4699 -7.17826 -19.8966 -5.64746 27.4139 13.9955 27.2237 -5.40692 -15.8617 16.9552 26.1195 6.32266 -5.48249 -7.49939 14.4049 -10.9128 9.47233 -4.28564 -16.372 28.1777 4.73695 26.2816 1.96767 -17.6741 10.8654 -8.09183 2.28406 2.47958 -10.0997 8.54131 9.04917 -24.6309 -20.2199 -6.67696 22.7705 26.9184 -9.44134 -12.5305 -6.77339 16.2667 24.5863 -30.2214 -22.9348 -1.65642 -6.28113 11.7632 -21.5417 -47.9311 0.724637 3.65383 -3.52917 -1.48097 2.05622 0.964338 8.42059 11.3192 1.92699 -20.9799 0.230906 -11.3353 2.31025 -9.73087 -16.9925 -2.61777 -29.6246 -30.3758 -30.3793 -10.0701 -3.24864 -10.9867 -10.2452 -16.8321 -31.1646 -9.41285 2.04852 6.46228 3.98771 -36.2137 -1.9168 0.461336 4.28677 -3.61449 -38.0029 -5.60938 -4.0396 -7.07369 -15.4373 -8.73418 9.99462 6.91692 -3.59844 -10.7342 13.6334 9.74159 5.41684 14.6504 -7.79078 -9.30363 -8.2492 8.69012 10.0946 -17.4536 -17.4929 -5.49173 6.48169 9.2138 4.43533 -5.91592 -7.30369 6.55788 14.2022 8.70358 -17.5076 -5.71397 7.14428 15.7713 -14.7131 -20.1763 -4.85738 7.99443 3.16865 1.82498 -9.22878 -11.8254 20.5559 20.3236 49.3862 -5.00557 -18.8909 -0.811512 30.5848 6.47254 4.22333 -3.24931 13.6712 12.6255 22.8131 14.7632 -7.01642 1.82465 -1.17499 -6.10462 -6.35329 -3.85772 7.43661 7.63837 -14.235 -29.2437 -8.46881 18.7297 -3.6366 -16.2802 -41.2835 -11.2952 5.65461 38.359 -42.8979 -16.4731 10.5789 9.18528 3.39382 -31.6598 -35.2158 3.7281 2.15231 1.28549 -4.24499 -11.4596 -1.09886 6.9198 -0.439217 -8.38281 -13.3778 0.00609394 11.7214 -1.48905 -27.206 -47.9118 -5.7777 8.75367 -0.395755 -0.031489 -25.4107 4.83912 -2.17319 22.4709 7.21426 5.31996 6.31966 20.9155 -2.66532 -15.0235 -35.9425 -9.59556 23.9853 14.3739 -3.97368 -14.2087 -11.5074 27.3394 18.7382 16.97 5.07359 2.32487 8.04065 14.215 2.97935 -7.73848 0.251398 25.5668 12.1613 -7.69157 -14.6257 4.55151 12.6282 6.72145 -7.54587 -5.90032 1.78193 26.0034 27.0694 20.319 2.01775 -7.02632 19.3124 8.49206 -15.0277 -22.6218 -6.38734 29.6159 21.8723 1.68228 -2.56078 -5.82985 21.8447 -1.54127 -18.0421 -10.8682 -7.13177 23.3291 1.34647 -22.0099 -19.4215 -5.53744 
0 -0.833231
 5 250
-18.1862 -49.6751 -42.9832 -13.6674 33.0116 -17.6101 -50.3491 -49.5211 15.4383 27.4114 -6.25281 -32.7855 -54.7161 -24.9573 41.692 -14.3507 -27.5355 -20.8601 36.356 22.8445 5.74826 3.59373 -2.36202 -19.8876 34.0972 -11.7107 -28.1221 -63.2272 17.8518 42.8394 -0.4686 4.58296 6.5078 13.1684 25.0744 -8.91426 -35.8021 -34.7635 -2.46625 27.1026 -18.508 -43.8987 -54.9587 15.4065 29.8694 -18.7243 -39.9794 -45.2973 25.245 20.4423 6.21392 3.3451 -38.8656 -25.5634 56.4931 2.11416 8.25983 8.12513 -9.89006 -6.10758 1.42732 13.8087 -0.980259 -5.60606 15.3653 3.00921 7.86702 -9.36581 -17.1165 17.8091 0.842587 0.697059 -28.812 -36.6328 31.6338 2.7372 11.7586 -27.8457 -23.8753 43.3762 4.89075 17.8131 -10.5002 -15.1327 29.7183 3.48324 18.1066 -17.5758 -16.9246 35.0965 2.29742 19.2935 7.03823 -22.0202 7.17438 5.8953 24.9219 30.0013 -31.5009 -24.5447 -17.4337 -40.2385 -45.5909 17.702 4.56844 -14.6671 -43.12 -48.5974 24.1491 18.3853 -11.6357 -21.1186 -21.1207 32.5225 16.3323 -8.20468 -34.2744 -59.9953 -2.34977 3.8522 -14.2777 -35.423 -34.1723 32.1499 18.0194 -4.55833 -32.0059 -46.1074 25.1052 25.6929 -5.62186 -31.1764 -67.4087 0.0044532 1.21708 -21.3013 -35.7448 -44.5603 -52.2335 -14.9548 -15.9043 -32.108 -55.431 -7.4932 19.0084 -4.44373 -16.0526 -13.4185 4.24297 23.8996 -1.75241 -8.62065 -35.6766 -25.7397 37.5676 7.14079 6.66447 -28.6656 0.436253 22.0738 0.412721 3.74512 -13.7919 -0.509061 34.751 2.2232 5.03284 -1.40905 -5.18744 40.3515 -1.85086 2.18291 -12.0966 -26.4089 8.44635 2.5784 11.672 -26.9879 -18.3213 14.2597 6.0349 13.5247 -10.1756 28.98 29.7862 -0.15932 -0.168217 -15.6763 -15.3324 32.0181 -1.45334 -0.75155 -13.6245 -36.766 16.5446 3.44545 3.44937 -27.8901 17.741 52.8961 -2.11411 -14.0058 4.7141 1.30624 51.4493 -7.75603 -26.2843 -22.4844 7.11606 32.2032 1.02275 -2.02318 6.80103 -8.27933 33.7582 -6.35732 -31.522 -27.5003 8.86276 24.0221 -2.14428 -20.1208 -32.8978 -5.71765 45.667 -6.13527 -17.8893 4.26721 12.3419 34.1365 -1.41737 -12.0605 -11.4566 -15.2404 41.3036 -3.53768 -11.3583 8.51927 0.424892 11.5018 1.14325 -6.15465 -8.12872 -10.9421 28.9349 -7.20624 -21.1705 -7.44208 30.3626 34.6518 
23.7049 -18.8753 -76.1731 16.9232 21.8826 38.8274 -34.5695 -78.6524 21.9492 14.9474 31.6903 -8.09318 -48.1762 -10.1456 9.48955 13.91 -49.5043 -57.2386 15.2577 17.6065 13.1544 -5.2303 -11.8355 8.36416 30.6144 37.189 -22.9928 -58.7444 -19.8704 21.1542 17.045 -8.88473 -18.0303 38.9055 34.9339 39.3405 -5.95462 -46.5933 13.6073 2.80516 40.0772 -24.3389 -69.009 23.543 13.8677 40.9013 -13.944 -61.0931 33.8716 11.9073 20.0418 32.0082 -5.71149 -34.6965 26.7765 2.18154 -1.39673 17.1496 9.00248 -0.237383 9.34072 0.564142 3.83444 6.13934 17.7749 18.4734 12.0112 19.84 -29.036 11.2347 8.90191 27.9282 21.5956 -21.9595 -16.6364 18.6757 22.0898 14.5644 -34.4922 12.372 20.4801 11.6271 10.6377 -13.2925 17.3498 22.4162 14.4312 15.8924 -21.7914 14.792 13.9885 13.1599 32.5511 9.36154 13.065 3.17863 5.03858 56.3452 48.7708 -17.0998 33.1869 0.0566423 -89.1022 -15.9096 -13.7183 43.0808 -2.93576 -86.3938 34.8071 4.51153 19.8893 -27.5246 -59.102 12.5958 -4.62211 25.451 -2.70945 -33.0483 -37.9469 -17.3225 32.0717 -20.655 -68.5615 32.3477 2.11696 14.439 -14.6496 -45.8813 4.17486 -4.48858 21.883 5.27007 -22.8631 -58.097 -14.9 31.0059 30.6155 -12.835 22.2985 12.3019 34.1605 -7.52164 -83.174 26.1835 -7.39752 19.551 8.10939 -32.2242 34.5646 3.28058 22.288 13.7021 -19.138 -6.74522 21.4497 7.44826 16.7391 -2.04135 20.1417 12.1137 5.17299 33.4842 -21.4007 -8.16101 -29.5706 8.09773 29.2521 10.9832 26.7617 10.614 21.3415 16.9478 4.95615 -12.5199 -8.30145 20.5778 12.0999 3.40825 -17.0802 -13.3268 2.5924 18.3644 -13.2313 15.1476 31.5699 16.1386 16.5476 7.65243 -5.55795 20.9592 14.663 0.12774 -30.6533 -24.4349 -35.1824 13.5679 4.45527 -31.5624 17.1246 36.3385 4.21534 -17.5123 -48.9534 -4.35313 44.1038 6.45878 -35.7675 -74.0262 -36.3537 -2.53665 0.249526 -8.51609 -36.5351 7.50174 17.7038 8.0137 -36.7558 -57.1544 -13.2485 9.16416 12.9102 -11.3595 -54.4146 -24.913 26.9661 0.59149 -25.3155 -57.5079 -29.4779 18.6115 3.68736 -7.30109 -43.9362 -16.7049 24.3132 0.33029 -19.7488 -33.3467 -14.3484 37.1364 8.92105 10.4714 -16.0771 -3.10952 40.0493 7.78945 -31.4251 -51.2093 6.39595 59.0065 
84.8735 53.1964 -45.0066 34.1987 3.93396 75.5359 28.9199 -43.8787 18.9488 1.36235 58.5568 70.3782 -13.603 -11.8496 -0.76174 45.6625 18.5852 -26.1074 4.9409 -4.14508 12.61 23.5269 -1.50761 -18.3764 2.34897 70.0298 47.8119 6.89738 -3.40222 0.268293 19.0403 0.958578 -11.711 -20.479 -9.60668 65.8476 20.0292 -7.23281 35.2361 13.0604 83.7756 24.7863 -26.9149 45.4488 5.36647 77.1508 -4.93167 -10.4584 43.8315 6.2496 41.8946 21.7598 17.3104 12.4899 7.80096 -10.3169 -5.91767 -3.53816 3.74204 -0.126517 3.67467 -0.0872704 -1.70124 6.0457 1.13555 -1.12233 2.948 3.84463 14.2477 11.2225 15.9292 1.58538 28.6297 26.8952 8.00266 22.7845 4.0403 20.2832 30.6913 1.9517 13.9098 4.1502 19.0205 0.721065 3.1287 15.7112 3.9407 13.8049 12.0987 3.45035 -3.03826 -29.1238 22.6687 13.7345 9.08607 -39.2751 -61.4216 13.9109 3.53624 -1.0205 57.3852 29.2785 21.0851 -1.44516 -5.90669 70.3916 28.327 -10.9623 33.9909 -2.05506 25.1674 21.1042 5.71224 6.92324 -11.776 56.8261 61.2334 13.589 -0.419274 14.8112 44.5797 27.4502 -14.2671 32.3266 -5.43134 43.8069 34.7791 0.974507 -2.75622 -1.46675 50.7856 78.7535 28.8945 -28.1037 5.66514 56.235 50.2715 -41.6121 38.8936 14.6013 58.8975 46.981 -22.1605 -3.34485 -1.67713 30.6472 10.3994 -19.188 4.01142 -5.83658 29.4503 56.7098 13.5859 30.1515 9.98606 22.364 41.5992 7.85649 21.1896 32.8077 18.5555 13.8633 36.9543 13.6641 -36.5165 15.3397 46.8631 -17.3157 25.784 14.2456 13.6362 39.2523 -4.14956 16.6586 5.14801 24.6311 46.7097 12.8556 20.9446 2.71965 20.4664 5.69511 -29.6235 20.3809 21.5568 15.3727 48.2292 -37.5892 6.15817 1.32689 12.096 11.657 33.9733 -12.3184 -38.0869 23.7575 8.42477 -17.9535 12.7066 1.0276 21.4804 26.5078 -66.5559 0.867348 -9.21651 34.3648 26.2664 -11.9662 6.41457 -0.0234668 12.0222 14.734 -36.2944 4.63768 -0.448695 33.3157 33.9918 -32.1586 -0.642488 12.0477 32.5896 36.8863 -12.768 24.6758 9.28373 24.5487 22.7117 -50.1335 -13.9978 -14.2457 26.3603 30.6652 -38.8124 10.6046 5.91227 12.9026 17.8994 -52.2455 -9.93379 -1.63837 19.058 27.7012 -29.6252 5.42133 6.64638 27.8223 28.1529 -52.2411 8.12995 4.36234 
49.516 59.9364 17.2276 47.8615 23.4806 45.1105 28.6211 31.2257 37.9186 14.9285 36.9767 68.9233 -8.22993 44.1511 42.7107 31.0813 34.5198 33.6987 17.4932 13.5086 12.0781 42.7046 -3.49294 17.5211 29.9066 21.648 53.7639 12.5823 24.2922 33.2667 6.79805 26.9472 10.912 4.35568 13.6247 13.805 21.1607 18.6751 18.7744 14.4198 38.4778 23.2316 42.1508 20.0496 23.5628 27.1837 -10.4616 42.422 13.0496 11.063 10.1406 3.3953 -31.6584 65.2305 -16.6526 -9.84033 -3.57347 -6.5045 -7.96588 -2.25686 -0.675251 4.48401 -11.5474 22.891 -16.9827 -16.2335 -1.45007 -13.068 21.179 -9.85817 -13.2811 -15.2648 -17.2698 22.2604 -6.82974 -3.62449 -19.6332 -17.6027 35.4207 -24.1189 -16.5121 4.70578 -13.5329 47.6777 -17.4969 -9.51998 -3.34327 -11.5069 40.4883 -16.4781 -34.9423 -12.2364 -5.18157 27.1099 -12.494 -51.0058 -10.9888 8.52168 -32.1923 -2.41174 28.3603 17.3518 16.3929 10.339 19.9613 26.3903 -19.9527 11.5566 14.7583 10.5862 9.87776 8.84006 25.2486 -2.43832 4.42909 29.3837 13.9953 -2.07034 11.2407 23.4816 20.5557 -17.9558 24.195 23.7478 4.82397 16.8624 21.2498 7.1451 5.60848 14.7204 37.4599 58.9751 -1.46029 -7.60123 38.3764 26.7093 -7.3174 34.5887 8.40631 -11.256 36.6857 35.5641 15.5187 1.49834 10.2394 18.2113 1.57067 15.0392 4.32589 -3.26896 40.725 43.6645 -28.7547 29.6352 29.7466 39.1138 46.5356 -8.61055 18.6424 19.2986 25.9468 -7.46765 47.1139 -21.5658 33.5756 39.7423 16.4892 -13.2933 -18.6021 18.9108 24.1285 42.6565 -3.46312 0.573563 17.9952 32.2714 53.5289 29.2347 7.92706 27.4851 32.9193 -1.09035 -4.97358 16.1811 2.49336 36.2945 44.883 -20.4439 -0.176841 7.64158 7.98597 53.0446 42.7053 -3.19785 28.9767 39.6108 18.2996 -2.25079 37.2864 18.2896 38.4997 48.404 -11.46 13.3201 4.4036 34.2259 49.2117 5.3794 12.7863 8.50255 28.3075 27.7896 -14.9564 -4.86855 3.85134 31.8128 24.9121 5.7227 25.7534 2.31836 31.6639 30.1481 -10.9069 7.52501 2.79608 32.4737 42.7617 2.12786 21.0863 11.6971 25.8307 32.4459 -4.59385 16.6491 2.96964 27.6801 30.7948 -3.23045 -4.87348 4.92375 16.4178 29.1149 -14.6294 -9.30703 0.261171 32.5433 26.3125 -3.45331 23.1944 -7.30533 
-16.1555 -24.1889 -2.55202 23.4304 21.1695 -9.39775 -48.212 12.2517 17.503 11.477 -2.32554 -15.2057 -43.1357 23.6083 21.4361 -4.09324 -20.0433 8.72578 10.998 12.4503 1.77878 10.1305 -35.1929 16.1063 22.4617 -11.6648 -3.58546 -42.9861 7.8128 25.943 -14.4598 11.2677 -10.4142 15.9254 16.8151 -23.7932 -24.5601 3.52259 5.58306 8.73892 -20.7622 -37.9746 -1.72982 10.0548 8.67592 -26.6138 -46.856 19.6989 10.5637 4.11495 18.6476 -44.4284 -25.5495 25.5848 -5.96586 2.01536 5.18228 8.33551 -8.25398 -1.53346 6.35164 -3.4559 0.0680805 21.5882 0.70305 -0.487898 -16.1529 -2.022 0.571079 -0.452263 -8.33692 -15.6991 -1.56329 -13.6522 -4.37072 -6.17587 -22.1837 -5.02278 0.727568 3.46779 6.1446 -9.91766 -15.6965 25.6205 1.83948 2.02486 -18.0107 -12.5621 15.5004 2.94316 -6.93578 -0.12244 6.79732 5.08667 -13.3503 -3.32243 22.995 26.1757 -16.1837 -12.8504 4.17756 -37.1136 -44.3099 -9.75555 4.44774 -4.74004 -41.5354 -31.9669 -5.68428 3.68197 2.4741 -16.5322 -24.6966 2.53517 4.31881 11.782 -43.5441 -64.2298 -16.3117 2.6132 -1.12369 -24.5441 -20.2681 3.86847 1.1114 6.5395 -30.1901 -35.4592 -3.75136 9.491 28.0811 -17.241 -77.2894 0.50622 18.41 -4.04925 -46.7237 -3.2899 -0.320046 4.73706 7.38414 -19.4562 -23.4965 -1.65965 5.9812 -2.62191 -5.67576 -4.73314 -6.72923 2.74904 36.6339 -46.5515 -29.1924 4.98629 4.63354 45.6167 -39.1162 -49.2885 31.6227 5.76615 18.0433 -25.7712 28.6832 -32.8808 4.23913 20.7866 -52.4166 -7.09674 -7.4913 -4.8509 9.70411 -25.4884 -21.0109 -7.26179 4.65145 21.2193 -26.4804 -18.7252 -2.69992 5.54532 23.3693 -42.4005 -18.2791 28.9564 -1.67512 21.4235 -40.8165 -28.1374 3.62064 6.72153 20.6943 14.2951 -1.38165 -17.161 8.80341 37.0125 -25.4233 -14.8957 21.3397 10.5231 13.2463 -10.4076 0.0739779 13.9333 11.3336 -0.200284 -8.50825 3.28515 -3.84354 -1.77596 12.6872 -2.05178 7.0203 1.80083 -3.16643 1.02787 -8.27314 15.4192 1.34193 -7.259 7.99824 -13.31 -5.16078 -0.303041 -4.13383 10.5953 -11.7945 2.37072 10.7702 13.514 14.2683 -3.21078 -1.73782 10.9238 1.4249 5.4823 -9.38857 3.21733 10.4334 10.4197 11.2313 -3.75592 -13.1728 6.05737 4.1923 2.91242 -26.2294 6.76224 8.99603 5.2072 
0 0.904749
 5 250
-2.7874 -21.3064 -29.0653 3.83324 -11.4738 -6.44996 -13.5107 -20.6828 -4.4469 -8.25172 0.509865 -8.29052 -17.0553 8.03171 -19.0665 -1.27782 -11.6729 -16.464 -9.6701 -10.8627 2.28733 -3.85658 -4.66237 27.8719 -14.0565 -5.04422 -8.59065 -8.37032 5.41482 -20.1714 -1.47558 -2.90478 -3.03061 27.0975 -15.328 -5.76956 -15.8309 -14.0849 10.7976 -6.36584 -7.76536 -15.4585 -27.5983 8.75268 -14.8218 -7.38948 -16.3386 -14.1123 3.8267 -5.80589 -6.36161 -1.07415 -23.8006 13.6821 -14.8338 -1.13415 -4.63779 -0.319973 -0.724938 1.97366 -4.33293 -1.27481 -13.7946 4.14858 -5.25394 -0.464459 3.1171 -1.68163 5.87968 -2.71122 -4.95738 3.59718 -14.8259 -1.25813 -16.5825 -6.80016 2.19965 -15.4942 4.60669 -10.5345 -6.79683 2.64997 -21.8587 7.50935 -10.9125 -4.1801 -0.0415197 -15.1424 5.10883 -7.65386 -6.45001 4.92776 -1.87947 8.96253 -5.92691 -6.88225 2.23709 8.10123 10.2499 -0.372032 3.23667 6.21953 -20.4577 -16.7027 -6.27589 -0.332779 -1.81496 -22.2231 -0.107727 -9.47589 3.98473 8.93346 -12.3912 -4.59605 -18.4077 3.12458 -12.1697 -18.2471 -13.1711 -14.3571 1.36227 -0.364657 -22.8485 -3.53218 -7.08524 3.31087 -3.70972 -18.3673 7.44986 -21.1668 7.42271 1.67023 -6.34825 -15.1217 -26.6151 -4.81882 -20.332 -31.572 -19.2898 6.862 -0.736301 -2.52563 -19.3418 -8.78893 -27.8505 -3.46813 -5.17226 -19.8223 2.13677 -8.3743 6.46062 3.09918 -14.4332 -2.04568 -4.35864 -0.763635 -6.32088 -25.0151 -1.05138 -6.73244 -6.15504 5.67979 5.63201 15.2448 -0.0461183 2.50035 -13.5411 -8.44648 11.7294 0.9709 1.57201 -3.00403 -6.31885 -3.39743 -9.44161 -1.0419 -1.67046 -14.7643 -7.11074 -16.3549 -5.37612 -7.07167 -8.92242 7.38619 12.2987 6.27782 -8.94626 5.68062 3.3561 2.60909 1.30726 -2.00064 1.11093 -3.39528 -15.0877 1.66431 -7.33952 1.58208 -14.6424 -7.25767 5.17717 1.70999 -23.3493 12.6206 -22.0649 5.46232 -3.45216 -20.1988 -9.89246 -16.0557 2.35455 -3.64507 -18.4228 13.4845 -15.2241 2.44846 -7.10828 -16.7587 -0.0783842 6.53653 1.80144 3.75826 -12.0198 25.1495 -29.2338 6.74197 -1.13709 -25.062 -13.102 -20.8825 4.88553 -1.06265 -17.6321 8.51116 -9.86757 4.73542 0.556538 -19.7541 5.68952 -9.37002 4.46173 6.08303 -7.83004 24.3305 -21.1185 6.42117 1.12684 -7.15835 5.4823 -15.5779 
-21.3412 -15.4655 -8.21714 -25.6622 -13.9673 -20.5292 -19.1982 0.623985 -20.9023 2.39282 -7.72285 -22.2591 -0.781125 -25.847 -0.375675 -12.0444 -4.48878 5.58325 -8.64254 -1.69001 2.06148 0.272423 28.1129 -13.5747 -3.46168 -0.94043 -11.037 7.12181 0.942837 -2.11968 3.27726 -2.69942 21.2847 -8.83701 0.000115088 -13.7532 -13.0909 1.96545 -5.26533 0.618374 -21.1873 -13.6907 -0.964945 -6.38141 -4.58945 -15.9435 -13.8907 0.124144 10.0655 -2.34681 -12.2921 0.431875 -3.71554 4.44732 -1.27683 0.707085 4.8578 0.666779 -7.34662 -3.01247 -2.38231 6.40849 -3.30803 -5.19393 -3.41236 -2.83544 -0.513448 1.765 1.89567 0.655751 -7.18449 -3.19007 -20.6203 -4.29221 2.16208 -4.11005 0.957087 -8.26432 3.98378 9.5601 -5.57927 13.1146 1.79598 -0.283618 -6.88754 -4.40594 7.02083 -2.3669 2.89643 2.01128 -3.39083 11.7468 -9.85041 -0.641805 -11.8275 5.03264 13.0298 -11.0094 -14.0052 -12.8028 -6.66353 -15.0531 -9.94729 -4.78168 -22.525 -12.5809 -18.1516 -10.1665 -4.37595 -29.5067 -8.8715 -4.91754 -5.78632 -3.08248 -15.5527 -4.2159 -12.8845 -14.6552 -39.2864 3.38404 -16.2787 -15.2484 -4.71343 -8.15783 -24.001 -8.25402 -10.9291 -7.82714 -1.70249 -18.4159 -0.445174 -16.6147 -17.537 -59.6075 -0.472539 -3.47134 -30.7826 -32.955 9.50609 -4.48283 -4.03889 -18.4752 -10.5192 -14.1018 -9.17617 -4.74305 -25.7061 -4.7246 -5.69361 -12.7332 1.64756 -9.68134 0.999658 -44.412 1.77132 0.972052 -2.95329 -2.68369 -9.88901 7.95163 -25.8876 35.3522 -3.89482 51.5785 -23.8934 -6.91548 25.3734 7.05439 6.69287 12.2669 -4.66411 0.199825 1.51485 -21.6974 -0.332494 -3.8091 6.40729 -6.76267 -25.8043 -5.55075 -8.10765 26.4495 6.6624 34.8209 1.22878 0.270466 -3.29785 16.9744 -22.1053 21.3198 -8.95166 17.6845 -9.60997 -8.80929 -20.3141 -5.3254 13.4164 -1.60097 -2.66343 4.86684 2.94349 10.8892 -7.0553 -2.12392 9.18922 -1.01255 -10.4564 -13.6529 9.84778 1.26973 0.0684954 9.5785 0.839926 -1.35079 6.82928 -3.15763 -8.76075 -12.8606 13.9019 -2.28338 3.19364 -2.64799 -13.4656 11.4841 1.25394 -1.74599 -5.04044 -16.248 -2.70379 8.69185 0.294669 5.46548 -3.77282 1.9824 1.19961 1.07414 2.71165 2.68745 7.87459 3.21845 6.10648 7.95657 6.79172 -0.456435 1.19556 6.57279 5.28344 -0.858695 23.1401 2.49826 
6.74059 -39.5678 26.9733 -2.59837 12.1746 0.769371 -32.2647 21.435 14.8209 11.8875 1.44669 -14.4969 12.5144 3.18043 23.0639 -2.95905 -19.2263 12.0443 7.37047 14.0567 0.189809 -3.15884 19.8718 -9.76291 15.9197 1.68313 -12.5232 33.4757 -4.2446 20.1457 -6.84706 -6.97006 13.6153 -1.86938 17.1067 7.51719 -11.8813 24.643 10.2909 6.32993 -4.03067 -20.7657 22.296 12.2506 12.9823 -1.26693 -13.8021 14.6582 16.2849 7.0407 35.9146 33.4624 27.7554 -25.0729 20.2751 -1.36706 -3.21986 3.37129 4.42494 -2.20431 9.06204 3.89898 3.34571 -10.1175 9.90427 16.8886 4.70048 25.4505 -15.4698 7.21773 24.7246 25.5473 17.6451 -12.1804 1.05706 34.2229 20.8126 11.1697 -17.5908 21.8903 22.4498 18.7017 14.3948 -20.7352 13.2135 28.6357 15.9021 21.1511 -20.0991 17.521 6.83737 17.7301 24.9246 -14.5144 -7.98333 -15.106 -0.194152 28.1846 17.4308 -24.0456 0.0836915 -1.45997 -3.89315 -5.27607 31.0595 1.81109 -18.9338 -8.02672 -11.0781 22.8266 1.42923 -9.1281 -10.8595 -10.0881 25.3945 9.5673 -6.00103 -3.14784 8.15665 20.6832 -0.256968 -15.3839 -18.2665 -5.81271 19.8349 0.112141 -10.8128 -10.7314 -5.90025 27.4757 15.0098 -5.98529 -13.4496 -4.55424 50.5875 7.84912 -22.2169 18.6672 25.9311 -3.1995 2.32546 -25.2806 9.32591 -1.63835 31.7353 -1.25419 -20.8793 3.25892 6.54343 16.4277 9.59029 34.6819 5.83906 13.7427 25.567 3.71777 18.1898 27.9648 3.81294 39.7535 1.53082 35.3711 -3.7623 22.2945 -8.94196 18.368 32.0772 18.3273 34.4689 6.41628 16.1458 26.6784 11.7182 -6.82887 7.08895 12.6245 22.6247 8.37776 -17.5274 19.831 13.4453 22.3439 20.4612 28.7443 22.8767 16.6337 33.8661 11.8127 18.7258 9.3497 8.73734 11.3085 -8.03944 -9.8629 2.42867 11.5425 20.66 23.163 -2.92248 22.6731 8.39407 11.6355 20.6476 -2.14711 31.0642 17.7233 7.71296 9.83754 -12.6724 11.6087 3.73493 9.71039 19.4105 1.35451 19.4844 20.1722 -8.50373 25.3593 4.84731 16.0359 11.4399 16.7437 27.4691 -5.0328 18.6108 7.7433 -4.90987 8.80744 -10.3545 11.6153 12.938 6.71583 29.1714 0.285802 18.4463 2.21865 -4.15668 11.515 -3.70236 12.321 9.1492 17.2503 18.8637 6.36928 20.7395 14.1262 11.5387 17.3093 3.97092 23.4577 
19.5127 2.46818 51.7471 10.4617 4.75605 16.9188 6.66365 32.9147 -1.36752 1.25253 36.9465 -11.272 49.9921 0.252354 -4.54324 12.9038 -0.894833 16.9988 3.69248 1.67123 25.929 5.35356 23.4782 15.8267 1.72911 19.9958 5.72553 48.3086 14.2734 3.52783 6.679 4.99689 -2.42039 10.0639 5.64608 6.00127 -2.79562 33.5285 3.12146 2.49203 21.5054 4.13735 30.0146 12.1841 1.4944 6.29367 14.5447 17.7693 2.9816 4.58415 34.7169 1.79324 -3.86743 -35.7027 0.601026 -1.02137 -14.0904 -0.0429682 3.03238 -3.77922 10.2354 -1.43068 1.81563 -8.83955 9.09506 16.1036 -16.8429 -5.63844 -9.39206 -1.90941 2.27315 -13.0984 -10.2122 -12.9415 -12.8422 11.8037 4.09754 -7.5734 -22.4171 0.451113 17.2759 3.2686 -7.36239 -35.3342 9.33996 15.6029 0.65696 -10.0087 -28.3487 6.61341 11.6369 -13.642 -13.0568 -13.441 -0.562734 -2.10826 -50.8547 -21.5395 16.7583 -3.72937 -6.17352 -2.71604 13.7231 1.92753 -14.9636 -3.13909 11.39 23.1541 -9.58089 -4.93484 8.59593 2.21037 8.91026 0.938249 -5.1638 3.34678 -0.443079 37.2069 -0.801359 -10.4224 3.85435 16.0669 18.7313 -10.9353 -3.60733 6.301 2.55877 22.7222 -6.38992 -7.13759 12.2895 -5.22282 33.8509 8.67767 -17.7901 4.00095 -6.45742 -41.8399 -7.78965 19.6912 12.2295 -6.30351 5.36236 -1.50697 7.24025 2.41659 -13.5 -7.47914 -1.53961 6.66739 15.8435 -56.6986 18.0252 24.4439 -10.6509 31.0498 -42.8513 21.9382 -9.09608 0.535705 23.0214 17.7484 -5.15021 15.6763 -3.96334 27.0765 -31.2761 -1.6512 5.00343 -6.83416 16.8273 -43.8841 3.19532 2.33145 -5.74486 22.1006 -51.3566 1.4273 -1.12064 -6.52614 29.0984 -7.93466 -6.38747 -11.3377 1.72796 27.9212 -47.2927 12.7321 -2.63777 -1.92776 21.4722 -13.081 4.94507 -11.7396 -6.62457 29.8966 -17.512 -1.09345 -12.3125 -2.58604 14.657 11.2729 27.9447 21.0916 6.11581 2.72882 9.35477 37.1054 23.6698 8.31069 15.0922 1.22339 18.3133 21.5567 3.32695 1.80723 26.2877 34.8306 15.8221 5.21716 -2.1039 20.6409 31.4319 24.7308 9.75624 14.3875 12.6519 32.8437 16.4379 2.42339 7.36187 25.3052 29.4624 24.8576 5.91601 13.4004 13.7237 30.1407 12.8375 -1.03632 3.68981 8.87554 28.48 16.4165 1.12215 2.94517 18.5931 29.0958 -6.09538 6.87973 
