1 100
5 3
-0.213848 -0.179268 -0.816771 
-0.38589 0.321425 1.14376 
-0.341029 2.05269 -0.523305 
-1.23615 0.83142 -0.690584 
-1.41744 -0.287161 -1.11054 
0 -0.701716
 5 3
0.329846 1.28578 -0.00197139 
0.0657065 0.523868 -0.706063 
0.34344 1.09252 -0.600653 
0.511681 0.330595 -0.58872 
-0.0351087 1.31405 0.197406 
0 0.299185
 5 3
-0.387618 0.756751 -0.0843588 
0.693794 0.471791 -0.340876 
0.170644 -0.00662786 0.392157 
0.112842 -0.231935 -0.739669 
-0.178287 0.791804 0.40882 
0 -0.0601882
 5 3
-0.965582 0.0505455 -0.831434 
-2.28007 0.610663 -0.57664 
-1.34199 -0.587425 -0.508548 
-0.973416 0.853804 -0.453931 
-0.522342 0.341728 -0.856673 
0 -0.327818
 5 3
-0.872642 0.0563551 -0.477574 
-0.679214 0.181025 -0.944011 
-0.496834 0.56656 -0.592476 
-0.519828 0.827041 -0.662559 
-0.804722 -0.515803 -0.7899 
0 -0.655985
 5 3
-0.231794 0.332031 -0.134921 
0.750726 0.629291 -0.666192 
-0.187153 1.48061 -0.886623 
-1.15953 0.867305 -0.0541952 
0.036146 0.675204 -0.803368 
0 0.110203
 5 3
-0.810868 -0.105913 -0.177861 
0.0423584 0.992064 -0.166024 
-0.455801 2.96342 -0.539444 
-0.704232 0.478804 -0.653078 
-0.668294 0.527421 -0.915432 
0 -0.407879
 5 3
-1.32108 0.111231 -1.30899 
-1.8583 0.962456 0.97305 
-0.612664 0.852232 -0.887137 
-1.21608 0.55653 -0.892772 
-0.991355 -0.114588 -0.816486 
0 0.263198
 5 3
-1.35686 0.565597 -0.491869 
0.0654325 0.82272 -0.433313 
-0.286699 -0.203026 -0.386214 
1.10511 0.318982 0.53852 
-0.412426 0.574359 -0.801693 
0 -0.23472
 5 3
-0.586436 0.281014 -1.1099 
-2.15331 0.602865 -0.440962 
-1.20926 -0.148407 -0.772334 
0.388481 1.46697 0.924627 
-0.931456 0.0357974 -0.929718 
0 -0.39131
 5 3
-0.473757 0.760393 -0.0435009 
-0.358737 0.158281 0.48719 
-0.729679 -0.0424946 -0.13762 
-0.897182 0.260701 -0.151617 
0.424787 1.57091 -0.100021 
0 -0.247853
 5 3
-0.498918 0.822693 -0.879069 
1.10765 1.37826 -0.704071 
-0.52259 0.815893 -1.13945 
-1.11822 0.728979 0.253363 
-0.797128 -0.308924 -1.26177 
0 0.226708
 5 3
-0.247156 0.365927 -0.122931 
-2.10023 0.400253 -1.26789 
-0.742539 0.445583 -0.214609 
0.645326 0.883056 -1.33258 
-0.529737 0.815275 -0.62786 
0 -0.0996454
 5 3
0.2412 1.5946 -0.115715 
-0.864911 0.524144 -1.22825 
-0.169857 -0.227938 -0.493534 
0.376512 0.630897 -1.01629 
-0.503735 0.701044 -0.589209 
0 0.226886
 5 3
-1.03188 -0.160932 -0.0542799 
-1.09677 0.234095 -1.43778 
-0.386895 0.599318 -0.822248 
-1.24652 0.799298 0.272962 
-0.851559 0.590868 -0.736735 
0 -0.351591
 5 3
0.222887 1.00138 -0.891632 
-0.455916 1.09867 -0.924623 
-0.804999 1.66454 -0.662285 
-2.47093 1.0336 -0.995485 
-0.684027 0.385525 -0.761196 
0 0.333839
 5 3
-0.800965 0.287057 -0.0967635 
-0.277438 0.530401 0.0599651 
-0.0603276 -0.244497 -0.850601 
-1.37524 0.557715 0.232447 
-0.121144 0.36349 -0.213192 
0 -0.375214
 5 3
0.0409583 0.0948471 -0.840361 
0.0422065 0.971682 -0.959443 
-0.737102 1.6328 -0.785092 
-0.44079 0.359634 -0.309718 
-0.922051 0.300673 -0.688623 
0 0.897912
 5 3
-0.138104 -0.406162 -0.30194 
1.66612 0.20193 -1.02059 
0.0982567 -0.361507 0.268024 
-0.516887 -0.501186 0.0628992 
-0.21033 0.495289 -0.136102 
0 -0.209285
 5 3
0.269855 1.0524 -0.378796 
0.0475139 0.0464186 -0.622131 
0.652592 0.863732 -0.534684 
0.191078 -0.185003 -0.556935 
0.334521 1.3264 -0.565722 
0 0.673574
 5 3
-1.45134 -0.820131 -0.127533 
1.96076 -0.182169 -0.230293 
-0.524359 -0.448215 -0.0551124 
-0.474565 0.369606 -0.201098 
-0.0422944 0.484455 -0.490581 
0 -0.173951
 5 3
-0.823093 0.806853 -0.610515 
-1.45546 0.162747 -0.487515 
0.0250331 -0.0399418 -0.0204701 
-0.595975 0.292329 -0.763464 
-0.194931 0.697308 -0.773362 
0 0.916173
 5 3
-0.787026 1.19034 -0.717826 
-0.448995 0.883664 -0.0733876 
-0.535626 0.748594 -0.845058 
-1.42303 0.603199 -0.659046 
-0.108422 0.448511 -0.448195 
0 -0.15067
 5 3
-0.359628 1.00019 -0.0601332 
-0.970667 0.831702 -0.109377 
-0.378918 -0.961101 -0.523038 
0.154857 0.10527 -0.751453 
-0.0499831 0.576318 -0.613586 
0 0.647408
 5 3
-0.160761 0.517947 0.146774 
-0.00570657 -0.208787 -0.149823 
-0.430364 0.850961 -0.513128 
-0.53293 0.269224 -0.308238 
-0.00840846 1.58411 -0.316772 
0 -0.532324
 5 3
-0.118418 0.767001 -0.965787 
-0.87682 0.527664 -1.10696 
-0.307921 0.327673 -0.786278 
-0.697241 0.281074 -1.01393 
-1.54827 -0.463915 -0.601793 
0 0.363141
 5 3
-1.29282 -0.900348 0.14182 
0.659392 0.726248 0.13947 
-0.0316645 0.917955 -0.764579 
-0.379441 -0.0188917 -0.266093 
-0.8589 -0.24151 -0.448041 
0 -0.130496
 5 3
-0.866475 -0.197724 -0.444076 
-1.41118 0.853604 0.242194 
-0.6367 0.450428 -1.18272 
-1.66614 0.725365 -1.33671 
-0.521768 -0.177855 -0.631978 
0 -0.131963
 5 3
0.0258226 0.769341 0.196304 
0.303066 -0.12895 -0.335514 
0.552678 1.22493 0.198685 
-0.147423 0.0989622 -0.275086 
-0.0309321 0.77201 -0.440403 
0 -0.378634
 5 3
0.587648 0.540865 -0.864504 
-0.964627 0.915317 -0.24444 
-0.457439 1.55964 -1.08766 
-2.304 0.596704 -0.569284 
-1.17627 0.493947 -1.35097 
0 -0.0983975
 5 3
-0.524775 1.32484 -0.889617 
-0.625061 0.786831 -0.903199 
-0.22622 1.46745 -0.704004 
-1.6416 0.11164 -1.06792 
0.218692 0.726764 -0.520923 
0 -0.71377
 5 3
-0.84267 -0.0194306 -0.790775 
0.974373 1.26287 0.894479 
-0.404669 1.11664 -0.820683 
-0.960247 1.24791 0.696217 
-0.356264 0.159499 -1.09984 
0 0.196438
 5 3
-0.739168 0.949375 -0.112446 
0.510429 0.0814391 -0.536114 
-0.163917 0.761027 -0.100055 
-0.712303 0.304804 -1.13702 
0.308951 1.58813 -0.213645 
0 -0.244805
 5 3
-1.36813 0.893178 -0.997132 
-1.21505 0.906797 -0.817537 
-0.952072 0.604773 -0.661886 
-0.945313 1.24223 0.800992 
-0.784947 0.735943 -0.930114 
0 0.462202
 5 3
-0.18659 -0.0350815 -0.811944 
-0.162542 -0.04407 0.524989 
0.279229 0.608226 -0.710073 
-2.21677 0.307167 -0.372253 
-1.03 0.820153 -0.885524 
0 -0.298744
 5 3
-0.583932 1.13546 -0.906741 
0.138598 0.756651 -1.08914 
-0.119962 0.183603 -0.290359 
-1.91309 0.7919 0.401298 
-0.200005 1.31304 -1.0424 
0 0.947106
 5 3
-1.13906 0.00348671 -0.171094 
1.80726 0.704649 -1.67427 
-0.441742 0.394296 0.152128 
-0.731942 0.590876 -0.562706 
-0.0771387 0.0651386 -0.246932 
0 0.0790972
 5 3
0.0727158 0.585673 -0.243874 
-0.0325718 0.272989 0.053666 
-0.831898 -0.659921 -0.436202 
-1.99104 0.410291 0.258172 
-0.31653 0.190901 -0.438246 
0 0.785729
 5 3
-0.894936 0.392659 -0.422226 
-1.80926 -0.0788271 -1.4419 
-0.689363 -0.637366 -0.626669 
-0.119865 -0.322792 -1.53918 
-0.144924 1.1197 -0.557545 
0 -0.0809067
 5 3
-0.0435835 1.98708 -0.29488 
-1.01874 0.728487 -1.14718 
-0.720014 1.3295 -0.141525 
0.00303589 0.172776 -0.451938 
-0.422439 1.28431 -0.181321 
0 0.738263
 5 3
-0.274474 1.36827 -0.361454 
-1.26812 0.0130246 0.852264 
-1.23292 0.3921 -0.473396 
-1.09025 0.651441 -0.381406 
0.540437 1.05385 -0.140806 
0 -0.187163
 5 3
-0.351799 -0.288862 -0.798563 
-1.1557 0.0982549 -1.35479 
-0.318886 0.85651 -0.651128 
-1.85012 0.607243 0.125025 
-0.243741 0.257251 -0.287836 
0 0.299615
 5 3
-0.485256 1.24483 0.382129 
-1.13216 -0.52935 -0.0696561 
-0.0932205 0.41467 -0.398107 
-0.316326 0.431739 -0.21112 
0.0293605 1.40199 0.346819 
0 -0.356144
 5 3
-0.302127 1.16319 -0.797053 
0.23955 0.910857 -1.20331 
-0.358371 0.814946 -0.262949 
-1.48515 0.544879 -0.804925 
-0.574291 0.89371 -0.577259 
0 -0.150885
 5 3
-0.806792 0.111781 0.0857936 
0.367211 0.12805 0.325782 
0.0872611 0.66361 -0.254274 
-0.316519 0.02978 -0.106632 
-0.339666 1.17393 0.655269 
0 0.327226
 5 3
-0.426221 1.15182 -0.202059 
-0.671726 0.814199 -0.279998 
0.237439 1.81568 -0.894554 
-1.48693 0.686479 -0.671167 
0.145201 0.517893 -0.238589 
0 0.0839304
 5 3
-0.452478 0.884942 0.348051 
-0.465226 -0.251978 -0.139326 
-0.784151 -0.132271 -0.324333 
0.176819 0.136217 -0.318815 
0.144139 0.939359 0.355711 
0 0.224085
 5 3
0.651423 0.655023 -0.598947 
-0.543374 0.380038 1.42157 
0.272589 1.45958 -0.887164 
-0.039711 0.406406 -0.187583 
-0.473163 -0.305342 -0.634592 
0 0.215134
 5 3
-0.807845 0.444475 -0.175936 
0.6107 0.286779 -1.02432 
-1.07196 -0.491475 -0.583908 
0.343493 0.384896 -0.0874427 
-0.881253 0.382671 -0.424021 
0 -0.122651
 5 3
0.650766 0.209225 -0.410375 
-0.0295511 0.267335 -0.838592 
-0.143877 2.23769 -0.169248 
-0.959168 0.916433 -0.669602 
-0.235767 0.757794 -0.465217 
0 0.803926
 5 3
-1.63934 -0.125062 -0.632515 
-2.50276 0.751964 -1.20902 
-0.0590786 0.694641 -0.560216 
-1.39027 0.211207 -0.864953 
-0.0484772 1.10509 0.142442 
0 0.153337
 5 3
-0.659218 0.766502 -0.0662583 
-0.00809069 0.39241 -0.848079 
-0.18154 1.76662 -0.426682 
-0.397877 0.435532 -0.245065 
0.2013 0.378735 0.0622246 
0 0.59169
 5 3
-0.540144 0.0987407 0.292354 
-1.71691 -0.0591008 0.671087 
-0.341332 0.360645 -0.0701451 
0.30063 0.590333 -0.411632 
-0.575796 0.309729 -0.158405 
0 -0.496336
 5 3
-0.837548 0.69505 -1.32968 
-1.75189 1.25457 0.631139 
-0.454799 0.0423047 -1.42834 
-1.09041 0.51581 -0.191936 
-0.455939 -0.221252 -1.09264 
0 0.174367
 5 3
-0.101604 0.369605 -0.0256537 
-0.0518279 -0.160845 -0.0461407 
0.302246 0.267982 0.381219 
-0.177809 -0.564605 0.0307958 
-0.472982 0.595715 0.0220163 
0 0.566924
 5 3
-0.0291848 0.456035 -0.428045 
-0.391559 1.06765 0.758519 
-0.450121 0.614637 -1.15753 
-0.857744 1.17389 -0.889535 
-0.63228 0.235636 -0.934683 
0 -0.129208
 5 3
0.256553 0.749175 0.620554 
-0.236226 -0.148891 -0.258492 
-0.413422 0.722797 0.369997 
-0.818362 -0.171383 -0.277173 
-0.556928 0.942568 0.363253 
0 -0.062267
 5 3
-0.431943 0.777776 -0.929938 
-0.587378 0.636411 -0.874237 
-1.25906 0.0159561 -0.688628 
-1.47932 0.767153 0.536094 
-0.975088 -0.00786536 -1.30965 
0 -0.153578
 5 3
-0.800394 0.145471 -0.663149 
-0.329439 0.732091 -0.287777 
-0.259596 0.598983 -0.378686 
-2.1961 -0.0469859 0.191949 
-0.306742 0.855006 -0.0560141 
0 -0.765264
 5 3
-1.13381 -0.0761074 -1.24147 
-1.59895 0.853453 -2.24405 
-0.860631 0.993117 -0.683648 
-1.79121 1.49102 0.322172 
-1.53119 0.0791179 -1.40111 
0 -0.38356
 5 3
-0.882142 -0.185892 -0.280459 
0.511542 -0.00281338 -2.02038 
-0.341986 0.79573 -0.399512 
-0.0610464 0.501505 0.0414878 
-0.851126 0.375779 -0.166931 
0 -0.308109
 5 3
-0.0114782 1.2577 -0.54745 
1.45169 0.63986 -1.85181 
-0.909499 -0.268763 -0.333302 
-1.49431 0.319202 -0.131215 
-0.0721554 0.990102 -0.671203 
0 0.104913
 5 3
-1.11684 0.434569 -0.30571 
-0.397732 0.0820403 -1.15914 
-0.661527 0.942557 -0.647548 
-1.58922 0.837312 -0.728467 
-0.208966 0.844838 -0.0711147 
0 -0.00238702
 5 3
0.482119 0.793143 -0.222994 
-2.49546 0.357062 -1.23042 
-0.444006 0.417557 -0.768512 
-0.648506 0.415962 -0.913447 
-0.463955 0.311734 -0.272342 
0 0.233166
 5 3
-0.303769 0.241453 -0.671234 
0.196949 0.53033 0.526284 
0.0447791 0.921214 -0.686035 
-1.27076 0.1819 0.128243 
-0.846627 0.342222 -0.228288 
0 0.107233
 5 3
0.208539 0.539523 -0.764524 
0.669324 0.737759 -0.794967 
-0.253201 -0.152331 -0.99152 
-1.09569 1.06672 -1.19779 
-0.579769 -0.188979 -0.978336 
0 -0.0113574
 5 3
-0.53335 -0.114518 -0.586251 
0.768757 0.412601 -0.82787 
-0.228035 -0.131417 -0.105035 
-0.699913 0.0335916 -0.893083 
-0.728573 0.637375 0.125044 
0 -0.175777
 5 3
-0.183343 0.689207 -0.953186 
1.47633 1.04953 0.96259 
-0.195992 -0.355435 -1.03943 
-0.119744 0.841763 1.19348 
-0.904515 -0.169293 -0.347699 
0 0.261573
 5 3
-1.01692 0.686713 -0.65494 
-0.98212 0.444301 -1.71554 
-1.25769 0.103373 -0.63965 
-2.44042 0.285605 -0.217442 
-0.739364 0.76706 -0.142687 
0 -0.317924
 5 3
-0.863206 0.819575 -1.07774 
-2.62446 1.31737 -0.816387 
-0.914324 0.818671 -1.20677 
0.933641 0.818824 -0.409555 
-0.439893 0.384168 -0.946483 
0 -0.377892
 5 3
-0.135511 1.29854 -0.0463751 
-1.43519 0.155906 -1.2425 
-0.366071 0.14842 -0.33975 
0.0555524 0.396087 -0.0348824 
-0.742099 0.977161 -0.227899 
0 -0.225519
 5 3
0.438695 1.04652 -0.485915 
-0.124675 0.875423 -0.650492 
-0.851986 -0.185373 -0.597186 
-0.897797 1.1348 0.534838 
-0.828044 0.0318757 -0.899777 
0 -0.231147
 5 3
0.0901889 0.323535 -0.543321 
-1.25025 0.941465 -1.85302 
-0.0429967 1.43418 -0.618976 
-1.97376 0.436811 -0.471066 
-1.11658 0.184184 -0.440657 
0 -0.293679
 5 3
-0.858506 0.67652 -0.409379 
-1.83013 1.19163 -1.20969 
-1.80527 -0.99532 -0.948213 
0.983658 0.810331 -1.40392 
-0.959872 0.273137 -0.716608 
0 -0.295941
 5 3
-0.5204 0.231181 0.0419748 
0.491868 0.474612 -0.402773 
-0.232409 1.41033 -0.67048 
-0.693363 0.509159 -0.753269 
-0.607236 0.127588 -0.620613 
0 -0.822004
 5 3
-0.0438167 0.576096 -0.812468 
-2.21732 0.716609 -0.234474 
-0.438274 1.3685 -0.479969 
-0.805981 0.598839 -1.51932 
-0.263321 0.257599 -1.13862 
0 -0.115151
 5 3
-0.881776 -0.62383 -0.769478 
-0.926576 0.345576 -1.04363 
-0.707854 0.456565 -1.10402 
-1.94302 0.381099 -0.0386419 
-1.10673 0.586164 -0.774025 
0 -0.651646
 5 3
0.572805 2.21141 -0.300982 
-0.429798 0.792635 -0.651546 
-0.0357361 0.709761 -0.804232 
0.239456 -0.104792 -0.263436 
-0.104031 1.38485 -0.049021 
0 0.31418
 5 3
-0.311991 0.47469 0.28042 
0.160645 -0.342342 -0.75642 
-0.326156 1.02705 -0.54242 
-0.817431 0.0836962 0.463333 
-0.763327 0.270457 0.329799 
0 0.23806
 5 3
1.17685 1.45605 -0.00373351 
-0.347054 0.534695 -0.574514 
-0.044462 1.32843 0.194454 
-0.420169 0.617339 0.336471 
-0.0351057 1.05428 -0.353903 
0 0.659708
 5 3
-0.0907391 0.593851 -0.562952 
-0.124286 -0.223235 0.00451268 
0.518404 0.301918 -0.371112 
-0.550756 -0.33948 -0.0748899 
0.112354 0.916303 -0.59109 
0 -0.0197529
 5 3
-0.880034 0.806024 -0.494272 
-1.80342 0.752734 -2.15756 
-0.677589 1.50597 -0.563427 
-0.752119 0.127745 -0.439697 
0.142781 0.605411 -0.904197 
0 0.331742
 5 3
0.0759751 0.452 0.219143 
0.777491 0.045514 -0.0336056 
-0.8947 0.656353 -0.452295 
-1.16343 -0.118004 -0.834756 
-0.976545 0.260706 -0.0453004 
0 0.106316
 5 3
-0.149913 0.336479 -1.14973 
-1.86491 1.31019 -1.23285 
-0.221587 1.85392 -0.710778 
-0.826837 0.592702 -0.356144 
-0.899079 0.0371982 -0.854306 
0 0.124544
 5 3
-1.71195 0.346844 -0.163374 
-1.25786 0.365345 -0.810375 
-0.107673 1.50087 -0.706878 
-0.843429 0.827273 -0.892333 
-0.512699 1.24233 -0.350269 
0 -0.0361113
 5 3
-0.507391 -0.217371 -0.533733 
0.0981856 0.507059 -0.439068 
0.357887 1.8846 -0.817189 
-0.993215 0.364904 -0.419838 
-0.123449 0.901973 -0.0453144 
0 0.833375
 5 3
-1.22588 0.888673 -0.597009 
-0.198822 -0.016047 0.12059 
-0.246639 -0.239447 0.0978977 
0.00964774 0.671779 -0.161251 
0.683914 1.6501 -0.419757 
0 -0.0707781
 5 3
-0.722301 -0.283626 -0.795597 
1.26848 0.478936 -0.526261 
-0.893771 2.20862 -0.787692 
-0.441001 1.38271 -0.36103 
-0.687678 -0.254925 -1.40383 
0 -0.144698
 5 3
-1.28288 0.31222 -0.683599 
-0.210513 0.114673 -1.23839 
-1.18178 -0.128556 -0.270866 
-1.50798 0.306543 -0.60225 
-0.218388 0.448807 -0.383052 
0 -0.211935
 5 3
-0.109829 0.541658 -1.08327 
-1.83796 0.610168 -2.05 
-0.496961 0.731581 -1.27627 
-1.18659 0.583068 -1.61413 
-0.874954 0.173418 -0.355094 
0 -0.223743
 5 3
-0.203357 0.963878 -0.827561 
-0.557731 0.0231545 -2.0924 
-1.0315 0.48259 -0.598367 
-1.38913 0.425022 -1.01808 
-0.62186 1.22002 -0.671886 
0 -0.351259
 5 3
0.320846 0.538119 -0.0466145 
0.40592 0.0368791 -0.692351 
0.16362 0.509068 -0.188465 
-0.377041 0.404993 0.252985 
-0.200515 0.749404 -0.326408 
0 0.867812
 5 3
-0.334832 0.274144 -0.178503 
-0.0961262 -0.0296028 -0.28709 
0.413032 1.1169 -0.165044 
-0.214921 0.465926 -1.0307 
-0.427865 1.23375 0.0367746 
0 -0.000671608
 5 3
0.00610405 0.461278 0.15052 
-0.830511 -0.340742 -0.435875 
-0.271066 0.411182 0.30589 
-0.176232 -0.198648 -0.309375 
-0.0612911 0.341217 0.241099 
0 1.07493
 5 3
-0.950825 0.00410841 -0.210519 
-0.17116 0.791775 -0.713431 
-0.359236 1.87951 -0.325849 
-0.315093 0.192269 -0.0691735 
-0.938499 0.546776 -0.758479 
0 0.128511
 5 3
-0.698344 0.029096 -0.0714505 
-0.844172 0.0432209 -0.937002 
-0.723311 1.4949 -0.128612 
-0.152573 0.140819 -0.167594 
-1.31177 0.547115 -0.00949791 
0 1.11447
 5 3
-1.04578 0.545078 -0.0393768 
-0.722776 0.21437 -1.59588 
-0.973662 0.416565 0.172574 
-0.0277379 0.00901085 -1.59257 
-0.156512 0.702706 0.299287 
0 -0.191908
 5 3
-0.577269 1.19409 -1.14245 
-0.189993 0.855059 -1.28921 
-1.20121 0.395158 -0.427739 
0.770635 0.642376 -1.11506 
-0.454549 0.504464 -0.785538 
0 0.0403231
 5 3
-0.940569 0.259856 -0.123056 
-0.30249 -0.442513 -0.504152 
-0.162562 0.693043 0.491373 
-0.775695 -0.336827 -0.35407 
0.168665 0.686107 -0.275374 
0 -0.407153
 5 3
-0.544104 0.861225 -0.703887 
-1.09981 1.22246 -1.01653 
-0.689788 0.93925 -1.48882 
-1.15808 0.73645 0.296914 
-0.825857 0.70483 -0.505669 
0 -0.117443
 
1 10
1 100
-0.942963 0.825014 -0.15043 0.418164 -0.636403 0.295238 -0.987585 0.213519 -0.204169 0.541346 -0.177214 0.335337 -0.722436 0.639559 -0.713554 0.0833171 -0.139928 0.0239073 -0.0716733 0.921601 -0.178492 0.625696 -0.670004 0.955397 -0.912162 0.377718 -0.509595 0.431135 -0.795989 0.110227 -0.744187 0.203067 -0.405625 0.590777 -0.652242 0.538961 -0.2473 0.668438 -0.233998 0.205614 -0.372319 0.419831 -0.367969 0.123656 -0.340472 0.0633482 -0.427031 0.151143 -0.423343 0.0877987 -0.837264 0.159311 -0.400061 0.689954 -0.0440513 0.622086 -0.474538 0.282666 -0.394607 0.0510268 -0.570648 0.73627 -0.928674 0.38047 -0.602932 0.551073 -0.189124 0.951551 -0.759889 0.190175 -0.492078 0.454857 -0.976067 0.653035 -0.826796 0.33874 -0.617838 0.678996 -1.01148 0.56478 -0.214053 0.0501266 -0.645839 0.0251825 -0.586144 0.0670657 -0.0287931 0.0318001 -0.366742 0.08431 -0.779444 0.528674 -0.834675 0.651391 -0.919213 -0.0967158 -0.406818 0.487803 -1.02735 0.138444 
0.0948517 -0.890462
 1 100
-0.522391 0.0300976 -0.455892 0.761115 -0.536915 0.277551 -0.828976 0.973906 -0.397506 0.776785 -0.43108 0.443012 -0.942849 0.218567 -0.262833 0.105531 -0.334513 0.247085 -0.602284 0.0793063 -0.0135154 0.196932 -0.731193 0.742766 -0.91406 0.253724 0.000967082 0.928861 -0.978723 0.156878 -0.627109 0.52117 -0.939146 0.845328 -0.795539 0.232051 -0.217198 0.435134 -0.0213106 0.280317 -0.638063 0.389445 -0.546723 0.64072 -0.0763893 -0.00950143 -0.30358 0.0294854 -0.294828 0.219649 -0.265759 0.800903 0.000394455 0.851995 -0.236436 0.446078 -0.182826 0.59141 -0.319941 0.907938 -0.303893 0.346173 -0.964436 -0.00222814 -0.905038 0.638295 -0.106174 0.565238 -0.554691 0.730684 -0.722904 0.198185 -0.952165 0.903628 -0.398814 0.598133 0.0421906 0.00259173 -0.285034 0.424188 -0.425246 0.271312 -0.524515 0.334894 -0.151706 0.51104 -0.44329 0.775079 -0.0491241 0.83646 -0.750176 0.351811 -0.643989 0.323108 -0.738464 0.124621 -0.18112 0.432731 -0.716008 0.259887 
-0.0006707 0.107791
 1 100
-0.432268 0.437412 -0.568617 0.447576 -0.762079 0.104875 -0.612619 0.631479 -0.999719 0.211811 -0.287547 0.0384141 0.0755927 0.625079 -0.875241 0.72837 -0.901302 0.38974 -0.80276 0.769429 -0.913115 0.682189 -0.753024 0.883991 -0.638348 0.560012 -0.916851 0.786003 -0.455926 0.372298 -0.243805 0.0342928 -0.253362 0.269092 -0.736272 0.270057 -0.53201 0.0782499 -0.284648 0.868953 -0.154561 0.251893 -0.546683 0.877709 -0.269608 0.508625 -0.129264 0.262899 -0.967318 0.76702 -0.462031 0.771074 -0.761767 0.591347 -0.976224 0.690471 -0.430022 0.0759545 -0.968595 0.0354288 -0.818811 0.374362 -0.848656 0.845729 -0.958553 0.733512 -0.129796 0.00491374 -0.949095 0.668958 -0.665861 0.0610932 -0.984152 0.601671 -0.681008 1.06919 -0.811328 0.470895 -1.10804 0.644371 -0.667817 0.447065 -0.620009 0.644344 -0.390637 0.091801 -0.158546 0.545945 -0.535807 0.963404 -0.42201 0.307828 -0.207326 0.502407 -0.79904 0.745675 -0.328787 0.711899 -0.789085 0.362343 
-0.0006707 -0.961039
 1 100
-0.167767 0.265915 -1.1304 0.705227 -0.407181 0.189562 -0.259128 0.537576 -0.533769 0.946459 -0.124028 0.275124 -0.237758 -0.0407262 -0.241041 0.564997 -0.0559664 0.0344672 -0.800871 0.565434 -0.930739 0.485563 -0.120012 0.123966 -0.327472 0.258474 -0.632149 0.526293 -0.0904728 0.676829 -0.383793 0.368186 -0.833794 0.973345 0.227476 0.797267 -0.91275 1.03335 -0.547629 0.212923 -0.419049 0.994123 -0.354405 0.120493 -0.820133 0.612625 -0.762478 0.349432 -0.758509 0.705115 0.146485 0.70655 -0.322697 0.948389 -1.02016 0.438795 -0.568648 0.760669 0.0504126 0.746384 -0.669352 -0.264524 -0.560954 0.766882 -0.258291 0.00259404 -0.942932 0.315684 -0.373075 0.867115 -0.130412 0.316548 -0.0216407 0.161073 -0.661863 1.17488 -0.201051 0.455554 -0.752896 0.859029 -0.186778 0.66829 -0.734627 0.696771 -0.0925065 0.986327 -0.493366 0.0412899 -0.648388 0.297106 -0.5095 0.231483 -0.292723 0.610723 -0.428618 0.221069 -0.676323 0.0606479 -0.698715 0.863438 
-9.07957e-05 -0.107354
 1 100
-0.0227062 0.166644 -0.301111 0.32271 -0.270469 0.388047 -0.143712 0.269759 -0.513323 0.166598 -0.731475 0.711231 -0.813862 0.00749684 -0.0618765 0.86135 -0.374605 0.549718 -0.036843 0.460243 -0.198377 0.0240175 -0.63329 0.0575677 -1.03619 0.88483 0.0295865 0.769078 -0.335686 0.556814 -0.773207 0.292338 -0.75878 0.207982 0.0753512 0.206429 -0.338088 0.491233 -0.859623 0.0230093 -1.06253 0.757743 -0.862904 0.403164 -0.361507 0.311351 -1.11018 0.831376 -0.847769 0.969227 -0.674718 0.764548 -0.311782 0.592681 -0.420997 0.848858 -0.0874316 0.154793 -0.345857 0.855567 -0.0482368 0.00452395 -1.00109 0.4085 -0.0139615 0.889584 -0.0596209 0.869833 -0.868382 0.14946 -0.907184 0.606636 -0.205869 0.0216236 -0.218042 0.718301 -0.13258 -0.136587 -0.00652353 0.807592 -0.190129 0.0618288 -0.342424 0.550306 -0.600759 0.895332 -0.987384 0.670247 -0.597195 0.710577 -0.766595 0.607278 -0.441055 0.606704 -0.166465 0.782622 -0.283499 0.267979 -0.831585 0.107259 
-0.000246789 -0.629731
 1 100
-0.602574 0.52068 -0.639842 0.384257 -0.515061 0.676476 -0.795961 0.0235443 -0.774698 0.0266411 0.0999452 0.605135 -0.462401 0.630057 -0.134704 0.869985 -0.532181 0.502363 -0.312601 0.50552 -0.305277 0.274902 -0.541278 0.508354 -0.864034 0.560491 -1.00735 0.248537 -0.513449 0.787059 -0.0874232 0.0443301 -0.199504 0.87335 -0.616579 0.764022 -0.000764336 0.333331 -0.137062 0.81644 -0.409309 0.973736 -0.915093 1.01638 -0.905328 0.434873 -0.683569 -0.0995751 -0.693761 0.807 -0.532617 0.862962 -0.999094 0.0307683 -0.338949 0.205572 -0.755203 0.114957 -0.211819 0.943602 -0.119982 1.09421 0.0817392 0.750211 -0.666701 0.727622 -0.18326 -5.67931e-05 -0.129647 0.0288493 -0.762445 0.132813 -0.325811 0.221075 -0.838975 0.366963 -0.661597 0.203504 -0.862832 0.51636 -0.41846 0.866986 -0.708339 0.601325 -0.0564149 0.346732 -0.370809 0.56902 -0.240832 0.421962 -0.087912 0.259667 0.0610156 0.232058 -0.171015 0.923532 -0.333157 0.429179 -0.596889 0.398545 
-0.0018221 0.729097
 1 100
-0.810361 0.633705 -0.432435 0.141154 -0.675195 0.404123 -0.299658 0.0145403 -0.269293 0.955527 -1.09263 0.728495 -0.138535 0.310875 -0.734405 0.129635 -0.537681 0.564827 -0.0848721 0.90396 -0.729792 0.123616 -0.742012 0.0245243 -0.605971 0.257002 -0.79053 0.227206 -0.0215258 0.233812 -0.702626 0.19224 -0.590956 0.598617 -0.70366 0.402408 -0.30327 -0.0464096 -0.828335 0.733732 -0.953109 0.312649 -0.783556 0.0116918 -0.289487 0.09456 -0.963401 -0.0236945 -0.348383 0.468834 -0.816206 0.227217 -0.948199 0.770492 -0.202031 0.552117 -0.528793 0.840881 -0.57715 0.822678 -0.198311 1.11102 -0.626766 0.00520667 -0.572223 0.487838 -0.673217 0.474591 -0.698777 0.669675 -0.0269247 0.659463 -0.207836 0.558302 -0.541549 0.899097 -0.226095 1.01399 0.0201442 0.108733 -0.475393 0.738347 -0.976521 0.355162 -0.622206 0.640342 -0.212239 0.210394 -0.372626 0.90229 -0.46598 0.477757 -0.218242 0.105667 -0.65257 0.751458 -0.0573186 0.522273 -0.0191593 0.580597 
-0.0359724 -0.417627
 1 100
-0.212867 -0.00227405 -0.197382 0.709295 -0.109933 0.197453 -0.483814 0.44284 -0.575525 0.607149 -0.588184 0.884322 -0.36339 0.315859 -0.438514 0.984683 -0.325645 0.0735581 -0.902097 0.603048 -0.957209 0.15802 -0.106751 0.301213 -0.907686 0.608381 -0.960981 0.533836 -0.523886 0.881797 -0.271158 0.309979 -0.885827 0.641691 -0.737482 0.323822 -0.351435 0.298191 -0.704479 0.845078 -0.10343 -0.00111594 -0.212368 0.598489 -1.0506 0.0446498 -0.245109 0.887302 -0.456537 0.219691 -0.769985 0.0982589 -0.11075 0.854139 -0.80354 0.915811 -0.438123 0.844724 -0.364212 0.719212 -0.635633 0.389176 -0.710256 0.4559 -0.829609 0.675283 -0.210248 0.645732 -0.144219 0.40221 -0.209834 0.926052 -0.405996 0.790808 -0.235433 0.85026 -0.531723 0.672255 -0.255563 0.968604 -0.733986 0.00571948 -0.202256 0.724286 -0.697521 0.0156385 -1.0215 0.451674 -0.391765 0.672062 -0.279641 0.331562 -0.861219 0.323451 -0.864584 0.511125 -0.239367 0.865187 -0.690188 0.697607 
-0.0018221 0.480261
 1 100
-0.021379 0.938239 -0.295294 0.248204 -0.236674 0.428694 -0.0649969 0.431131 -0.271445 0.875754 -0.430509 0.750802 -0.579806 0.0594035 -0.461077 0.0712981 -0.691246 0.20345 -0.97476 0.731252 -0.447943 0.0326499 -0.442259 0.446761 -0.0906368 0.481554 -0.214519 0.301635 -0.754976 0.436379 -0.608255 0.924484 -0.737969 0.817191 -0.753083 -0.0206421 -0.577028 -0.124058 -0.739574 1.07529 -0.527119 0.272647 -0.49946 0.327466 -0.795139 -0.00157715 -0.586472 0.762157 -0.127365 0.507541 -0.827051 0.861962 -0.426069 0.485352 -0.103808 0.356997 -0.860377 0.0932677 -0.898844 0.267631 -0.137716 -0.00289995 -0.665764 0.21664 -0.615314 0.0578326 -0.531913 0.487379 -0.945802 0.668881 -0.751864 0.0382889 -0.938039 0.37508 -0.579001 0.0601696 -0.858041 0.417402 -0.546614 1.00616 -0.136865 0.322409 -0.581258 0.458277 -0.37456 0.331828 -0.572228 0.980711 -0.957948 0.00200372 -0.941957 0.442356 -0.139522 0.90025 -0.291989 0.418909 -0.939537 0.545345 -1.18401 0.669565 
-0.0359724 -0.454012
 1 100
-0.197206 0.436909 -0.253114 0.0119388 -0.823148 0.68602 -0.122323 0.619782 -0.667204 0.401459 -0.268472 0.798876 -1.039 0.0313525 -0.622961 0.594525 -0.325236 0.273079 -0.453011 0.57677 -0.297588 0.167104 -0.0177344 0.29269 -0.763239 0.101175 -0.621435 0.72722 -0.87587 0.609647 -0.31229 0.819987 -0.281829 0.381141 -0.127269 0.94848 -0.311225 0.622874 -0.931913 0.617947 0.256227 0.0856459 -0.211958 0.609753 -0.214674 0.885997 -1.03477 0.993207 -0.58972 0.923305 -0.856035 0.712554 -1.10765 0.690002 -0.495156 0.774275 -0.384709 0.839932 -0.112101 0.263061 -0.708634 0.968928 -0.528608 -0.156735 -0.0645178 0.505447 -0.231014 0.605801 -0.549871 0.0863478 -0.847173 0.305501 -0.781656 0.0466595 -0.241912 0.670703 -0.222128 0.393271 -0.721056 0.110387 -0.107013 -0.202376 -0.325252 0.309671 -0.313577 0.400705 -0.0730196 0.75594 -0.416314 0.416484 -0.447735 0.261802 -0.939215 0.401979 -0.739497 -0.164909 -0.726737 0.152645 -0.690486 0.504308 
-0.00494525 -0.0419623
 
