1 10
5 3
-8.10115 -4.75625 -11.7196 
-1.11337 11.5538 -8.12441 
-6.77746 -1.41616 -11.9995 
1.13951 11.7044 -7.9408 
-4.03423 -2.88072 -11.2484 
0 -12.1124
 5 3
0.849037 0.955242 1.52917 
-0.730231 -1.25722 1.14815 
0.776414 0.918741 1.60077 
-0.953841 -1.74927 0.880099 
-0.0107189 1.31348 1.41711 
0 1.11388
 5 3
-30.5563 -20.2696 -44.1792 
-1.63488 43.81 -29.8573 
-25.8284 -8.97488 -44.0214 
4.98821 43.7695 -31.5282 
-15.9481 -15.3639 -44.673 
0 -44.7091
 5 3
0.193401 0.819276 0.687717 
-0.496319 -0.200214 -0.054539 
-0.231952 0.278533 -0.0704239 
-0.367999 -0.849251 0.107837 
-0.397757 0.981527 0.892893 
0 -0.103109
 5 3
-13.8347 -9.41061 -20.1213 
-0.747089 20.2064 -14.1487 
-11.8704 -4.45487 -21.0745 
2.44251 20.699 -15.2151 
-7.6512 -6.62166 -20.6055 
0 -21.0836
 5 3
0.0838961 0.90544 0.0862345 
-0.353461 -0.463901 0.244737 
0.204779 0.696393 0.200374 
-0.389719 -0.909868 0.663204 
-0.486205 0.542177 0.120537 
0 -0.0116689
 5 3
-34.755 -23.1951 -49.4619 
-1.97679 49.6692 -33.5769 
-29.1459 -10.095 -49.8573 
5.31525 49.8591 -34.993 
-18.7042 -17.3331 -49.4665 
0 -50.1732
 5 3
1.20725 1.40049 1.76063 
-0.523299 -1.40084 1.13202 
0.238953 0.871304 1.74128 
-1.02579 -1.73435 1.11845 
-0.29158 0.720719 1.66837 
0 1.22628
 5 3
-14.3839 -8.36412 -19.8749 
-0.974443 20.5274 -13.4649 
-11.4882 -3.45312 -20.2108 
1.91206 20.2525 -14.5714 
-7.34842 -6.28949 -20.033 
0 -20.58
 5 3
0.491315 0.979248 0.0803493 
-0.670546 -0.185211 -0.13518 
0.165085 0.594027 0.673446 
-0.911295 -0.837544 0.455074 
0.231039 0.386652 0.748461 
0 0.0637778
 
1 10
-0.259774 0.876201 -0.889462 0.131814 -0.449843 0.178572 -0.990325 0.92279 -0.440565 0.19014 
-0.199999 0.578878
