1 100
5 3
-0.931591 0.478976 -0.892505 
-1.34157 0.30481 -0.919556 
-0.363095 1.45974 -0.64207 
-1.59131 0.395847 -0.669509 
-0.277092 0.678473 -1.01986 
0 -0.585733
 5 3
-0.574664 0.872206 -0.877418 
-0.183013 0.991313 -1.23826 
-0.559342 0.0884918 -0.888496 
-1.97308 0.896156 -1.52954 
-0.638397 0.424044 -1.00639 
0 0.337952
 5 3
0.49842 0.75462 -0.0989099 
0.0944205 -0.0668972 -0.376539 
0.158828 0.384016 0.368328 
-0.535729 -0.139531 0.17624 
-0.291354 1.01017 0.117131 
0 -0.488509
 5 3
-0.383672 -0.154084 -1.18759 
-0.0220541 0.81087 0.291026 
-1.30685 0.452503 -0.556621 
-2.92477 0.959526 0.591873 
-1.59309 -0.456672 -0.523661 
0 -0.00795886
 5 3
-0.753478 0.21516 -0.223847 
-0.951905 0.645674 -0.348537 
-0.61095 0.657694 -0.845143 
-1.39311 0.626234 -0.262585 
-0.10186 1.04994 -0.471535 
0 -0.520426
 5 3
-0.64874 0.488255 -0.878181 
-0.619303 0.939309 -1.54856 
-0.00015734 1.22872 -0.315786 
-1.94568 1.19609 -0.0597038 
0.488441 1.29181 -1.07808 
0 -0.0937331
 5 3
-0.18902 0.469172 0.483855 
-0.0110699 -0.220725 -0.915859 
-0.625639 0.813357 0.470702 
-0.75637 0.0122841 -0.234401 
-0.515926 0.652048 0.391171 
0 -0.163748
 5 3
-0.402157 -0.320545 -0.206382 
-0.0324422 0.846752 2.70643 
-0.890755 0.370891 -0.796244 
-2.26118 0.433409 0.234899 
-1.54076 0.152862 -0.251031 
0 0.172475
 5 3
-0.318161 1.25193 -0.435168 
-0.971619 0.131173 -1.16129 
-0.806634 1.67777 0.108336 
-0.884671 0.5483 -0.83357 
0.138526 1.08774 0.171632 
0 -0.486256
 5 3
0.556121 1.58779 -0.47138 
-0.74111 0.295227 -0.763255 
0.0376577 0.288656 -0.42017 
-0.11192 0.540871 -0.097301 
-0.191819 1.18316 -0.16592 
0 0.778231
 5 3
-0.0459146 0.313635 -0.764092 
-0.699105 0.0724208 -0.432766 
-0.485727 0.192563 -0.213386 
0.954368 0.0877716 -0.964738 
-0.154468 0.877637 -0.487625 
0 -0.254494
 5 3
-0.194149 0.218116 -0.266165 
0.762318 0.590668 -2.00024 
-0.144289 0.908885 -0.653689 
1.33758 0.681918 -0.711853 
-0.152111 1.20081 -0.739995 
0 0.354521
 5 3
-0.329238 0.803798 0.421009 
-0.0113771 -0.482992 -0.149976 
-0.577992 -0.146407 0.181317 
-1.12534 -0.222853 0.268221 
-0.230441 0.660333 0.263198 
0 0.0969942
 5 3
-0.0768891 0.910415 -0.447948 
-0.552921 0.553145 -0.0373201 
0.147125 0.164178 0.0230445 
0.832443 0.283911 -0.886361 
0.055417 1.12564 -0.654619 
0 0.205881
 5 3
-0.384179 0.843389 0.137285 
-0.276719 -0.464352 0.247782 
0.258511 0.873304 0.311668 
-0.590196 -0.330498 -0.632491 
-0.124658 0.8122 -0.133017 
0 -0.147941
 5 3
0.367152 1.32243 -0.134932 
-0.336981 0.513789 -0.505846 
-0.34875 0.542984 0.118677 
0.221628 0.0355332 0.0772252 
-0.189546 0.71777 -0.352285 
0 0.313141
 5 3
-1.44595 0.132011 -0.272079 
-2.51146 1.12312 -1.02839 
-1.25759 -0.0418982 -0.227248 
-1.42849 0.492026 -1.54111 
-0.585603 -0.066147 -0.407276 
0 -0.754608
 5 3
-0.475053 1.16679 -1.33873 
-1.20838 0.946992 -0.606342 
-0.922474 0.955433 -0.501361 
-3.17162 0.518574 -0.469506 
-0.0974916 1.08461 -0.668694 
0 -0.298627
 5 3
-0.875013 1.01073 -0.508967 
-1.25983 0.569027 -1.88615 
-0.502695 0.666953 -0.635344 
-2.79091 0.0168561 -1.63653 
-0.377532 1.5477 -0.835637 
0 -0.90818
 5 3
-1.07559 -0.290025 -0.7686 
-0.181344 0.275025 -0.0347185 
-1.13388 1.67665 -0.419438 
-2.80458 1.01272 0.291111 
-1.42277 -0.272897 -0.637493 
0 0.635434
 5 3
-0.554107 0.577227 -0.35695 
-2.00767 0.495015 -0.174685 
-0.593278 -0.59739 -0.944309 
0.110966 0.0979391 -0.709566 
-0.413297 0.964918 -0.275984 
0 -0.250715
 5 3
0.348005 1.48242 -0.795341 
-0.385542 -0.168464 -0.453883 
0.247476 0.809745 -0.629382 
0.653405 0.458966 -0.351921 
0.192338 1.19588 -0.453595 
0 0.656088
 5 3
-0.89734 0.998141 0.282288 
-1.19361 -0.109401 -0.487854 
-0.569454 2.17634 -0.0537815 
-0.621314 -0.292756 -0.538439 
-0.61669 0.423442 -0.204207 
0 0.0826972
 5 3
-0.590901 1.23807 -0.445486 
-0.597565 0.855991 0.071057 
-0.608716 1.48131 -0.530755 
-2.33211 0.454214 -1.6029 
-0.249819 0.623621 -0.467795 
0 0.585948
 5 3
-0.924606 -0.515017 -0.361866 
-1.55628 -0.13583 -2.33854 
-0.469653 0.0160505 -0.482445 
0.918557 0.685698 -1.21483 
-0.946474 0.0635669 -0.465049 
0 -0.286882
 5 3
-0.691695 0.280218 0.0190871 
-0.0585193 0.0730788 0.0340156 
-0.61242 1.329 -0.508517 
-0.332379 -0.16933 -0.221029 
-0.552339 0.275171 0.233846 
0 0.949749
 5 3
-1.39799 -0.999287 -0.795528 
-0.872091 0.509936 -2.08299 
-0.816566 0.20962 -0.234475 
-1.71497 0.609701 -0.492174 
-1.03977 0.284851 -0.138922 
0 -0.849057
 5 3
-0.635249 0.0618229 -1.00515 
0.607856 0.799244 -0.199997 
-1.09858 1.50696 -1.03921 
-0.574378 0.762164 -0.484292 
-1.59933 -0.728238 -0.276431 
0 -0.131865
 5 3
-0.209387 0.249256 -0.493127 
-0.0339591 0.140059 -1.35345 
-0.434674 1.98821 -0.0323589 
-0.182521 0.0240273 -1.32788 
-0.652016 1.30593 -0.774477 
0 -0.436546
 5 3
-0.838942 0.545217 -0.616763 
-0.499361 0.0959648 -0.478169 
0.384044 1.37953 0.155569 
-0.281592 -0.0824159 -0.48079 
0.0695418 1.01659 0.0785705 
0 0.904127
 5 3
-0.912387 0.598439 -0.0679184 
-0.0521742 0.455809 1.46474 
-0.452036 0.484536 -0.487426 
-0.420071 0.612308 0.291989 
-0.204341 1.61728 -0.559175 
0 -0.396114
 5 3
0.307735 0.563664 -0.0356242 
0.272678 0.396017 -0.735684 
0.51503 0.778194 -0.517206 
-0.0268546 0.0871089 -0.329087 
0.298564 1.23429 -0.245256 
0 0.436924
 5 3
-0.343386 0.642369 -0.133003 
-2.59457 0.408036 -2.57481 
-1.28583 1.6822 -0.960757 
-0.86632 0.0577753 -0.917598 
-0.585084 0.179649 -0.180277 
0 -0.449206
 5 3
-0.774836 0.529047 -0.732278 
-1.83502 0.632788 -0.378012 
-1.76244 -0.171592 -0.650977 
-2.22248 1.31158 -0.529107 
-0.723309 -0.0682906 -0.542605 
0 -0.467316
 5 3
-0.736112 0.599744 -0.671473 
-0.212205 0.567801 -0.579822 
0.281553 -0.272557 0.0665259 
0.362419 0.413988 -1.02143 
-0.713748 0.860306 -0.19514 
0 -0.0622317
 5 3
-0.968223 0.0984902 -0.98515 
-1.92331 0.797644 -2.47062 
-1.25519 0.774458 -0.397302 
-1.87374 0.439692 0.655721 
-0.697248 0.163068 -0.416163 
0 0.387115
 5 3
-1.20867 -1.1 -0.378221 
-0.881216 0.467884 -1.66879 
-0.273322 0.160661 -0.348618 
-0.404131 0.446125 -0.755721 
-0.842856 0.130684 -0.372941 
0 0.211366
 5 3
-1.64508 0.31928 -1.54242 
-2.57837 1.60159 -0.546029 
-1.70144 0.432678 -1.12737 
-1.32576 1.79005 -1.86605 
-1.06219 0.182292 -1.43832 
0 -0.336389
 5 3
-1.08785 -0.0103259 0.0639342 
-2.98832 0.879057 -1.30282 
-0.844069 0.924969 0.113008 
0.853818 -0.0926827 -0.953266 
-1.05733 0.56766 0.0293567 
0 -0.544635
 5 3
0.338014 1.34429 0.0471506 
0.0307677 0.806391 -0.99396 
0.779229 1.03594 -0.763085 
0.0979745 0.481644 0.149613 
0.263671 1.70155 -0.482132 
0 0.16245
 5 3
-0.898719 0.98246 0.374967 
0.907233 0.419094 -0.809766 
-0.239034 0.0651943 0.423308 
0.223624 0.147876 -0.784472 
-0.178405 0.948887 -0.342493 
0 -0.218496
 5 3
-0.855294 -0.185338 -0.881283 
-0.23697 0.539598 -1.04748 
-0.0176123 -0.0591697 -1.09217 
1.24136 0.749626 -0.824133 
-0.942188 0.0661744 -1.0365 
0 0.5056
 5 3
-0.0678888 0.644032 -0.313625 
-1.19796 0.544467 -0.413169 
0.244891 1.79455 -0.784221 
-0.0141076 0.106588 -1.4696 
-0.650079 0.367164 -0.931228 
0 -0.662208
 5 3
-0.724961 -0.054976 -1.10216 
1.13594 0.28872 -1.43638 
-0.32212 -0.54069 -0.762275 
-1.93387 0.938795 0.312057 
-0.378384 0.0829033 -0.200216 
0 0.142568
 5 3
-0.696081 0.391537 0.116395 
-0.398224 -0.0251448 0.71922 
0.219788 -0.329433 0.360574 
-0.986834 -0.26441 -0.491998 
-0.369311 0.399634 0.307227 
0 -0.115942
 5 3
-0.101033 1.18584 -0.335737 
0.564413 0.736842 -0.361394 
0.292429 0.835971 -0.116584 
-0.378186 0.339705 -0.507097 
0.79159 1.03119 -0.517719 
0 0.514814
 5 3
-1.40148 0.0294868 -0.802 
-2.9441 0.265088 -2.11734 
-0.798056 0.255456 -0.607353 
0.324406 0.572165 -0.392111 
-0.111404 0.682535 -0.668451 
0 -0.780088
 5 3
0.511756 1.13584 -0.683733 
2.88613 0.19855 -1.34922 
-0.582266 0.28196 -0.62996 
0.31074 0.624375 0.573376 
-1.2952 0.428458 -0.414957 
0 0.619712
 5 3
-0.215814 1.09534 -0.0291629 
-1.36065 -0.28646 -0.643499 
-0.246031 1.30513 -0.396453 
-0.392741 -0.352959 -0.233551 
-0.146526 0.294893 0.107163 
0 0.276572
 5 3
-1.0173 0.103486 -0.251871 
-1.30284 0.242502 0.526005 
-0.710596 -1.65365 -0.531115 
0.42346 0.468858 -0.664076 
-1.20955 0.0217196 -0.821865 
0 0.388133
 5 3
-0.419114 1.28083 -0.700421 
-2.27793 1.04336 -2.6134 
-0.739855 -0.745148 -0.640056 
-0.841307 0.165829 -1.37246 
-0.207912 0.790104 -1.07543 
0 -0.564736
 5 3
-0.616086 0.265608 -0.496046 
-2.25119 1.03744 -0.865823 
-1.84883 -1.22706 -1.14899 
0.480497 0.899348 -1.47995 
-1.536 -0.518174 -0.518477 
0 0.33836
 5 3
-0.065439 0.483836 0.821413 
-0.51457 -0.544763 -0.213512 
-0.418529 0.505526 0.0509123 
-0.700663 -0.438284 -0.374148 
-0.259464 0.428332 0.346698 
0 0.474845
 5 3
-0.908627 0.631734 -0.422947 
-0.797773 0.552925 0.119705 
0.0323837 1.80175 -0.113306 
-0.55092 0.492834 -0.765301 
-0.232517 1.04371 -0.335817 
0 0.375295
 5 3
-0.954218 1.37897 -0.81379 
-2.28607 0.387141 -3.23253 
-0.552294 0.648893 -0.671573 
-2.3845 0.254965 -0.622871 
-0.561801 1.11061 -0.55072 
0 -1.18819
 5 3
-0.434057 1.20305 -1.15437 
-0.656961 1.1237 0.344908 
-0.0703169 0.282892 -0.91898 
-1.46329 0.941442 -1.20376 
-0.0700121 0.0667719 -0.719847 
0 0.226288
 5 3
-0.600859 -0.515937 0.335707 
0.499091 0.235386 -0.835796 
0.187116 -0.608078 -0.614029 
-1.13364 0.374398 -0.723254 
-0.905153 0.145783 0.0997073 
0 -0.220554
 5 3
-0.708559 -0.559121 -0.812743 
-1.98917 1.3351 -0.715343 
-0.452111 0.746666 -0.81143 
0.672008 0.93793 -1.05326 
-1.36182 0.305652 -0.617241 
0 0.555494
 5 3
-0.39363 0.710809 -0.191235 
0.17705 0.0488357 -0.442508 
-0.918858 0.0360971 0.264589 
-0.764984 0.451222 -0.35198 
-0.547626 0.312447 0.262758 
0 -0.0667501
 5 3
-1.11275 0.280088 -0.446197 
0.266938 0.948074 -1.48131 
-0.689349 1.02034 -0.71183 
-1.87823 1.10073 -0.304599 
-0.0519335 0.821628 -0.400327 
0 0.0388951
 5 3
-1.01655 0.147351 -0.505643 
-2.09509 0.776525 0.48764 
-0.780276 -0.796038 -0.395013 
1.22258 0.666964 -0.957082 
-1.15386 -0.0800083 -0.246937 
0 -0.196246
 5 3
-0.0783401 1.55884 -0.671507 
-0.346159 0.542322 0.884786 
-0.509811 0.413118 -0.860019 
-1.42883 0.616879 -0.831366 
0.0310493 0.729008 -0.510094 
0 0.721389
 5 3
0.0593835 1.03978 -0.681311 
0.39952 0.58005 0.919426 
0.575628 -0.191999 -0.664525 
-0.69003 0.165578 -0.885192 
-0.248448 0.355544 -0.0772883 
0 -0.416227
 5 3
-0.430625 1.13193 -0.643715 
-0.313837 0.485813 -0.403508 
-0.292906 0.154304 0.21593 
0.322893 0.211787 0.0931348 
0.129847 1.15093 -0.425813 
0 1.04701
 5 3
-0.252403 0.516223 0.44078 
0.547356 -0.361676 0.0560723 
-0.102438 -0.131432 -0.13306 
-0.799317 -0.141485 0.605106 
-0.769708 0.529831 -0.143589 
0 0.323955
 5 3
-0.716564 -0.449761 -0.31504 
0.52333 0.193607 -1.48357 
-0.226068 0.418124 -0.55931 
-0.68268 0.407999 -0.888462 
-0.590845 0.0698806 -0.923945 
0 0.600149
 5 3
-1.11734 -0.03981 0.487787 
0.0991559 -0.0878725 0.0969776 
0.0759727 1.09846 0.328511 
-0.889436 0.188869 -0.466013 
0.132297 1.07944 -0.392855 
0 0.168014
 5 3
-0.310133 -0.187639 -0.871343 
-0.535357 0.564449 -0.293869 
-1.15391 0.834783 -1.24458 
-2.29226 0.961678 -0.253005 
-2.03612 -0.663791 -0.514521 
0 0.66914
 5 3
0.0360924 0.999797 -0.369522 
-0.442911 0.0684573 -1.13784 
-0.209615 0.108134 -0.35704 
-0.821622 0.0560973 0.453256 
-0.0832166 0.187696 0.271549 
0 -0.571585
 5 3
-0.0898365 0.561684 -0.641879 
1.69815 0.890514 -0.885351 
0.116286 -0.193445 -0.792153 
-0.882861 0.772316 0.277263 
-0.611997 1.23672 -0.351008 
0 0.336269
 5 3
0.326833 0.88718 0.267338 
-0.0613661 -0.203157 0.531051 
0.263687 0.531841 0.210695 
-0.870006 0.13215 0.290473 
-0.024381 0.908112 -0.326308 
0 0.270145
 5 3
-0.455889 0.745797 -0.7892 
0.284866 0.547249 0.82148 
-0.750563 -0.765513 -0.737715 
-1.40461 0.572854 -0.411446 
-1.11383 0.606432 -0.920246 
0 0.78818
 5 3
-0.622362 0.0990943 -0.412031 
-0.146695 0.245492 -1.76422 
0.488916 0.469243 -0.526781 
-1.27174 0.297618 -1.20429 
-0.496162 1.03483 -0.0708345 
0 0.274482
 5 3
0.0147795 0.306292 -1.0008 
-1.91724 1.68502 -1.53194 
-0.354502 0.560412 -0.891755 
-1.46885 1.62112 -1.07691 
-1.11878 -0.563951 -1.73391 
0 -0.376083
 5 3
-0.700744 0.779948 0.146187 
-0.665946 -0.551472 0.158054 
-0.0526908 0.42101 0.486407 
-0.276716 0.069152 0.156334 
-0.322906 0.280079 0.0173985 
0 0.0117526
 5 3
-0.344957 0.435632 -0.413647 
0.244718 1.15372 -0.670324 
-0.76678 0.867121 -0.26432 
-0.885615 0.624317 0.0799515 
-1.02159 -0.163778 -1.25318 
0 -0.0693374
 5 3
-0.400737 1.25228 0.258152 
-1.13291 -0.0722943 0.18367 
-0.471804 0.190618 0.318243 
-0.829702 0.200785 -0.215015 
0.172854 0.795523 0.180452 
0 0.439798
 5 3
-0.78265 0.256498 -0.316765 
-0.884483 0.205158 -0.698067 
-0.552249 -0.448392 -0.767462 
-0.534618 0.441829 -0.590868 
-0.887503 0.184613 -0.591279 
0 0.58109
 5 3
-0.633019 -0.0294101 -0.762651 
-1.75377 0.457344 -0.911681 
-0.737993 0.216173 -0.715744 
0.00290821 0.449348 0.183721 
-1.32775 -0.326101 -0.842488 
0 -0.861348
 5 3
-0.581209 -0.252112 -0.361305 
-1.34979 0.70354 -1.11771 
-1.05341 -0.820328 -0.425364 
-0.687127 0.295141 -1.34985 
-1.35516 -0.777108 -0.723621 
0 0.0230141
 5 3
0.209668 1.51195 -0.0543795 
-0.105683 0.513592 -0.780477 
0.281699 0.755288 -0.501781 
-0.35638 0.0233727 -1.14316 
0.876223 1.96525 -0.263736 
0 -0.138183
 5 3
-0.0867834 0.608361 -0.707045 
-0.52538 1.27142 -0.569495 
-0.722876 0.177893 -1.52088 
-3.19734 0.914266 0.264161 
-0.0781476 0.615325 -0.634167 
0 0.133465
 5 3
0.369516 0.999412 -0.366652 
-0.490168 0.433823 0.106371 
0.574356 0.814467 -0.287487 
-0.452482 -0.257299 -0.0751659 
-0.436606 0.734816 -0.40715 
0 0.37626
 5 3
-0.610066 0.326557 -0.658707 
2.32319 0.926415 -0.0804234 
-0.466875 0.417833 -0.231692 
0.120289 0.174287 0.118215 
-0.0964617 0.577356 -0.951898 
0 0.581718
 5 3
-0.125515 1.02375 -0.0968665 
-2.0007 0.453475 -1.32285 
-1.05606 -0.219601 0.281594 
-1.93415 0.0751984 -1.24186 
-0.676262 0.796714 0.255622 
0 0.426129
 5 3
-0.408249 0.0447785 -0.644613 
0.364883 1.05979 -0.358937 
-0.823185 1.01646 -0.609303 
-1.78291 1.07389 -0.506141 
-1.16895 -0.457013 -0.92932 
0 -0.148931
 5 3
-0.235086 0.501971 -0.662084 
-1.44292 0.0773801 1.16874 
-1.09167 -0.631648 -0.209586 
1.61131 0.508088 -1.24134 
-0.912645 0.242603 -0.266686 
0 -0.639012
 5 3
0.0597025 1.11989 -0.873763 
-0.910344 1.09337 2.05734 
-1.06116 0.833889 -0.235651 
-1.30785 0.392272 -1.02152 
-0.0573096 0.880921 -1.09963 
0 0.581726
 5 3
-0.582761 0.41315 0.410259 
-2.00281 0.170966 -2.97021 
-0.761097 0.0973951 -0.0365319 
-0.505896 -0.36085 -1.0164 
-0.923607 0.393816 0.424298 
0 0.0450441
 5 3
-0.0693728 0.822062 -0.828744 
-1.5087 0.972669 1.37419 
-0.850496 1.67439 -0.716466 
0.663723 0.182423 -0.368686 
-0.293391 0.127062 -0.76969 
0 0.0776254
 5 3
-0.98193 0.515354 -0.68058 
-2.42679 0.122793 -0.917034 
-1.42867 0.91033 -0.497988 
-1.41406 0.339505 -0.775026 
-0.34125 0.654843 -0.0464054 
0 -0.305843
 5 3
-0.633767 0.291892 -0.714041 
-0.908561 0.6151 0.0515971 
-0.333578 0.347155 -1.12924 
-0.212344 1.21915 -0.703555 
-0.723968 0.44016 -0.468183 
0 -0.141574
 5 3
0.00920355 1.183 -0.231975 
0.367806 0.0681515 -0.825401 
-0.627089 -0.410127 -0.139412 
-0.892227 -0.0232514 -0.109786 
-0.292645 0.872765 -0.0503897 
0 -0.347518
 5 3
-0.39472 1.06609 -0.880645 
0.557032 0.334486 -0.881959 
-0.637452 0.671612 -0.447954 
0.223932 0.423661 0.310513 
-0.548602 0.563401 -0.370314 
0 0.234837
 5 3
-0.635039 0.261793 -0.229107 
-0.0026722 0.0801153 0.18437 
-0.57965 0.649358 0.0559668 
-1.56974 0.606499 -0.570819 
-0.343971 0.39299 -0.147073 
0 0.20151
 5 3
-1.06538 -0.136697 -0.286452 
0.395731 0.30165 -0.447357 
-0.239732 0.157601 -1.00367 
-2.90536 0.324264 -0.613544 
0.12881 0.273285 -0.758268 
0 -0.152048
 5 3
-0.707441 -0.744526 -0.18549 
-2.21058 1.01013 -0.96515 
-0.363918 0.515178 -0.173405 
-0.256394 0.812462 -1.60244 
-1.17816 0.381767 -0.92416 
0 -0.280708
 5 3
0.366325 0.507089 -0.591839 
-0.583403 0.639845 -0.776082 
0.00728667 1.54425 -0.579662 
-0.125161 0.151609 -1.14836 
-0.478249 0.601282 -0.116483 
0 0.574151
 5 3
-0.917578 0.610917 -0.642096 
-0.492105 -0.0131063 0.701495 
-0.920092 0.407258 0.133471 
-1.75643 0.205925 0.117033 
-0.168354 0.252466 -0.496797 
0 -0.818523
 5 3
-0.305884 0.74505 -0.501656 
0.109473 0.766832 0.352129 
-0.440323 1.96204 -0.753953 
-0.477873 0.180846 -0.539414 
-0.392899 1.27952 -0.474159 
0 0.182599
 
1 10
1 100
-0.669093 0.546035 -0.246043 0.329953 -0.487789 0.0554412 -0.879466 0.425258 -1.07898 0.547473 -0.502674 0.380156 -0.395355 0.501082 -0.636768 0.77862 -0.546637 0.230026 -0.476576 0.0529104 -0.105978 0.804095 -1.12298 0.148397 -0.610034 0.0149321 -0.442826 0.00680573 -0.942422 0.229936 -0.265292 0.459199 -0.889225 0.814086 -0.0110773 0.243159 -0.637898 0.217099 -0.601171 0.826917 -0.362297 0.779092 -0.792193 0.915654 0.0276465 0.840616 -0.78097 0.586066 -0.83536 0.904649 -0.160777 0.878487 -0.620326 -0.0421671 -0.655139 0.448732 -0.165646 0.228589 -0.162368 0.274393 -0.0279981 0.510482 -0.00897299 0.612781 -0.194965 0.653231 -0.935698 0.189995 -0.296002 0.992818 -0.205685 0.69894 -0.426411 0.412187 -0.75678 0.515988 -0.645796 0.563197 -0.69797 0.672554 -0.707516 0.896652 -0.72203 0.616452 -0.299692 0.0847826 -0.0670908 0.577944 -0.40631 0.183582 -0.725438 0.555985 -0.356358 0.589518 -0.815494 0.575761 -0.484421 0.0914476 -0.790883 -0.15223 
0.0948517 -0.177227
 1 100
-0.477461 0.522262 -0.829532 0.813971 -0.979551 0.372489 -0.894718 0.137827 -0.670197 0.00716473 -0.632763 0.0467444 -0.771836 0.675162 -0.642627 0.603307 -0.190799 0.818198 -0.884305 0.667171 -0.489426 0.212948 -0.804392 0.363932 -0.172085 0.376992 -0.205908 0.761044 -0.778162 0.827474 -0.245955 0.0498027 -0.669216 0.885025 -0.589772 0.651449 -0.2144 0.853206 -0.324154 0.108055 -0.33982 0.797628 -0.916487 0.842052 -0.453228 0.347462 -0.497427 0.900271 -0.12471 0.864437 -0.777247 0.908925 -0.460599 0.550924 -0.652922 0.401819 -0.159083 0.836541 -0.415243 0.74398 0.0100502 0.328511 -0.984432 0.694419 -0.386034 0.813259 -0.656382 0.616178 -0.367218 0.890486 -0.915655 0.994955 -0.578082 0.24425 -0.972522 0.757711 -0.370832 0.532254 -0.483259 0.378595 -0.880944 0.355573 -0.865013 0.587115 -0.014527 0.368792 -0.356355 0.874892 -0.538863 0.590034 -0.167448 0.654938 -0.78387 0.761763 -0.0126593 0.939019 -0.499027 0.202706 -0.61301 0.957038 
-0.000246789 0.753573
 1 100
-0.0352021 0.941982 -0.306793 0.260238 -0.9346 0.370263 -0.35962 0.29109 -0.996479 0.179578 -0.138327 0.856345 -1.02715 0.834847 -0.82504 0.368994 -0.122058 0.795186 -0.360284 0.189793 -0.358801 0.611319 -0.306917 0.958349 -0.378796 0.799263 -0.611992 0.688795 -0.133038 0.258661 -0.451035 0.678131 -0.653058 0.889648 -0.193346 0.185487 -0.70206 0.956475 -0.32848 0.432093 -0.408626 0.986751 0.0458354 0.351816 -0.21966 0.675035 -0.831445 0.207799 -0.0661109 0.689576 -0.24952 0.847162 -0.201 0.237434 -0.802534 0.964587 -0.226938 0.783591 -0.613673 0.563203 -0.205251 0.893428 -0.342324 0.368839 -0.945011 0.665761 -0.6436 0.180649 -0.669616 0.511209 -0.914197 0.50084 -0.300281 0.749049 -0.335674 0.23981 -0.348807 0.566451 -0.957195 0.901636 -0.0516635 0.118752 -0.171101 0.149969 -0.0765455 0.242057 -0.104129 0.72434 -0.217041 0.363212 -0.848515 0.646197 -0.92625 0.220988 -0.551317 0.6694 -0.333309 0.684718 -0.787086 0.758997 
-0.0006707 -0.415192
 1 100
-0.135491 0.370982 -0.342761 0.786251 -0.109593 1.1992 -0.437001 0.67706 -0.338108 0.752015 -0.701757 -0.074071 -0.175407 0.52609 -0.739226 0.861202 -0.442109 0.873115 -0.215828 0.687237 -0.0126023 0.264983 -0.192868 0.541762 -0.770228 0.400082 -0.642636 0.0331255 -0.556977 0.517227 -0.205771 0.109126 0.060623 0.810319 -0.481781 0.997863 -0.334263 0.915216 -0.249791 0.638041 -1.00194 0.152989 -0.344855 0.493235 -0.163959 1.053 -0.0883512 -0.0470383 -0.422506 -0.00858586 -0.27864 0.282381 -0.896882 0.951627 0.149105 0.721494 -0.956737 0.557094 -0.962762 0.29574 -0.610525 0.174353 -0.625764 0.138659 -0.475802 0.291897 -0.547841 0.481102 -0.122399 0.480764 -0.867717 0.341316 -0.48295 0.991096 -0.105505 0.815789 -0.514787 0.243475 -0.498202 0.164379 -0.512649 0.907554 -0.728565 0.0222788 -0.705643 0.461246 -0.852359 0.883615 -0.449909 0.769227 -0.315372 0.400268 -0.636795 0.470653 -0.559506 0.63166 -0.337048 0.534276 0.135104 0.143337 
-0.0359724 0.589287
 1 100
-0.251204 0.324105 -0.131526 0.694545 -0.387031 0.0663377 -0.164955 0.98394 -0.910389 0.262255 -0.282469 0.634123 -0.162338 0.356425 -0.168302 0.108974 -0.358683 0.0178015 -0.851223 0.826302 -0.714622 -0.00484744 -0.400451 0.0799203 -0.231453 0.919669 -0.158098 0.931025 -0.469842 0.55146 -0.84242 0.546586 -0.740108 0.110865 -0.0242035 0.522724 -0.0530502 0.113159 -0.326917 0.0624368 -0.607776 0.698975 -0.119716 0.96276 -0.0881709 0.695027 -0.971985 0.908662 -0.592212 0.524986 -0.532063 0.204525 -0.109512 0.0101392 -0.8802 0.469637 -0.040318 0.505204 -0.504281 0.223165 -0.128154 0.153417 -0.0821539 0.0677758 -0.499153 0.841062 -0.288937 0.951332 -0.239242 0.793362 -0.173546 0.0561224 -0.1238 0.787497 -0.738777 0.933692 -0.972992 0.14347 -0.24589 0.827665 -1.00181 0.435315 -0.10155 0.642405 -0.736137 0.816618 -0.650102 0.384272 -0.703911 0.352286 -0.719578 0.206504 -0.664475 0.0719739 -0.656181 0.569166 -0.177405 0.674041 -0.446172 0.121738 
-0.0018221 -0.815025
 1 100
-0.0345029 0.870022 -0.737706 0.165128 -0.573813 0.388021 -0.168615 -0.103483 -0.152294 0.19366 -0.368235 0.882056 -0.589701 -0.11339 -0.36385 0.214719 -0.0472502 1.2113 0.00431069 0.76412 -0.500037 0.11859 -0.0125868 0.980708 -0.29527 0.230231 -0.262857 0.423433 -0.07312 0.0927722 -0.467701 0.72601 -0.0896953 0.960143 -0.473815 0.663352 -0.98096 0.910849 -0.381795 0.545443 0.0342518 0.948987 -0.420842 0.596493 -0.329195 0.534165 -0.663472 0.746515 -0.725812 0.043129 -0.189387 0.274436 -0.847795 0.504304 0.291304 0.133456 -0.0820387 0.270348 0.0780404 1.09625 -0.693915 0.779821 -0.191454 0.226212 -0.932197 0.42374 -0.594511 0.0600692 -0.425668 1.00864 -0.481377 0.128809 0.060856 0.306707 -0.746753 0.0431318 -0.137796 0.7252 -0.191794 0.732119 -0.295185 0.966006 -0.367564 0.924905 0.000781205 0.697776 -0.593678 0.100404 0.010836 0.022063 -0.469215 0.345711 -0.813306 0.608791 0.237176 0.549495 -0.472519 0.0651919 -0.826279 0.552868 
-0.0133857 0.628835
 1 100
-0.275994 0.366556 -0.840678 0.353858 -0.922979 0.588059 -0.402691 -0.00390954 0.000334535 0.60858 -0.445703 1.13211 -0.83479 0.68511 -0.689231 0.905575 -0.926279 0.293853 -0.642307 0.425537 -0.544604 0.566852 -0.362279 0.0732551 -0.300911 0.816725 -0.530293 0.339533 -0.243482 0.556306 -0.931234 0.62718 -0.0444216 0.423608 -0.334385 0.788788 -0.214149 0.157688 -0.414863 0.533073 -0.24482 0.827468 -0.526847 0.941209 -0.977969 0.873938 -0.291449 1.01235 -0.638933 0.23736 -0.218 0.542412 -0.629975 0.21614 -0.0486807 0.315773 -0.553975 0.629729 -0.666582 0.409048 -0.832332 0.00874741 -0.975557 0.758317 -0.452923 0.938509 -0.802427 0.492479 -0.421477 0.916284 -0.859188 0.153984 -0.0307791 0.814566 -0.152222 0.942528 -0.808526 0.455729 -0.749749 0.715534 -0.695152 -0.0679431 -0.450168 0.35602 -0.811324 0.125461 -0.879209 0.152783 -0.00897792 0.335885 -0.870118 0.289645 -0.422437 1.01057 -0.819865 0.661892 -0.78399 0.456364 -0.973214 0.139471 
-0.00494525 -0.429317
 1 100
-0.270338 0.231788 -0.135059 0.943376 -0.760833 0.00657915 -0.665467 0.938621 -0.518704 0.987868 -0.565806 0.123351 -0.875345 0.225352 -0.0784482 0.575326 -0.257072 0.810578 -0.538439 0.731138 -0.29229 0.579322 -0.477227 0.554752 -0.736785 0.113103 -0.74347 0.513898 -0.52145 0.0377626 -0.624176 -0.027785 -0.0740983 0.898243 -0.718833 0.91298 -1.00903 0.419931 -0.635458 0.0308742 -0.778096 0.0100692 -0.809847 0.253256 -0.902427 0.225086 -0.515629 0.857941 -0.100065 0.7075 -0.0418764 0.936822 -0.913239 0.0608769 -0.318611 0.498457 -0.525267 0.206924 -0.116623 0.084051 -0.15312 0.926333 -0.550774 0.745978 -0.217823 0.164298 -1.01818 0.946921 0.0766278 0.150818 -0.608227 0.853094 -0.680662 0.806846 -0.712682 0.667759 -0.636224 0.435404 -0.713813 0.847078 -0.735268 0.418279 -0.283527 0.227347 -0.626376 0.638794 -0.295297 0.945708 -0.988775 0.950418 -0.136389 0.25177 -0.0135716 0.807237 -0.377616 0.0885272 -0.634196 0.487709 -0.92473 0.134636 
-0.00494525 0.271732
 1 100
-0.525778 0.0121748 -0.641386 0.258107 -0.429934 -0.0591487 -0.563395 0.338253 -0.832784 0.20467 -0.268278 0.398293 -1.01085 0.817286 -0.415424 0.380007 -0.488524 0.189454 -0.996077 0.558039 -0.410543 0.725643 -0.431489 0.008484 -0.583606 0.637196 -0.951449 0.466214 -0.563908 0.623152 0.140135 0.126509 -0.73824 0.432295 -0.538994 0.273645 -0.954589 0.572463 -0.402166 0.506995 -0.594295 0.885792 -0.357939 0.23102 -0.607622 0.577817 -0.653218 0.96397 -0.301336 0.131987 -0.914077 0.318512 -0.702986 0.703528 -0.924472 0.0396715 -0.625262 0.725895 -0.302763 0.266092 -0.214765 0.354521 -0.50933 0.893435 -0.115039 0.0672526 -0.516254 0.129718 -0.548169 0.319084 -0.166495 0.180029 -0.720181 0.101261 -0.423868 0.407965 -0.234415 0.353382 -0.322277 0.20981 -0.83381 0.188614 -0.396047 1.04257 -0.949039 0.65491 -0.121443 0.27944 -0.874106 0.958878 -0.775628 0.278234 -0.993826 0.646926 -0.486901 0.0158748 -0.692648 0.125942 -0.78038 0.690819 
-0.0359724 -0.278726
 1 100
-0.109626 0.569353 -0.81632 0.801834 -0.576555 0.387788 -0.430879 0.825386 -0.37637 0.0299307 -0.642365 0.151299 -0.954204 -0.0063883 -0.898275 0.203005 -0.63675 0.423145 -0.390509 0.617567 -0.397582 0.706256 -0.459855 0.821803 -0.917784 0.831291 -0.68093 0.480251 -0.322105 0.756108 0.0371751 0.0791384 -1.0499 0.608401 -0.319593 0.0728707 -0.445235 0.0155637 -1.01605 0.368003 -0.191161 0.0121667 -0.373206 0.633865 -0.627342 0.794662 -0.940245 1.19855 -0.649644 0.214085 -0.68304 0.071371 -0.394597 0.561854 -0.538412 0.807156 -0.37236 0.0145777 -0.341934 0.409645 -0.913855 0.843127 0.0369534 0.561531 -0.654156 0.566275 -0.30277 0.423845 -0.580661 1.02133 -0.621127 0.866063 -0.196595 0.25032 -1.03746 0.633441 -0.74652 0.257297 -0.98923 0.0566097 -0.152527 0.325585 -0.642216 0.885476 -0.581612 0.364639 -0.906687 0.807499 -0.719828 0.151899 -0.83301 0.223491 -0.136025 0.512906 -0.0885904 0.928191 -0.739312 -0.196345 -0.0851251 1.00851 
-0.00494525 0.799183
 
