1 100
5 3
0.382077 -0.0221777 -0.639579 
-0.360029 0.704187 -0.962269 
0.370662 1.06919 -0.275402 
-0.346595 0.804715 -0.942928 
-1.48871 -0.266234 -0.709924 
0 0.141206
 5 3
-0.734969 0.52364 -1.2548 
-0.182911 0.59127 -1.16639 
-1.02901 0.153768 -0.825194 
-0.806308 1.05012 -1.12678 
-0.872303 -0.276582 -0.970615 
0 0.124664
 5 3
-0.201659 0.103326 -0.166671 
-0.278011 -0.0629194 -0.0279914 
-0.0882822 1.67102 0.247099 
-1.13973 -0.115686 -0.00842086 
-0.760164 0.80928 0.306396 
0 -0.0827454
 5 3
-0.646825 0.876969 -0.577405 
-0.749621 0.887412 1.93686 
-1.0052 0.058054 -0.628737 
0.23006 0.264407 -0.896344 
0.442629 1.48465 -0.162719 
0 0.878633
 5 3
-0.833067 -0.0782936 0.0749213 
-1.1707 0.152014 -1.01877 
-0.557435 0.904273 -0.118017 
-2.26163 0.445847 -0.00281325 
-1.13116 -0.082638 -0.241281 
0 -0.520342
 5 3
-0.642477 0.944361 -0.0103698 
-0.714602 0.131467 -0.952327 
-1.09237 0.814893 -0.10806 
0.445733 0.109158 -0.569067 
0.147105 1.65792 -0.499002 
0 0.808137
 5 3
-0.893359 0.411649 -0.742897 
-2.53851 0.663335 -1.77986 
-0.374185 -0.589525 -0.454589 
-1.38624 1.10637 -1.80711 
-0.248443 0.738953 -0.958297 
0 -0.424375
 5 3
-0.127385 0.0357802 -0.192713 
0.532225 0.0738435 -0.133226 
0.715064 1.03335 -0.0330708 
0.0267008 0.512425 -0.442668 
-0.176094 1.24744 -0.145745 
0 0.539334
 5 3
-1.11817 -0.67132 -0.546922 
-1.95943 1.13425 -0.88142 
-1.68126 -0.242007 -0.695364 
-1.1446 0.581775 -0.713998 
-1.37064 -0.469485 -1.0488 
0 -1.02158
 5 3
-0.941217 0.792986 -0.890333 
-1.63768 0.841748 -1.43697 
-1.2088 -0.283577 -1.05046 
-1.05401 1.52918 -0.0301434 
0.252993 0.641952 -0.896284 
0 -0.241052
 5 3
-0.0432938 0.407848 0.381429 
-0.559458 -0.167586 0.373359 
0.133977 0.348336 0.122449 
-1.15111 -0.0574445 -0.242279 
-0.158708 0.333677 0.428427 
0 0.231919
 5 3
-0.56513 0.584156 -0.757756 
-0.582346 0.701022 0.136378 
-1.40222 -0.404137 -0.445613 
-1.02835 1.10298 -1.14559 
-1.26786 -0.0642733 -0.932383 
0 0.452669
 5 3
-0.582072 -1.09774 -0.319319 
-1.27812 0.355728 -1.9473 
-0.701245 1.28373 0.1315 
-0.598422 0.339217 -1.51589 
-1.70082 -1.04946 -0.165445 
0 -0.0752017
 5 3
-0.0474926 1.86746 -1.06247 
0.47983 0.780542 -1.67756 
-0.825249 0.284144 -0.867001 
0.280393 0.790399 0.477096 
-0.142848 0.708435 -0.548967 
0 0.180517
 5 3
-0.658647 1.37263 -0.59977 
-0.689741 1.14108 -1.97045 
-0.590637 -0.450751 -0.874712 
0.161287 0.51148 -2.66854 
-0.33541 1.12023 -0.558357 
0 -0.818375
 5 3
-0.171325 0.189658 -0.013271 
0.410542 0.400368 -0.195778 
-0.143517 0.0538342 0.345901 
0.185275 0.0893231 0.54257 
-0.595852 -0.0924799 -0.482157 
0 0.748898
 5 3
-1.16849 -0.864952 -0.485628 
-2.24733 0.950425 -1.23638 
-0.727083 -0.850291 -0.927689 
0.712971 0.274013 -1.32834 
-1.40054 -0.230213 -1.0533 
0 -0.82301
 5 3
-0.677247 0.652924 -1.15834 
-1.74469 0.469995 0.181423 
-1.34398 0.730466 -1.23607 
-0.27779 0.83695 -0.961323 
-0.596893 -0.078078 -1.30742 
0 -0.18773
 5 3
-0.411935 1.4887 -0.502824 
-0.115239 0.296123 -2.20296 
-0.340768 -0.61914 -0.309276 
1.43532 0.941955 -0.92247 
0.178535 1.42665 -0.953674 
0 -0.289958
 5 3
-0.324608 -0.517291 -0.807323 
0.344162 0.910506 -0.155327 
-1.33057 0.76595 -0.553409 
-0.636261 0.632025 -0.324449 
-0.828164 -0.384181 -0.861799 
0 0.451108
 5 3
-0.0709897 0.107685 0.0234235 
-0.14959 -0.260308 -0.701299 
-0.0185785 1.39024 0.149465 
-0.161984 0.629428 -0.293672 
-0.0607664 0.268284 0.138112 
0 -0.0941643
 5 3
-1.17587 0.478058 -0.883863 
0.683077 0.506746 -1.37332 
-0.877996 -0.0135444 -0.910567 
-0.658207 0.687232 -0.910564 
-0.903712 0.109014 -1.09627 
0 0.319421
 5 3
-1.78099 -0.0213875 -1.08812 
-1.22398 0.948685 -2.76736 
-1.11941 -0.652448 -0.988512 
-0.23081 1.30682 -2.0438 
-1.02499 0.215952 -0.736643 
0 -0.841687
 5 3
-0.342192 0.871927 -0.175773 
-0.731376 0.15795 -0.887858 
-0.0656484 1.57684 -0.22625 
-0.524732 0.0794562 -0.924179 
-0.196786 0.949673 -0.325985 
0 0.394496
 5 3
-1.09419 -0.562521 -1.27493 
-1.79834 1.09691 -2.95729 
-0.961874 -1.04461 -1.16662 
-1.23406 1.20064 -1.56313 
-1.25131 -0.252528 -1.29272 
0 -1.26986
 5 3
-0.260418 0.449501 0.0771819 
1.38088 0.465163 -0.0135493 
-1.04066 0.693764 -0.621082 
-0.158605 0.337534 0.517558 
-0.208268 0.745802 -0.818079 
0 0.389264
 5 3
-0.0119964 1.52571 -0.774493 
-0.649957 0.40821 -2.29617 
-1.09233 -0.520601 -0.378179 
0.376809 0.337468 -1.4271 
-0.287706 0.517525 -0.544902 
0 -0.790912
 5 3
0.100907 0.903524 -1.08706 
-0.646295 1.00176 0.534287 
-0.717982 -0.669303 -0.687973 
-0.430515 0.712541 -0.214096 
-0.705062 0.026833 -1.06192 
0 0.481801
 5 3
-0.0742623 0.663418 -0.381304 
0.184089 -0.086636 0.319189 
-0.618161 -0.239326 0.0765039 
0.214098 0.300858 -0.334671 
-0.263518 0.786959 -0.565117 
0 -0.249159
 5 3
-0.431195 0.698496 -0.95702 
1.19118 0.917621 1.03969 
-0.79417 -0.233409 -0.096276 
-0.77551 0.782088 0.369965 
-0.196874 0.767053 -0.373323 
0 0.711183
 5 3
0.42215 0.439746 -0.557595 
0.403472 0.560952 -1.12645 
0.118434 1.58663 -0.520729 
-2.29214 0.342073 0.0677522 
-0.55445 0.757632 -0.592844 
0 -1.03164
 5 3
-0.757064 1.72929 -0.3099 
-1.20219 0.101275 -1.10326 
-0.954986 1.55897 -0.754158 
-1.16152 0.612521 -0.706594 
0.0375488 1.359 -0.0569929 
0 0.815287
 5 3
-0.279946 0.854011 0.0124455 
-0.578359 -0.228547 -0.0973795 
-0.841151 0.139636 0.140104 
-0.47285 -0.0656393 -0.524775 
-0.219507 1.13576 0.410315 
0 0.377691
 5 3
-0.3171 0.07553 0.129688 
-0.132525 0.638677 -0.571711 
0.45707 1.58435 -0.266961 
-0.0481055 0.217399 -0.181473 
-0.149933 0.513447 0.135242 
0 0.772224
 5 3
-0.534465 0.212684 -0.828529 
-1.70517 0.688632 -2.70014 
-0.138326 0.12864 -0.854195 
-0.706289 1.02421 -0.685686 
-0.034049 1.09852 -0.490323 
0 -0.853402
 5 3
-0.624951 1.03304 -0.00512864 
-0.403884 0.507982 0.433923 
-0.832431 1.3597 -0.632498 
-2.07762 0.252664 -0.413963 
-0.487442 0.548692 -0.69088 
0 0.105257
 5 3
-0.207605 0.790851 -0.000599806 
-1.13347 -0.531185 -0.111565 
0.441816 0.0396711 0.0704168 
-0.515462 -0.679353 -0.471369 
-0.374023 0.410181 0.507869 
0 -0.194759
 5 3
-0.451618 0.629082 -0.742409 
-0.744218 0.598545 -0.222834 
0.20564 0.946612 -0.259607 
-0.244129 0.0354787 -0.434746 
0.651739 1.32531 -0.590702 
0 0.863993
 5 3
-1.19541 0.761122 -0.764807 
-3.01658 0.859445 -0.33496 
-1.21248 0.561856 -0.602937 
-2.3653 0.87388 -1.8598 
-0.951732 -0.313926 -0.633578 
0 -1.33224
 5 3
-0.734045 0.555475 -0.810681 
1.69521 0.750376 1.61687 
-0.568028 0.878926 -1.0078 
0.229047 0.583471 0.234295 
-0.381264 0.615837 -0.820172 
0 0.58493
 5 3
0.0781494 0.97428 0.264165 
0.186342 0.211466 -0.268671 
-0.126272 0.583242 -0.494861 
-0.22444 0.0875916 0.482835 
-0.124517 1.08395 0.193362 
0 -0.180276
 5 3
-0.976394 0.220878 -0.513896 
-0.374749 0.628615 -0.083589 
-0.634444 0.108351 -0.0617952 
-1.35592 0.489634 0.397994 
0.769865 1.38542 -0.710588 
0 0.416796
 5 3
-1.04081 -0.220424 -0.227815 
-2.31679 0.825337 -0.449766 
-1.51429 -0.45384 -0.675247 
1.04673 1.065 -1.43044 
-1.64843 -0.449576 -0.10275 
0 -0.227815
 5 3
-0.920691 -0.0424743 -0.682185 
-1.90669 0.674769 1.59048 
-0.674194 0.524077 -0.88263 
0.70685 0.873109 -1.33424 
-0.514505 -0.189086 -0.619347 
0 0.169648
 5 3
0.64247 0.15104 -0.305899 
-0.604862 0.00254484 -1.14215 
0.395521 0.634597 -0.715183 
0.611824 0.66028 0.247348 
-0.454044 0.0450555 0.135521 
0 -0.589904
 5 3
-1.31029 1.021 -0.695909 
-1.09729 1.13052 0.330759 
-1.16798 -0.0596507 -1.23148 
-0.7734 0.403328 0.306287 
-0.666793 0.443684 -0.954218 
0 0.290723
 5 3
-0.841501 -0.203698 -0.680276 
-1.2617 0.939653 -2.37965 
-1.34552 0.630346 -0.580633 
-2.15488 1.37271 -1.82113 
-2.23239 -1.04556 -0.579321 
0 -0.901444
 5 3
-1.81876 0.310908 -1.44026 
-2.97447 0.992342 -1.10575 
-2.2197 -0.988998 -1.1244 
-1.67417 1.25456 -0.909308 
-1.10587 0.0363142 -1.12769 
0 -0.0900009
 5 3
-0.527396 0.354286 -0.329749 
-1.65115 0.351753 -1.9046 
-0.600039 0.282615 -1.25641 
-1.38198 0.97018 -1.61224 
-1.52945 -0.00220954 -0.50346 
0 -0.941096
 5 3
-0.211274 0.171434 -0.628838 
0.72545 0.33525 -0.230544 
-0.220098 0.0822674 -0.155862 
-1.83502 0.429491 -0.25931 
-0.938833 0.840579 -0.880738 
0 0.516491
 5 3
-1.33396 0.495819 -0.0507498 
0.495543 0.0216046 -1.15304 
-0.733802 -0.0857843 -0.294654 
0.0592275 0.0381456 0.199164 
-0.415729 0.55711 -0.210606 
0 -0.180057
 5 3
-0.97807 0.358333 -0.719508 
0.130017 0.228404 -1.04328 
-1.02459 1.26381 -0.414628 
-2.11196 0.675042 0.685847 
-1.53831 0.030187 -0.198587 
0 0.0424172
 5 3
-0.079411 1.9143 -0.844681 
-1.17273 0.186947 -1.88315 
-1.3607 0.935021 -0.202694 
-1.14812 0.367097 -1.3705 
-0.225514 0.938371 -0.979573 
0 -0.169551
 5 3
-0.522421 1.1842 -0.22884 
0.0262962 0.0496967 -0.216708 
-0.0208531 0.555103 -0.798133 
1.17897 0.796851 -0.348876 
-0.276754 0.966631 -0.625154 
0 0.548924
 5 3
0.456395 1.54488 -0.0745477 
-0.814129 0.697186 -1.05506 
-0.365016 2.49854 -0.599436 
-0.889781 0.109125 -0.464512 
-0.297561 0.630416 -0.950704 
0 -0.697461
 5 3
-0.980456 0.0370609 -0.237567 
-0.86334 -0.00880855 0.375096 
0.231777 1.02681 -0.51788 
-1.39319 0.164659 -0.870068 
0.172478 0.897903 -0.768467 
0 0.720378
 5 3
-1.19859 0.589918 -0.605824 
-0.963341 0.153937 0.498215 
-0.330553 1.32863 -0.356091 
-1.19104 -0.0813 -0.802421 
-0.648159 0.632092 -0.266703 
0 0.0711374
 5 3
-0.399592 -0.81778 -0.898903 
-0.6969 0.567411 -0.109596 
-0.289994 -1.48274 -0.60797 
-0.976457 0.220782 0.263557 
-1.47688 -0.353314 -0.809087 
0 0.356231
 5 3
-0.35031 -0.00507525 -0.232062 
1.28449 0.33729 -0.810196 
-0.150575 0.919153 -0.0222168 
-0.669934 0.37852 0.32525 
-0.963517 0.459805 -0.498641 
0 0.167669
 5 3
-0.4416 0.6021 -0.497029 
-0.821439 0.673914 -0.812518 
-1.01698 0.505081 -0.983524 
0.626618 0.538503 0.127985 
-0.524694 0.209398 -0.558615 
0 0.312353
 5 3
0.889365 1.15155 0.0901172 
-0.094055 0.440081 0.0708322 
0.340664 1.11966 -0.0601865 
-0.580016 0.234203 0.262856 
-0.556274 1.19106 0.119659 
0 -0.414232
 5 3
-1.13646 -0.464398 -0.682552 
-0.377086 0.822571 -0.235648 
-0.0678078 1.58561 -0.675899 
-1.98519 1.05744 -0.0703471 
-0.271296 0.76969 -0.694882 
0 0.265902
 5 3
-0.650991 0.674904 -0.681265 
-0.907814 -0.009399 -0.944763 
-0.26376 0.0687899 -0.767907 
-0.844382 0.316813 -1.78017 
0.0336 0.86352 -0.231239 
0 -0.641286
 5 3
-0.28226 0.852259 -0.531119 
0.362473 0.20039 -0.991384 
-0.274248 1.02428 -0.891695 
-0.688734 1.14231 -0.65609 
-0.269126 0.446441 -0.821014 
0 0.656295
 5 3
0.0533097 0.492734 -0.0163286 
-1.4151 0.195381 0.00146228 
-0.595103 0.304527 -0.621328 
-1.15986 -0.114504 -0.466449 
-0.778867 0.657396 -0.298716 
0 0.216558
 5 3
-0.799228 0.853563 -1.08609 
-1.99809 1.21207 -0.0808061 
-1.54901 0.310238 -1.5551 
-1.07604 1.12552 -1.41272 
-0.534761 0.0820482 -1.0076 
0 0.142798
 5 3
-0.0687117 1.23635 0.0885516 
0.290698 0.0370321 -0.61923 
-0.299858 1.50411 -0.372614 
-0.50877 -0.274257 -0.245535 
-0.732463 -0.213526 0.143515 
0 -0.5119
 5 3
-1.4899 -0.389473 -0.761959 
-0.315335 0.883423 -1.27195 
-0.962578 -0.163499 -0.71139 
-1.93618 0.710657 -1.07961 
-1.5284 0.262641 -1.19654 
0 0.201083
 5 3
-0.642917 0.683181 0.302592 
-0.815701 0.082735 -0.609694 
-0.497682 1.66481 0.141485 
-0.110458 -0.0426046 -0.750563 
-0.275377 0.942769 -0.512771 
0 0.292765
 5 3
-0.968183 0.623943 -0.815842 
0.107777 0.332856 -0.154373 
-0.372608 0.777339 0.00132153 
1.79051 0.443882 -0.287828 
-0.193641 0.27845 -0.672252 
0 0.65164
 5 3
0.554193 1.43773 0.204148 
0.0743781 0.240416 0.24441 
0.529965 0.830361 0.243516 
-0.71998 -0.208878 -0.275763 
0.0225329 0.883979 -0.466436 
0 -0.21594
 5 3
-0.260109 0.816373 0.101403 
-0.245593 0.322652 -1.04899 
-0.705512 1.72423 -0.198594 
-0.596416 0.265155 0.510471 
-0.646456 0.434967 -0.613005 
0 1.10879
 5 3
0.0537618 -0.0317616 -0.538568 
-0.21323 0.578212 -2.85125 
-0.0629957 0.126322 -0.404195 
1.57488 0.347797 -2.12884 
-0.354702 0.609347 -0.326678 
0 -0.669523
 5 3
-0.016534 0.626279 -0.107847 
-0.0209207 0.311649 -0.47798 
-0.00016293 1.34201 -0.289646 
-0.321675 0.561108 -0.26193 
0.087946 1.31589 -0.143676 
0 0.927494
 5 3
-0.113398 0.627262 0.0572352 
1.67225 0.099691 -0.915472 
0.0200107 0.152767 -0.574742 
1.17686 0.433716 -1.34332 
-0.333265 0.895288 0.111924 
0 -0.260066
 5 3
-0.558796 -0.00855207 -0.107204 
1.07549 0.57487 -1.02403 
-0.129526 1.53734 -0.566294 
-1.10196 0.284425 0.589929 
-0.617614 0.0903548 -0.455329 
0 0.0842993
 5 3
-0.831658 0.00400565 0.388615 
-0.936197 -0.35593 -1.37711 
-0.0145122 1.44829 -0.376819 
-0.888447 0.440847 -0.440214 
-0.714936 0.830185 -0.0308616 
0 0.359714
 5 3
-0.774457 0.973924 -1.00778 
-0.00837375 1.08469 -1.91603 
-0.592621 0.33608 -1.52049 
-0.912965 0.835292 -1.00877 
-0.263137 0.24228 -0.6863 
0 0.295785
 5 3
-0.225737 0.755813 -0.191301 
-0.60202 0.344565 -0.452284 
-0.658462 0.731639 -0.713228 
0.610149 -0.194911 -0.285841 
-0.628937 0.362366 -0.179277 
0 -0.381858
 5 3
0.159359 0.596271 -0.580544 
-0.598092 0.723432 -0.770056 
-0.185234 1.30626 -0.0540695 
-0.395775 0.273711 -0.233642 
-0.332843 1.45887 -0.134944 
0 0.806064
 5 3
-0.108833 1.2854 -1.14085 
-1.95378 1.39586 -2.49689 
-0.624187 -0.864587 -1.04816 
-0.87399 0.773921 -0.503437 
-0.92883 0.903562 -1.069 
0 -0.742945
 5 3
-0.788905 0.611778 -1.01286 
-1.2897 1.03984 0.287728 
-0.829576 1.4363 -0.235307 
-2.14122 1.07621 -0.340841 
0.210134 1.13582 -1.01606 
0 0.630412
 5 3
-0.378531 0.0723456 0.0873792 
-1.14853 0.23688 -1.0945 
0.00990519 -0.136897 -0.590101 
-0.0379194 0.589003 -0.356284 
-0.609991 0.910869 0.0700141 
0 0.149057
 5 3
0.0546079 1.36062 -0.563964 
-0.908905 0.904398 -0.125096 
-0.427753 0.995078 -0.954266 
-0.686318 0.790961 0.00221431 
0.366865 1.82061 -0.116075 
0 0.899734
 5 3
0.0393794 1.85536 0.3853 
-0.199394 0.212008 -0.515711 
-0.3161 0.506095 0.0470632 
-0.823296 0.147401 -0.612604 
0.199978 0.896899 -0.147614 
0 -0.363716
 5 3
-0.78202 1.54631 -1.37707 
-0.0125072 1.32168 -0.101813 
-1.44576 1.17595 -0.734957 
-1.11909 0.850286 -1.15668 
0.146004 0.255718 -0.60568 
0 0.0484532
 5 3
-0.786056 -1.2747 -0.793314 
-1.8689 0.353755 0.00389588 
-0.0630927 1.23267 0.0612963 
-0.780875 0.784402 -1.21383 
-1.10727 -0.919061 -0.0454269 
0 -0.252251
 5 3
-0.120772 1.70238 0.0696579 
-0.692154 -0.118793 -0.674039 
-0.488795 0.107582 -0.186545 
0.170807 0.0214703 -0.184084 
-0.340193 1.47496 -0.490357 
0 0.36349
 5 3
0.78326 1.48939 -0.563507 
-0.311212 0.513609 -0.392127 
-0.124756 0.851994 0.33151 
-0.642989 0.4042 -0.737064 
-0.363385 0.646533 -0.0159436 
0 0.0685012
 5 3
0.103547 1.64481 -0.429594 
-0.477366 0.150075 -0.40299 
-0.184689 0.937926 -0.395566 
-0.0329118 0.799325 0.15014 
0.455515 1.13428 -0.00315854 
0 0.5918
 5 3
0.358896 0.337986 -0.227371 
-1.52957 0.979927 -0.0269656 
-0.21653 0.539806 -0.200118 
0.935746 0.0979118 -0.514323 
-0.749357 0.615278 -0.138532 
0 -0.878392
 5 3
0.146967 0.605551 -0.498266 
-0.550035 0.3631 -1.20453 
0.215627 1.40795 -0.616434 
-1.3177 0.0963374 -0.551034 
-0.255077 0.741962 -0.294982 
0 0.249926
 5 3
-1.28402 0.423593 -0.926216 
-1.59615 0.130293 -1.56992 
-1.21703 -0.699946 -0.18074 
1.48975 0.795902 -1.54378 
-0.748342 -0.105927 -0.831792 
0 -0.283832
 5 3
-0.600781 1.57071 -0.211324 
-0.507691 0.456541 -1.31432 
-0.889789 -0.270931 -0.304864 
0.968763 0.276603 0.127063 
0.0717303 1.32555 -0.468107 
0 0.590672
 5 3
-0.437818 0.776687 -0.166759 
-1.51662 0.957921 -1.32577 
-1.23169 0.344493 -0.373003 
-0.628154 0.793976 -1.7304 
-0.0624131 0.35859 -0.37987 
0 -0.579553
 5 3
-0.526444 1.53454 -1.27802 
-0.88972 1.25098 -1.08108 
-0.0347857 0.256856 -1.30103 
-0.571776 0.338352 -0.386926 
-0.105089 1.01543 -0.75908 
0 0.41988
 5 3
0.154195 1.68717 -0.431448 
0.180748 0.681395 -0.286056 
0.0600445 1.42867 -0.265153 
0.0409622 0.363605 -0.262545 
-0.194849 1.27068 -0.542505 
0 -0.0477082
 5 3
-1.10953 1.14628 -1.01829 
-0.655521 0.427664 0.113318 
-0.0768345 0.290205 -0.805697 
-0.362429 0.890691 -0.696418 
0.160198 1.61617 -0.515252 
0 0.120173
 5 3
-1.20581 0.253761 0.104635 
-0.187804 0.462216 -0.987376 
-0.0167105 1.33564 -0.788154 
-2.2323 0.46893 0.929987 
-0.818226 0.910342 -0.272116 
0 -0.538238
 5 3
0.215614 1.66008 -0.406267 
-1.0362 0.572135 -1.08175 
-0.337057 -0.00824691 -0.423907 
1.04322 0.196727 -0.470817 
-0.0282788 1.27834 -0.23808 
0 0.607619
 
1 10
1 100
-0.82811 0.512855 -1.10637 0.555753 -0.783179 0.215253 -0.110038 0.476496 -0.661783 0.682053 -0.337321 0.513424 -0.970412 0.354245 -0.0590256 0.776739 -0.00345457 0.216922 -0.300274 0.249991 -0.784586 0.711336 -0.541795 -0.0905766 -0.383312 0.437826 -0.392424 0.86128 0.00568849 0.885351 -0.802543 0.064986 -0.455109 0.171699 -0.319847 0.106923 -0.344405 0.248594 -0.969738 0.117472 -0.316796 0.642685 -0.342435 0.595976 -0.41223 0.262512 -0.940789 0.498291 -0.607598 0.830137 -0.294842 0.18316 -0.700247 0.415507 -0.886177 0.503207 -0.443817 0.950379 -0.396245 0.388429 -0.393435 0.435946 -0.364569 0.272149 -0.445088 0.0489875 -0.886934 0.500948 -1.16311 -0.0280522 -0.161846 -0.0914554 -0.187304 0.196361 -0.00884864 -0.024023 -0.938535 0.336132 -0.338853 -0.0654389 -0.0812445 0.0077353 -0.172359 0.155044 -0.559155 0.355213 -0.873752 0.868732 -0.590904 0.468563 -0.339105 0.450739 -0.342069 0.877257 -0.651337 0.835315 -0.460288 0.702077 -0.552748 0.776068 
-0.0948517 -0.554412
 1 100
-0.921096 0.0434994 -0.547981 0.358897 -0.530545 0.835243 -0.637486 0.14624 -0.175999 0.71627 -0.615515 0.123179 -0.791313 0.302178 -0.982963 0.620071 -0.0181498 0.138857 -0.918488 0.768087 -0.359528 0.606519 -0.0291691 0.0342997 -0.315682 0.709401 -0.927057 0.139761 -0.201273 0.255096 -0.832141 0.305474 -0.407528 0.464376 -0.840232 0.818012 -0.319193 0.708813 -0.22607 0.0634327 -0.728745 0.693824 -0.0727996 0.722112 -0.79422 1.05755 -0.155154 0.805214 -0.789829 0.460374 -0.115531 0.770815 -0.618462 0.076341 -0.965379 0.95369 -0.014784 0.79827 -0.21729 0.381507 -1.13128 0.818218 -0.255653 0.0410945 -0.398257 0.366052 -0.714962 1.04112 -0.208422 0.49399 -1.02094 0.0379387 -0.784818 0.039436 -0.945583 0.391994 -0.224525 0.0120909 -0.590203 0.170867 -0.993842 0.788169 -0.235261 0.0209711 -0.892786 0.724764 0.0499287 0.482337 -0.883461 0.0684667 -0.859754 0.356953 -0.176282 0.856616 -0.557344 0.033396 -0.96964 0.622241 -0.113858 0.238608 
9.07957e-05 0.45355
 1 100
-0.635998 0.396763 -0.795006 0.408106 -0.703074 0.107058 -0.125159 0.74691 -0.856691 0.0415982 -0.249327 0.385057 -0.209469 -0.0248796 -0.0203231 -0.0839141 -0.323069 0.588103 -0.555908 0.427483 -0.362057 0.607944 -0.282968 0.815388 -0.729087 0.00819398 -0.582442 0.387426 -0.452516 0.00933825 -0.853056 0.395058 -0.395493 0.557219 -0.395551 0.447417 -0.795377 0.954834 -0.0930543 0.0331117 -0.753381 0.347666 -0.257909 1.00703 -0.971962 0.0556352 -0.491738 0.572567 -0.299276 0.175338 -0.985623 0.0664952 -0.821151 0.801353 -0.532513 0.828097 -0.330932 0.0954553 -0.892433 0.381247 -0.389022 0.608666 -0.176512 0.436915 0.0523972 0.758658 -0.570464 0.538112 -0.461636 0.752848 -0.216311 -0.0102793 -0.2184 0.239448 -0.248938 -0.114521 -0.433005 0.338804 -0.602081 0.688725 -0.737664 0.913732 -0.327733 0.316712 -0.945737 0.92785 -0.377409 0.195801 -0.487156 -0.105972 0.134506 0.816064 -0.327433 0.6563 -0.158183 0.50095 -0.494698 0.652666 -0.955439 0.0416251 
0.000246789 -0.424416
 1 100
-0.657994 0.0513394 -0.995061 1.07917 -0.131244 0.435061 -0.0854455 0.124604 -0.485475 0.961158 -0.425293 0.374646 -0.917078 0.414636 -0.897648 0.0598611 -0.595267 0.75742 -0.966467 0.104084 -0.52602 0.133104 -0.932768 0.390799 -0.516038 0.0253338 -0.896306 0.605301 -0.376592 0.0565553 -0.0195349 0.510107 -0.440507 0.49429 -0.00496338 0.170375 -0.370437 0.748984 -0.032416 0.0767967 -0.415131 0.66648 -0.291607 0.551774 -0.148328 0.799197 -0.788945 0.876333 -0.549992 0.508978 -0.809346 0.332149 -0.511899 -0.164293 -0.115172 0.539123 0.0403437 0.563883 -0.803285 0.165186 -0.301238 1.00014 -0.64836 0.129967 -0.396063 0.776136 -0.963362 0.200898 -0.172113 0.0607371 -1.19848 0.103205 -0.961325 0.502456 -1.06301 0.302828 -0.61843 0.173676 -0.350876 0.312264 -0.168672 1.09991 -0.650068 0.98427 -0.832865 0.514225 -0.40407 0.159184 -0.693309 0.602723 -0.357934 0.608 -0.720244 0.395515 -0.275655 0.949323 -0.436975 0.708219 0.0855605 0.718193 
0.000246789 -0.181366
 1 100
-0.146071 0.322682 -0.708057 0.0530453 -0.383343 0.00908868 -0.766383 0.598558 -0.471696 0.166212 -0.00108695 0.315744 -0.0260566 0.284781 -0.944186 0.920945 -0.393424 0.490907 -0.99396 0.991482 -0.398062 0.729727 -0.703696 0.41992 -0.384808 0.66779 -0.968872 0.724414 -0.238306 0.460119 -0.167571 -0.0872025 -1.05413 0.793404 -0.672912 0.573919 -0.735676 0.332558 -0.748766 0.28558 -0.488147 0.123051 -0.426424 0.558642 -0.274793 0.0428625 -0.286886 0.165355 -0.282996 0.902798 -0.868802 0.819399 -0.914551 0.0117487 -0.46933 0.674022 -0.498118 0.87109 -0.30839 0.467346 -0.38467 0.983932 -0.632135 0.377329 -0.363019 0.249815 0.0127132 0.758342 -1.10528 0.225191 -0.634884 0.691929 -0.761131 0.251598 -0.353729 0.801282 -0.818521 0.310054 -0.547839 0.343817 -0.731736 0.220911 -0.333431 -0.0152664 -1.03049 0.320268 -0.0520215 0.295636 -0.630359 0.142672 -0.519592 0.605565 -0.906618 0.0532079 -0.862362 0.369467 -0.585194 0.0479854 -0.448419 0.0672317 
0.000246789 -0.673548
 1 100
-0.740604 0.635058 -0.432286 -0.0709906 -0.504037 0.763864 -0.400739 0.229284 -0.955109 0.945598 -0.311328 0.188565 -0.315202 1.1457 -0.172483 -0.045098 -0.726553 0.507277 -0.15776 0.786507 -0.468422 0.853832 -0.237221 0.487181 -0.33915 0.850818 -0.132151 0.449278 -0.683193 0.269858 0.0763294 0.181088 -1.00219 0.391029 -0.0979279 0.95927 -1.02337 0.651133 -0.575959 -0.077426 -0.747437 0.474417 -0.988895 0.0246818 -0.444058 0.48483 -0.190433 0.487026 -0.0958203 0.604596 -0.537811 1.17429 0.0935545 -0.0448075 -0.211896 0.663121 -0.831944 0.222423 -0.670937 0.915775 -1.17167 0.929141 -0.559961 1.05424 -0.622804 0.222844 -0.487584 0.774926 -1.01799 0.183453 -0.932155 0.553332 -0.359895 0.199935 -0.428078 0.527877 -0.668596 0.856942 -0.696726 0.802211 -0.0716854 0.380819 -0.375464 0.377567 -0.462265 0.967606 -0.984697 0.174951 -0.642216 0.361734 -0.620228 0.669666 -0.990847 0.981917 -0.659943 0.648518 -0.218921 0.290601 -0.348592 0.822895 
1.22883e-05 0.439263
 1 100
-0.120313 0.253819 -0.976007 -0.0497897 -0.971563 0.41912 -0.774305 0.33295 -0.0601996 0.794388 -1.17468 0.0811658 -0.238251 0.96784 -0.310286 0.855032 -0.502335 0.323221 -0.143427 0.259036 -0.583885 0.659797 -0.18305 0.0419393 -0.329024 0.300314 -0.702483 0.0811189 -0.0599571 -0.00420711 -0.560653 0.753051 -0.748082 0.352684 -0.187212 -0.0575339 -0.320433 0.598153 -0.941528 0.151089 -0.353399 0.0411352 -0.175421 0.328577 -0.361505 0.493321 -0.894346 0.337106 -0.79605 0.331081 -0.286277 0.243504 -1.08156 0.347076 -0.154369 -0.0758678 -0.652147 0.0363511 -0.19445 0.366354 -0.629224 0.967274 -0.461966 0.182136 -0.494644 0.657663 -0.445372 0.243594 -0.546803 0.856826 -1.11671 0.396624 0.00032663 0.709802 -0.198374 0.710019 -0.437282 0.423581 -0.238212 0.464158 -0.125579 0.530803 -0.456131 0.390292 -0.426008 0.708974 -0.923359 0.530728 -0.366472 0.514616 -0.613426 0.838578 -0.194342 0.862402 -0.220802 0.901936 -0.571681 0.482474 -0.766684 0.244453 
0.0018221 -0.234103
 1 100
-0.556596 0.784905 -0.686425 0.578089 -0.579925 0.281929 -0.270999 -0.132961 -0.221889 0.335914 -0.874847 0.971415 -0.790362 0.819281 -0.420077 0.407947 -0.256576 0.882111 -0.218005 0.74615 -0.746805 0.787022 -0.378582 0.336998 -0.270364 0.562827 -0.306983 1.1354 -0.17094 0.522311 -0.775158 0.509844 -0.781049 -0.0140253 -0.864439 0.841757 -0.667008 0.0930408 -0.287148 0.0272605 -0.245882 0.0825005 -0.0208731 0.767167 -0.571418 0.675264 -0.120398 1.11483 -0.246935 0.268212 -0.186764 0.985517 -0.100421 -0.005722 -0.221201 0.154223 -0.510624 0.476336 -0.169021 0.630313 -0.550158 0.0149969 -0.816122 0.639482 -0.280201 0.777192 0.0753961 0.508255 -1.01495 0.42254 -0.310262 0.542022 -0.965884 0.167578 -0.596577 0.278262 -0.95925 0.694977 -0.245109 0.147457 -0.05224 0.227779 -0.379873 0.500391 -0.245943 0.932079 -0.668787 1.0312 -0.0577378 0.178629 -0.410318 0.0528221 -0.68204 0.493081 -0.548368 0.31515 -0.55225 0.278755 -0.67474 0.483095 
0.0359724 0.288967
 1 100
-0.690179 0.0519405 -0.709188 1.0857 -0.662637 0.584886 -0.76486 0.244884 -0.839735 0.228001 -0.243056 0.0654845 -0.835332 0.58004 -0.793027 0.494706 -0.658162 0.626391 -0.20971 0.640459 -0.319637 0.332004 -0.775384 0.273609 -0.992492 0.699874 -0.388535 0.639745 -0.167559 0.332353 -0.469142 -0.137219 -0.793317 0.704258 -0.707138 0.631449 -0.911023 0.893778 -0.869412 1.2004 -0.0457062 0.24775 -0.45143 0.679331 -0.16261 0.855668 -0.885373 0.291089 -0.669577 -0.00354851 -0.346278 0.582703 -0.688759 0.51811 -0.542248 0.342173 -0.477922 0.0940409 -0.370902 0.871099 -0.975858 0.373601 -0.845512 0.523898 -0.762344 0.131656 -0.0927505 0.0462776 -0.4321 0.925844 -1.04539 0.141281 -0.682751 0.30032 -0.128607 0.0653502 -1.01964 0.144137 -0.185167 0.524525 -0.861269 0.303442 -0.412527 0.52482 -0.81299 0.633437 -0.453689 0.367247 -0.831485 0.79609 -0.167507 -0.159747 -0.715018 0.596955 -0.714746 0.231563 -0.09381 0.460037 -0.6128 0.182333 
0.0006707 -0.603607
 1 100
-0.536141 0.356765 -0.91104 0.307773 -0.398307 0.100557 -0.780894 0.631207 -0.583486 0.214341 -0.654277 0.532921 -0.918947 0.220169 -0.387619 0.144949 -0.927585 0.19251 -0.727966 0.512555 -0.478896 0.649654 -0.588519 0.784228 -0.969085 0.649517 -0.774848 0.0732336 -0.0498203 0.999573 -0.0239349 0.503881 -0.188311 0.503538 -0.868871 1.01452 -0.901961 0.755675 -0.208785 0.916321 -0.342309 0.496671 -0.745212 0.394718 -0.944716 0.188535 -0.440484 0.186289 -0.733301 0.567879 -0.265595 0.335832 -0.716813 0.173516 -0.316293 0.575791 -0.127636 0.0327419 -0.0723871 0.0234963 -1.15173 0.69632 -0.218879 0.268282 -0.373171 0.459298 -0.653129 0.484849 -0.994516 0.364902 -0.483813 0.0550827 -0.891186 0.353949 -0.383583 0.719466 -0.721137 0.354538 -0.510757 -0.0182665 -0.71378 0.631138 -0.664511 0.505774 -0.865752 0.982955 -0.841439 0.696099 -1.03416 0.0929094 -0.749935 0.522389 -0.82764 0.120446 -0.345058 0.430381 -0.19272 0.666131 -0.251743 -0.311545 
0.0018221 0.449096
 
