1 10
5 3
13.9162 2.06437 27.1754 
41.4768 -27.5219 35.6432 
9.77558 -18.0969 27.9282 
-67.1451 -27.1026 58.6805 
-3.44315 -3.03622 27.1391 
0 28.0768
 5 3
-25.1938 -15.4654 -46.9003 
-34.3543 46.1843 -37.0224 
-18.1306 -20.6675 -46.2072 
8.45186 46.8603 -63.2035 
-9.04318 -8.45899 -46.5126 
0 -45.9502
 5 3
7.01776 -10.7096 4.30412 
13.8356 -5.14167 -11.2145 
0.741769 19.6217 4.23262 
-1.37333 -4.27238 -15.2059 
-18.2761 -16.4323 5.15092 
0 5.15971
 5 3
-62.074 -29.8193 -62.3483 
-172.314 62.3899 -9.29442 
-45.8935 -13.2336 -62.5685 
140.021 62.5559 -244.212 
-13.9712 -13.2061 -63.132 
0 -62.2348
 5 3
0.907306 16.3377 -1.99688 
-17.5018 1.83489 -18.3718 
-5.39983 0.991791 -2.42795 
-16.2134 1.95781 1.27862 
7.91204 9.31589 -1.98818 
0 -1.48185
 5 3
-30.4612 -24.3075 -45.0496 
36.8428 45.0408 -47.1486 
-16.0634 10.7719 -45.822 
-4.99406 45.8087 -15.2363 
-10.671 -9.77545 -45.4649 
0 -44.8303
 5 3
16.7802 2.72293 -9.21517 
31.0556 9.03765 -13.7335 
34.8683 50.4755 -9.24233 
7.00274 9.58152 -14.1303 
19.3188 21.1666 -9.31277 
0 -8.69132
 5 3
-53.9951 -36.9194 -34.3666 
-12.1819 34.3628 -16.7415 
-21.4036 -0.131699 -34.4748 
-56.5474 34.1076 -20.9605 
-4.52134 -3.96981 -34.17 
0 -33.8341
 5 3
5.19213 23.6957 20.5822 
-41.9635 -19.703 20.1584 
-4.79207 -12.0477 20.0527 
32.3182 -19.9688 -3.89038 
13.3123 13.7368 20.4948 
0 20.6008
 5 3
-27.6457 -14.3345 -55.1931 
0.241399 55.2351 -32.1786 
-22.1023 -1.83847 -54.3202 
37.534 54.3832 -58.1978 
-9.31432 -7.97733 -54.7678 
0 -54.3188
 
1 10
1 10
0.948713 0.564844 -2.20383 -0.110644 -1.77476 0.387516 -1.50853 0.301679 0.0120414 0.818998 
-0.0133857 -0.194506
 1 10
0.16692 0.00930764 1.10056 0.602159 -1.8766 0.646592 -2.74197 1.64071 -0.444302 0.272407 
-9.07957e-05 -0.323864
 1 10
-1.76212 0.761966 -0.650738 4.15381 0.136766 0.159302 0.798837 0.249051 0.230567 0.826695 
-0.537883 0.219173
 1 10
-1.71794 0.978614 -2.93962 -0.27178 2.86622 0.342722 0.670326 0.886698 -0.299441 0.628884 
-0.238406 -1.02822
 1 10
0.121756 0.31183 2.16244 -0.139258 -2.25237 0.825499 1.65811 0.246379 -2.62538 0.631257 
-0.0133857 -0.15906
 1 10
-1.16954 0.95996 1.50832 -0.136867 1.57507 0.707445 0.894866 0.476848 -1.68838 0.168978 
-0.0359724 -1.13262
 1 10
-2.44951 0.482885 1.37826 -0.0458021 1.16727 0.888346 0.770712 0.0957843 -0.911864 0.843936 
-0.0359724 0.0595589
 1 10
-0.750694 0.656348 -0.393226 -0.0357515 2.18144 0.521354 -2.61368 -0.334225 0.052262 0.882735 
-0.0359724 -0.194799
 1 10
-0.391304 0.113358 -1.80497 -0.133418 -2.04925 0.560236 1.37231 0.074207 -0.305082 0.779447 
-0.0948517 -0.172843
 1 10
0.320582 0.0699336 -0.683641 -0.386364 0.0882657 0.710955 0.751949 0.78827 -0.766682 0.770989 
1.76159 -0.791894
 
