1 10
5 3
-0.87304 0.577332 -0.291363 
-0.813023 0.608145 -0.692623 
-0.965402 0.512933 -0.80737 
0.0288086 0.00690001 -0.114667 
-0.429213 0.666799 -0.24528 
0 0.11319
 5 3
-0.792378 -2.52946 -1.20477 
0.980966 1.52152 -0.621906 
0.273913 1.80797 -1.25189 
-1.5595 1.43478 -0.844471 
-3.07058 -1.7455 -2.07518 
0 -1.09984
 5 3
-0.858884 2.19543 -0.259678 
-1.03694 -0.134042 -0.955995 
-1.23766 -0.239812 0.0282644 
-0.126631 -0.195231 -0.0704534 
0.522273 1.82496 0.379105 
0 0.538503
 5 3
0.0473098 -2.81087 -1.68674 
1.0471 1.89225 -0.43497 
0.705578 1.83759 -2.21016 
-1.02719 1.93733 -1.25243 
-2.45559 -1.39464 -1.37447 
0 -1.21868
 5 3
-0.541694 3.30053 0.755698 
-2.36352 -0.797051 -0.199941 
-1.11466 -0.761334 0.769004 
0.310867 -0.612597 0.0563572 
1.78564 3.09147 0.762962 
0 1.33561
 5 3
-0.384571 0.598815 -0.721493 
-0.171313 0.0738293 -0.836163 
-0.620033 0.238775 -0.465321 
-0.159852 0.0554877 -0.230294 
-0.138951 0.673116 -0.794432 
0 -0.0398927
 5 3
-0.819855 2.77636 0.494351 
-2.16775 -0.208118 -0.252818 
-1.26667 -1.35866 0.982036 
0.428794 -0.312766 -0.0788591 
1.32206 3.06714 0.23827 
0 1.12547
 5 3
-0.545808 -1.6925 -1.4403 
0.446512 1.10689 -0.722237 
0.421318 1.14727 -0.988872 
-0.998606 1.63409 -1.22904 
-1.79367 -0.854952 -0.829443 
0 -0.773473
 5 3
-0.732059 3.27481 0.559839 
-1.77609 -1.08058 -0.363121 
-1.50451 -1.04278 0.888096 
0.814501 -1.08235 0.287692 
2.01867 2.4704 0.975074 
0 1.14503
 5 3
0.0962338 -1.9783 -1.0145 
0.685185 1.05122 -0.627244 
0.0157375 1.50273 -1.33379 
-1.46277 1.15361 -0.712824 
-2.5459 -1.37756 -1.73862 
0 -0.993844
 
1 10
-0.122837 1.06768 -0.522596 1.03014 -1.26648 0.0105019 -1.05094 0.639444 -1.21659 0.984065 
-0.0359724 -0.00139606
