1 10
5 3
-5.02088 5.36515 -1.62057 
-4.5942 1.25893 -6.96301 
-5.64646 -4.55788 -1.66022 
-6.7913 1.7461 -1.04167 
4.98286 5.39114 -1.28166 
0 -1.08226
 5 3
1.66569 -6.75409 -3.92485 
2.85702 4.2713 -3.24377 
2.39177 3.76276 -4.44129 
-0.421597 4.18634 -3.90349 
-7.32335 -6.74319 -4.09643 
0 -3.81569
 5 3
0.0778362 -0.189894 0.570063 
-1.42837 -0.0742897 12.036 
-0.0204391 -0.433397 0.77295 
12.0924 -0.718841 0.603137 
-1.56107 -0.290671 0.0784402 
0 1.03947
 5 3
-2.0616 -2.21714 -4.88425 
1.22947 5.15627 -13.5312 
-1.0058 1.23988 -5.30779 
-10.0124 4.56299 -4.68752 
-1.47351 -0.368103 -4.72528 
0 -4.48199
 5 3
-5.88732 7.92524 -0.239169 
-6.51095 0.232394 -0.68319 
-5.51934 -5.27625 0.112373 
0.1963 -0.245068 0.218038 
7.09094 8.20877 0.351944 
0 0.41649
 5 3
-4.04369 0.075516 -6.14615 
-0.286102 6.0715 -18.3974 
-1.98502 -0.197485 -5.70784 
-13.6591 5.66133 -4.87336 
0.677725 1.41945 -6.23191 
0 -5.26712
 5 3
-2.46726 3.89986 -0.269008 
-3.45471 0.120048 -0.450263 
-2.67129 -2.4364 0.143236 
-0.129696 0.08782 -0.370235 
2.88965 4.37331 -0.226313 
0 0.608765
 5 3
-0.302004 -2.4197 -2.20552 
1.28405 2.66857 -4.68598 
0.28231 2.22194 -3.12644 
-3.867 3.09373 -1.97786 
-3.28376 -2.47612 -2.31758 
0 -2.16093
 5 3
-2.49379 3.91215 0.391201 
-3.22678 0.276453 7.20605 
-3.16272 -2.129 -0.241082 
7.24144 0.0838198 -0.259856 
3.1561 3.83324 -0.00987346 
0 0.680364
 5 3
0.186522 -6.10678 -5.0251 
2.98559 5.29308 -9.76919 
1.31588 3.37487 -4.58197 
-6.88341 5.28386 -4.58559 
-6.36382 -5.08491 -4.50848 
0 -4.42763
 
1 10
-0.84465 1.42685 0.230735 0.410933 -1.60994 0.162636 -0.74259 0.458876 -1.19232 0.966777 
-0.0133857 0.158122
