5 5
-0.426391 0.627468 -0.945774 0.282896 -0.817243 
-0.712547 0.641781 -0.971836 0.440195 -0.806411 
-0.363931 0.326375 -0.0333237 0.315628 -0.278875 
-0.318042 0.841064 -0.381116 0.0248696 -0.11487 
-0.747333 0.747542 -0.523591 0.169505 0.000613707 
5 5
-0.529527 0.448089 -0.751698 0.605801 -0.469908 
-0.887633 0.225874 -0.950326 0.655257 -0.156928 
-0.512977 0.222432 -0.0835701 0.174309 -0.470511 
-0.589309 0.557776 -0.0775421 0.617862 -0.0836221 
-0.762 0.970488 -0.652917 0.131974 -0.281764 
5 5
-0.0545622 0.563575 -0.456748 0.447769 -0.263092 
-0.439625 0.611386 -0.530845 0.601786 -0.0739909 
-0.497227 0.549916 -0.193751 0.247902 -0.50937 
-0.74779 0.59955 -0.77365 0.428921 -0.380093 
-0.872455 0.581529 -0.580091 0.791993 -0.323398 
5 5
-0.307283 0.883213 -0.134002 0.415307 -0.139957 
-0.669582 0.25386 -0.452189 0.266774 -0.373077 
-0.498284 0.0146409 -0.458758 0.79316 -0.415964 
-0.225357 0.602601 -0.886982 0.932955 -0.219356 
-0.158981 0.23175 -0.827143 0.774572 -0.775348 
5 5
-0.541175 0.523746 -0.285761 0.906988 -0.840025 
-0.446939 0.519113 -0.461917 0.486968 -0.492533 
-0.652849 0.886251 -0.459851 0.532826 -0.723315 
-0.893398 0.758046 -0.396735 0.573652 -0.0157585 
-0.370354 0.968994 -0.248353 0.836192 -0.463645 
5 5
-0.76572 0.785352 -0.76823 0.988375 -0.459595 
-0.226931 0.136423 -0.991994 0.537016 -0.506686 
-0.443609 0.601633 -0.16656 0.0559359 -0.0614408 
-0.225389 0.076281 -0.310168 0.341144 -0.300185 
-0.0001127 0.454032 -0.0433137 0.121749 -0.783293 
5 5
-0.261488 0.364303 -0.96227 0.612527 -0.605419 
-0.17242 0.247745 -0.341585 0.253628 -0.235634 
-0.456146 0.878026 -0.530487 0.385717 -0.419649 
-0.645372 0.141076 -0.622413 0.847917 -0.173006 
-0.406294 0.975808 -0.735704 0.249096 -0.46235 
5 5
-0.431 0.733394 -0.24038 0.203156 -0.171231 
-0.310769 0.430046 -0.0279515 0.0497236 -0.978803 
-0.419542 0.294236 -0.0116577 0.429919 -0.16007 
-0.466479 0.207043 -0.132918 0.920499 -0.329513 
-0.916431 0.831756 -0.256082 0.29191 -0.299634 
5 5
-0.305319 0.454487 -0.0748146 0.970357 -0.932326 
-0.49589 0.826195 -0.425219 0.138246 -0.422236 
-0.594621 0.67479 -0.396881 0.313822 -0.19689 
-0.145913 0.556523 -0.153979 0.307319 -0.505545 
-0.601609 0.795746 -0.862709 0.66563 -0.187396 
5 5
-0.171563 0.214153 -0.10327 0.433589 -0.845021 
-0.67748 0.660805 -0.628578 0.489785 -0.596692 
-0.713446 0.0229444 -0.600992 0.48717 -0.0909247 
-0.576353 0.480229 -0.327786 0.798447 -0.821464 
-0.471434 0.791663 -0.117006 0.614572 -0.264895 
3 3
-0.629717 0.877724 -0.62275 
-0.982324 0.43731 -0.971291 
-0.716181 0.813134 -0.868369 
3 3
-0.183096 0.751394 -0.119756 
-0.4915 0.356401 -0.0924551 
-0.577482 0.485589 -0.853055 
3 3
-0.422308 0.348885 -0.220067 
-0.489544 0.0270932 -0.866992 
-0.0410309 0.78485 -0.195606 
3 3
-0.236036 0.20985 -0.76028 
-0.928082 0.762354 -0.395173 
-0.111449 0.550365 -0.703749 
3 3
-0.601452 0.0080467 -0.459441 
-0.68387 0.00253713 -0.294108 
-0.595581 0.911774 -0.460739 
3 3
-0.434595 0.829254 -0.59279 
-0.337996 0.860778 -0.909069 
-0.750502 0.259441 -0.153333 
3 3
-0.150578 0.790733 -0.461533 
-0.722854 0.477197 -0.98953 
-0.484889 0.328164 -0.996046 
3 3
-0.375008 0.675977 -0.181823 
-0.792111 0.0145395 -0.395277 
-0.968596 0.0217116 -0.303473 
3 3
-0.333636 0.50295 -0.054091 
-0.20929 0.863728 -0.341403 
-0.740895 0.0821209 -0.768751 
3 3
-0.146382 0.509414 -0.968909 
-0.375241 0.00964052 -0.425561 
-0.0788617 0.340198 -0.621628 
3 3
-0.890093 0.314073 -0.144968 
-0.47601 0.113245 -0.474976 
-0.606752 0.948569 -0.0160642 
3 3
-0.154951 0.350133 -0.488051 
-0.760032 0.825103 -0.637398 
-0.757569 0.492016 -0.174191 
3 3
-0.485616 0.937378 -0.514651 
-0.239885 0.429151 -0.0213167 
-0.534555 0.319049 -0.872662 
3 3
-0.390781 0.102603 -0.224257 
-0.45364 0.392443 -0.946689 
-0.932164 0.254761 -0.266856 
3 3
-0.347081 0.0968102 -0.348951 
-0.175935 0.179387 -0.518704 
-0.53875 0.603392 -0.821692 
3 3
-0.068619 0.70287 -0.935117 
-0.552153 0.108297 -0.665604 
-0.477359 0.612459 -0.931935 
3 3
-0.988341 0.708188 -0.580203 
-0.268766 0.592346 -0.036724 
-0.215186 0.374544 -0.612948 
3 3
-0.856361 0.432319 -0.733472 
-0.406547 0.163122 -0.55511 
-0.923565 0.0930489 -0.537719 
3 3
-0.510962 0.654128 -0.563875 
-0.751851 0.131253 -0.509578 
-0.352838 0.807191 -0.165776 
3 3
-0.473477 0.260455 -0.633091 
-0.278001 0.667579 -0.159343 
-0.327664 0.518948 -0.448415 
3 3
-0.898051 0.0921589 -0.580684 
-0.329518 0.660178 -0.739308 
-0.416513 0.757947 -0.727265 
3 3
-0.0364152 0.373212 -0.297547 
-0.0643085 0.611809 -0.531766 
-0.262352 0.564535 -0.787379 
3 3
-0.389355 0.284742 -0.448972 
-0.0481342 0.548535 -0.891136 
-0.659943 0.481476 -0.539611 
3 3
-0.616638 0.68192 -0.915007 
-0.504647 0.641661 -0.693832 
-0.104781 0.797577 -0.552272 
3 3
-0.463673 0.677989 -0.25223 
-0.200244 0.877753 -0.163527 
-0.21809 0.217579 -0.516509 
3 3
-0.883442 0.0318406 -0.210188 
-0.201294 0.957805 -0.0930802 
-0.17259 0.877289 -0.252813 
3 3
-0.182128 0.138982 -0.791196 
-0.496432 0.207624 -0.606069 
-0.323783 0.40679 -0.975347 
3 3
-0.785381 0.408648 -0.0350588 
-0.239861 0.156818 -0.9308 
-0.206628 0.570923 -0.417601 
3 3
-0.0421853 0.230321 -0.289238 
-0.336804 0.738528 -0.741358 
-0.0917926 0.513342 -0.670056 
3 3
-0.927188 0.504526 -0.621001 
-0.556083 0.907837 -0.848102 
-0.142301 0.108856 -0.572509 
3 3
-0.863605 0.122837 -0.89013 
-0.642857 0.652978 -0.977655 
-0.00164068 0.248272 -0.0698127 
3 3
-0.913168 0.995726 -0.775768 
-0.283641 0.91951 -0.94378 
-0.325337 0.565118 -0.968391 
3 3
-0.0450375 0.485467 -0.0695859 
-0.345197 0.702103 -0.760267 
-0.675709 0.73028 -0.435691 
3 3
-0.413199 0.596053 -0.994697 
-0.594214 0.999346 -0.885845 
-0.298276 0.214438 -0.380434 
3 3
-0.529558 0.471957 -0.972264 
-0.508504 0.229424 -0.250103 
-0.624281 0.73323 -0.586103 
3 3
-0.372039 0.831316 -0.944695 
-0.807989 0.0770541 -0.787555 
-0.316698 0.605516 -0.0384809 
3 3
-0.551791 0.933188 -0.437393 
-0.253291 0.500794 -0.0736528 
-0.759388 0.941136 -0.766223 
3 3
-0.475848 0.422057 -0.933873 
-0.158331 0.271702 -0.891258 
-0.67386 0.340821 -0.996758 
3 3
-0.436189 0.254221 -0.81235 
-0.337614 0.956514 -0.595632 
-0.48792 0.992976 -0.557708 
3 3
-0.287587 0.344429 -0.346011 
-0.619944 0.077808 -0.0155364 
-0.31923 0.405404 -0.608324 
3 3
-0.757624 0.104503 -0.959718 
-0.375797 0.676843 -0.107012 
-0.405588 0.477891 -0.617431 
3 3
-0.882178 0.295327 -0.149959 
-0.665849 0.291656 -0.199104 
-0.66272 0.590607 -0.757513 
3 3
-0.147415 0.573118 -0.229871 
-0.775208 0.141873 -0.878935 
-0.127427 0.589382 -0.315499 
3 3
-0.10652 0.410172 -0.209064 
-0.96922 0.859022 -0.258132 
-0.616181 0.0923994 -0.863339 
3 3
-0.897474 0.409601 -0.551067 
-0.0364647 0.523464 -0.67533 
-0.589339 0.619273 -0.0299376 
3 3
-0.386626 0.795816 -0.873631 
-0.0194235 0.0567301 -0.201788 
-0.436456 0.898675 -0.0109686 
3 3
-0.660036 0.78873 -0.578401 
-0.966761 0.177633 -0.922343 
-0.58873 0.29351 -0.304342 
3 3
-0.731824 0.0731732 -0.636859 
-0.335188 0.112563 -0.546106 
-0.295696 0.354697 -0.378987 
3 3
-0.828421 0.0334092 -0.896507 
-0.959327 0.0576555 -0.671348 
-0.297167 0.940068 -0.186087 
3 3
-0.218208 0.435085 -0.476887 
-0.873639 0.81756 -0.00413962 
-0.604781 0.174223 -0.311468 
3 3
-0.96598 0.485354 -0.937774 
-0.666428 0.371486 -0.606489 
-0.310168 0.0958538 -0.148367 
3 3
-0.994496 0.25989 -0.0941545 
-0.0918272 0.92048 -0.526866 
-0.234286 0.61963 -0.206207 
3 3
-0.894843 0.949376 -0.548442 
-0.571532 0.215956 -0.120659 
-0.452228 0.141928 -0.0591238 
3 3
-0.72713 0.835024 -0.579357 
-0.418738 0.351692 -0.734293 
-0.901892 0.370626 -0.838906 
3 3
-0.900879 0.524774 -0.107714 
-0.826166 0.2772 -0.531421 
-0.213649 0.53409 -0.817702 
3 3
-0.741415 0.63526 -0.465322 
-0.449413 0.545586 -0.22379 
-0.428414 0.176744 -0.133856 
3 3
-0.260057 0.557387 -0.130464 
-0.0350185 0.897484 -0.666426 
-0.604846 0.615999 -0.842886 
3 3
-0.734427 0.802717 -0.44038 
-0.335848 0.714465 -0.418888 
-0.173841 0.636379 -0.576441 
3 3
-0.737424 0.911706 -0.113075 
-0.749848 0.378227 -0.569571 
-0.209297 0.8213 -0.348883 
3 3
-0.328466 0.254043 -0.720273 
-0.594744 0.64611 -0.509422 
-0.218548 0.63915 -0.921627 
3 3
-0.351559 0.986103 -0.544548 
-0.270918 0.0251165 -0.00120832 
-0.783429 0.528081 -0.807185 
3 3
-0.614412 0.220267 -0.908012 
-0.0943744 0.990006 -0.839799 
-0.467419 0.191961 -0.290147 
3 3
-0.386505 0.799259 -0.33079 
-0.301254 0.572706 -0.0516263 
-0.732447 0.845732 -0.988232 
3 3
-0.790459 0.172295 -0.709873 
-0.419201 0.710123 -0.932063 
-0.422241 0.663689 -0.769839 
3 3
-0.552189 0.612449 -0.566506 
-0.739477 0.300436 -0.257689 
-0.387204 0.733398 -0.711686 
3 3
-0.623864 0.165921 -0.694918 
-0.217056 0.100882 -0.248967 
-0.47066 0.115264 -0.814373 
3 3
-0.645049 0.379871 -0.93121 
-0.227916 0.335719 -0.896078 
-0.498529 0.540707 -0.194035 
3 3
-0.477503 0.665298 -0.132454 
-0.753427 0.979876 -0.0647998 
-0.918878 0.324758 -0.819531 
3 3
-0.845404 0.781186 -0.784388 
-0.306423 0.758803 -0.937909 
-0.580801 0.247869 -0.48589 
3 3
-0.537342 0.147595 -0.288448 
-0.705569 0.172489 -0.385395 
-0.119242 0.660787 -0.705955 
3 3
-0.381386 0.960897 -0.770447 
-0.118961 0.97823 -0.450405 
-0.116244 0.675548 -0.387087 
3 3
-0.432554 0.217926 -0.192574 
-0.507132 0.654599 -0.0253105 
-0.709809 0.0562198 -0.955601 
3 3
-0.518873 0.304408 -0.237386 
-0.925759 0.832706 -0.363214 
-0.0436377 0.610729 -0.281281 
3 3
-0.0919571 0.882573 -0.24772 
-0.251563 0.513794 -0.667397 
-0.623246 0.29501 -0.772215 
3 3
-0.0522528 0.0162057 -0.38189 
-0.0145525 0.921578 -0.313252 
-0.706482 0.60356 -0.848301 
3 3
-0.296359 0.93517 -0.991975 
-0.624738 0.648335 -0.326831 
-0.990293 0.561324 -0.699937 
3 3
-0.610553 0.747655 -0.686285 
-0.447649 0.0513459 -0.201406 
-0.508818 0.891663 -0.576372 
3 3
-0.295394 0.50695 -0.191989 
-0.41183 0.724559 -0.989647 
-0.71493 0.0853596 -0.52252 
3 3
-0.490036 0.465075 -0.251762 
-0.22984 0.364472 -0.947359 
-0.210467 0.97505 -0.695251 
3 3
-0.0193685 0.533548 -0.179407 
-0.263674 0.683999 -0.717569 
-0.262713 0.599723 -0.474281 
3 3
-0.25141 0.0320832 -0.922816 
-0.330611 0.0350649 -0.102191 
-0.995814 0.62417 -0.493586 
3 3
-0.108897 0.640193 -0.243013 
-0.386082 0.976643 -0.0137704 
-0.382532 0.614399 -0.0593597 
3 3
-0.348449 0.974186 -0.0203544 
-0.409872 0.26036 -0.353107 
-0.531354 0.955527 -0.333594 
3 3
-0.157703 0.572208 -0.888645 
-0.0937338 0.0125552 -0.156725 
-0.0184115 0.0616615 -0.00910316 
3 3
-0.553592 0.395725 -0.0135441 
-0.532273 0.948484 -0.963439 
-0.13466 0.457424 -0.971177 
3 3
-0.560587 0.187702 -0.224919 
-0.575753 0.979234 -0.381012 
-0.890965 0.0564581 -0.459768 
3 3
-0.0842543 0.595994 -0.734706 
-0.31299 0.0468514 -0.549445 
-0.130683 0.0156829 -0.254805 
3 3
-0.0483517 0.0661657 -0.508219 
-0.141826 0.519599 -0.602024 
-0.0334381 0.22008 -0.195617 
3 3
-0.203416 0.237888 -0.890671 
-0.362363 0.0645318 -0.863805 
-0.492317 0.800935 -0.954268 
3 3
-0.788215 0.31932 -0.37214 
-0.549168 0.690521 -0.72052 
-0.34503 0.598686 -0.15166 
3 3
-0.954024 0.451217 -0.880096 
-0.432664 0.957026 -0.217625 
-0.314458 0.749609 -0.660873 
3 3
-0.616336 0.167287 -0.28705 
-0.0550953 0.535213 -0.731132 
-0.778553 0.599821 -0.129971 
3 3
-0.412364 0.884488 -0.189839 
-0.57698 0.600773 -0.188592 
-0.304227 0.248264 -0.256196 
3 3
-0.0761084 0.496842 -0.858987 
-0.602638 0.273193 -0.894865 
-0.6036 0.835714 -0.343956 
3 3
-0.846577 0.820232 -0.265233 
-0.897703 0.404583 -0.205759 
-0.774949 0.83609 -0.739202 
3 3
-0.138746 0.025634 -0.34781 
-0.237969 0.0797123 -0.300507 
-0.0241494 0.32056 -0.678151 
3 3
-0.39173 0.793027 -0.75427 
-0.504022 0.471097 -0.991709 
-0.526444 0.0505842 -0.2566 
3 3
-0.391964 0.981395 -0.908713 
-0.546953 0.350709 -0.362972 
-0.802284 0.315908 -0.0206778 
3 3
-0.427823 0.356547 -0.484385 
-0.756678 0.279795 -0.243669 
-0.617243 0.607066 -0.0607072 
3 3
-0.69206 0.540391 -0.0901427 
-0.710063 0.881941 -0.244867 
-0.110658 0.377999 -0.288429 
1 100
5 5
0.179667 -0.127125 -0.998921 -0.246857 0.336461 
0.827928 1.37736 0.304979 0.0931271 -0.27182 
-0.457419 0.113156 -0.49006 -0.347776 -0.0448071 
-1.16657 -0.023338 -0.407417 0.606714 -0.35228 
-0.758268 -0.365061 -0.640987 0.0698088 -0.473219 
0 -0.318119
 5 5
-1.6065 0.259573 -0.50051 1.11137 -0.140023 
-1.35515 0.212055 -1.4866 0.569767 -0.529195 
0.0129887 1.63293 -0.696891 0.680972 0.448182 
0.132372 1.01451 -0.619516 0.532944 -0.60713 
-1.50625 -0.727354 0.401552 0.333625 -0.923265 
0 0.186241
 5 5
-1.11457 0.261463 -1.08747 0.727712 -0.693636 
-0.322272 0.684906 -0.0585655 1.09645 -0.396077 
-0.743332 1.30588 0.149492 0.88896 -1.3459 
-1.28374 0.453141 -0.388992 -0.155934 -0.398701 
-0.853682 0.393107 -0.793011 0.159715 -0.693082 
0 -0.435103
 5 5
-0.305468 0.315372 -0.71714 1.1318 -1.33626 
-1.08212 0.784918 -1.20714 0.697428 -0.82726 
-0.864758 -0.444388 -1.18921 0.863958 -0.947306 
0.325176 0.614229 -0.968547 0.711637 -1.45707 
-0.11253 1.22752 -0.82942 1.3924 -1.21723 
0 0.201304
 5 5
-0.643706 0.605352 -0.310784 0.582807 -0.619453 
-0.184592 0.927566 0.6468 0.173607 -0.289085 
-0.364416 0.801661 -0.500108 0.151669 -0.509403 
-1.20441 0.127815 -0.626916 0.380337 -0.117068 
-0.686313 0.387113 -0.236346 1.2202 0.0646097 
0 -0.226088
 5 5
-0.910547 -0.0239953 -1.1626 0.109767 -0.514544 
-0.73809 0.89934 -0.718358 0.239887 -0.807204 
0.205018 2.22408 -0.503742 0.95079 -0.389505 
-0.197613 0.569914 -1.13432 0.706421 -0.289515 
-1.55341 -0.207132 -0.550408 -0.220617 0.0601584 
0 0.611327
 5 5
-0.806731 1.20368 0.470039 0.174227 -0.669257 
0.765241 1.1884 0.0427089 0.55255 -0.423195 
-0.965398 -1.16126 -0.631707 -0.523203 -0.940581 
-0.880653 0.923879 -1.08859 -0.00663443 -1.06378 
-0.0891704 0.669407 0.43068 0.951896 -1.41735 
0 0.0939887
 5 5
-1.5242 0.332066 -1.22066 0.43346 -0.598814 
-1.64685 -0.215291 -1.37831 -0.49006 -1.45423 
-0.264196 0.780617 -0.391519 0.420851 -1.30497 
-0.399162 0.567188 -1.00888 -0.0968034 -0.00558528 
-1.29592 -0.320591 -0.110963 0.489639 -0.839778 
0 0.36659
 5 5
-0.392659 0.543373 -0.292523 -0.112194 0.241746 
-1.01432 0.604073 -0.0946946 0.318912 -0.781814 
-0.835807 0.536778 -0.294731 0.302592 -0.954769 
-0.298199 0.621784 0.12464 -0.0582124 -1.08843 
-0.703205 0.456796 -0.950745 0.150042 -0.0994189 
0 -0.763385
 5 5
-1.18908 -0.0354946 -0.128859 0.201701 -0.560203 
-1.15633 0.949115 -0.36649 0.394573 -1.03555 
-0.895447 0.381513 -0.0356541 0.214608 -0.560458 
-0.24297 0.797301 -0.512429 0.596255 -0.850147 
-0.767994 0.301672 -1.07992 0.714247 -0.958303 
0 0.675723
 5 5
-0.432208 0.0988639 -0.830429 0.584979 -0.601698 
-0.793529 0.627333 0.0553326 1.1952 -1.22484 
-0.770536 0.957764 -0.717485 -0.199304 -0.77263 
-0.37698 0.695529 -0.359901 0.744083 -0.686708 
-0.733979 1.00413 -0.263761 1.53586 -0.752037 
0 -0.982039
 5 5
-0.597914 0.785753 -0.311387 0.233542 -0.0704774 
-0.207789 0.641708 -1.01292 0.37695 0.523705 
-1.03578 0.557757 -0.148183 0.704795 -0.349475 
-0.552698 0.0334316 -1.04659 0.380021 0.214293 
-1.01908 -0.976877 -0.903611 0.450301 -0.661009 
0 0.220634
 5 5
-0.478055 0.0163802 0.0360969 0.130643 -0.991675 
-0.227996 1.23796 -0.530173 0.372268 -0.800505 
-1.17073 0.60985 -0.830965 0.726557 -0.979198 
-0.69384 1.21644 -0.235729 0.369809 -0.685719 
-0.921712 1.59086 0.185025 0.316708 -0.882478 
0 -0.672413
 5 5
-0.749268 0.0111792 -0.212248 -0.179579 -0.170807 
-1.55932 0.061843 -1.14811 1.11184 0.0176118 
-1.3399 0.439009 -0.337836 1.75692 -0.13145 
-0.361149 0.815525 -1.1086 0.57942 -0.716695 
-1.20282 0.666583 -0.579266 -0.173154 -0.298332 
0 0.521625
 5 5
-0.409943 0.462429 0.0260831 0.174203 -0.0376429 
0.0286767 0.297779 0.146085 -0.356088 -0.817838 
-0.671964 -0.332078 -1.13136 -0.172553 -1.03642 
-1.06087 -1.20438 -0.955252 -0.018178 -0.648695 
-0.199256 -0.0121532 0.308013 0.119696 -0.760767 
0 -0.519822
 5 5
-0.710397 0.848065 -1.33478 0.218585 -0.512396 
-1.36452 0.216003 -1.13198 -0.213749 -0.96043 
-0.733469 2.11194 0.766643 0.324726 -0.838558 
-0.971576 -0.163836 -0.0554034 1.52831 -0.620602 
-1.4158 -1.53858 0.223977 0.615112 -0.595399 
0 0.490558
 5 5
-0.438877 -0.0919158 -0.344696 0.0947419 -1.34778 
-0.459174 0.410687 0.179168 0.294896 -0.669962 
-0.927769 0.0511361 -0.0984045 0.69594 -0.471125 
-0.970231 0.731814 -1.11171 -0.534133 0.33215 
-1.02604 1.95577 0.30285 -0.250086 -0.123867 
0 0.0160542
 5 5
-0.700111 0.554873 0.117586 0.534451 -0.275517 
0.0264468 0.100011 -1.29752 -0.182718 -0.173408 
-0.575587 0.0868194 -1.66317 -0.116925 0.551091 
0.233718 1.08977 -1.6719 0.207643 -0.0733426 
0.0572204 1.02273 -1.48587 0.328635 -0.0308759 
0 0.913122
 5 5
-0.286379 0.347692 -0.330706 0.726302 -1.03476 
-0.319377 0.19698 0.127906 0.476449 -0.927734 
-0.0184074 0.613102 0.214421 -0.554585 -0.34992 
0.274859 -0.242484 -0.602238 -0.393629 -0.386676 
-0.628442 0.277153 -0.887405 0.959912 -0.933784 
0 -0.821561
 5 5
-0.249586 -0.115468 -0.0770825 0.389422 -0.759585 
0.0282801 0.736978 -0.225724 0.195379 -0.71611 
-0.796008 0.80616 0.0107936 0.752881 -0.502667 
-0.522989 -0.162426 -0.0918447 0.554916 -0.597733 
-0.161702 0.16835 -0.873529 0.519703 -0.830611 
0 0.234237
 5 5
0.0523114 -0.111602 0.0339166 -0.104649 -0.220312 
0.247544 0.706414 0.310022 0.523298 -0.90452 
0.00914515 0.312367 -0.809682 -0.754802 -0.370003 
-0.205779 0.0775019 0.344849 0.103642 -0.245481 
-0.435823 0.696457 0.449108 -0.00912829 -0.309275 
0 -0.253199
 5 5
-0.625718 1.03933 -0.272418 0.541257 -0.754802 
-0.136911 0.797285 -0.6895 0.699666 0.0593759 
-0.143394 1.01843 -0.198506 0.443498 -0.356421 
-0.492226 0.786946 -1.41463 1.28591 -0.593331 
-0.146025 1.0752 -1.36631 1.21915 -0.200827 
0 0.61331
 5 5
0.0709082 -0.12715 -0.273172 -0.252025 -0.440239 
-0.15931 0.728038 -0.0678088 0.192866 -1.23188 
-0.918609 0.79324 0.102159 0.196988 -0.476273 
-0.68693 1.39905 0.176768 -0.0913279 -0.2103 
0.185561 0.207332 0.0890751 0.304824 -0.368461 
0 -0.746469
 5 5
-0.528121 0.642989 -0.772548 0.377599 -0.603464 
-0.212092 0.385188 -0.359344 1.07728 -0.360231 
0.0285411 0.410776 -0.897247 0.807056 0.0288851 
-1.19764 -1.08597 -1.08573 -0.280108 -0.355383 
-0.43537 -0.156622 0.591348 0.488895 -1.27588 
0 0.898934
 5 5
-0.736611 1.01411 -0.172749 1.00196 -0.379267 
-0.445005 -0.273544 -0.74439 0.863525 -0.223581 
-0.16336 -0.15912 -0.263931 0.103221 -0.125095 
-0.0186861 0.138718 -0.100789 0.552515 -0.0777654 
-0.109492 -0.992349 0.108871 0.852555 -0.442998 
0 -0.440384
 5 5
-0.717279 0.992711 0.123398 1.26364 0.0272587 
-0.849048 -0.101102 -0.892514 0.38335 -1.22406 
-1.50807 -0.47088 -1.12089 0.206858 -1.04158 
-0.840013 0.476956 -0.76022 2.31514 -0.539392 
-0.255196 -0.467819 -1.028 0.464824 -0.416497 
0 0.361225
 5 5
-0.478527 0.499514 -0.411968 0.382282 -0.731742 
-0.39233 0.243918 -0.0418702 0.558139 -0.68534 
-0.32327 0.361646 -0.483671 0.664796 -0.291787 
-0.322394 0.93029 -0.134721 0.61907 -0.0199862 
-0.537569 0.241677 0.277431 0.891916 -0.578426 
0 -0.856374
 5 5
-0.233232 1.13758 -0.708726 0.440417 -0.212111 
-0.292543 0.904691 0.736871 0.49775 -0.553236 
-1.14514 0.66639 -0.0482752 1.35766 -0.0719817 
-0.799495 0.610837 -0.336962 -0.3447 0.281838 
-0.0971794 0.779259 -1.18664 0.5336 -0.143911 
0 0.36422
 5 5
0.0162195 0.0550538 -0.482892 0.271855 -0.38949 
0.0763677 0.144188 -0.50725 -0.173911 -0.574479 
-0.538242 -0.20451 0.423894 0.50625 -0.350977 
-1.56576 -0.201797 0.442555 -0.342887 -0.870932 
-0.9737 -1.0078 0.568993 0.842582 -0.379849 
0 -0.996434
 5 5
-0.624308 0.33546 -0.590159 0.164258 -0.214382 
-0.656792 0.309743 -0.680399 0.683037 -0.644046 
-0.749001 0.429013 -0.013175 0.806134 -0.630599 
-0.451055 0.279629 -1.71093 0.465657 -0.872106 
-0.395777 0.492436 -0.996832 1.08397 -0.168976 
0 0.0687478
 5 5
0.0917812 0.609176 -0.0484034 0.335767 -0.477621 
0.0660299 1.17192 0.514642 1.38198 0.0642975 
-0.433441 0.755442 -0.643961 0.0947066 0.451288 
-0.99492 -0.013897 -0.814679 -0.307558 -0.183986 
0.0136051 1.29558 -0.299823 0.688055 -0.231837 
0 -0.149666
 5 5
-0.718929 0.627933 -1.01555 1.13466 -0.296633 
-0.788722 1.61534 -1.32801 1.17927 -0.580952 
-0.0287651 0.362056 -1.62662 0.74363 -0.307243 
0.0392654 -0.159519 -0.549254 0.486574 0.269301 
-0.0895998 -0.204309 -0.640883 0.972338 -0.304712 
0 0.718137
 5 5
-1.26597 1.18519 -1.13715 -0.439119 -0.540464 
-1.14028 0.685454 -1.23852 0.289855 -1.04497 
-0.312118 0.173486 -0.299322 0.382924 -0.057821 
-0.788146 0.207504 -0.935209 -0.0214944 -0.336091 
-0.123484 -0.884388 -0.810917 0.220672 -0.60096 
0 -0.47636
 5 5
-1.11395 0.249077 -0.787771 0.594769 -0.368396 
-0.937063 0.921338 0.082139 0.323645 -0.911864 
-0.521272 0.66121 -0.532061 0.0474058 -0.749212 
-0.109914 0.0207147 -1.17204 1.08351 -0.672001 
-0.34813 0.682646 0.10527 -0.155208 -0.86362 
0 0.940227
 5 5
-0.90299 0.721999 -0.220399 0.439095 -0.0774463 
-0.156694 0.865583 -0.466258 0.081627 -1.03712 
-0.745987 0.511398 -1.07771 0.588948 -0.557092 
-0.324188 0.664378 -0.393555 0.960635 -0.396613 
-0.724326 0.228757 -0.794424 0.699647 -0.501152 
0 -0.895227
 5 5
-0.649011 0.617836 -0.844276 0.164084 -0.265021 
-0.399232 0.296564 -1.25858 0.405132 -0.0121363 
-0.499605 -0.00915409 -0.488161 0.759464 -0.745404 
0.159217 0.461219 -0.54558 0.470526 -0.415276 
-0.577585 0.167113 -0.914415 0.793854 -0.295304 
0 1.05919
 5 5
0.136933 0.746716 -1.41328 1.06886 -0.387464 
-0.113064 1.32408 -0.831708 0.601814 -0.267114 
-0.137009 0.177407 -1.32444 0.831443 0.405942 
0.596389 0.452996 0.000861743 0.380266 0.0285775 
0.445034 0.151654 -1.17442 0.480565 -0.30588 
0 -0.872444
 5 5
-0.0932029 -0.345958 -1.54925 -0.251464 -0.663931 
-0.74182 -0.188405 -1.92274 0.00208647 -0.964758 
-0.372236 -0.252989 -1.25589 0.0908333 -0.377538 
-0.64493 0.465649 -1.52527 -0.280459 -0.592872 
-1.0585 -0.571935 -1.03105 0.43265 -1.09863 
0 0.0152714
 5 5
-0.801897 1.58962 -1.48206 0.348817 -0.240014 
-0.306824 1.65313 -1.82481 0.598163 -0.795489 
0.390141 1.9658 -1.10152 1.74912 0.448109 
0.226187 0.457763 -0.720431 1.01788 0.0314021 
0.0216723 0.897748 -0.454386 0.59224 0.105341 
0 -0.570991
 5 5
-0.569665 0.768225 -0.317978 0.249198 -0.376197 
-0.278517 0.0914343 -0.445468 -0.0144583 -0.19788 
-0.207664 -0.150676 -0.456675 0.508828 -0.255503 
-0.229481 0.789607 -0.217337 0.658799 -0.991373 
-0.72931 0.621853 -0.23649 0.309688 -0.45908 
0 1.06549
 5 5
-0.769693 0.54317 -0.168422 0.808093 -0.832668 
-0.214769 0.223931 0.00731213 0.919892 -0.778574 
0.0779444 0.682459 0.0115945 0.0982333 0.32417 
0.571146 -0.301457 -0.164875 0.0656921 0.445711 
-0.468306 -0.427466 -0.372004 0.518618 -0.531251 
0 -0.230555
 5 5
-0.34484 0.965524 -0.595545 0.131543 -1.06202 
-0.0311926 0.366565 -0.689861 1.14665 -0.41598 
-0.568326 -0.545849 -1.39576 0.291147 0.132782 
-0.150236 0.756482 -1.44291 0.507371 -0.703148 
-0.530227 0.953575 -1.35783 0.408483 -0.417604 
0 0.836001
 5 5
-1.35066 -0.576245 -1.16814 -0.477986 -0.993561 
-0.984458 0.582621 -0.909385 0.713966 -0.557967 
0.298682 0.832773 -1.06401 1.57892 -0.164069 
-1.04767 1.5463 -1.86738 0.338237 -0.372014 
-0.0389725 1.90788 -2.41546 0.537397 -0.760572 
0 -0.607107
 5 5
0.309787 0.309929 -0.0754313 0.395654 0.287582 
0.0828537 0.785387 -0.453278 1.08164 0.152972 
-0.664225 0.185146 -0.73466 0.990688 -1.68957 
-0.965637 1.02364 -0.140771 0.795984 -0.889568 
-0.645802 1.4876 -0.497276 0.984772 -0.174451 
0 0.989069
 5 5
0.139885 0.565042 -1.97919 1.17574 -0.844794 
0.294019 -0.282728 -0.98175 1.60483 -0.91786 
0.0655611 0.829257 -0.0912952 0.644147 0.144241 
0.813011 -1.4363 -0.747132 -0.0766418 0.822812 
0.481733 -1.33292 -2.20872 0.241842 -0.723354 
0 -0.80904
 5 5
-2.3677 0.888108 0.452939 0.172416 -0.654752 
-1.93219 1.56727 -0.328237 -0.185747 -0.0792892 
-1.33713 0.948663 0.327182 1.54684 -0.716757 
-1.32361 2.62412 -0.752917 1.26711 -0.315313 
-1.02573 2.67258 -0.225482 1.19194 -0.879777 
0 0.492608
 5 5
-0.0926264 0.271553 -0.672365 0.622376 -0.571684 
-0.230853 1.13524 -1.338 0.776898 -0.85998 
-0.259538 0.754359 0.00155794 0.655914 -0.39861 
-0.240659 0.347613 -1.18161 0.420727 0.0423469 
0.331808 0.204844 -0.402047 -0.133584 0.0514638 
0 -0.530684
 5 5
-0.528346 0.159757 -0.606037 -0.160666 -0.235705 
-0.205299 0.554962 -1.79371 -0.0821195 -0.40556 
-0.304093 0.459162 -1.22054 0.18156 -0.385119 
-0.915565 -0.064885 0.059685 -0.652221 -0.630479 
-0.663334 -0.0401846 1.0125 -0.305221 -0.668926 
0 0.564946
 5 5
-0.35267 0.327264 -0.751677 -0.847268 -0.370646 
-0.934598 -0.193229 0.660927 -0.310479 -1.01244 
0.0562767 0.559092 -0.0133909 0.823099 -0.512885 
-1.05352 1.44724 -0.50632 1.0639 -0.552806 
-1.10628 0.749747 -1.45768 0.738124 -0.69509 
0 -0.108914
 5 5
-0.566936 0.992205 -0.172705 0.355007 -0.839128 
-0.00249665 0.877957 -1.45116 -0.163557 -0.551214 
-0.376754 0.234285 -0.731257 1.18918 0.299219 
0.0857374 0.483256 -2.13499 1.06978 -1.06052 
-0.205162 1.58679 -0.249846 -0.316591 0.0642297 
0 0.46482
 5 5
-0.501365 0.505029 -0.949417 -0.0174727 -0.631911 
-0.326844 0.761061 -0.174262 0.7023 -1.12225 
0.0027631 0.525341 -0.468843 0.418332 -1.08859 
-1.45191 -0.936036 -0.433467 -0.381638 -0.573696 
-0.231653 -0.293315 0.0419447 -0.280162 -0.705465 
0 -0.858314
 5 5
-0.218434 0.233031 -0.360166 1.03474 -0.453107 
-0.551517 0.514311 -0.287962 0.592047 -0.278347 
-1.10873 0.069935 -0.687461 0.399633 -0.368627 
-0.641759 1.55428 -0.956249 0.894647 -1.08871 
-1.21593 1.26276 -0.474823 1.1195 -0.85187 
0 0.229949
 5 5
-0.606871 0.934289 -0.596593 0.952951 -0.0537882 
-1.04637 0.879679 -0.679486 0.303902 -0.280479 
-0.264006 0.400448 -0.884298 0.00326827 -0.501906 
-0.451998 0.872176 -1.25281 0.500064 -0.508302 
-0.122741 0.435529 -0.146171 0.289062 -0.995719 
0 -0.253476
 5 5
-1.54645 0.391172 -0.773533 0.024055 -1.56625 
-1.22514 0.149348 -1.24547 0.176428 -1.24954 
-1.22614 0.667914 -1.55201 0.268376 -1.10822 
-0.684638 1.31469 -1.49816 0.320288 -1.51465 
-1.39305 0.805591 -1.03609 0.246916 -0.874695 
0 0.96962
 5 5
0.45086 0.665284 0.419113 0.925031 -0.645708 
0.675267 1.83419 -0.327745 2.25355 -0.224983 
0.0300376 1.44864 0.638667 0.788354 0.365479 
-0.0723246 1.42132 0.212373 2.02399 0.22097 
-0.415774 1.17173 -0.394358 1.06564 0.313589 
0 -0.52433
 5 5
-0.437991 0.0285554 -0.729579 0.774276 -0.645051 
-0.883345 0.675074 -0.100797 0.544204 -0.350675 
-0.298735 0.704332 -0.486281 0.312344 -0.430878 
-0.328083 1.65815 -0.440093 0.785983 -0.464909 
-1.06822 0.462362 -0.310129 0.384135 -0.507287 
0 0.753385
 5 5
-0.848971 -0.118082 -0.660495 0.179691 -0.0483145 
-0.272362 1.28093 -0.54837 0.404098 -0.121404 
-0.541958 1.03781 -0.792551 0.575259 -0.658388 
0.00216704 0.118121 -0.170348 0.684429 0.0675749 
0.418544 -0.00318304 0.0275677 -0.113301 0.157854 
0 -0.774053
 5 5
-0.334157 0.855576 -0.518579 0.791587 -0.997777 
-0.495535 0.421132 -0.330821 1.1183 -0.274407 
-0.878528 1.19228 -0.28819 0.684674 -0.835403 
-0.256436 1.11865 -1.33668 0.332087 -0.304917 
-0.754766 1.16826 -1.3282 0.514626 -0.378945 
0 0.402299
 5 5
-0.691821 0.47356 -0.482899 0.250068 0.140455 
-0.286365 0.488426 0.0264997 0.591635 -0.346559 
-0.528409 -0.0847725 -1.06026 0.12631 -0.274194 
-0.559207 -0.481247 0.459291 0.320349 -0.0459305 
-0.22445 -0.286211 0.233788 0.669265 0.33434 
0 -0.121532
 5 5
-0.663323 1.17608 -0.758578 1.10973 -0.720384 
-0.528691 0.637553 -0.80121 0.893395 -0.635604 
-0.576962 -0.224424 -1.0865 0.0806559 -0.74929 
0.375813 0.428569 -0.56551 -0.222874 -1.19824 
-0.18724 0.814665 -0.779317 0.583885 -1.20448 
0 0.284687
 5 5
-0.794939 1.06418 -0.00886487 0.162224 0.353526 
0.156703 0.320026 0.200476 0.876333 -0.592551 
-0.0740963 -0.119903 -0.543776 0.624535 -0.277899 
-0.741651 0.356896 -0.105111 0.480184 -0.405994 
-0.426924 0.950473 -0.480491 0.542235 -0.794166 
0 -0.457308
 5 5
-0.618884 0.472578 -0.359247 0.398275 -0.69229 
-0.59973 0.983373 -1.08922 0.165229 -0.515408 
-0.0848993 0.55522 -0.638309 0.332454 -0.862268 
-0.443373 0.464794 -0.912569 1.06232 -0.477495 
-1.14048 0.313998 -0.659867 0.595176 -0.671416 
0 0.831095
 5 5
-0.276584 1.15756 -0.806475 0.731712 -0.836552 
-0.0411485 0.781565 -0.527968 0.360823 -0.565619 
0.283125 1.31048 -0.140787 0.730671 -0.287539 
-0.337963 0.930463 -0.593696 1.26756 -0.948848 
-0.0826992 -0.273806 -0.616283 1.31596 -0.457362 
0 -0.778584
 5 5
-0.785079 0.330473 -0.902636 0.713663 -0.634903 
-0.66934 -0.240589 -0.657962 0.887198 -0.679653 
-0.818799 0.827573 -1.22836 0.502137 -0.30403 
0.37252 0.765804 -1.1245 0.99542 -0.640031 
-0.310197 0.255321 -1.44188 0.226076 -0.353923 
0 0.292172
 5 5
0.304655 1.16477 -0.392793 0.336733 -0.214247 
-0.651988 0.460649 -1.12023 -0.213648 -0.685051 
0.268349 1.00051 -0.412607 0.304708 -0.587727 
-0.335279 0.383466 0.483014 0.431364 0.0553349 
-0.233822 -0.0586166 -0.109921 0.642402 -0.759676 
0 -0.777287
 5 5
-1.12913 -0.0418618 -0.73833 0.228739 -0.766908 
-1.03562 0.811477 -0.843902 1.00081 -0.182004 
-1.02864 -0.0843158 -0.340515 0.595363 -0.844496 
-1.01621 0.344158 -0.563721 0.409533 -0.719709 
-0.473678 0.498348 -0.9579 0.435178 -0.975327 
0 1.07225
 5 5
-0.175045 0.307418 -0.342167 0.625953 -0.78798 
-0.064302 0.351553 -1.00082 0.0777355 -0.633897 
-0.742573 0.903592 0.550069 1.23958 0.01397 
-0.499317 -0.0832624 0.49465 0.349604 -0.349803 
-0.125712 0.764911 0.678228 0.586745 -0.119797 
0 -0.204716
 5 5
-0.500189 0.592343 -0.0242438 1.13558 -0.222646 
-1.27126 0.120572 -0.481124 0.698879 -0.234312 
-0.35672 0.375036 -0.471663 0.155363 -0.257391 
-0.982857 0.646796 -0.0369215 0.802201 0.00376393 
-0.596173 1.06082 -0.0371277 -0.297095 -0.00763885 
0 0.365423
 5 5
-0.0923363 0.324113 -0.468653 -0.500357 -0.602802 
0.273598 1.66821 -0.191051 0.557241 -0.144646 
0.0930746 1.29884 0.110188 0.831263 -0.131974 
-0.0650934 0.360385 -1.03035 0.967194 -0.560339 
-0.508442 0.321732 -0.854836 0.675748 -0.993042 
0 -0.900564
 5 5
-0.354406 0.86735 -0.160531 0.491416 -0.383418 
-0.935053 0.266719 -1.52777 0.499411 -1.2709 
-0.677231 0.129808 -0.530308 0.485232 -0.304446 
-0.372158 0.226818 -0.214047 0.930702 -0.0330405 
-0.655056 0.459409 -0.299663 0.867819 0.053969 
0 0.313492
 5 5
-0.231615 0.732461 -1.04595 0.218355 -0.166857 
-0.108419 0.83414 -1.60471 0.5495 -0.694199 
-0.333145 1.14089 -1.81428 1.04352 -0.605146 
-0.86289 1.15495 -1.8588 1.29192 -0.205765 
-0.320229 -0.113978 -2.00697 1.10662 0.105699 
0 -0.872064
 5 5
-0.803743 0.781471 0.410764 0.817561 0.437857 
-0.811596 0.945453 -0.0451336 0.709891 -0.288536 
-1.53299 1.21883 -0.349657 1.12177 -0.693991 
-0.754358 1.27381 -0.229289 1.03496 -0.830128 
-0.467411 0.883943 -0.644445 1.97583 0.117668 
0 0.525849
 5 5
-0.725231 0.116307 -0.233892 -0.310774 -1.1072 
0.0464576 0.628907 0.227575 0.154035 -0.933071 
0.741096 0.196331 0.124828 -0.326193 0.643926 
0.435639 -0.333798 0.494514 -0.0934939 -0.140359 
-0.814371 -0.131224 0.598624 0.119952 -0.648617 
0 -0.154053
 5 5
0.0967133 0.577809 -1.10384 0.508713 -0.199372 
0.299757 1.21978 -0.666542 1.22669 -0.780657 
0.37732 1.1539 -0.734734 1.0048 -0.310696 
0.430945 -0.065476 -0.540322 0.241335 -0.0446122 
-0.658438 -0.898298 -1.00956 0.551509 -0.741518 
0 0.146528
 5 5
-1.24335 0.918447 -0.260128 -0.730879 -0.676517 
-1.23932 0.225492 -1.40032 -0.478338 -0.0454011 
-1.37889 -0.41262 -0.499042 0.799904 -0.795193 
-0.934084 1.19005 -0.762936 0.991188 -1.53968 
-0.226936 1.90763 -1.79261 0.491566 -0.716373 
0 -0.851883
 5 5
-0.387869 0.441953 -0.6566 1.14744 0.204087 
0.33096 0.635295 -0.848526 1.37381 -0.702781 
-0.120047 1.02215 -1.7062 1.32386 -0.118926 
-0.283261 0.353739 -1.34291 1.48679 -0.713564 
-1.33921 1.69955 -1.44435 1.72392 -1.18289 
0 0.40659
 5 5
-0.864875 0.2181 0.122742 0.244186 0.00405355 
0.200646 -1.7257 0.94587 0.711585 -0.0423914 
-0.0149275 -0.59788 0.281098 -0.00432346 -0.26044 
-0.289559 -0.987551 0.345925 0.248664 -1.00897 
-0.871807 -1.15135 1.48291 -0.221913 -1.16673 
0 -0.207615
 5 5
0.0245542 1.68943 -0.485381 2.15317 0.259259 
-0.933574 1.21641 0.410066 1.20314 -0.981254 
-1.49971 0.333838 0.618143 0.26027 -1.58031 
-0.929528 0.522764 -0.825337 1.4473 -0.403 
-0.179219 1.17852 -0.918324 2.38838 0.0636269 
0 0.195675
 5 5
1.05711 0.894645 -0.154686 0.9404 -0.719245 
0.18549 -0.942305 -0.0408715 1.12075 -0.116023 
0.197859 0.731794 -0.363133 -1.25663 0.793946 
0.780307 -3.12886 0.0967187 -1.42123 -0.149231 
-0.63878 -2.43433 0.860276 -1.48025 -0.556365 
0 -0.530309
 5 5
-1.47443 1.61483 -0.89372 2.09606 -0.381389 
-0.584489 0.734071 0.329614 0.710081 -0.163397 
-0.487147 0.152167 0.345083 0.3338 0.156664 
-1.01528 1.18898 0.281032 1.79127 -1.14285 
-0.542055 2.58447 -0.416558 1.28927 -0.799083 
0 0.937231
 5 5
-0.312004 0.179139 -0.20119 1.41524 -1.24216 
0.00713782 -0.270486 0.197247 1.15413 -0.886303 
0.442033 0.468416 0.838998 1.48658 -0.60582 
-0.220679 0.579069 -0.229412 1.03988 -0.528852 
-0.683117 -0.6339 -0.161969 1.4552 -0.052206 
0 -1.1007
 5 5
-0.31832 -0.71227 0.289712 -0.0891758 -0.257511 
-0.11227 -0.46281 0.486542 0.457378 -0.870265 
-1.45253 -0.950573 -0.215398 0.114791 -1.47689 
-1.50564 -0.795288 -1.56581 0.729863 -0.899495 
-0.733954 0.757572 -0.878353 -1.57242 -0.659678 
0 0.19254
 5 5
-0.810736 0.133136 0.0127582 1.01517 0.23248 
-0.419868 0.897771 0.377716 0.658074 -0.94978 
-0.204366 0.332143 -0.218765 0.815164 -1.00352 
-1.51878 0.789134 0.681555 1.50038 -1.39721 
-1.31582 2.11653 -0.458352 1.88162 -0.942273 
0 -0.702141
 5 5
-0.0671502 0.348197 -0.793571 0.499481 -0.220174 
-0.588747 0.176547 0.000362978 0.234344 -0.875637 
-0.710907 0.942979 -0.269314 0.386286 -0.308556 
-0.0610234 1.1484 -0.257134 0.153858 -0.749763 
0.0852722 -0.0114877 -0.889573 0.734656 -0.682648 
0 0.149386
 5 5
-0.58515 0.430908 -0.752914 -0.0153505 -0.371112 
-0.25545 -0.0939501 -0.718965 0.0722346 0.000381579 
-0.11781 0.622557 -0.926304 0.567649 0.457107 
0.0275287 -0.589721 -0.558487 0.393808 0.139983 
0.513128 -0.228956 -0.809678 -0.297093 -0.218256 
0 -0.0498243
 5 5
-0.162202 1.16002 -0.913752 1.16223 -0.482058 
-0.773301 0.495259 -0.474898 1.2131 -1.39977 
-0.632797 1.10654 -0.509493 1.36597 -1.30729 
-1.19072 1.27232 -0.686672 1.09299 -0.213278 
-1.19565 0.706883 -1.75882 2.41041 0.116819 
0 0.525341
 5 5
-0.882602 0.652697 -0.360405 0.220428 -0.655952 
0.210169 0.675801 -0.389998 -0.485946 -0.173418 
0.106715 0.136663 0.132095 0.793066 -0.144589 
-0.0988382 0.323056 -1.04581 0.558066 -0.932957 
-0.499688 0.455534 -0.862241 0.778817 -0.733395 
0 -0.503854
 5 5
-1.20603 0.613382 -0.843847 0.145323 -0.200337 
-0.975309 1.07851 -1.3149 0.424691 -0.946115 
-0.930987 0.471102 -0.844414 0.520148 -1.08585 
-1.26289 1.35725 -0.392746 0.665448 -0.742266 
-1.21195 1.74573 -0.607373 0.598862 -1.02972 
0 -0.0329446
 5 5
-0.585102 0.434981 -0.408576 0.508624 -0.678102 
-0.388935 0.303052 -0.0243532 0.359332 -0.848761 
-0.0635385 0.191472 -0.2963 0.484487 -0.967335 
-0.199914 0.546305 -1.57737 0.445489 -0.299443 
-0.0856295 -0.144027 -1.00248 0.328143 -0.415282 
0 -0.672268
 5 5
-0.50634 1.19012 -0.956125 1.28216 -1.04859 
-0.0793112 1.59665 0.175781 1.77935 -0.530285 
-0.325186 0.878942 -0.0563826 0.713706 -0.134023 
0.0651772 1.09954 -0.978615 1.03463 -0.548265 
-0.106958 0.498919 -1.6469 1.36947 0.15478 
0 0.692974
 5 5
-0.711778 -0.0758679 -0.443621 -0.719252 -0.644562 
-0.374926 0.497141 0.542364 -0.107516 -0.839128 
-0.303761 1.06015 0.0890056 0.23342 -0.558159 
-0.896956 0.785063 -0.497349 -0.217616 -0.297774 
-0.67678 1.89875 0.324078 0.359623 -0.846295 
0 -0.0330911
 5 5
-0.603981 0.34481 -1.00401 1.27009 -0.447665 
-0.367507 0.245625 -0.516531 0.435426 -0.500018 
-1.17192 1.18152 -0.578412 0.0511114 -0.494974 
-1.00269 1.33372 0.118026 0.970016 -0.362673 
-0.312473 0.74722 -0.927847 0.601676 -0.361673 
0 0.549951
 5 5
0.0923036 1.06602 -0.23915 1.10316 -0.638096 
-0.174853 0.681618 -0.0660582 0.706992 -1.08281 
-0.620838 -0.243663 -0.849533 0.466579 -0.74049 
-0.749817 0.155071 -0.0564418 0.727844 -0.764076 
-0.423509 0.124707 -0.292962 2.19116 -0.746257 
0 -0.109727
 5 5
-1.06082 0.572113 -0.944039 -0.144606 -1.14631 
-0.840648 0.669478 -1.30466 -0.411267 -0.00683672 
-0.671854 1.16902 -0.0302153 0.452366 -0.614905 
-0.0665482 0.494214 -0.32394 -0.162244 -1.01431 
-1.12177 0.391399 -0.0359355 0.26635 -1.03682 
0 0.928439
 5 5
-1.08179 0.239188 -0.445761 -0.42528 -1.55109 
-1.14617 0.407273 -1.20864 -0.403962 -0.746081 
-0.424959 0.20802 -0.790835 0.340199 -0.48565 
-0.92921 -0.708662 -0.640342 -0.715606 -0.435766 
-0.331111 0.0801629 0.0524723 0.0340365 -0.388878 
0 -0.360874
 5 5
-1.00189 0.925336 -0.362148 0.154973 -1.05783 
-0.793021 0.508423 -0.568035 0.869252 -0.957419 
-0.0775377 0.326685 -0.198277 0.675185 -0.434901 
-0.406031 0.333962 -1.01687 0.738147 -0.438609 
-0.936289 0.683532 -1.47253 0.045398 -0.933535 
0 0.148364
 5 5
0.106897 0.412581 -0.0174908 0.0722531 0.368218 
0.356866 -0.350469 -0.693962 0.259554 -0.0471109 
-0.617154 1.12457 -1.12233 -0.0501178 -0.507383 
-1.07806 -1.64061 -0.497416 0.77109 -0.295409 
-0.410196 0.216599 2.17509 -0.847249 0.391586 
0 -0.931768
 5 5
-0.296866 0.254164 -0.873967 0.337554 -0.614747 
-1.43391 0.720029 -0.169245 0.151594 -0.278614 
-0.595084 0.61014 0.2755 0.509733 -0.575329 
-0.178004 0.864651 -0.527218 0.915426 -0.911363 
-1.10762 1.20211 -1.26276 1.19029 -1.1391 
0 0.805779
 5 5
-0.0394963 0.618897 -0.721132 0.842993 -0.966961 
-0.256393 0.410965 0.203074 0.527173 -0.785551 
-1.14509 0.753631 -0.879477 -0.0125074 -1.46406 
-1.01977 0.523386 0.827072 0.562535 -0.550634 
-0.15145 0.435561 -0.761836 0.125446 -0.18773 
0 -1.06291
 5 5
-0.354457 0.622107 -0.296862 0.20114 -0.335252 
0.0317277 0.934884 -0.109757 0.954036 -0.280076 
0.0573905 0.339908 -0.0583266 0.206598 0.728322 
-0.431714 0.75652 -1.51218 0.321187 0.270125 
-0.395665 0.293513 -0.975116 -0.202845 -1.1059 
0 0.495551
 
1 10
1 100
-0.514766 0.501848 -1.0162 0.44772 -0.860346 0.342124 -0.522175 0.632486 -0.892236 0.704607 -0.263011 0.00487564 -0.79549 0.00468931 -0.234423 0.259745 -0.678282 0.825393 -0.261355 0.0352372 -0.825505 0.660339 -0.993998 0.709172 -0.413598 0.19275 -0.919907 2.99397e-05 -0.72946 0.259106 -0.0860407 0.871491 -0.0452916 0.436821 -0.334346 0.559813 -0.236539 0.100554 -0.426794 0.492255 -0.301318 0.872848 -0.772656 0.0403089 -0.10541 0.678445 -0.781999 0.575502 -0.409767 0.827396 -0.791162 0.183902 -0.135007 0.144556 -0.200386 0.703361 -0.471471 0.0696416 -0.239952 0.709102 -0.576311 0.560771 -0.426145 0.89346 -1.01798 0.658547 -0.63861 0.830974 -0.54095 0.437068 -0.88621 0.174884 -0.111491 0.680719 -0.448354 0.596236 -0.679306 0.210685 -0.0906348 0.593185 -0.402787 0.0680863 -0.798963 0.644463 -0.608839 0.00608212 -0.779892 0.0785852 -0.468584 0.523063 -0.871517 0.229677 -0.875393 0.648353 -0.845764 0.728441 -1.00279 0.314265 -0.872206 0.904877 
1.22883e-05 -0.841375
 1 100
-0.57408 0.723671 -0.112376 0.34248 -0.769078 0.640729 -0.741264 0.581357 -0.316677 0.365866 -0.147376 0.475555 -0.819226 0.431932 -0.249763 0.705031 -0.937844 0.0145848 -0.300548 0.207082 -0.123825 -0.0817334 -0.108057 0.673393 -0.389204 0.391895 -0.836601 0.0748425 -0.079521 0.39796 -0.317529 -0.0792179 -0.160665 0.410413 -0.602645 0.0236362 -1.0174 0.694279 -1.1014 0.2506 -0.503141 0.14363 -1.01356 0.397553 -0.821219 0.853157 -0.93523 0.283256 -0.113306 0.104881 -0.716768 0.513286 -0.137313 0.800279 -0.894656 0.590017 -0.819818 0.0390602 -0.452081 0.464017 -0.619705 0.0294316 -0.860157 0.442952 -0.387963 0.402893 -0.375401 0.321285 -0.774233 0.527407 -0.923395 0.83704 -0.17883 0.17965 -0.217378 0.157454 -0.163608 0.904817 -0.485644 0.872305 -0.974172 0.212831 -0.246173 0.157325 -0.981198 0.14386 -0.677329 0.70603 -0.798173 0.292412 -0.335605 0.159509 -0.399626 0.739319 -0.542212 0.188483 -0.954044 0.49998 -0.298891 -0.0949804 
0.00494525 0.0442515
 1 100
-1.04286 0.164546 -0.776935 0.814855 -0.555605 -0.0648544 -0.385204 0.423782 -0.0907146 0.661435 -0.167313 0.698963 -0.598522 0.620983 -0.939055 -0.0208442 -0.903405 0.443382 -0.29798 0.501705 -0.775019 0.1663 -0.215901 0.121143 -0.606499 0.306654 -0.55091 0.430234 -0.883867 0.160054 -0.463933 0.153098 -0.352473 0.691916 -1.03895 0.912929 -0.218401 -0.0460513 -0.894541 0.747607 -0.670815 0.70363 -0.713688 0.68591 -0.0611118 0.10492 -0.68306 0.367022 -0.113575 0.456678 -0.591304 0.348761 -0.40988 0.197304 -0.631907 0.193957 -0.163868 0.510306 -0.506043 0.819186 -0.712263 0.383782 -0.460424 0.652027 -0.13635 0.76819 -0.135171 0.579551 -0.878198 0.512742 -0.478456 0.404561 -0.800256 0.269113 -0.238127 -0.0461263 -0.669533 0.782919 -0.201516 0.350882 -0.117674 0.278426 -1.06674 0.586088 -0.0987551 0.414527 -0.541171 0.0212846 -0.0592505 0.865948 -0.370618 0.389832 -0.815122 0.101463 -0.48875 0.498048 -0.335503 0.18628 -0.458979 -0.0699413 
9.07957e-05 -0.547777
 1 100
-0.571458 0.0328353 -0.303677 0.226551 -0.236736 0.425353 -0.639077 0.397086 -0.341223 0.416288 -0.817138 0.724295 -0.220035 0.895903 -0.313467 0.633523 -0.234987 0.102584 -0.817784 0.431087 -0.692962 0.198307 -0.908996 0.792117 -1.01708 0.251083 -0.470435 0.692157 -0.963533 0.171488 -0.221331 -0.0236006 -0.434316 0.69325 -0.310979 0.0984814 -0.140822 0.369766 -0.213217 0.331053 -0.681644 0.414696 -0.705866 0.132184 -1.01078 0.790699 -0.174799 0.745599 -0.777593 0.749683 -0.567219 0.685235 -0.68764 0.672006 -0.108337 0.309913 -0.212185 0.541864 -0.949657 0.169129 -0.927898 0.183128 -1.05692 0.0975025 -0.721655 0.510488 -0.130117 0.660079 -0.199074 0.745121 -0.774128 0.107495 -0.876884 0.272537 -0.59814 0.614176 -0.458471 0.0901129 -0.251889 0.696245 -0.827458 0.782958 -0.269998 0.508929 -0.555172 0.0471541 -0.767371 0.794021 -0.793537 0.226056 -0.467442 0.129297 -1.06026 0.630535 -0.42719 0.244232 -0.169912 0.195012 -0.920075 0.15387 
0.0018221 0.568304
 1 100
-0.610317 0.689628 -1.04106 0.495543 -0.851251 0.431164 -0.744375 0.506644 -0.474371 0.297362 -0.646509 0.773584 -1.00939 0.905338 -0.79085 0.612568 -0.822798 0.579419 -1.05713 0.302517 -1.05698 0.517671 -0.965646 0.887929 -0.343625 0.927282 -0.77231 0.087538 -0.181203 0.688564 -0.803691 0.923345 -0.176824 0.0363286 -0.189715 0.87532 -0.0862371 0.843507 -0.190513 0.556988 -0.0403502 0.284417 -0.979827 0.108476 -0.000964956 0.462797 -0.521802 0.0479512 -0.95971 0.103899 -0.876861 0.33538 -0.636859 0.503778 -0.191138 -0.0163328 -0.376604 0.525469 -0.448835 0.320655 -1.02228 0.765627 -0.0866077 0.603036 -0.201386 0.1398 -0.41691 0.00761828 -0.0520387 0.473375 -0.123487 0.904292 -0.561047 0.650617 -0.666994 0.617274 -0.0807829 0.786549 -0.0767117 0.312404 -0.0966733 0.118868 -0.7084 0.845914 -0.765154 0.766574 -0.90982 0.0914456 -0.509953 0.680431 -1.03207 0.313141 -0.131575 0.138946 -0.77992 0.162381 -1.02094 0.386658 -0.751858 0.154168 
0.0018221 -0.127439
 1 100
-0.681783 0.0596828 -0.898392 0.521534 -1.0323 0.132757 -0.584905 0.572524 -0.382737 0.578516 -0.769267 0.620836 -0.512736 0.177255 -0.33169 0.409782 -0.304218 0.494737 -0.849988 0.186509 -0.985401 0.232866 -1.02854 0.308502 -0.54783 0.20419 -0.849499 0.66927 -0.218203 0.251023 -1.02468 0.935406 -0.73906 0.685236 -0.293497 0.698318 -0.594022 0.597174 -0.221978 0.853865 -0.958811 0.816586 -0.119871 0.267519 -0.967989 0.291116 -1.08423 0.54105 -0.167676 0.62864 -0.209392 0.346009 -0.551516 0.306358 -1.00181 0.173889 -0.780891 0.652141 -0.11522 0.388468 -0.778768 0.814364 -0.647603 0.198017 -0.784727 0.170822 -0.626215 0.645011 -0.906625 0.172305 -0.134612 0.657376 -0.654895 0.287938 0.036132 0.428597 -0.0920205 0.186878 -0.899612 0.286934 -0.204922 0.203412 -0.216903 0.415211 -0.764375 0.678161 -0.651991 0.702739 -0.37866 0.0637181 -0.470437 0.158011 -0.117345 0.101081 -0.305676 0.785906 -0.23546 0.469387 -0.101375 0.0395761 
0.0133857 -0.0414618
 1 100
-0.526861 0.931993 -1.01805 0.124679 -0.349994 0.71475 -0.621496 0.692039 -0.481972 0.580814 -0.163276 0.391236 -0.205072 0.225846 -0.312508 0.786109 -0.980506 0.0538792 -0.212522 0.0903645 -0.22718 0.926578 -0.151749 0.249293 -0.353904 0.62344 -0.290375 0.832217 -0.501979 0.443717 -0.667679 0.265098 -0.0367322 0.577924 -0.545309 0.652051 -0.973073 0.160487 -0.335694 0.237441 -0.521497 0.311158 -0.470812 0.51985 -0.182666 0.680271 -0.421935 0.893145 -1.02793 0.875962 -0.653824 0.316288 -0.443019 0.334027 -0.164174 0.339644 -0.67962 0.859801 -0.417521 -0.0609564 -0.753618 0.46966 -1.00207 0.666498 -0.324064 0.0643523 -0.717558 0.542113 -0.279025 0.877722 -0.364394 0.0362999 -0.621357 0.0631627 -1.06832 0.263438 -0.891085 0.171314 -0.572128 -0.0533125 -0.116158 0.514296 -0.663393 0.652421 -0.0722078 0.0589576 -0.554077 0.136323 -0.941357 0.241219 -0.871093 0.259278 -0.492442 0.188842 -0.969951 0.119893 -0.348567 0.467492 -0.24701 0.643201 
0.00494525 -0.804192
 1 100
-0.162986 0.0157966 -0.670744 -0.0172594 -0.47379 -0.0519554 -0.325422 0.137199 -0.612862 0.642619 -0.109087 0.581815 -0.828773 0.179352 -0.409354 0.156913 -0.241961 0.15657 -0.631219 0.856567 -0.243068 0.539406 -0.774821 0.886522 -0.591458 0.226645 -0.650123 0.834552 -0.220437 0.368857 -0.320155 0.932909 -0.635318 0.554089 -1.00587 0.443664 -0.53829 0.432804 -1.10829 0.39723 -0.552924 0.489698 -0.822167 0.561188 -0.363855 -0.111553 -0.593497 0.732038 -0.229766 0.535247 -0.140844 0.0694645 -0.197696 0.458137 -0.660963 0.0171154 -0.816608 0.958048 -0.782193 0.831581 -0.606446 0.194869 -1.10192 0.144802 -1.0021 0.243686 -0.289966 0.684056 -0.260748 0.633497 -0.675061 0.196303 -0.189353 0.870144 -1.08112 0.916773 -0.541256 0.0652356 -0.184029 0.285212 -0.548156 0.965659 -0.394925 0.735566 -0.882787 0.439717 -0.0950431 0.438342 -1.02064 0.669555 -0.334355 0.537349 -0.287139 -0.0204963 -0.947406 0.383766 -0.242356 -0.0113585 -0.570226 0.842009 
0.0948517 0.0582505
 1 100
-0.671347 0.589737 -0.63205 0.662272 -0.796738 0.122386 -0.163459 0.317544 -0.392445 0.609496 -0.450763 0.0342308 -0.522333 0.776491 -1.08106 0.0278821 -0.381021 -0.0526812 -1.05128 0.0622445 -0.579231 0.756118 -0.590427 -0.0277199 -0.82518 0.541851 -0.598665 0.240352 -0.656694 0.588696 -0.500329 0.155559 -0.539392 0.152447 -0.423039 0.479081 -0.90052 -0.0173641 -0.64496 0.264413 -0.600667 0.591394 -0.120266 0.706766 -0.350165 0.841063 -0.65884 0.0282384 -0.140464 0.377058 -0.493192 0.689225 -0.21275 0.748007 -0.191556 0.797458 -0.833212 0.754493 -1.02101 0.636821 -0.683251 0.623136 -0.112951 0.697071 -0.50902 0.529918 -0.981547 0.310093 -0.199467 -0.0604528 -0.477427 0.73269 -0.8036 0.111923 -0.351392 0.644975 -1.08894 0.846632 -1.03065 0.797461 -0.566695 0.170091 -0.138027 0.589862 -0.674468 0.661399 -0.160078 0.809655 -0.178158 0.791393 -0.217385 0.514415 -0.144393 0.105449 -0.97911 0.711752 -1.08256 0.517572 -0.326829 0.359249 
0.0359724 -0.829861
 1 100
-0.549298 0.537028 -0.704063 -0.0791262 -0.911053 0.836728 -1.0383 0.58742 -0.188152 0.715152 -0.917248 0.804043 -0.942339 0.612136 -1.01085 0.793475 -0.98863 -0.0149904 -0.389663 0.158695 -0.726791 0.221381 -0.87765 0.768315 -1.03178 -0.138237 -0.992587 0.911729 -0.342947 0.847398 -0.119326 0.4097 -0.571864 0.790895 -0.490554 0.170415 -0.485724 0.329921 -0.0453535 0.782667 -0.454547 -0.0700768 -0.371319 0.104284 -0.264315 0.864269 -0.76848 0.0355901 -0.501676 0.109164 -0.479574 0.143948 -1.12131 0.101518 -0.567547 0.616842 -0.489327 -0.0519109 -0.585406 -0.0238715 -0.544053 0.614873 -0.935502 0.442685 -0.53631 0.773171 -0.286229 0.556586 -0.153003 0.10915 -0.329216 0.901025 -0.0409479 0.915798 -0.224858 0.410561 -0.707029 0.0517743 -0.19145 0.142729 -0.479407 0.0683256 -0.951786 0.75533 -0.609537 0.687224 -0.28237 0.70779 -0.201383 -0.0487519 -0.458626 0.356188 -0.842786 0.578282 -0.15912 0.744666 -0.316839 0.607177 -0.266976 0.303715 
-0.0948517 0.774939
 
